<?xml version="1.0"?>
<MethodSetup Method="MLP::MLPBNN">
  <GeneralInfo>
    <Info name="TMVA Release" value="4.2.1 [262657]"/>
    <Info name="ROOT Release" value="6.26/08 [399880]"/>
    <Info name="Creator" value="pgaigne"/>
    <Info name="Date" value="Thu Mar  9 10:32:52 2023"/>
    <Info name="Host" value="Linux 28693209b56e 5.15.0-1022-azure #27~20.04.1-Ubuntu SMP Mon Oct 17 02:03:50 UTC 2022 x86_64 x86_64 x86_64 GNU/Linux"/>
    <Info name="Dir" value="/afs/cern.ch/user/p/pgaigne/xiccpp/Xicc/TMVA"/>
    <Info name="Training events" value="2000"/>
    <Info name="TrainingTime" value="2.41410184e+00"/>
    <Info name="AnalysisType" value="Classification"/>
  </GeneralInfo>
  <Options>
    <Option name="NCycles" modified="Yes">60</Option>
    <Option name="HiddenLayers" modified="Yes">N+5</Option>
    <Option name="NeuronType" modified="Yes">tanh</Option>
    <Option name="RandomSeed" modified="No">1</Option>
    <Option name="EstimatorType" modified="No">CE</Option>
    <Option name="NeuronInputType" modified="No">sum</Option>
    <Option name="V" modified="Yes">False</Option>
    <Option name="VerbosityLevel" modified="No">Default</Option>
    <Option name="VarTransform" modified="Yes">N</Option>
    <Option name="H" modified="Yes">True</Option>
    <Option name="CreateMVAPdfs" modified="No">False</Option>
    <Option name="IgnoreNegWeightsInTraining" modified="No">False</Option>
    <Option name="TrainingMethod" modified="Yes">BFGS</Option>
    <Option name="LearningRate" modified="No">2.000000e-02</Option>
    <Option name="DecayRate" modified="No">1.000000e-02</Option>
    <Option name="TestRate" modified="Yes">5</Option>
    <Option name="EpochMonitoring" modified="No">False</Option>
    <Option name="Sampling" modified="No">1.000000e+00</Option>
    <Option name="SamplingEpoch" modified="No">1.000000e+00</Option>
    <Option name="SamplingImportance" modified="No">1.000000e+00</Option>
    <Option name="SamplingTraining" modified="No">True</Option>
    <Option name="SamplingTesting" modified="No">False</Option>
    <Option name="ResetStep" modified="No">50</Option>
    <Option name="Tau" modified="No">3.000000e+00</Option>
    <Option name="BPMode" modified="No">sequential</Option>
    <Option name="BatchSize" modified="No">-1</Option>
    <Option name="ConvergenceImprove" modified="No">1.000000e-30</Option>
    <Option name="ConvergenceTests" modified="No">-1</Option>
    <Option name="UseRegulator" modified="Yes">True</Option>
    <Option name="UpdateLimit" modified="No">10000</Option>
    <Option name="CalculateErrors" modified="No">False</Option>
    <Option name="WeightRange" modified="No">1.000000e+00</Option>
  </Options>
  <Variables NVar="4">
    <Variable VarIndex="0" Expression="var1+var2" Label="myvar1" Title="myvar1" Unit="" Internal="myvar1" Type="F" Min="-9.33803940e+00" Max="7.69307804e+00"/>
    <Variable VarIndex="1" Expression="var1-var2" Label="myvar2" Title="Expression 2" Unit="" Internal="myvar2" Type="F" Min="-3.25508261e+00" Max="4.02912045e+00"/>
    <Variable VarIndex="2" Expression="var3" Label="var3" Title="Variable 3" Unit="units" Internal="var3" Type="F" Min="-5.27774286e+00" Max="4.64297915e+00"/>
    <Variable VarIndex="3" Expression="var4" Label="var4" Title="Variable 4" Unit="units" Internal="var4" Type="F" Min="-5.60070276e+00" Max="4.67435789e+00"/>
  </Variables>
  <Spectators NSpec="2">
    <Spectator SpecIndex="0" Expression="var1*2" Label="spec1" Title="Spectator 1" Unit="units" Internal="spec1" Type="F" Min="-9.91655540e+00" Max="8.70301723e+00"/>
    <Spectator SpecIndex="1" Expression="var1*3" Label="spec2" Title="Spectator 2" Unit="units" Internal="spec2" Type="F" Min="-1.48748331e+01" Max="1.30545254e+01"/>
  </Spectators>
  <Classes NClass="2">
    <Class Name="Signal" Index="0"/>
    <Class Name="Background" Index="1"/>
  </Classes>
  <Transformations NTransformations="1">
    <Transform Name="Normalize">
      <Selection>
        <Input NInputs="4">
          <Input Type="Variable" Label="myvar1" Expression="var1+var2"/>
          <Input Type="Variable" Label="myvar2" Expression="var1-var2"/>
          <Input Type="Variable" Label="var3" Expression="var3"/>
          <Input Type="Variable" Label="var4" Expression="var4"/>
        </Input>
        <Output NOutputs="4">
          <Output Type="Variable" Label="myvar1" Expression="var1+var2"/>
          <Output Type="Variable" Label="myvar2" Expression="var1-var2"/>
          <Output Type="Variable" Label="var3" Expression="var3"/>
          <Output Type="Variable" Label="var4" Expression="var4"/>
        </Output>
      </Selection>
      <Class ClassIndex="0">
        <Ranges>
          <Range Index="0" Min="-4.3359384536743164e+00" Max="6.3994679450988770e+00"/>
          <Range Index="1" Min="-3.2098844051361084e+00" Max="4.0291204452514648e+00"/>
          <Range Index="2" Min="-2.6063573360443115e+00" Max="3.8698983192443848e+00"/>
          <Range Index="3" Min="-2.1695792675018311e+00" Max="4.5351858139038086e+00"/>
        </Ranges>
      </Class>
      <Class ClassIndex="1">
        <Ranges>
          <Range Index="0" Min="-9.3380393981933594e+00" Max="7.6930780410766602e+00"/>
          <Range Index="1" Min="-3.2550826072692871e+00" Max="3.3650035858154297e+00"/>
          <Range Index="2" Min="-5.2777428627014160e+00" Max="4.6429791450500488e+00"/>
          <Range Index="3" Min="-5.6007027626037598e+00" Max="4.6743578910827637e+00"/>
        </Ranges>
      </Class>
      <Class ClassIndex="2">
        <Ranges>
          <Range Index="0" Min="-9.3380393981933594e+00" Max="7.6930780410766602e+00"/>
          <Range Index="1" Min="-3.2550826072692871e+00" Max="4.0291204452514648e+00"/>
          <Range Index="2" Min="-5.2777428627014160e+00" Max="4.6429791450500488e+00"/>
          <Range Index="3" Min="-5.6007027626037598e+00" Max="4.6743578910827637e+00"/>
        </Ranges>
      </Class>
    </Transform>
  </Transformations>
  <MVAPdfs/>
  <Weights>
    <Layout NLayers="3">
      <Layer Index="0" NNeurons="5">
        <Neuron NSynapses="9">
          4.6838652591565050e-01 1.9734255806513314e+00 8.5163754989412155e-01 3.3671738500933124e-01 -3.2063069162710365e+00 -9.3580054847152572e-01 -1.0211597540815638e+00 1.5687285713403871e+00 -1.8653738212712547e+00 
        </Neuron>
        <Neuron NSynapses="9">
          -5.0292070504837205e-01 -1.4560109736123605e+00 -5.4768088751608202e-01 -1.0701839087297795e+00 -7.6994360071959100e-01 -1.0081067914427124e+00 7.4680938737870706e-01 -3.0909696885020377e-01 2.6050172108275680e+00 
        </Neuron>
        <Neuron NSynapses="9">
          2.1373193558844955e-01 1.4044407279714215e+00 -1.7929563819663275e-01 -8.5256123221457636e-01 -1.0701886623713097e+00 9.8612991420066232e-01 -1.3739569126673696e+00 -8.8135033394428697e-01 1.4480162242842487e+00 
        </Neuron>
        <Neuron NSynapses="9">
          -2.1490825855243783e+00 -1.5804525646872816e+00 5.6914951336366404e-01 2.3292508524334847e+00 3.9768790367429485e+00 1.3812230359080204e+00 -2.1873268022877704e-02 -6.0877586255384197e-01 8.6663283216079079e-01 
        </Neuron>
        <Neuron NSynapses="9">
          -6.8128185606846936e-01 2.3085468475524533e+00 -1.0281563722208098e+00 -2.3285679516848309e-01 -1.5444110255552906e-01 8.4641900446192486e-01 1.7218356634197358e+00 1.6737212425793973e+00 -5.9651535677551659e-01 
        </Neuron>
      </Layer>
      <Layer Index="1" NNeurons="10">
        <Neuron NSynapses="1">
          -2.1629766952926071e+00 
        </Neuron>
        <Neuron NSynapses="1">
          2.4347444516013445e-01 
        </Neuron>
        <Neuron NSynapses="1">
          -2.6196092018835970e-01 
        </Neuron>
        <Neuron NSynapses="1">
          1.5359864082747292e+00 
        </Neuron>
        <Neuron NSynapses="1">
          6.0076215039748719e+00 
        </Neuron>
        <Neuron NSynapses="1">
          1.1230034646464011e+00 
        </Neuron>
        <Neuron NSynapses="1">
          1.2396736051758737e+00 
        </Neuron>
        <Neuron NSynapses="1">
          -1.3977585259454679e+00 
        </Neuron>
        <Neuron NSynapses="1">
          1.6798046056670577e+00 
        </Neuron>
        <Neuron NSynapses="1">
          -1.7981259287513796e+00 
        </Neuron>
      </Layer>
      <Layer Index="2" NNeurons="1">
        <Neuron NSynapses="0"/>
      </Layer>
    </Layout>
    <InverseHessian NElements="3025" NRows="55" NCols="55">
      <Row Index="0">
        7.0216466002017469e+01 1.2947243195033218e+02 8.8406715263776084e+02 -1.6104247123977288e+01 -1.7462873963647780e+01 -4.3364154831142470e+00 5.1552662047305795e+01 1.2247935373697017e+02 -1.1735649867197591e+01 -5.1452988515687164e+00 -2.3369899454042479e+02 4.8499980533948943e+01 -1.2667949967404725e+01 -3.9807905367426382e+00 -2.7962461756750219e+01 3.8419648830510691e+00 4.1076027945505444e+00 -3.8940875327009250e+00 -3.2760496892806144e+00 1.8276014042630010e+01 2.0874615915571886e+02 -1.7476218779999410e+01 -1.7269897400651590e+00 -3.2008188829107187e+00 1.6278420083052545e+01 9.9949265605265353e+01 -3.3434515602445058e+00 -6.0837636159491439e+01 1.2770012138023435e+02 -6.2919922015064992e+02 3.7011532258271131e+01 1.8008975125885701e+01 1.3792091804095062e+01 -5.0886619848731947e+01 -2.5549034214099566e+02 1.5453290715457440e+01 -1.1662531373376523e+00 2.1588788240142918e+02 -3.7493966905994034e+02 4.9023544630127827e+00 -4.3760752212035608e-01 7.2582265450092320e+00 -6.3564172589488059e+00 9.5308555006278937e+01 -1.8993102514424498e-01 1.5648459662717086e+01 -2.9378275045423912e+01 1.1667641309322980e+02 -3.8206988612847795e+01 -8.1750117873060987e+01 -1.4498131159102229e+01 1.3882189366164377e+01 -2.2034518911878695e+02 3.9885572559679972e+00 2.7809935152874067e+02 
      </Row>
      <Row Index="1">
        1.2947243182122955e+02 1.6493086073819734e+05 -5.3513770186374961e+02 -6.4266067147436331e+01 1.0614445850906537e+02 7.9955641188605796e+03 -7.4716232598433805e+02 3.2374799340221130e+03 3.0397345218493513e+02 3.6727359911773709e+02 -7.2174409800564084e+04 -3.2820670152955827e+03 -7.4105544641133569e-01 -1.7535132426137661e+01 5.1482342523117063e+02 -2.4474619146452639e+02 -1.1869533974238823e+03 9.1421342087135983e+01 1.0358473482688899e+02 7.6106454546937224e+04 2.6756255579114440e+03 -1.1570520298490864e+02 -7.6734309582962332e+00 9.0801641079176832e+01 -2.6419347225549137e+02 -4.4214683781949407e+03 1.2795565077624163e+02 -2.6061547737864345e+02 -1.4900144897878080e+05 -4.0652757757633244e+03 3.6230177047009391e+02 -1.2760085643393418e+02 -1.0039647413142688e+04 5.4848209651421155e+02 1.6473218378311831e+03 -4.3454510399360964e+02 2.4237114608219173e+01 3.8802210003128246e+04 -7.3565387359407760e+02 -1.0007150311521258e+01 2.5637165428921485e+01 9.4722594045368442e+02 7.4187715178861311e+01 2.6815879289403097e+03 3.8670416330621599e+01 -8.2717765097609572e+02 -3.4177107946011078e+04 -1.4402196711971026e+03 -4.5314563076085187e+02 2.4572346276302230e+02 6.8526793293712290e+03 -8.0570192591261423e+02 2.7038401421272056e+03 -1.0575588477220533e+02 2.4609548037799606e+04 
      </Row>
      <Row Index="2">
        8.8406715268094558e+02 -5.3513770754332654e+02 7.6592047063097198e+04 -2.8606021645492688e+03 -8.5580157451539844e+02 -3.6713718256741276e+03 5.1331687973423141e+03 6.3241969993244948e+03 -1.4324104706882804e+02 4.6926512186706780e+01 1.6096574220038179e+04 -1.0000526917308232e+04 -1.6043561584553397e+03 -2.0066945947318766e+02 -1.3152574141413795e+03 2.8071500205169457e+01 1.6285481318804416e+03 1.0932505828026068e+02 4.6399107587173040e+02 -1.9638122847447776e+04 1.2289611228065517e+03 -2.0436202601035188e+03 -1.0841218056507863e+02 -1.4144517280404857e+03 1.1875244831455584e+03 6.2669336268988245e+03 -3.3122560521374098e+01 -1.3134659708664333e+03 -3.0591562755799987e+03 -3.1646482705841991e+04 6.2005356063698127e+03 9.5204338355535640e+02 5.4589937022285339e+03 -4.0302517158824403e+03 -9.6410277669717671e+03 1.7176375563571594e+02 3.0243265087943165e+01 7.0165975742137325e+03 -4.9167296973219163e+04 5.0746668254637711e+01 -6.1996918026729674e+01 1.2518287112589815e+03 -1.3040674755262730e+03 -5.0747036925090733e+03 -2.8410759402305079e+01 7.3651066407399367e+02 9.6993253282664664e+03 1.4008377432001011e+04 -6.5484347338467505e+03 -3.8882949625887013e+03 -4.8047382341266621e+02 1.8414068869716045e+03 2.1566751083420477e+03 -1.6953899883361501e+02 -1.0193570066021053e+04 
      </Row>
      <Row Index="3">
        -1.6104247124430799e+01 -6.4266066960604803e+01 -2.8606021644331527e+03 2.1663336852257811e+02 2.6081868184310707e+01 1.4037003394436300e+02 -7.5216396200798272e+01 -3.9703745911250627e+02 6.5099525172534198e+00 2.5814907737114949e+00 -8.1964620466456779e+02 8.3395285082247494e+02 7.3087061520491119e+01 4.7498568984147171e+00 3.2206503912642219e+01 7.3130126335143419e+00 3.6780739824371935e+01 -3.7196893401917555e+00 -8.8948152321749987e+00 8.7747549016005587e+02 -2.3052187488603295e+02 7.7267637593578542e+01 2.2999673802054534e+00 5.4626393865274252e+01 1.0968141341706598e+02 -6.8000104210285258e+01 2.3186208914795225e-02 2.4152092463742527e+01 4.2084656149719626e+02 3.5773947444388159e+02 -3.5245532269166216e+02 -2.6774931299456370e+01 -1.9175349865907035e+02 -4.9246233149810251e+01 2.9636737633737710e+02 -7.0759808808672151e+00 1.4388545653523921e-01 -3.3135611837421862e+02 2.8928813969182170e+03 3.5967971269744434e+00 2.8244854866114744e+00 -6.4854236349513783e+01 2.8997219942349115e+01 -4.2941917703515458e+01 9.6664750758648066e-01 -2.9861009887807747e+01 -4.4787715110364076e+02 -4.6613455750472900e+02 3.1657454638432614e+02 1.1738290518080015e+02 -2.0501869396192205e+01 1.2301096505130216e+02 1.6086735318248202e+01 6.6364597849581015e+00 3.4992375766081960e+02 
      </Row>
      <Row Index="4">
        -1.7462873963094044e+01 1.0614445861387230e+02 -8.5580157451305217e+02 2.6081868185392725e+01 2.8725190574821067e+01 7.4263064846636595e+01 -4.0677125167906567e+01 -1.4201455471147068e+02 3.6077312731521047e+00 -1.2825519323959220e+00 -3.2973512542044216e+02 -6.6820026947096565e+01 1.6891600086288413e+01 5.0869997847920247e+00 6.7545560128196787e+00 -1.4209819699194455e+00 -4.5757930994163786e+01 -1.7164924553968461e+00 -9.1639459064434448e+00 3.2117061818495216e+02 -1.1168242180699357e+02 2.7168285718240487e+01 5.1868626829321185e+00 4.9613393472484240e+01 -4.7375120540086449e+01 -1.3778658029443881e+02 6.6054856750325308e-01 2.5884771678578314e+01 1.6882335988195194e+01 6.9625215597045508e+02 -6.4253435449522627e+01 -3.2497289205057662e+01 -1.0453032061509575e+02 5.4767513872344878e+01 2.4581309815465278e+02 -3.6520057519793809e+00 -8.4912602088786926e-01 5.8318424014449079e+01 2.6410419560660250e+02 -1.5320708869553585e+00 1.9570160173104854e+00 -8.6237631436771753e+00 1.5903900540598618e+01 -1.7891415634105421e+00 6.2254168580219249e-01 -1.4053228832891943e+01 -1.3788869914601665e+02 -1.4860487433013779e+02 5.5934707513651041e+01 1.0370887580794182e+02 -1.8954068530039315e+01 -5.4393695517134255e+01 1.1698887009810213e+02 2.4938908438811098e+00 1.5784631830606287e+01 
      </Row>
      <Row Index="5">
        -4.3364154933642567e+00 7.9955641179792874e+03 -3.6713718250139464e+03 1.4037003392766565e+02 7.4263064837148818e+01 1.3468833485600744e+03 -1.9100075445116136e+02 -5.8464949569117084e+02 -9.9086718616053560e-01 2.7560920786563255e+01 -6.3146109455991273e+03 7.2063244607014315e+02 4.7855276969271877e+01 1.5351246921872308e+01 1.0653477546307295e+02 8.4946766801234865e+00 -2.6317190871213506e+02 -6.8997690938313099e+00 -8.6011855026156461e+00 6.5300186311026973e+03 -4.7513232091184426e+02 3.3422343353101631e+01 1.8449869840633766e+00 6.9261010572890001e+01 8.2790965876819769e+01 -6.8108127511381019e+02 5.5545878668411248e+00 1.3925692731315728e+01 -7.0981701776788032e+03 5.6797165867902231e+02 -1.7879929317175893e+02 -7.9079465298401317e+01 -1.4625137160000106e+03 -8.5550837660011538e+00 1.1443329380526004e+03 -5.4668657864484871e+00 -1.2162367915975203e+00 4.3840223653695975e+03 3.1638189916629176e+03 -1.5146110084992536e+01 1.0045920967485694e+01 -3.1656354552331695e+01 7.6962561931399435e+01 4.2435562219352909e+02 4.1403659385874674e+00 -1.0847508061904077e+02 -2.2656899620096488e+03 -6.7199269392898145e+02 2.0052959041610225e+02 2.8788774837606752e+02 5.8820655559179977e+02 2.4603333350040259e+01 2.0139604130271687e+02 5.6025932902823081e+00 1.4472522522105978e+03 
      </Row>
      <Row Index="6">
        5.1552662048765399e+01 -7.4716232677644439e+02 5.1331687975874247e+03 -7.5216396218685901e+01 -4.0677125171726864e+01 -1.9100075454386948e+02 6.4324048012034973e+02 -3.2740617374069842e+02 -5.4403017766876278e+00 -3.0265591591622583e+00 1.4432172666848662e+03 -2.0745932520704926e+02 -9.3269589033230204e+01 -1.1260306516253726e+01 -1.5716864017783550e+02 -4.1154741303053326e+00 2.4107681417312480e+02 6.0339299641651110e+00 2.9279647650785677e+01 -1.6684320177933541e+03 -1.2958224877486032e+03 -1.3651546225433140e+02 1.1025261442457246e-01 -6.5083256449170563e+01 3.9490921281246119e+02 6.2014466851728946e+02 -3.5810354530203594e+00 -7.7247216693760237e+01 5.0609127942850364e+02 -2.1230827994896849e+03 2.8492912791170971e+02 4.4958094669828128e+01 3.8841543949300558e+02 -6.3916288330786108e+02 -2.5081594088010476e+02 9.4987073603875274e+00 8.7002070756563687e-01 8.8440689460338513e+02 -2.0790745029865529e+03 9.2981928510690892e+00 -2.1172990123437305e+00 1.1927373797288500e+02 -1.9861081369772077e+02 -3.2960901026358323e+02 -2.0037074866717277e+00 5.4258388490297627e+01 1.0004216098821611e+03 1.3582575795253815e+03 -3.6290850980491996e+02 -1.8005633976197257e+02 -1.4951451422375152e+02 6.2190820039088590e+02 -1.0028033698441528e+03 -8.6690567229707867e+00 1.1424643965077186e+02 
      </Row>
      <Row Index="7">
        1.2247935389378108e+02 3.2374799167327583e+03 6.3241970076131738e+03 -3.9703745942581651e+02 -1.4201455466988037e+02 -5.8464949717504419e+02 -3.2740617357664451e+02 2.0500902389816700e+04 -2.9893061633737116e+01 1.7236431759667759e+01 3.1789883325672322e+03 1.2610300727621263e+03 -1.2305998638139276e+02 -1.9988299745440600e+01 2.4210818270422189e+02 1.9696765590001985e+02 -3.2342942819152836e+03 -4.0728765243053203e+01 -9.2501212590022661e+01 -2.9376522733407737e+03 1.6178564005126204e+03 6.8166360687173437e+01 -1.1992185848332536e+01 -1.9307886116171372e+02 -4.0381812857924973e+02 -8.5231981202500428e+03 3.8038499971624759e+01 -2.6991520479616980e+01 -5.7869318021807412e+03 -9.1529387252442975e+03 6.1270330734045433e+02 1.4960747565569756e+02 5.7729810897777736e+02 1.7124332239829849e+02 -1.0172846386178424e+04 -2.2412880253811309e+00 8.2537274981479669e-01 -1.1246576230465521e+03 -5.7267634296303186e+02 -1.8570551244240718e+01 -8.2903120109075985e+00 1.5545921544418729e+02 2.9182700281135931e+02 -1.5448801083961747e+04 -5.4423807760577070e-01 -1.0840392928039850e+02 8.0878017910665517e+02 -1.5364877385593884e+03 -4.4585974065051266e+02 -5.0794303470921295e+02 7.3126217340545429e+02 -9.6792089200407884e+02 6.6942115988180100e+04 4.7260213537466853e+01 -6.7131350063668127e+04 
      </Row>
      <Row Index="8">
        -1.1735649867399502e+01 3.0397345216180838e+02 -1.4324104706080476e+02 6.5099525171171813e+00 3.6077312732728073e+00 -9.9086718664327167e-01 -5.4403017763985986e+00 -2.9893061579649274e+01 2.3809013462064900e+01 -1.1156038759110500e+00 -6.9323981841878279e+01 -9.0902932717071625e+00 2.7650367000730691e+00 -6.9093347649844006e-01 3.0749461005437655e+00 -2.1600286996210514e+00 3.3176429015218503e+01 -5.2520965729338513e+00 -1.6362254445376394e+00 5.1195119068455824e+01 4.2322470581719848e+01 2.7369864983327830e-01 3.4793092214509075e-01 -3.1319454008903742e+00 2.0413843845366069e+00 4.4850653152619579e+01 -2.2785310681609370e+00 1.3689573119924537e+01 -2.5693785682709154e+02 8.3928707391545885e+01 -1.0621409192554871e+01 -3.5639131686122631e+00 -1.2670752757114442e+01 3.6921114744959409e+00 -1.6859524883307667e+01 -2.1992524015015466e+01 -2.4935858541360403e-01 2.8070114567701097e+01 3.2822679157584197e+01 6.2888392100876367e-01 3.2288614650105441e-01 -6.9060348855726872e-01 -8.2116379515189797e-01 -7.3517977049857691e+01 1.2744514780466933e+00 -5.5373648195259513e+00 -4.4607989375107735e+01 -1.3866047057058903e+01 7.7541888136479242e+00 1.0913405714998845e+01 1.4819381316757191e+01 -1.6081298109778153e+00 6.4201199688599374e+01 8.2179962754711475e+00 -4.5183406401929574e+01 
      </Row>
      <Row Index="9">
        -5.1452988515921803e+00 3.6727359908552444e+02 4.6926512201949407e+01 2.5814907731763843e+00 -1.2825519326712633e+00 2.7560920786847348e+01 -3.0265591562885135e+00 1.7236431739386209e+01 -1.1156038759750029e+00 1.3672375570976122e+01 -2.5962723131455641e+02 -5.2964746502017821e+00 -4.3817642523917835e+00 -6.8404130411519759e-01 9.6678008477920829e-01 -1.6649116527978787e+00 1.4519782073433522e+01 2.9514183787167241e+00 3.3576146589095019e+00 3.3650528676808608e+02 6.4019253396068635e+01 -1.2598713739133260e+01 -2.0397162985703599e-03 1.1558452030245279e+00 1.4195900882684446e+01 -1.1299377609306276e+01 2.5042882863202354e+00 1.9422988641761290e+00 -4.1900000254632027e+02 -2.1031858157537667e+02 1.4829130695499030e+01 8.5518199554815633e-01 -4.4698723500070230e+01 -1.2037857601982196e+01 -6.8201892348044311e+00 -2.6366951438069739e+00 3.2096073896813815e+00 1.7916245018680144e+02 6.3697840680938072e+01 -1.6902700431996045e+00 1.4955885808424196e-01 -5.4396289803097666e+00 9.1995819076132190e-01 -2.8122744694705986e+01 8.8239241561523046e-02 -2.5287122649957698e+01 -1.0284724596564241e+02 -1.0057047658488960e+00 -1.7646998185151269e+01 -9.8600700481699803e+00 2.0224253903395500e+01 8.1480225629347842e+00 9.6580481862966849e+01 -4.3039809426635420e+00 -2.5625846954760934e+01 
      </Row>
      <Row Index="10">
        -2.3369899452403479e+02 -7.2174409819122404e+04 1.6096574216540081e+04 -8.1964620457420222e+02 -3.2973512533636392e+02 -6.3146109476289785e+03 1.4432172659807547e+03 3.1789883290077264e+03 -6.9323981863174140e+01 -2.5962723138759924e+02 7.3030802983107977e+04 6.8657027992784219e+02 -2.7394438783348363e+02 -4.8444953829088263e+01 -6.5955745088544131e+02 2.2289635107145963e+02 -3.4248143238061004e+02 5.9744657700357493e+01 -9.3473730486623992e+01 -7.6920462833877653e+04 -2.5369403078039136e+03 -3.1661071424212423e+01 -9.6293928195220069e+00 -9.7069583025292377e+02 5.1690457397581906e+02 6.4256848307791397e+03 -3.1979541814328072e-01 2.4546873522390388e+02 5.5309043163770584e+04 -4.6969866044217506e+03 1.0553528175967242e+03 3.8389870181865786e+02 8.3866470595138835e+03 -1.1711315404666682e+03 -7.0456267524265777e+03 8.4342478870795418e+01 -2.0982774134859085e+01 -3.1709566197687709e+03 -9.1326472182173529e+03 4.4969395287929927e+01 -4.9867035270820068e+01 1.0231133993227193e+03 -3.4931419904134469e+02 1.9003642752172930e+03 -2.3932619595922436e+01 8.7061556021295337e+02 3.9107329055896182e+04 3.4474946466244228e+03 -8.2361600733519879e+02 -1.0456158618398113e+03 -2.5367374669913461e+03 8.7343831448529090e+02 -1.3216718363789811e+04 -6.9621709071608606e+01 -2.3195061767981264e+04 
      </Row>
      <Row Index="11">
        4.8499980526113177e+01 -3.2820670218783780e+03 -1.0000526914536995e+04 8.3395285073657817e+02 -6.6820026969817548e+01 7.2063244554835353e+02 -2.0745932498724869e+02 1.2610300766761811e+03 -9.0902932771527425e+00 -5.2964746645328251e+00 6.8657028569781687e+02 9.9829742715083648e+03 1.9202048662154326e+02 -2.0374178230375264e+01 -3.0270691738330630e+01 1.8559915537349127e+02 -3.3229873545228577e+02 -3.5976305768571365e+01 -4.5383237245458581e+01 -1.3297285416387022e+03 -5.5226497100139150e+03 1.7178281001955838e+02 -4.2587056297143384e+01 -5.5925483213657935e+02 2.1699816089662982e+03 -1.4884423900764304e+01 1.9135143375831831e+01 2.1631283611086545e+01 3.1218692229975177e+03 -7.9383980293923414e+03 -1.0967682650062604e+03 1.0923868769510672e+02 7.9485162112933480e+01 -1.2092945395370289e+03 -1.2016920865995060e+03 -8.3690736100085750e-01 1.4858230328112203e+00 4.4524866171209874e+02 2.1840844265589043e+04 2.3597583769123830e+01 -2.7245009126950568e+00 -7.3654721628016517e+01 -2.0994692057439298e+02 7.8597299245040540e+02 3.6021442801789405e-01 -9.6324773811589537e+01 9.0517841345245017e+02 -8.3051892473996327e+02 1.4630636096641788e+03 -3.2485869798027943e+02 4.4863426577535893e+02 2.8199216399441211e+03 8.9085381332217730e+02 4.5068234436272078e+01 -2.5638231419635272e+03 
      </Row>
      <Row Index="12">
        -1.2667949967641604e+01 -7.4105529775260948e-01 -1.6043561584884083e+03 7.3087061524237427e+01 1.6891600086967571e+01 4.7855276982433637e+01 -9.3269589032603150e+01 -1.2305998627044389e+02 2.7650367000860805e+00 -4.3817642520387015e+00 -2.7394438802484910e+02 1.9202048665559334e+02 5.6940847255226771e+01 3.4838711687304169e+00 1.3990846062887288e+01 -7.8216105314751871e-02 -2.6031029558568044e+01 -1.9653430986141416e+00 -8.9489896622657970e+00 3.7754667566921853e+02 -6.1001980190395866e+00 7.1816707872950616e+01 2.6539580915872270e+00 5.5010571112133675e+01 -3.9488318206432538e+01 -1.2634184024636356e+02 2.1371630438780187e-01 2.0425732597152312e+01 1.1727636467011399e+02 6.9499284558758291e+02 -1.9780521242714829e+02 -1.8959416327721030e+01 -9.6312849343034060e+01 8.3943756514349317e+01 2.0076656553713900e+02 -2.5853420704762775e+00 -2.3006585638919348e+00 7.5223123262050322e+01 1.1268745130177408e+03 1.9998351670992518e+00 1.4096316335173267e+00 -2.1897808287877108e+01 2.8957525364646223e+01 5.0746128871205485e+01 6.2313169851853623e-01 -5.3433019398767767e+00 -1.0013276173967954e+02 -3.4141119864021232e+02 2.0264198416072702e+02 7.7672588020257166e+01 -2.4144107790195079e+01 -5.4721507956936946e+01 2.8799658931834927e+01 3.5601590769033260e+00 5.3662037962790265e+01 
      </Row>
      <Row Index="13">
        -3.9807905366231573e+00 -1.7535132393998992e+01 -2.0066945947507327e+02 4.7498568987590239e+00 5.0869997848845836e+00 1.5351246924558287e+01 -1.1260306515959680e+01 -1.9988299746117299e+01 -6.9093347650885995e-01 -6.8404130400383045e-01 -4.8444953863146111e+01 -2.0374178226597763e+01 3.4838711686072545e+00 1.6041251746759198e+00 3.2856222351091184e+00 1.5250914869785959e-01 -1.1947164771742989e+01 -3.2361019264227053e-01 -1.7245493060426043e+00 4.7026021069890703e+01 -8.0266594902569537e+00 6.1109803688784616e+00 1.2412434569830002e+00 1.1457045936420187e+01 -1.4839310849179350e+01 -3.9345275931600668e+01 -5.6049362371357603e-02 5.3104195212669456e+00 3.7443743541134232e+01 1.7727763806424798e+02 -1.3242886420597626e+01 -6.1670166983690828e+00 -2.3041069678018342e+01 1.5143635124798349e+01 5.1499705284986412e+01 8.1218490695411161e-01 -2.1209947273609445e-01 -1.8207962905240709e+01 3.6553746569063733e+01 -3.5283727300779832e-01 4.3276720821160358e-01 -2.5395625750010011e+00 5.4465489596385828e+00 5.5503673602662706e+00 -4.2143277467346363e-03 -1.0162251716322035e+00 -2.5464112826954917e+01 -3.6177838375732485e+01 1.1359422730833522e+01 2.2691171888945050e+01 -4.4282447363840962e+00 -1.9172918200836818e+01 3.9970995803339896e+01 2.4067129183969271e-01 -1.0159109798154558e+01 
      </Row>
      <Row Index="14">
        -2.7962461758942368e+01 5.1482342530844835e+02 -1.3152574140325298e+03 3.2206503911203818e+01 6.7545560131185436e+00 1.0653477548953614e+02 -1.5716864016653886e+02 2.4210818325380671e+02 3.0749461009304895e+00 9.6678008652835568e-01 -6.5955745078942346e+02 -3.0270691615228245e+01 1.3990846059655063e+01 3.2856222348664375e+00 1.7753188419298618e+02 2.2160591214724263e+00 -1.6279891480737774e+01 2.6552651982119073e+00 5.3684472170327355e+00 8.2871724570769584e+02 8.3699694278296886e+02 -9.1220484775594741e+00 -4.6351914860599832e+00 -4.0597622911296639e+01 -8.7121942091910213e+01 -2.2650887161891015e+02 2.2468179461595810e+00 1.6158494681813899e+01 -7.2118947078265091e+02 1.2039676559426263e+02 -2.7047232339323205e+01 -5.0242074621791755e+00 -2.4860827960160546e+02 9.9416051409433038e+01 -1.0259366821423532e+02 -5.3597989109339279e+00 -8.0222904528437589e-01 -1.1599820224718740e+03 3.7036774260323773e+02 4.6815197014009335e-01 8.6091351773957703e-01 -6.0185561171686956e+01 7.4548961144914983e+01 -5.0078881149042346e+01 1.8117312620755366e-01 2.5931915377845627e+00 -7.6885833928819329e+02 -3.9290331148054531e+02 1.9352315691023900e+01 3.4853721080899220e+01 2.1470020991023907e+02 -2.1793414535335270e+02 7.8940957021135148e+02 -3.1618810563931277e+00 -1.6222274662432287e+02 
      </Row>
      <Row Index="15">
        3.8419648839499132e+00 -2.4474619134406385e+02 2.8071500045813334e+01 7.3130126397712960e+00 -1.4209819683092830e+00 8.4946766900640096e+00 -4.1154741402009449e+00 1.9696765555689353e+02 -2.1600286998329699e+00 -1.6649116529182655e+00 2.2289635084442853e+02 1.8559915535220864e+02 -7.8216102521202036e-02 1.5250914903378998e-01 2.2160591234379599e+00 4.4222365471909256e+01 -8.7669419511087199e-01 -2.6176634596902204e-01 -5.2884522685345416e+00 -3.6785711123366491e+02 5.4607057275036550e+02 8.3578581975758652e+00 -9.2048983796780293e-01 3.2743987893329631e+01 -7.6544816976295394e+01 3.7802491616144572e+01 1.1948058779354369e+00 5.1585628287656959e-01 2.2104618951189457e+02 -5.2907501531545904e+02 -5.0391335945781153e+00 2.4823098026638739e+00 -1.2498854611706582e+01 -1.9062868069994579e+01 -2.0637453766419475e+02 2.4092698072681049e+00 1.3769665426413724e-01 4.7432879441063164e+01 1.2145997102256842e+00 3.1304018960119255e+00 7.9472981783576102e-01 8.0021935855316784e+00 6.4767014415211946e+01 4.9132089564361721e+01 -6.7280134528267321e-01 3.7660463343311790e+00 1.6121814536465152e+02 -1.8876799273239922e+02 -1.1458852157193036e+00 -3.9693162292984425e+00 -7.0586410120281968e+00 -1.5517254610131252e+02 6.0407804267306282e+01 -2.7694152021712171e-01 -2.2251212691430385e+02 
      </Row>
      <Row Index="16">
        4.1076027615563362e+00 -1.1869533932362683e+03 1.6285481298743755e+03 3.6780739896679606e+01 -4.5757931001976566e+01 -2.6317190834854841e+02 2.4107681412298916e+02 -3.2342942825210994e+03 3.3176429027385993e+01 1.4519782070184688e+01 -3.4248143340926617e+02 -3.3229873460680244e+02 -2.6031029532541783e+01 -1.1947164771865573e+01 -1.6279891356036387e+01 -8.7669426890352042e-01 1.2914702069459163e+03 -9.8477914902905468e+00 5.9219005492487668e+01 2.1706808628998697e+03 1.6188148341347696e+03 -1.3735510916557541e+02 -6.5873124918276265e+00 -2.9894968261156464e+01 6.1035611968674786e+01 1.9485126731125415e+03 -2.7426106899612932e+01 -5.5059828762207886e+01 1.4559122441844301e+02 -9.7784057815157109e+02 1.0038416825596096e+02 5.2056206864040313e+01 1.6943199093310201e+02 -2.3318626118235466e+02 6.7198246950685052e+02 -1.6501060588816568e+01 4.0520907455119310e+00 -1.8260162520410393e+02 -1.5114619194431252e+03 7.3520037066340986e+00 -1.8252781964503031e+00 -7.0632495171393629e+01 -1.7488298988539992e+01 3.4888619336326537e+03 -4.9599336271488514e-01 1.5216088526982027e+01 -3.8108293430889091e+02 5.0444755306395223e+02 -1.9349443401992386e+02 -2.0652198380134723e+02 -9.3261611464983702e+01 4.1621171211221082e+01 -1.4153876627231883e+04 1.7458062037116179e+01 1.4456525138649155e+04 
      </Row>
      <Row Index="17">
        -3.8940875325241393e+00 9.1421342062163603e+01 1.0932505827922476e+02 -3.7196893403504259e+00 -1.7164924551789988e+00 -6.8997690966808989e+00 6.0339299625340175e+00 -4.0728765243366702e+01 -5.2520965729935618e+00 2.9514183787076123e+00 5.9744657690063832e+01 -3.5976305781049810e+01 -1.9653430984044629e+00 -3.2361019258172519e-01 2.6552651980165081e+00 -2.6176634526947851e-01 -9.8477914890783609e+00 9.2033307649515450e+00 2.6649655534389964e+00 -8.5465246555395424e+01 9.4496516176148404e-02 -3.5497456649256947e+00 -9.2540905765835257e-01 -1.4993842669764490e+00 7.2709900248556503e-01 4.2211411581827853e+01 5.6311382991408436e+00 -1.1862630287095353e+00 -1.0728086073987050e+02 -7.4513382005905584e+01 9.5073015301279522e+00 2.4128565421072636e+00 1.0473963199341899e+01 -6.4503091657074227e+00 1.0308446149583508e+01 5.3439619609696409e-01 7.3630499878201716e-01 1.5298293053349344e+01 -5.9405362835880815e+01 -1.1658266383660165e-01 -1.7105591731964362e-01 3.3770813996479818e+00 -3.0448615722685041e-01 -7.5638064125963268e+01 -6.1071284122481662e-01 2.7435333034230922e+00 3.1517228612773327e+01 1.6630302247007478e+01 -9.3603968232866777e+00 -6.9966326179751661e+00 2.2099973256985654e+00 3.5968728124295157e-01 4.8720410849357343e+01 -1.0458109603225978e+01 -9.2003001373510244e+01 
      </Row>
      <Row Index="18">
        -3.2760496896976861e+00 1.0358473489098833e+02 4.6399107586493915e+02 -8.8948152324806582e+00 -9.1639459068115769e+00 -8.6011854967720751e+00 2.9279647651071969e+01 -9.2501212594197440e+01 -1.6362254443108726e+00 3.3576146590048239e+00 -9.3473730469668226e+01 -4.5383237233931965e+01 -8.9489896624173202e+00 -1.7245493061232651e+00 5.3684472184729088e+00 -5.2884522692983182e+00 5.9219005492079191e+01 2.6649655534690737e+00 2.3677751550960650e+01 1.0155932825969649e+02 6.3819001276070765e+01 -1.2941475671563012e+01 -1.7975143582290996e+00 -1.3426230759720738e+01 2.6397188758321796e+01 9.0371395294411769e+01 -4.4221262956747296e+00 -2.1340039115594227e+01 -4.5921784602966341e+01 -3.6589660118604246e+02 3.0458630962918331e+01 1.0533554846796044e+01 1.3774988488966084e+01 -3.8031249809169950e+01 3.1101714269870499e+01 4.3549284171345874e+00 4.6890583299486166e-01 -2.1033119569538368e+01 -1.7231909953821892e+02 -1.7513503459782642e-01 -4.3141710667024302e-01 -2.2880344606003469e+00 -9.0746999374151862e+00 -6.2300650460775373e+01 -1.5483767582639962e-01 1.1169287598961745e+01 -7.1911226717796438e+01 8.8620249557387723e+01 -3.5123083537185458e+01 -4.0326326929398022e+01 1.8402096828156346e+01 2.7239253594971640e+01 -1.5067952615300968e+02 -4.1451848855983826e+00 2.0819996599183111e+02 
      </Row>
      <Row Index="19">
        1.8276014010349172e+01 7.6106454563936684e+04 -1.9638122842565645e+04 8.7747549002664937e+02 3.2117061808364349e+02 6.5300186331094264e+03 -1.6684320169195562e+03 -2.9376522673928657e+03 5.1195119091316116e+01 3.3650528684128585e+02 -7.6920462830342818e+04 -1.3297285351119731e+03 3.7754667544928998e+02 4.7026021030869742e+01 8.2871724575106782e+02 -3.6785711147485563e+02 2.1706808612924506e+03 -8.5465246560212108e+01 1.0155932826808385e+02 1.1535692916456237e+05 1.6069638018048813e+03 -1.7713852783991024e+02 -6.1589633522853315e+00 -3.2088693468240672e+02 -6.3209760292581598e+02 -9.5986032606540630e+03 -5.5067577742127469e+01 -2.7755734742838683e+01 -8.2579379399935919e+04 7.7748135635337903e+03 -7.9732020412550639e+02 -3.5332293728796822e+02 -8.1715432177570938e+03 1.6952474151599440e+03 7.4223685795174724e+03 -8.9590445840500138e+01 1.1368305374216376e+01 1.1497317242693640e+04 1.0975250527746764e+04 -1.9798181763269324e+02 3.3124835650604417e+01 -1.6271332348628266e+03 1.8965540074723165e+02 6.1407754553697259e+02 4.7374521307540419e+01 -1.1309889247344397e+03 -4.2452012669334108e+04 -3.8464358219814644e+03 4.1448179959394662e+02 1.0604324706022817e+03 3.5404927751142168e+03 -6.0488112482672216e+02 1.4045975783995851e+04 1.4692615255441706e+02 2.5479040204940244e+04 
      </Row>
      <Row Index="20">
        2.0874615913756134e+02 2.6756255733836442e+03 1.2289611135496257e+03 -2.3052187452979473e+02 -1.1168242173893525e+02 -4.7513231949069450e+02 -1.2958224882654176e+03 1.6178563897528218e+03 4.2322470596331698e+01 6.4019253415832281e+01 -2.5369403212419711e+03 -5.5226497088132201e+03 -6.1001978895774300e+00 -8.0266594773320321e+00 8.3699694311130952e+02 5.4607057263459137e+02 1.6188148362611464e+03 9.4496482131944504e-02 6.3819001299521005e+01 1.6069638174567372e+03 3.0155017034611254e+04 1.2637714491462611e+02 4.1149080230615098e+00 1.0332492646223545e+03 -4.9790226327504497e+03 2.1615791260571550e+03 -5.1314995101409295e+01 -2.8349801739998503e+02 -2.4075500486201527e+03 -7.9531691583181819e+03 2.1648047819443843e+02 8.3807070760405622e+01 -1.5802155990180952e+03 2.1201005200147920e+03 -4.6625749555823750e+03 -1.2094110722044377e+01 9.6574613693861906e+00 -2.0295662248150952e+03 -1.7470456473357208e+04 5.1239779531203752e+01 1.2787685644982862e+01 -3.3121828898462491e+02 2.2323968269712504e+03 3.5412314340764287e+03 -2.1570999139838816e+00 2.0121380090570085e+01 -2.0878862727638270e+03 -7.5066615429896201e+03 -6.6815595515360883e+02 -4.1398006564621028e+02 5.1651419232070373e+02 -8.5057725255816022e+03 -8.7788601033133946e+03 3.8698625139131764e+00 1.0404169173869641e+04 
      </Row>
      <Row Index="21">
        -1.7476218778525094e+01 -1.1570520263112121e+02 -2.0436202602732874e+03 7.7267637603172133e+01 2.7168285720909754e+01 3.3422343380485415e+01 -1.3651546226517303e+02 6.8166360532392034e+01 2.7369864949559641e-01 -1.2598713738357759e+01 -3.1661071982933208e+01 1.7178281002443424e+02 7.1816707875013520e+01 6.1109803693833555e+00 -9.1220484711177505e+00 8.3578581951021533e+00 -1.3735510913082885e+02 -3.5497456659493309e+00 -1.2941475670439445e+01 -1.7713852722971933e+02 1.2637714490959858e+02 1.4708856841810189e+02 3.2554411703216983e+00 1.0597392298217164e+02 -1.6954709375314658e+02 -2.0888251630421792e+02 1.8184368498828007e-01 3.0652346745735208e+01 5.4214971938403403e+02 1.0618471584078870e+03 -2.8060619542350156e+02 -2.9400540662776340e+01 -6.9651160115767254e+01 1.8361858703870115e+02 1.9421961869146375e+02 6.7764758839573391e-01 -3.5680179480568670e+00 -1.1556650998160012e+02 1.1283933727274225e+03 1.3495573070611018e+00 2.0957093002136000e+00 3.1139606314154396e+00 6.3430892469946656e+01 5.2769121103915552e+01 7.1762506018677896e-01 1.9982298761384856e+00 1.2460996371115698e+01 -5.9965253780164903e+02 2.8188454918258861e+02 1.2731906736685721e+02 -7.9353958280751669e+01 -2.2705522445322643e+02 3.4924190679890671e+02 5.7557885462925356e+00 -3.4627989502535445e+02 
      </Row>
      <Row Index="22">
        -1.7269897399268759e+00 -7.6734309396827598e+00 -1.0841218056878778e+02 2.2999673804307337e+00 5.1868626830021967e+00 1.8449869849364238e+00 1.1025261413807019e-01 -1.1992185857889631e+01 3.4793092212858223e-01 -2.0397162619227860e-03 -9.6293928461079759e+00 -4.2587056298581722e+01 2.6539580916084828e+00 1.2412434569935100e+00 -4.6351914859049730e+00 -9.2048983808090856e-01 -6.5873124895449893e+00 -9.2540905769794524e-01 -1.7975143581605764e+00 -6.1589633244300330e+00 4.1149080246183516e+00 3.2554411702850623e+00 4.4266627118934334e+00 1.2676758555081221e+01 -8.4138259870946044e+00 -2.6370771633747999e+01 -8.6518133684215481e-01 4.2995286653140461e+00 3.3777430439706251e+01 1.5384057459299879e+02 -8.3570796122268227e+00 -8.6377281202684344e+00 -8.1261005050854642e+00 8.4304021855029294e+00 2.6728373625037730e+01 3.8391811446411950e-01 -1.3490287773255727e-02 3.0079228385710152e+01 -2.6504547452257547e+01 2.0954236555581485e-02 4.6340375209219864e-01 2.2289613948542515e+00 -6.2229179445839167e-02 1.4981566396598868e+01 5.9181478804287035e-02 -4.2074446910504619e+00 6.9189122710728208e+00 -6.5336745747726308e+00 6.4410584004464528e+00 2.1678463072070603e+01 -1.5459742583820937e+01 -6.4799836936838204e+00 5.0817699531127669e+00 1.0508458220659540e+00 -1.3372200715768938e+00 
      </Row>
      <Row Index="23">
        -3.2008188778201614e+00 9.0801642489375354e+01 -1.4144517286221528e+03 5.4626393888986804e+01 4.9613393477606088e+01 6.9261010678314122e+01 -6.5083256483385412e+01 -1.9307886234458570e+02 -3.1319454009171679e+00 1.1558452053624393e+00 -9.7069583175191428e+02 -5.5925483214123551e+02 5.5010571118346576e+01 1.1457045937201681e+01 -4.0597622890510578e+01 3.2743987885502001e+01 -2.9894968003941813e+01 -1.4993842703244269e+00 -1.3426230755147474e+01 -3.2088693301579042e+02 1.0332492648122161e+03 1.0597392297839730e+02 1.2676758554790283e+01 3.9875457962577934e+02 -3.4130371952430050e+02 -2.7536610978919873e+02 -1.0543940448237450e+00 1.4583189566859573e+01 1.3762554933461199e+03 1.3253073991628860e+03 -2.1703896777874704e+02 -6.0872673740366736e+01 -3.1748753764713814e+02 1.4542641431284218e+02 3.7185046023650682e+02 6.2832513232220641e+00 -7.8827818185775023e-01 5.5387811564998037e+02 -5.0539862341785260e+02 1.2496839339974255e+01 6.6716031394641471e+00 4.4291607171575205e+00 1.4623650239554570e+02 -5.8913641181131162e+01 -1.9946144401363947e-01 -2.0587828047423876e+01 -1.1939061529130788e+02 -5.9091037839402452e+02 1.6593104603756876e+02 2.1964819979007888e+02 -2.5296257976185771e+02 -5.2164192773626223e+02 2.2963020688950456e+02 2.4097479338488981e-01 1.8804105205273590e+01 
      </Row>
      <Row Index="24">
        1.6278420077668329e+01 -2.6419347577625376e+02 1.1875244850606432e+03 1.0968141334208680e+02 -4.7375120558537034e+01 8.2790965571643426e+01 3.9490921293363419e+02 -4.0381812581250585e+02 2.0413843835161884e+00 1.4195900876142623e+01 5.1690457764991334e+02 2.1699816088694402e+03 -3.9488318231811064e+01 -1.4839310852346998e+01 -8.7121942154692420e+01 -7.6544816959272538e+01 6.1035611386221547e+01 7.2709901141848832e-01 2.6397188750471337e+01 -6.3209760707490204e+02 -4.9790226332127768e+03 -1.6954709375659053e+02 -8.4138259868635146e+00 -3.4130371952700341e+02 1.5285618841117546e+03 4.5519130375462873e+02 4.9691954789445276e+00 -3.9138071645319627e+01 1.0492181939918373e+02 -2.2480837785059998e+03 6.4222469509715438e+01 5.8355076108048785e+01 2.7539588999055235e+02 -9.3819198283920014e+02 3.9047626568482620e+01 -6.1838048355890933e+00 3.8063639084530521e+00 3.9368151936605983e+02 4.7857506423295399e+03 1.2860507389986960e+01 -4.6592151435777982e+00 2.8908702097787817e+01 -4.7771256090307799e+02 -2.1670103903107639e+02 -4.5525529674662152e-01 -1.1711215800133669e+01 3.9920546549160247e+02 1.9466582348665522e+03 1.0868837630566645e+01 -2.2655354111061942e+02 9.8058953549606969e+01 2.1510776708951262e+03 -6.2097913551990086e+02 -2.0914186799494701e+00 9.5387795271687651e+01 
      </Row>
      <Row Index="25">
        9.9949265518647735e+01 -4.4214683707989752e+03 6.2669336216255670e+03 -6.8000104025159089e+01 -1.3778658030716778e+02 -6.8108127450471147e+02 6.2014466831705067e+02 -8.5231981213045037e+03 4.4850653180634254e+01 -1.1299377628707589e+01 6.4256848292015493e+03 -1.4884422403726489e+01 -1.2634184015712890e+02 -3.9345275928004412e+01 -2.2650887132317439e+02 3.7802491461239697e+01 1.9485126730331103e+03 4.2211411582175060e+01 9.0371395289284919e+01 -9.5986032581515610e+03 2.1615791221091295e+03 -2.0888251631660387e+02 -2.6370771636204438e+01 -2.7536611026205355e+02 4.5519130479242449e+02 7.3970996189461439e+03 8.4688711672715726e+00 -1.9471766655365914e+02 5.1956052455571480e+03 -3.6118568717747175e+03 2.9385578367126601e+02 1.6260656564006945e+02 1.0225548169939137e+03 -7.2657049308432329e+02 1.2201456312407477e+03 -4.6093542258932743e+01 8.8592913278125707e+00 -1.5569295285851967e+02 -3.8512252175832473e+03 4.8879914934530220e+01 -7.8362583041493767e+00 1.6483497494911177e+02 -1.3364530774506636e+02 8.4010768184046065e+03 -6.2158539626460358e+00 2.1573644497428998e+02 3.7798474981082263e+03 1.8649506170665045e+03 -3.8959960747018221e+02 -6.4833989912711695e+02 -3.6447278936819197e+02 4.6633389366017252e+02 -3.8275702509008435e+04 -4.8997976147642476e+01 3.4192701821354647e+04 
      </Row>
      <Row Index="26">
        -3.3434515601422561e+00 1.2795565069748045e+02 -3.3122560500530000e+01 2.3186208177946810e-02 6.6054856744324297e-01 5.5545878605009023e+00 -3.5810354520033059e+00 3.8038499987257858e+01 -2.2785310682853890e+00 2.5042882861694409e+00 -3.1979536843573442e-01 1.9135143369108278e+01 2.1371630427110944e-01 -5.6049362373187250e-02 2.2468179446306920e+00 1.1948058786356341e+00 -2.7426106902380468e+01 5.6311382992229255e+00 -4.4221262957773604e+00 -5.5067577801833977e+01 -5.1314995087634742e+01 1.8184368560213215e-01 -8.6518133680741338e-01 -1.0543940425897063e+00 4.9691954742451401e+00 8.4688711644395198e+00 9.7739205639587396e+00 5.1702199428464235e+00 -1.6661344417861073e+02 -4.6018937071424688e+01 -4.5221080932589253e-04 -5.5129181079779419e-02 1.1414330343509547e+00 -3.2723104142228072e+00 -3.4286649479851235e+01 -5.6349713379145658e+00 7.1889096264535490e-01 6.9899060002984925e+01 9.2640386268556568e+01 -2.5675394599289947e-01 7.9373184902569921e-02 4.1741893644734560e+00 1.4223145238525119e+00 -7.8403755894226883e+00 -1.7325570124798206e-01 -1.6643745231974549e+00 3.0238843521920678e+01 -1.0227780353982981e+01 4.3674457401300808e+00 2.0188368156661340e+00 4.9630122159039942e+00 7.0327433334585647e+00 5.5920659371344939e+01 -6.4598292985860724e+00 -9.6777229176126710e+01 
      </Row>
      <Row Index="27">
        -6.0837636159189287e+01 -2.6061547753021296e+02 -1.3134659708243246e+03 2.4152092463818178e+01 2.5884771679315207e+01 1.3925692719245490e+01 -7.7247216692118513e+01 -2.6991520335203518e+01 1.3689573119561942e+01 1.9422988641009056e+00 2.4546873522356327e+02 2.1631283602224357e+01 2.0425732597012711e+01 5.3104195214144738e+00 1.6158494678762793e+01 5.1585628401778649e-01 -5.5059828792078633e+01 -1.1862630285970681e+00 -2.1340039115970313e+01 -2.7755734760663472e+01 -2.8349801741379378e+02 3.0652346747581305e+01 4.2995286654681060e+00 1.4583189573624622e+01 -3.9138071652224653e+01 -1.9471766663610833e+02 5.1702199429067832e+00 8.4931927607508754e+01 -5.2181855205781176e+00 9.9142054044889403e+02 -6.7369706888973866e+01 -2.8754900618886161e+01 -2.5875435577986291e+01 9.0160480306003862e+01 2.1785787017458310e+02 -1.8440732910828693e+01 1.1606318867799330e+00 -2.1950465756266050e+02 5.3926163357465771e+02 -4.3966260556121544e+00 9.4184051086086185e-01 -5.8184373593386010e+00 1.0568455654793535e+01 -1.6866563515000976e+00 4.3290701156531686e-01 -3.7646482245753234e+01 5.3510487919410039e+01 -1.9493912669826511e+02 7.4441146052504166e+01 1.1663682805289352e+02 -9.9140008711462713e+00 -3.1248523516360887e+01 3.1898222486981814e+02 3.6313882286715966e+00 -3.8731201028170580e+02 
      </Row>
      <Row Index="28">
        1.2770012152799609e+02 -1.4900144896823168e+05 -3.0591562819304399e+03 4.2084656171311144e+02 1.6882336085954364e+01 -7.0981701776891077e+03 5.0609127865844857e+02 -5.7869318214993618e+03 -2.5693785684270915e+02 -4.1900000254846418e+02 5.5309043138972949e+04 3.1218692174896423e+03 1.1727636478230852e+02 3.7443743567442652e+01 -7.2118947057134937e+02 2.2104618955399565e+02 1.4559122904439573e+02 -1.0728086077716580e+02 -4.5921784516492153e+01 -8.2579379375221208e+04 -2.4075500352772483e+03 5.4214971958467504e+02 3.3777430449625840e+01 1.3762554944052245e+03 1.0492181664200325e+02 5.1956052535469353e+03 -1.6661344425380958e+02 -5.2181857026015130e+00 1.5921610708556930e+05 6.6816284849652911e+03 -1.4170521863847982e+03 -3.4213284651278641e+01 8.1334688718919897e+03 -3.4846193397719333e+02 1.4446413013552224e+03 4.5368044670262640e+02 -3.2179728620844145e+01 -4.9772021426230916e+04 1.6319783420750100e+03 1.5593369861744276e+02 -9.9072544803253715e-01 -8.6838515134573015e+02 2.1289763386448669e+01 -6.1050213799927888e+03 -4.2113083137592525e+01 8.4540200921170356e+02 2.4146014117068913e+04 8.4569904603583302e+02 1.4420784033879129e+03 1.8239045903968508e+02 -7.7165757398950091e+03 4.3870012564312151e+02 4.3577331615509956e+02 1.1838491776693627e+02 -1.7768158172896812e+04 
      </Row>
      <Row Index="29">
        -6.2919922016630153e+02 -4.0652757654574234e+03 -3.1646482707571158e+04 3.5773947454174049e+02 6.9625215598088926e+02 5.6797165946968016e+02 -2.1230827995648797e+03 -9.1529387221530451e+03 8.3928707405411842e+01 -2.1031858155273494e+02 -4.6969866124456748e+03 -7.9383980282370903e+03 6.9499284558573527e+02 1.7727763806576695e+02 1.2039676581240201e+02 -5.2907501543050603e+02 -9.7784057888738607e+02 -7.4513382013326918e+01 -3.6589660117769563e+02 7.7748135729134083e+03 -7.9531691622657054e+03 1.0618471583129140e+03 1.5384057458848463e+02 1.3253073988307733e+03 -2.2480837776228509e+03 -3.6118568744199438e+03 -4.6018937066619401e+01 9.9142054046103181e+02 6.6816284756672103e+03 4.2861087854443686e+04 -2.1738059525035837e+03 -8.1988631449957802e+02 -1.5741588164853208e+03 3.9265646512611766e+03 1.1161840215558726e+04 -2.6847905644651405e+01 -4.7908394543988763e+01 -7.5428646676378830e+03 -5.7496516534797684e+02 -9.0522391288663187e+01 3.2874001181691220e+01 -3.6087432154584013e+02 -5.2914569012070054e+01 2.2808006152970015e+03 1.1829945890901978e+01 -9.4626838830322583e+01 -4.3232812908344222e+03 -2.9892382297011882e+03 2.0372116037437409e+03 3.2973083695598834e+03 -1.5531234420351420e+03 -1.7145446730606998e+03 -7.3415052760393346e+03 1.0885747159314997e+02 1.2934863371158553e+04 
      </Row>
      <Row Index="30">
        3.7011532257924955e+01 3.6230176967306033e+02 6.2005356064809621e+03 -3.5245532270523341e+02 -6.4253435451504345e+01 -1.7879929323460226e+02 2.8492912790661694e+02 6.1270330705329900e+02 -1.0621409192688645e+01 1.4829130693803762e+01 1.0553528184873285e+03 -1.0967682651309669e+03 -1.9780521242573872e+02 -1.3242886420882940e+01 -2.7047232353911056e+01 -5.0391335819772394e+00 1.0038416832377675e+02 9.5073015311631934e+00 3.0458630961276214e+01 -7.9732020514685428e+02 2.1648047869486462e+02 -2.8060619541155256e+02 -8.3570796119557613e+00 -2.1703896774941177e+02 6.4222469403008517e+01 2.9385578394693039e+02 -4.5221102948289627e-04 -6.7369706887566394e+01 -1.4170521857543208e+03 -2.1738059525174285e+03 8.1537617542607609e+02 6.9981804491220572e+01 3.2197267799110415e+02 -1.9775282293050788e+02 -7.3684666809924943e+02 1.0274657250168708e+01 4.6166099517725083e+00 5.0260173070414214e+02 -4.9180975818635952e+03 -1.0392676154231744e+01 -5.9052470385408808e+00 8.2663231635881544e+01 -1.0099894905004194e+02 -4.9828262146032515e+01 -2.3601345392917876e+00 2.8960285682291978e+01 5.0487503967311329e+02 1.2673078150927379e+03 -7.8988037912662287e+02 -2.9789927559499165e+02 1.5537956880972240e+02 9.9509339900292275e+01 -6.5988883052954066e+01 -1.6451521968738689e+01 -3.8028784051429238e+02 
      </Row>
      <Row Index="31">
        1.8008975125225014e+01 -1.2760085657609125e+02 9.5204338356002700e+02 -2.6774931300896174e+01 -3.2497289205110548e+01 -7.9079465310838401e+01 4.4958094666145911e+01 1.4960747571238920e+02 -3.5639131684980043e+00 8.5518199518025106e-01 3.8389870193397837e+02 1.0923868766935891e+02 -1.8959416327017760e+01 -6.1670166982718477e+00 -5.0242074622559656e+00 2.4823098045719831e+00 5.2056206853037111e+01 2.4128565423917081e+00 1.0533554846340540e+01 -3.5332293742536422e+02 8.3807070834630878e+01 -2.9400540659718345e+01 -8.6377281201811051e+00 -6.0872673734465593e+01 5.8355076087309904e+01 1.6260656562242849e+02 -5.5129181129224492e-02 -2.8754900618016443e+01 -3.4213284520934849e+01 -8.1988631449057152e+02 6.9981804489215079e+01 3.9496979308174687e+01 1.1773827176730354e+02 -6.6161777061570731e+01 -2.6635188656715815e+02 3.0559467266311060e+00 7.1710009812628561e-01 -7.0643327674844215e+01 -2.3209014412341674e+02 1.4712735409424429e+00 -2.4577469905429248e+00 8.7778308053702148e+00 -1.7681532728382763e+01 -1.1931819639563010e+01 -6.5568372472087832e-01 1.8692365399138520e+01 1.5795303402443108e+02 1.5975298980072844e+02 -6.1246142364512821e+01 -1.1992311621537200e+02 2.9582848740109377e+01 6.6828030811549127e+01 -1.2867478167219821e+02 -3.1978483945512082e+00 -3.2313053638516529e+01 
      </Row>
      <Row Index="32">
        1.3792091815082586e+01 -1.0039647413832019e+04 5.4589937020052712e+03 -1.9175349866191300e+02 -1.0453032060921862e+02 -1.4625137161503878e+03 3.8841543941779219e+02 5.7729810776207114e+02 -1.2670752758976050e+01 -4.4698723504309442e+01 8.3866470585831557e+03 7.9485161370376773e+01 -9.6312849331728557e+01 -2.3041069675458857e+01 -2.4860827960011511e+02 -1.2498854589566236e+01 1.6943199125203319e+02 1.0473963199013269e+01 1.3774988493187152e+01 -8.1715432170971762e+03 -1.5802155972223190e+03 -6.9651160074420659e+01 -8.1261005034576019e+00 -3.1748753749618845e+02 2.7539588956857915e+02 1.0225548175919794e+03 1.1414330273701125e+00 -2.5875435590614870e+01 8.1334688734145602e+03 -1.5741588156662183e+03 3.2197267793308959e+02 1.1773827175826469e+02 2.0099584859263350e+03 -2.2109682039555523e+02 -1.2515030460564735e+03 1.6290896743294141e+01 2.5562905654044954e-02 -3.6896205966779626e+03 -2.3461646225199624e+03 7.5189068485478572e-02 -1.4600815066197967e+01 9.6106817888313756e+01 -2.4242369590308454e+02 -3.9700837506226861e+02 -5.3178573535040554e+00 1.5743238126445371e+02 3.6146566502622904e+03 1.3930029761502408e+03 -2.7890822270063131e+02 -4.2691816968788999e+02 -6.5069802591917301e+02 6.1662555892203250e+02 -7.2704935205796232e+02 -1.1776075736631356e+01 -2.1749131815081487e+03 
      </Row>
      <Row Index="33">
        -5.0886619847582665e+01 5.4848209868631238e+02 -4.0302517167785500e+03 -4.9246233109668822e+01 5.4767513881876930e+01 -8.5550835672457879e+00 -6.3916288335770230e+02 1.7124332158634195e+02 3.6921114754714210e+00 -1.2037857596581446e+01 -1.1711315425533940e+03 -1.2092945393396628e+03 8.3943756523500809e+01 1.5143635126160234e+01 9.9416051447134407e+01 -1.9062868084649892e+01 -2.3318626102037410e+02 -6.4503091703115842e+00 -3.8031249805771822e+01 1.6952474175742827e+03 2.1201005197990989e+03 1.8361858703043163e+02 8.4304021850045547e+00 1.4542641428452907e+02 -9.3819198274840596e+02 -7.2657049291145199e+02 -3.2723104151706366e+00 9.0160480304358373e+01 -3.4846193581958505e+02 3.9265646515111603e+03 -1.9775282296994504e+02 -6.6161777071814839e+01 -2.2109682063077850e+02 1.0137024223313384e+03 5.0015033212733113e+02 -1.7228968754889706e+00 -3.4891424051843334e+00 -1.1051982285822016e+03 -1.2144521352826719e+03 -2.0781463701401311e+01 1.6971743977155951e+00 -8.3983349666028943e+01 2.4478182669011426e+02 3.1464087674220332e+02 1.9426884258925581e+00 -3.0230661106068020e+01 -9.6975667725026324e+02 -1.5279315768771885e+03 2.4657211564638752e+02 2.5039901192264568e+02 -1.1758311361148927e+01 -1.2237678108617333e+03 8.4179168930006949e+02 1.0163098902444574e+01 1.9004321977429041e+02 
      </Row>
      <Row Index="34">
        -2.5549034219585883e+02 1.6473218452404253e+03 -9.6410277693006938e+03 2.9636737643562083e+02 2.4581309813174806e+02 1.1443329386990954e+03 -2.5081594085664983e+02 -1.0172846385248609e+04 -1.6859524863240949e+01 -6.8201892368342669e+00 -7.0456267538331449e+03 -1.2016920847805741e+03 2.0076656555580485e+02 5.1499705281883507e+01 -1.0259366801774013e+02 -2.0637453780857322e+02 6.7198246907592693e+02 1.0308446149647352e+01 3.1101714270023876e+01 7.4223685819990933e+03 -4.6625749607783800e+03 1.9421961858736177e+02 2.6728373619714617e+01 3.7185045969751081e+02 3.9047627878320782e+01 1.2201456303757441e+03 -3.4286649470188422e+01 2.1785787022333534e+02 1.4446412928760983e+03 1.1161840215973507e+04 -7.3684666811576699e+02 -2.6635188653649311e+02 -1.2515030465113095e+03 5.0015033164998749e+02 8.2069266128403160e+03 4.3078013980146508e+01 -7.0041412839096857e+00 1.2224242467303875e+03 3.2679069196373107e+03 -2.1066346370022181e+01 1.2642560366312150e+01 -1.7028088140047112e+02 -2.0874874724857057e+02 5.1214293566800388e+03 4.1177072337713305e+00 -6.2869651863355806e+01 -3.1076799325426355e+03 2.3746150392930105e+01 7.2052726643842470e+02 1.0062653614729788e+03 -3.6317619451890346e+02 5.8072271139325073e+02 -2.2955335509230797e+04 -1.6117102253418125e+01 2.5785020480638319e+04 
      </Row>
      <Row Index="35">
        1.5453290715693100e+01 -4.3454510390589894e+02 1.7176375561201999e+02 -7.0759808802032182e+00 -3.6520057520163287e+00 -5.4668657813550681e+00 9.4987073589979047e+00 -2.2412880970714752e+00 -2.1992524014932968e+01 -2.6366951437417399e+00 8.4342478798345837e+01 -8.3690736509521457e-01 -2.5853420703802641e+00 8.1218490695522405e-01 -5.3597989093119907e+00 2.4092698065988714e+00 -1.6501060572865640e+01 5.3439619596201737e-01 4.3549284174882814e+00 -8.9590445759138674e+01 -1.2094110709598453e+01 6.7764758767299327e-01 3.8391811442438684e-01 6.2832513221783302e+00 -6.1838048349192434e+00 -4.6093542226636373e+01 -5.6349713380771504e+00 -1.8440732911277451e+01 4.5368044663093679e+02 -2.6847905624175070e+01 1.0274657249787960e+01 3.0559467266522029e+00 1.6290896735471918e+01 -1.7228968741830997e+00 4.3078014010117215e+01 2.7846986225403061e+01 -8.6149253286755056e-01 -1.0565097783160820e+02 -1.1370331096629131e+02 -2.3900620931089556e-01 -3.2876218518691713e-01 -1.2423895567530732e+00 -1.0406731333198849e-01 6.9943733756858535e+01 -1.4919860518092420e+00 9.9368750602243345e+00 3.3537030012436368e+01 2.5955576147479075e+01 -1.0300627765560064e+01 -1.0642497271148926e+01 -2.3103627577887977e+01 -3.6362828395789206e+00 -9.6780720730276670e+01 -3.1117032149179806e+00 1.0221693093713309e+02 
      </Row>
      <Row Index="36">
        -1.1662531373057234e+00 2.4237114616459621e+01 3.0243265085578756e+01 1.4388545658298035e-01 -8.4912602090663347e-01 -1.2162367908063620e+00 8.7002070760642169e-01 8.2537273673729850e-01 -2.4935858541071276e-01 3.2096073896939323e+00 -2.0982774136203830e+01 1.4858230338604290e+00 -2.3006585638931529e+00 -2.1209947274684282e-01 -8.0222904528423022e-01 1.3769665422423749e-01 4.0520907482447726e+00 7.3630499876326283e-01 4.6890583302219069e-01 1.1368305376618082e+01 9.6574613701656560e+00 -3.5680179481789800e+00 -1.3490287782205540e-02 -7.8827818216138468e-01 3.8063639089821191e+00 8.8592913349956319e+00 7.1889096264312080e-01 1.1606318867375052e+00 -3.2179728630344243e+01 -4.7908394543791616e+01 4.6166099518182957e+00 7.1710009815237785e-01 2.5562904956684562e-02 -3.4891424054615370e+00 -7.0041412792535178e+00 -8.6149253287688043e-01 1.5850672720609822e+00 -1.1229781473977448e+01 -1.1524967640824251e+00 -3.0284569373432130e-01 4.5073554000278626e-03 -7.8138650477142901e-01 -4.4024071990136465e-01 -7.2246101212722333e+00 -5.0678075990923721e-02 -5.7322598653975589e+00 -1.2051323536095094e+01 5.7297158566668740e+00 -5.9692209694391130e+00 -3.9733542056610442e+00 -2.3044298267585539e-01 3.5329135432901446e+00 3.1643888883668994e+00 -1.0216519006006450e+00 6.0189165715702408e+00 
      </Row>
      <Row Index="37">
        2.1588788233599371e+02 3.8802209979490610e+04 7.0165975739634359e+03 -3.3135611836452472e+02 5.8318424010771210e+01 4.3840223635741513e+03 8.8440689462147384e+02 -1.1246576219029266e+03 2.8070114550656399e+01 1.7916245010436455e+02 -3.1709566024384694e+03 4.4524866060815839e+02 7.5223123377124466e+01 -1.8207962896100980e+01 -1.1599820227805740e+03 4.7432879567604687e+01 -1.8260162562882033e+02 1.5298293079040377e+01 -2.1033119623827588e+01 1.1497317222275771e+04 -2.0295662221930033e+03 -1.1556650966026245e+02 3.0079228402644205e+01 5.5387811618193518e+02 3.9368151834849323e+02 -1.5569295215196325e+02 6.9899060001089310e+01 -2.1950465747130875e+02 -4.9772021404114203e+04 -7.5428646650276632e+03 5.0260173022934896e+02 -7.0643327675613307e+01 -3.6896205947341896e+03 -1.1051982281607798e+03 1.2224242454876476e+03 -1.0565097780097949e+02 -1.1229781480527492e+01 7.6987745982812863e+04 2.5458033526877625e+03 -9.1654957381911800e+01 1.7735390917148401e+01 8.3580586326537934e+02 2.0722351420753455e+01 7.3959061204731934e+03 2.4896338815207287e+01 -3.0052167947229066e+02 2.0004971807970196e+04 3.7332511425602274e+02 -1.5253207867394354e+02 5.5139224022546841e+01 2.0115701042341298e+03 5.4256424709177065e+02 -1.7343639111223954e+04 -4.6649751776348239e+01 -4.8893222955470783e+03 
      </Row>
      <Row Index="38">
        -3.7493966908073344e+02 -7.3565388778643683e+02 -4.9167296965165668e+04 2.8928813966963553e+03 2.6410419554583677e+02 3.1638189905926251e+03 -2.0790745023017607e+03 -5.7267632963276083e+02 3.2822679144770518e+01 6.3697840658420091e+01 -9.1326472050735028e+03 2.1840844266463038e+04 1.1268745128954752e+03 3.6553746556498027e+01 3.7036774230487390e+02 1.2145997208699555e+00 -1.5114619223470545e+03 -5.9405362804749529e+01 -1.7231909956773097e+02 1.0975250513195060e+04 -1.7470456479419467e+04 1.1283933726328523e+03 -2.6504547451061825e+01 -5.0539862360200641e+02 4.7857506431989377e+03 -3.8512252234026455e+03 9.2640386294233394e+01 5.3926163359822567e+02 1.6319783532572910e+03 -5.7496516962545866e+02 -4.9180975814117292e+03 -2.3209014405208396e+02 -2.3461646207251920e+03 -1.2144521361228567e+03 3.2679069139480216e+03 -1.1370331096401696e+02 -1.1524967662548988e+00 2.5458033560373815e+03 6.5443565392822922e+04 -1.9803697637402955e+01 2.0751832530901680e+01 -6.9016088282935300e+02 -4.1017053669673476e+02 1.2787386364522699e+03 1.8510480604250347e+01 -5.9044249793539245e+02 -3.1999138366565662e+03 -5.4923576425525571e+03 5.7719175321279899e+03 1.0525532785372488e+03 1.1074055743430899e+03 6.5312349207167345e+03 6.4932694390164961e+03 8.8047540579633278e+01 -5.4120232894059745e+03 
      </Row>
      <Row Index="39">
        4.9023544630312017e+00 -1.0007150262623327e+01 5.0746668234704458e+01 3.5967971275667630e+00 -1.5320708867966513e+00 -1.5146110082132022e+01 9.2981928488360808e+00 -1.8570551253689516e+01 6.2888392107654312e-01 -1.6902700431289990e+00 4.4969395236408673e+01 2.3597583765132470e+01 1.9998351674063670e+00 -3.5283727295819745e-01 4.6815197158349520e-01 3.1304018958465036e+00 7.3520037090559356e+00 -1.1658266389237326e-01 -1.7513503452001089e-01 -1.9798181757687416e+02 5.1239779543690190e+01 1.3495573073528249e+00 2.0954236548269722e-02 1.2496839340390352e+01 1.2860507387453929e+01 4.8879914934265457e+01 -2.5675394606260227e-01 -4.3966260556505006e+00 1.5593369858223195e+02 -9.0522391276737750e+01 -1.0392676155396300e+01 1.4712735407485389e+00 7.5189063008094692e-02 -2.0781463698581305e+01 -2.1066346363303900e+01 -2.3900620934349348e-01 -3.0284569372990333e-01 -9.1654957412278151e+01 -1.9803697638637892e+01 5.0909105446161043e+00 8.2160520310214535e-02 3.3468952967076007e+00 6.5595555011721673e-01 -2.5806142710709448e+01 -5.2711047168838121e-02 4.7929227271730390e+00 1.1159668178784999e+01 1.5514380679450371e+01 7.1919609779078826e+00 -5.8798132733179074e+00 -1.3041962962634914e+01 6.6702334400803309e+00 -5.0244145931695577e+01 4.3839261830095921e-01 3.8165145916777071e+01 
      </Row>
      <Row Index="40">
        -4.3760752207170661e-01 2.5637165447114967e+01 -6.1996918030542133e+01 2.8244854868507359e+00 1.9570160173225417e+00 1.0045920969169828e+01 -2.1172990121460558e+00 -8.2903120226340192e+00 3.2288614649822023e-01 1.4955885812143288e-01 -4.9867035283494261e+01 -2.7245009096780990e+00 1.4096316334949401e+00 4.3276720820329295e-01 8.6091351784918047e-01 7.9472981761956873e-01 -1.8252781941280389e+00 -1.7105591735832704e-01 -4.3141710661738175e-01 3.3124835666180843e+01 1.2787685638482394e+01 2.0957092999050531e+00 4.6340375208161788e-01 6.6716031387568790e+00 -4.6592151414021998e+00 -7.8362582993190699e+00 7.9373184902847171e-02 9.4184051078746123e-01 -9.9072546557658825e-01 3.2874001182070387e+01 -5.9052470384887803e+00 -2.4577469905489786e+00 -1.4600815067619770e+01 1.6971743967572053e+00 1.2642560371700442e+01 -3.2876218519394307e-01 4.5073554012087236e-03 1.7735390919160807e+01 2.0751832539786875e+01 8.2160520287657079e-02 3.0288643950159394e-01 -8.8420512814658347e-01 3.0516219932673669e+00 7.5204993552301236e-01 2.8038081789214631e-02 -1.4077840471882692e+00 -1.7100328268746569e+01 -1.5242179743760005e+01 4.6629480309162430e+00 7.5896565471428943e+00 -1.3283985535510388e+00 -8.0939910708464105e+00 7.3834939038783309e+00 2.0984761794222173e-01 8.4424563863028936e+00 
      </Row>
      <Row Index="41">
        7.2582265430456800e+00 9.4722593974971824e+02 1.2518287112765654e+03 -6.4854236352164236e+01 -8.6237631436323099e+00 -3.1656354611035056e+01 1.1927373796491975e+02 1.5545921564635796e+02 -6.9060348885795975e-01 -5.4396289824323105e+00 1.0231133998027508e+03 -7.3654721703337714e+01 -2.1897808284401123e+01 -2.5395625745924519e+00 -6.0185561177479570e+01 8.0021935919911016e+00 -7.0632495214180608e+01 3.3770814006727505e+00 -2.2880344625367286e+00 -1.6271332354470505e+03 -3.3121828878966357e+02 3.1139606442219474e+00 2.2289613953252325e+00 4.4291607412280882e+00 2.8908702034210876e+01 1.6483497488437752e+02 4.1741893643678623e+00 -5.8184373563872214e+00 -8.6838515066362015e+02 -3.6087432148900416e+02 8.2663231622613566e+01 8.7778308050956930e+00 9.6106817941218338e+01 -8.3983349635652090e+01 -1.7028088150546841e+02 -1.2423895560043547e+00 -7.8138650491838035e-01 8.3580586319951999e+02 -6.9016088303995571e+02 3.3468952976535302e+00 -8.8420512813177599e-01 1.1943964035943567e+02 -3.4867197940804104e+01 1.1833656324269640e+02 -4.6674536420624868e-01 2.1577381781720280e+01 6.9879971830147247e+02 2.4928245429253306e+02 -6.2678592979358712e+01 -3.1900338931331476e+01 2.3022661875469083e+01 7.2044631371344792e+01 -5.2753035917120712e+02 -5.3291476326617726e+00 -2.1733975015212110e+02 
      </Row>
      <Row Index="42">
        -6.3564172577211195e+00 7.4187716244236071e+01 -1.3040674761931441e+03 2.8997219970415600e+01 1.5903900547079296e+01 7.6962562030390359e+01 -1.9861081373385957e+02 2.9182700184978728e+02 -8.2116379498967262e-01 9.1995819246214694e-01 -3.4931420019949655e+02 -2.0994692051416035e+02 2.8957525373788840e+01 5.4465489607487427e+00 7.4548961163417857e+01 6.4767014408379254e+01 -1.7488298790655108e+01 -3.0448616026791342e-01 -9.0746999349162323e+00 1.8965540206413425e+02 2.2323968270464584e+03 6.3430892470667175e+01 -6.2229179412293556e-02 1.4623650239376639e+02 -4.7771256088520795e+02 -1.3364530738210351e+02 1.4223145223531901e+00 1.0568455653021203e+01 2.1289762559183146e+01 -5.2914568698251969e+01 -1.0099894908943983e+02 -1.7681532735613935e+01 -2.4242369603414821e+02 2.4478182671080953e+02 -2.0874874679243260e+02 -1.0406731291789129e-01 -4.4024071978549273e-01 2.0722351096332432e+01 -4.1017053632623458e+02 6.5595554925892730e-01 3.0516219939751861e+00 -3.4867197962158713e+01 2.3752667239174457e+02 1.7648489087754820e+02 3.7350145215601316e-02 -6.2001366315921445e+00 -1.3569292097534122e+02 -9.5326840711944124e+02 7.6398890334228412e+01 7.6057668032364859e+01 3.0272543219920777e+01 -7.8268769349102115e+02 2.3802446911748766e+02 1.7006160058673458e-01 -1.3203599469443398e+02 
      </Row>
      <Row Index="43">
        9.5308554652438033e+01 2.6815879549682140e+03 -5.0747037089106743e+03 -4.2941917078249389e+01 -1.7891416658803792e+00 4.2435562470777950e+02 -3.2960901045103674e+02 -1.5448801084239123e+04 -7.3517976946051931e+01 -2.8122744763109949e+01 1.9003642774261534e+03 7.8597300103213638e+02 5.0746129111954360e+01 5.5503673563798657e+00 -5.0078880183689762e+01 4.9132088903803378e+01 3.4888619323422899e+03 -7.5638064118335024e+01 -6.2300650488599786e+01 6.1407754743099213e+02 3.5412314115322661e+03 5.2769120827317238e+01 1.4981566379588912e+01 -5.8913643606007099e+01 -2.1670103325101081e+02 8.4010768172312528e+03 -7.8403755506442394e+00 -1.6866560191847384e+00 -6.1050214125458151e+03 2.2808006211241059e+03 -4.9828262775226904e+01 -1.1931819501570356e+01 -3.9700837672049602e+02 3.1464087488445512e+02 5.1214293581440434e+03 6.9943733614840312e+01 -7.2246101511664165e+00 7.3959061272079125e+03 1.2787386643378231e+03 -2.5806142726903857e+01 7.5204990849897513e-01 1.1833656377674197e+02 1.7648488890399312e+02 4.7997282636109710e+04 2.3842643845273415e+00 -3.8517692401511283e+00 2.7531922124807197e+03 -6.7915896949300804e+02 1.9261062619989167e+02 1.4226549378858181e+01 3.4723227175063283e+02 -4.3045427811537718e+02 -1.3817514168487253e+05 9.4088185470056487e+01 1.3462215655892409e+05 
      </Row>
      <Row Index="44">
        -1.8993102518273686e-01 3.8670416324478396e+01 -2.8410759398846636e+01 9.6664750750874684e-01 6.2254168576497926e-01 4.1403659384463065e+00 -2.0037074861959865e+00 -5.4423807112889966e-01 1.2744514780423453e+00 8.8239241557398207e-02 -2.3932619585840911e+01 3.6021443033567557e-01 6.2313169845640659e-01 -4.2143277586721428e-03 1.8117312601678126e-01 -6.7280134531216129e-01 -4.9599336431411434e-01 -6.1071284121164915e-01 -1.5483767585442076e-01 4.7374521297312867e+01 -2.1570999203781769e+00 7.1762506007548632e-01 5.9181478801963928e-02 -1.9946144442257108e-01 -4.5525529541526910e-01 -6.2158539652221876e+00 -1.7325570121886669e-01 4.3290701161368950e-01 -4.2113083135337433e+01 1.1829945887228034e+01 -2.3601345390179311e+00 -6.5568372467114178e-01 -5.3178573526342250e+00 1.9426884249695671e+00 4.1177072309123339e+00 -1.4919860518249710e+00 -5.0678075994114002e-02 2.4896338823428401e+01 1.8510480608787304e+01 -5.2711047181040860e-02 2.8038081782191859e-02 -4.6674536394732002e-01 3.7350144782883551e-02 2.3842643734092803e+00 3.4008331210078580e-01 -7.0656826114432592e-01 -1.0056890558062760e+01 -5.4527190818478886e+00 2.5854905415662168e+00 1.9126280937769859e+00 2.6158403134584640e+00 -2.3910279395488115e-01 5.9855999909662927e+00 7.8147179916120102e-01 1.2714956941984892e+00 
      </Row>
      <Row Index="45">
        1.5648459662303253e+01 -8.2717765092267655e+02 7.3651066398864486e+02 -2.9861009885858806e+01 -1.4053228831993243e+01 -1.0847508062350457e+02 5.4258388477595645e+01 -1.0840392927871096e+02 -5.5373648192015708e+00 -2.5287122650259782e+01 8.7061556004631711e+02 -9.6324773868984153e+01 -5.3433019376632842e+00 -1.0162251712133781e+00 2.5931915436893576e+00 3.7660463347134510e+00 1.5216088529317631e+01 2.7435333034488849e+00 1.1169287599068610e+01 -1.1309889245768427e+03 2.0121380209001700e+01 1.9982298805815049e+00 -4.2074446908753975e+00 -2.0587828037347890e+01 -1.1711215831994849e+01 2.1573644495276403e+02 -1.6643745237783492e+00 -3.7646482245371828e+01 8.4540200924335295e+02 -9.4626838729617134e+01 2.8960285673446215e+01 1.8692365397906709e+01 1.5743238125185113e+02 -3.0230661082112761e+01 -6.2869651851636036e+01 9.9368750603824765e+00 -5.7322598653918675e+00 -3.0052167970817527e+02 -5.9044249803401772e+02 4.7929227275497990e+00 -1.4077840470623921e+00 2.1577381775644596e+01 -6.2001366220049938e+00 -3.8517693396421464e+00 -7.0656826117355997e-01 8.6280081070412578e+01 4.0685780287494038e+02 1.3950340215231765e+02 -2.7561752837820556e+01 -4.5162384370212180e+01 -3.1000250673054865e+01 -8.9088614012650318e+00 -5.0062318228664128e+02 -4.4232805785119638e+00 1.6327824264976269e+02 
      </Row>
      <Row Index="46">
        -2.9378275044633483e+01 -3.4177107961981557e+04 9.6993253258388795e+03 -4.4787715103429582e+02 -1.3788869909649213e+02 -2.2656899636038252e+03 1.0004216094688309e+03 8.0878017580973756e+02 -4.4607989392909076e+01 -1.0284724602923961e+02 3.9107329059270211e+04 9.0517840972669364e+02 -1.0013276159637644e+02 -2.5464112804666001e+01 -7.6885833941844976e+02 1.6121814552217256e+02 -3.8108293348541338e+02 3.1517228622695256e+01 -7.1911226735729542e+01 -4.2452012675469741e+04 -2.0878862640072912e+03 1.2460996771507780e+01 6.9189122907078087e+00 -1.1939061427651905e+02 3.9920546308581834e+02 3.7798474999231403e+03 3.0238843489580177e+01 5.3510487932060641e+01 2.4146014136608457e+04 -4.3232812851219514e+03 5.0487503901584387e+02 1.5795303395494648e+02 3.6146566512193194e+03 -9.6975667590934972e+02 -3.1076799314227337e+03 3.3537030065304862e+01 -1.2051323536705240e+01 2.0004971797337261e+04 -3.1999138452887564e+03 1.1159668217576382e+01 -1.7100328261493189e+01 6.9879971802166983e+02 -1.3569292021956039e+02 2.7531922124352495e+03 -1.0056890565966000e+01 4.0685780303251227e+02 2.8160164252374296e+04 1.8119075347142107e+03 -2.8133543926828031e+02 -4.6767426002012871e+02 -1.3110831565510691e+03 6.1421165310850461e+02 -1.2169033390156432e+04 -5.3938831109779130e+01 -1.4786345760782675e+04 
      </Row>
      <Row Index="47">
        1.1667641308791372e+02 -1.4402196746640839e+03 1.4008377433962003e+04 -4.6613455760446504e+02 -1.4860487435509876e+02 -6.7199269428682760e+02 1.3582575796114743e+03 -1.5364877363005407e+03 -1.3866047055661511e+01 -1.0057047743808880e+00 3.4474946507750428e+03 -8.3051892516468251e+02 -3.4141119866345480e+02 -3.6177838379403056e+01 -3.9290331153080933e+02 -1.8876799270533365e+02 5.0444755261287719e+02 1.6630302257767653e+01 8.8620249549990604e+01 -3.8464358267509378e+03 -7.5066615425269865e+03 -5.9965253779078921e+02 -6.5336745748356453e+00 -5.9091037836646501e+02 1.9466582346789251e+03 1.8649506164339036e+03 -1.0227780351082401e+01 -1.9493912669174779e+02 8.4569904872652842e+02 -2.9892382303897903e+03 1.2673078152052301e+03 1.5975298982796969e+02 1.3930029765673085e+03 -1.5279315768655670e+03 2.3746149163145674e+01 2.5955576145518990e+01 5.7297158560357957e+00 3.7332511534219520e+02 -5.4923576443493948e+03 1.5514380684865529e+01 -1.5242179746267048e+01 2.4928245437248961e+02 -9.5326840707840279e+02 -6.7915897428583412e+02 -5.4527190834958503e+00 1.3950340219599002e+02 1.8119075373696467e+03 5.5466341033222598e+03 -1.2655092358595944e+03 -6.6378534300074080e+02 -2.5470625803662438e+02 3.0595087961913368e+03 -3.8977150311997761e+03 -2.8364772775085839e+01 2.4941954282619818e+03 
      </Row>
      <Row Index="48">
        -3.8206988613692289e+01 -4.5314563059351894e+02 -6.5484347337846375e+03 3.1657454639220998e+02 5.5934707514399783e+01 2.0052959043114467e+02 -3.6290850978816650e+02 -4.4585974004968455e+02 7.7541888133117993e+00 -1.7646998184835923e+01 -8.2361600770966652e+02 1.4630636097787219e+03 2.0264198415824808e+02 1.1359422730999448e+01 1.9352315695527693e+01 -1.1458852248735525e+00 -1.9349443415591355e+02 -9.3603968232955594e+00 -3.5123083536982868e+01 4.1448180002484878e+02 -6.6815595568594381e+02 2.8188454917402373e+02 6.4410584004002835e+00 1.6593104601506468e+02 1.0868837727974864e+01 -3.8959960786370470e+02 4.3674457408373542e+00 7.4441146052777057e+01 1.4420784033020573e+03 2.0372116036879870e+03 -7.8988037912289485e+02 -6.1246142365143299e+01 -2.7890822269677255e+02 2.4657211560124409e+02 7.2052726627412301e+02 -1.0300627765508992e+01 -5.9692209694930334e+00 -1.5253207906208900e+02 5.7719175324919079e+03 7.1919609771532613e+00 4.6629480307955014e+00 -6.2678592987674435e+01 7.6398890296937438e+01 1.9261062487450073e+02 2.5854905416343810e+00 -2.7561752841801532e+01 -2.8133543959093720e+02 -1.2655092357438123e+03 8.5737054359047102e+02 2.5384598295476857e+02 -9.8273842915264595e+01 3.9669482169609850e+01 9.4661411577792819e+01 1.5471987157379445e+01 8.9563139643032017e+01 
      </Row>
      <Row Index="49">
        -8.1750117871065299e+01 2.4572346324395039e+02 -3.8882949626027930e+03 1.1738290518647052e+02 1.0370887580927294e+02 2.8788774841671585e+02 -1.8005633975454674e+02 -5.0794303468778014e+02 1.0913405714664805e+01 -9.8600700465335436e+00 -1.0456158623590127e+03 -3.2485869790860681e+02 7.7672588018146030e+01 2.2691171888901522e+01 3.4853721083547299e+01 -3.9693162350208695e+00 -2.0652198380742834e+02 -6.9966326188825292e+00 -4.0326326928192884e+01 1.0604324711964582e+03 -4.1398006589257113e+02 1.2731906735860230e+02 2.1678463071888388e+01 2.1964819977622051e+02 -2.2655354105266304e+02 -6.4833989920044405e+02 2.0188368158272283e+00 1.1663682805048126e+02 1.8239045864874788e+02 3.2973083695249343e+03 -2.9789927559031787e+02 -1.1992311621672378e+02 -4.2691816972310107e+02 2.5039901189633645e+02 1.0062653615107565e+03 -1.0642497271061615e+01 -3.9733542055121163e+00 5.5139223875677544e+01 1.0525532787629299e+03 -5.8798132741038280e+00 7.5896565472451964e+00 -3.1900338937279628e+01 7.6057668011824461e+01 1.4226549376933690e+01 1.9126280939541811e+00 -4.5162384376568113e+01 -4.6767426036146497e+02 -6.6378534293198106e+02 2.5384598295266585e+02 4.3813303786926343e+02 -9.3809247407156789e+01 -2.6803338760271629e+02 6.4766317939648479e+02 9.9299315899951637e+00 -1.6102542115082824e+02 
      </Row>
      <Row Index="50">
        -1.4498131171444030e+01 6.8526793275101918e+03 -4.8047382268840681e+02 -2.0501869419939574e+01 -1.8954068536469634e+01 5.8820655551039249e+02 -1.4951451415773158e+02 7.3126217545051963e+02 1.4819381317011871e+01 2.0224253901965291e+01 -2.5367374645248383e+03 4.4863426611067234e+02 -2.4144107799158423e+01 -4.4282447379597283e+00 2.1470020987822772e+02 -7.0586410067563570e+00 -9.3261611936227013e+01 2.2099973298907969e+00 1.8402096819070145e+01 3.5404927725270954e+03 5.1651419140116354e+02 -7.9353958285335054e+01 -1.5459742583777498e+01 -2.5296257981075988e+02 9.8058953698683780e+01 -3.6447279023742539e+02 4.9630122218776975e+00 -9.9140008548253569e+00 -7.7165757388588772e+03 -1.5531234427963725e+03 1.5537956885607358e+02 2.9582848748601762e+01 -6.5069802571565845e+02 -1.1758311484255382e+01 -3.6317619540600543e+02 -2.3103627582000069e+01 -2.3044298336696745e-01 2.0115701058224752e+03 1.1074055749209767e+03 -1.3041962964676429e+01 -1.3283985547917079e+00 2.3022661924644375e+01 3.0272543175747302e+01 3.4723226792773301e+02 2.6158403132958288e+00 -3.1000250666187334e+01 -1.3110831547105633e+03 -2.5470625788728356e+02 -9.8273842927015650e+01 -9.3809247430606547e+01 7.7489254327144545e+02 9.9699492497282094e+00 6.8394315355448407e+02 -2.5261697150376428e+00 1.6470273838204292e+01 
      </Row>
      <Row Index="51">
        1.3882189360214852e+01 -8.0570193091662077e+02 1.8414068898418709e+03 1.2301096493801191e+02 -5.4393695544781970e+01 2.4603332904172419e+01 6.2190820056868222e+02 -9.6792088800148372e+02 -1.6081298126007368e+00 8.1480225537717033e+00 8.7343831970581232e+02 2.8199216397616406e+03 -5.4721507995910599e+01 -1.9172918205617023e+01 -2.1793414544422069e+02 -1.5517254607610317e+02 4.1621170375919746e+01 3.5968729424291723e-01 2.7239253584367475e+01 -6.0488113074377179e+02 -8.5057725261851519e+03 -2.2705522446004312e+02 -6.4799836935081778e+00 -5.2164192773740092e+02 2.1510776708811372e+03 4.6633389216468595e+02 7.0327433400200903e+00 -3.1248523508658849e+01 4.3870012958563166e+02 -1.7145446743601142e+03 9.9509340063155818e+01 6.6828030842522622e+01 6.1662555953138872e+02 -1.2237678109884300e+03 5.8072270949198378e+02 -3.6362828402290290e+00 3.5329135426240939e+00 5.4256424847864400e+02 6.5312349193239770e+03 6.6702334439632693e+00 -8.0939910740191934e+00 7.2044631463040048e+01 -7.8268769351405399e+02 -4.3045428647215977e+02 -2.3910279592393557e-01 -8.9088613550905791e+00 6.1421165650953810e+02 3.0595087964648997e+03 3.9669482017707608e+01 -2.6803338769075299e+02 9.9699490323298505e+00 3.2632718294734032e+03 -8.4985633287956296e+02 -1.6861157562014455e+00 1.6935687200012555e+02 
      </Row>
      <Row Index="52">
        -2.2034518802643288e+02 2.7038400543779135e+03 2.1566751621118747e+03 1.6086733305186499e+01 1.1698887039456349e+02 2.0139603319414891e+02 -1.0028033689279109e+03 6.6942115991150727e+04 6.4201199355535209e+01 9.6580482070363360e+01 -1.3216718363031745e+04 8.9085378775210120e+02 2.8799658133881167e+01 3.9970995807379950e+01 7.8940956701035611e+02 6.0407806344213895e+01 -1.4153876623735530e+04 4.8720410832669586e+01 -1.5067952607915504e+02 1.4045975770235062e+04 -8.7788600357845426e+03 3.4924190759449266e+02 5.0817700052175496e+00 2.2963021429022774e+02 -6.2097915292461403e+02 -3.8275702505730093e+04 5.5920659264666028e+01 3.1898222384578548e+02 4.3577342163026333e+02 -7.3415052966107614e+03 -6.5988880905424594e+01 -1.2867478207196109e+02 -7.2704934615221282e+02 8.4179169454949442e+02 -2.2955335515032581e+04 -9.6780720287235454e+01 3.1643889804836363e+00 -1.7343639126617461e+04 6.4932693537897649e+03 -5.0244145887318155e+01 7.3834939844837209e+00 -5.2753036069049267e+02 2.3802447508998011e+02 -1.3817514168784884e+05 5.9855999555074959e+00 -5.0062318255598075e+02 -1.2169033384297718e+04 -3.8977150452312781e+03 9.4661407360821613e+01 6.4766317926289048e+02 6.8394314149871934e+02 -8.4985635802892648e+02 4.4105349521303491e+05 -6.8795580867910758e+01 -4.2626934186215035e+05 
      </Row>
      <Row Index="53">
        3.9885572556894999e+00 -1.0575588472647723e+02 -1.6953899883546700e+02 6.6364597853074798e+00 2.4938908436260023e+00 5.6025932952092887e+00 -8.6690567210715130e+00 4.7260213544844049e+01 8.2179962755690212e+00 -4.3039809426138831e+00 -6.9621709067119809e+01 4.5068234454653123e+01 3.5601590766505780e+00 2.4067129176545166e-01 -3.1618810558078110e+00 -2.7694152124698235e-01 1.7458062033894748e+01 -1.0458109603234277e+01 -4.1451848855675735e+00 1.4692615255898272e+02 3.8698624643924404e+00 5.7557885448847514e+00 1.0508458220078742e+00 2.4097478856583621e-01 -2.0914186672376900e+00 -4.8997976152078536e+01 -6.4598292984627506e+00 3.6313882288762613e+00 1.1838491770524342e+02 1.0885747158248569e+02 -1.6451521967427400e+01 -3.1978483942055771e+00 -1.1776075738260136e+01 1.0163098896173608e+01 -1.6117102255015780e+01 -3.1117032151323940e+00 -1.0216519006266296e+00 -4.6649751743335855e+01 8.8047540627434785e+01 4.3839261820163244e-01 2.0984761789240869e-01 -5.3291476313756050e+00 1.7006159630052409e-01 9.4088185468148140e+01 7.8147179918468446e-01 -4.4232805786439862e+00 -5.3938831102698828e+01 -2.8364772760818738e+01 1.5471987157552828e+01 9.9299315889117281e+00 -2.5261697083597028e+00 -1.6861157377182761e+00 -6.8795580849247685e+01 1.3498111718749954e+01 1.3413578895060590e+02 
      </Row>
      <Row Index="54">
        2.7809935045312159e+02 2.4609548142164946e+04 -1.0193570117501309e+04 3.4992375960526988e+02 1.5784631491160326e+01 1.4472522619100637e+03 1.1424643910385203e+02 -6.7131350065057515e+04 -4.5183406053460203e+01 -2.5625847095914651e+01 -2.3195061773985624e+04 -2.5638231131546199e+03 5.3662038617796497e+01 -1.0159109823347535e+01 -1.6222274329274660e+02 -2.2251212913671043e+02 1.4456525134758092e+04 -9.2003001369535923e+01 2.0819996594419354e+02 2.5479040226876736e+04 1.0404169098889921e+04 -3.4627989621274173e+02 -1.3372201429738197e+00 1.8804096885025501e+01 9.5387814823305234e+01 3.4192701817051042e+04 -9.6777229043189436e+01 -3.8731200929149054e+02 -1.7768158297933638e+04 1.2934863386480138e+04 -3.8028784202104725e+02 -3.2313053178186237e+01 -2.1749131884840317e+03 1.9004321332427207e+02 2.5785020486011577e+04 1.0221693044772837e+02 6.0189164813345997e+00 -4.8893222708599642e+03 -5.4120231967389664e+03 3.8165145835806470e+01 8.4424562999756745e+00 -2.1733974840160226e+02 -1.3203600134010776e+02 1.3462215656517236e+05 1.2714957374009828e+00 1.6327824275563762e+02 -1.4786345768010842e+04 2.4941954447267344e+03 8.9563143509622023e+01 -1.6102542134281248e+02 1.6470287641743198e+01 1.6935690017364124e+02 -4.2626934186658182e+05 1.3413578898156993e+02 4.3795559372469794e+05 
      </Row>
    </InverseHessian>
  </Weights>
</MethodSetup>
