<?xml version="1.0"?>
<MethodSetup Method="DL::DNN_CPU">
  <GeneralInfo>
    <Info name="TMVA Release" value="4.2.1 [262657]"/>
    <Info name="ROOT Release" value="6.26/08 [399880]"/>
    <Info name="Creator" value="pgaigne"/>
    <Info name="Date" value="Thu Mar  9 10:33:03 2023"/>
    <Info name="Host" value="Linux 28693209b56e 5.15.0-1022-azure #27~20.04.1-Ubuntu SMP Mon Oct 17 02:03:50 UTC 2022 x86_64 x86_64 x86_64 GNU/Linux"/>
    <Info name="Dir" value="/afs/cern.ch/user/p/pgaigne/xiccpp/Xicc/TMVA"/>
    <Info name="Training events" value="2000"/>
    <Info name="TrainingTime" value="1.06312718e+01"/>
    <Info name="AnalysisType" value="Classification"/>
  </GeneralInfo>
  <Options>
    <Option name="V" modified="Yes">True</Option>
    <Option name="VerbosityLevel" modified="No">Verbose</Option>
    <Option name="VarTransform" modified="Yes">N</Option>
    <Option name="H" modified="Yes">False</Option>
    <Option name="CreateMVAPdfs" modified="No">False</Option>
    <Option name="IgnoreNegWeightsInTraining" modified="No">False</Option>
    <Option name="InputLayout" modified="No">0|0|0</Option>
    <Option name="BatchLayout" modified="No">0|0|0</Option>
    <Option name="Layout" modified="Yes">TANH|128,TANH|128,TANH|128,LINEAR</Option>
    <Option name="ErrorStrategy" modified="Yes">CROSSENTROPY</Option>
    <Option name="WeightInitialization" modified="Yes">XAVIERUNIFORM</Option>
    <Option name="RandomSeed" modified="No">0</Option>
    <Option name="ValidationSize" modified="No">20%</Option>
    <Option name="Architecture" modified="Yes">CPU</Option>
    <Option name="TrainingStrategy" modified="Yes">LearningRate=1e-2,Momentum=0.9,ConvergenceSteps=20,BatchSize=100,TestRepetitions=1,WeightDecay=1e-4,Regularization=None,DropConfig=0.0+0.5+0.5+0.5</Option>
  </Options>
  <Variables NVar="4">
    <Variable VarIndex="0" Expression="var1+var2" Label="myvar1" Title="myvar1" Unit="" Internal="myvar1" Type="F" Min="-9.33803940e+00" Max="7.69307804e+00"/>
    <Variable VarIndex="1" Expression="var1-var2" Label="myvar2" Title="Expression 2" Unit="" Internal="myvar2" Type="F" Min="-3.25508261e+00" Max="4.02912045e+00"/>
    <Variable VarIndex="2" Expression="var3" Label="var3" Title="Variable 3" Unit="units" Internal="var3" Type="F" Min="-5.27774286e+00" Max="4.64297915e+00"/>
    <Variable VarIndex="3" Expression="var4" Label="var4" Title="Variable 4" Unit="units" Internal="var4" Type="F" Min="-5.60070276e+00" Max="4.67435789e+00"/>
  </Variables>
  <Spectators NSpec="2">
    <Spectator SpecIndex="0" Expression="var1*2" Label="spec1" Title="Spectator 1" Unit="units" Internal="spec1" Type="F" Min="-9.91655540e+00" Max="8.70301723e+00"/>
    <Spectator SpecIndex="1" Expression="var1*3" Label="spec2" Title="Spectator 2" Unit="units" Internal="spec2" Type="F" Min="-1.48748331e+01" Max="1.30545254e+01"/>
  </Spectators>
  <Classes NClass="2">
    <Class Name="Signal" Index="0"/>
    <Class Name="Background" Index="1"/>
  </Classes>
  <Transformations NTransformations="1">
    <Transform Name="Normalize">
      <Selection>
        <Input NInputs="4">
          <Input Type="Variable" Label="myvar1" Expression="var1+var2"/>
          <Input Type="Variable" Label="myvar2" Expression="var1-var2"/>
          <Input Type="Variable" Label="var3" Expression="var3"/>
          <Input Type="Variable" Label="var4" Expression="var4"/>
        </Input>
        <Output NOutputs="4">
          <Output Type="Variable" Label="myvar1" Expression="var1+var2"/>
          <Output Type="Variable" Label="myvar2" Expression="var1-var2"/>
          <Output Type="Variable" Label="var3" Expression="var3"/>
          <Output Type="Variable" Label="var4" Expression="var4"/>
        </Output>
      </Selection>
      <Class ClassIndex="0">
        <Ranges>
          <Range Index="0" Min="-4.3359384536743164e+00" Max="6.3994679450988770e+00"/>
          <Range Index="1" Min="-3.2098844051361084e+00" Max="4.0291204452514648e+00"/>
          <Range Index="2" Min="-2.6063573360443115e+00" Max="3.8698983192443848e+00"/>
          <Range Index="3" Min="-2.1695792675018311e+00" Max="4.5351858139038086e+00"/>
        </Ranges>
      </Class>
      <Class ClassIndex="1">
        <Ranges>
          <Range Index="0" Min="-9.3380393981933594e+00" Max="7.6930780410766602e+00"/>
          <Range Index="1" Min="-3.2550826072692871e+00" Max="3.3650035858154297e+00"/>
          <Range Index="2" Min="-5.2777428627014160e+00" Max="4.6429791450500488e+00"/>
          <Range Index="3" Min="-5.6007027626037598e+00" Max="4.6743578910827637e+00"/>
        </Ranges>
      </Class>
      <Class ClassIndex="2">
        <Ranges>
          <Range Index="0" Min="-9.3380393981933594e+00" Max="7.6930780410766602e+00"/>
          <Range Index="1" Min="-3.2550826072692871e+00" Max="4.0291204452514648e+00"/>
          <Range Index="2" Min="-5.2777428627014160e+00" Max="4.6429791450500488e+00"/>
          <Range Index="3" Min="-5.6007027626037598e+00" Max="4.6743578910827637e+00"/>
        </Ranges>
      </Class>
    </Transform>
  </Transformations>
  <MVAPdfs/>
  <Weights NetDepth="4" InputDepth="1" InputHeight="1" InputWidth="4" BatchSize="1" BatchDepth="1" BatchHeight="100" BatchWidth="4" LossFunction="C" Initialization="F" Regularization="0" OutputFunction="S" WeightDecay="9.9999997473787516e-05">
    <DenseLayer Width="128" ActivationFunction="3">
      <Weights Rows="128" Columns="4">
        -2.603058e-01  -1.589551e-01  2.885962e-02  1.681956e-02  -1.490859e-01  9.415934e-04  -8.243509e-02  3.972845e-01  1.193155e-01  1.139674e-01  -9.660270e-02  -1.690767e-01  3.124679e-03  9.635181e-02  4.611396e-02  1.159418e-01  -9.779516e-03  1.065296e-01  -3.182248e-02  2.572528e-01  -9.426476e-02  -9.670637e-02  -2.919483e-01  3.334927e-01  5.871789e-02  -3.303169e-02  1.006418e-01  -1.199996e-01  1.202867e-01  -1.183943e-01  -1.199645e-01  -3.923036e-01  -2.485178e-01  9.590734e-02  -2.295457e-01  3.324144e-01  9.497298e-02  3.557000e-02  -4.160092e-02  -3.271377e-01  -1.987109e-01  -2.724895e-02  1.224655e-02  3.097422e-01  2.237085e-01  1.100710e-01  -5.825501e-02  -9.497949e-02  1.548612e-01  -7.505577e-02  3.931212e-03  -1.038432e-01  -6.659909e-02  -4.966891e-02  -3.359720e-02  -1.453149e-01  -1.810744e-02  -7.192824e-04  -2.056036e-01  3.168713e-01  2.610448e-01  1.319741e-01  3.015043e-02  -3.377947e-01  8.313327e-02  1.444321e-01  1.667990e-01  -1.932142e-01  2.174504e-01  1.345171e-02  1.123880e-01  -2.547575e-01  6.890200e-02  4.889559e-03  -1.060641e-01  -2.716719e-01  6.880032e-02  5.362709e-02  2.170653e-01  -2.806784e-01  -1.343509e-01  -2.381422e-02  -1.226918e-01  3.482257e-01  -1.208494e-01  2.783186e-02  3.096466e-02  6.795633e-02  3.548605e-01  -6.904989e-02  -3.919209e-02  -3.019543e-01  -2.925940e-01  1.271741e-01  1.260624e-01  3.348015e-01  1.170787e-01  -1.767510e-01  -1.081318e-01  3.086217e-02  -1.764634e-01  1.090952e-01  -1.407489e-01  3.557619e-01  -3.902253e-01  -1.778831e-01  1.522505e-02  3.468433e-01  1.010267e-02  7.689460e-02  -2.082497e-01  2.626358e-01  -1.598368e-01  -1.858380e-02  -1.221096e-02  2.278323e-01  3.323843e-01  1.974419e-01  1.676113e-01  -4.353810e-01  1.394052e-04  -4.134091e-02  8.885003e-03  5.857014e-02  8.918060e-02  -6.025838e-02  1.231075e-02  -2.430996e-03  -2.061196e-01  -7.402048e-02  -1.120736e-01  3.876103e-01  -1.918314e-01  -1.850882e-01  8.900713e-02  3.369574e-01  -2.052481e-01  -1.267424e-01  -1.921246e-01  2.644038e-01  -1.542239e-01  1.327927e-01  -4.936489e-04  -2.232858e-02  2.323870e-01  -4.465728e-02  1.673471e-01  -2.966837e-01  1.611840e-01  3.991915e-02  1.311977e-01  -2.912095e-01  -2.154998e-01  -6.975801e-02  -1.905086e-01  2.339554e-01  2.259037e-01  -1.061932e-01  1.661506e-01  -2.372583e-01  -4.033321e-02  -4.282917e-02  -7.994280e-02  -3.161909e-01  9.842568e-02  -7.138471e-02  7.077633e-03  -6.083773e-02  -1.581121e-01  8.429911e-02  1.084303e-01  6.667376e-03  -4.301669e-01  -1.130578e-02  9.373405e-02  4.049093e-01  -1.224502e-01  -6.723316e-02  -1.223977e-01  2.661799e-01  -5.509704e-02  4.563424e-02  -4.243416e-02  2.690527e-01  -3.367490e-01  -5.238896e-02  5.741676e-02  3.133103e-01  -2.739853e-01  -7.123753e-02  -1.221400e-01  4.028152e-01  3.899975e-02  4.616349e-03  2.610793e-02  9.195853e-02  1.999223e-01  1.370107e-01  -1.047828e-02  -2.277570e-01  -1.757071e-01  -1.625908e-01  -4.107855e-03  2.978517e-01  2.896703e-01  6.120742e-02  2.006806e-01  -2.733642e-01  -1.524970e-01  -1.584029e-01  -1.682660e-01  3.139482e-01  2.716253e-01  1.236211e-01  8.715580e-02  -2.539615e-01  2.397570e-01  -7.526082e-03  1.668034e-01  -3.179840e-01  3.302618e-01  3.109136e-02  6.887870e-02  -2.750859e-01  1.700660e-01  3.106142e-02  -9.264021e-02  -2.537232e-01  -4.124358e-02  2.924725e-02  -1.449993e-01  3.454111e-01  -5.891320e-02  1.038966e-02  4.214644e-02  3.335654e-02  -1.663506e-01  8.320176e-02  -1.646367e-01  2.944401e-02  2.820090e-01  -4.990499e-02  2.413794e-02  -3.248419e-01  -1.631412e-01  -8.917730e-02  5.626182e-02  1.182088e-01  1.461211e-01  9.100015e-02  -5.738906e-02  2.715124e-02  -2.959789e-01  -5.940134e-02  7.045502e-02  3.693487e-01  -2.664728e-01  -1.150711e-01  1.594198e-02  2.642967e-01  3.212520e-01  6.685090e-02  5.482065e-02  -2.615499e-01  3.479532e-01  -1.250911e-01  1.228069e-01  -3.537664e-01  -3.517349e-01  5.550531e-02  1.892375e-02  3.699384e-01  2.017531e-01  1.241920e-01  -1.860030e-01  -3.834367e-02  -2.401605e-01  -3.943605e-02  4.272001e-02  3.717415e-01  -1.171662e-01  -3.182893e-02  -1.958768e-01  3.167557e-01  -3.557696e-02  6.666344e-02  -1.086257e-01  1.797658e-02  -2.968624e-02  6.878871e-02  1.503529e-01  3.438772e-02  2.307793e-01  9.477169e-02  5.905708e-03  -1.092085e-01  7.059737e-02  2.671241e-02  -9.789765e-03  -3.367661e-02  6.583548e-02  -7.486939e-03  8.092102e-02  -3.338829e-01  1.316347e-01  1.027143e-01  1.097625e-01  -2.884178e-01  -1.178189e-01  -1.206468e-02  -1.143365e-01  1.895326e-01  1.506959e-01  -6.940719e-02  7.057779e-02  -1.431853e-01  -9.505276e-02  -9.631861e-02  -2.752524e-02  1.293354e-01  -5.293034e-02  -1.088460e-01  -1.644855e-01  4.019344e-01  3.612518e-01  -7.221377e-02  -3.205846e-02  -3.835909e-01  -2.808653e-02  -5.597295e-02  1.989320e-02  -3.339665e-01  -2.777109e-01  -1.307391e-01  -1.730671e-01  2.685774e-01  -2.076451e-01  -7.902586e-02  -9.613054e-03  3.421702e-01  -8.057815e-02  -1.652356e-02  4.269142e-02  9.453815e-02  -2.009805e-01  7.773536e-02  7.968462e-02  3.339025e-01  3.029932e-01  1.861528e-01  -8.470532e-02  -3.962796e-02  -4.890562e-02  1.042525e-01  8.553886e-02  -7.270622e-02  -1.172145e-01  1.262651e-01  -5.654290e-02  3.671818e-01  3.272774e-01  1.512512e-01  -1.031463e-01  -3.681115e-01  3.997924e-01  1.067876e-01  -1.448679e-02  -3.672764e-01  1.312257e-01  -1.619995e-01  2.280204e-01  -3.833822e-01  -3.243680e-01  4.874806e-02  1.731571e-01  1.767883e-01  -2.733444e-01  -1.438567e-02  -6.358784e-02  3.457531e-01  -2.045567e-01  -5.067545e-03  -1.472047e-03  1.191166e-01  2.795363e-03  1.647120e-01  2.342286e-02  -1.956271e-01  -2.012984e-01  -7.040859e-04  -1.606571e-01  1.827751e-01  2.085205e-01  -5.482654e-02  7.658453e-02  -2.835281e-01  -2.323931e-01  1.003603e-01  -1.610574e-01  1.343507e-01  1.177262e-01  -1.411180e-01  -3.627430e-02  3.157153e-02  2.943056e-01  1.803922e-01  7.767366e-02  -3.252597e-01  -1.518558e-01  7.134550e-02  -1.563558e-01  4.010941e-01  -1.568602e-02  7.864600e-02  9.525610e-02  -3.926431e-01  2.582770e-01  1.215281e-02  -2.270509e-02  -1.680253e-01  1.477691e-02  1.011846e-01  1.923320e-01  -3.176722e-01  -3.978847e-02  2.735751e-02  1.536530e-01  -8.698316e-02  -8.654889e-02  9.768604e-02  -1.027818e-01  3.748124e-01  1.961550e-01  3.014131e-02  -1.415730e-02  -3.489014e-01  -1.664324e-01  6.572735e-02  -2.009252e-02  1.633011e-01  1.214718e-01  5.157726e-02  1.630046e-01  -3.356857e-01  2.900858e-01  -1.162645e-01  2.267259e-01  -2.227504e-01  1.189186e-01  -1.560232e-01  1.769499e-01  -3.920725e-01  2.251476e-01  7.158418e-02  -2.409598e-03  -3.386721e-01  1.736571e-01  -4.700362e-02  4.373013e-02  -2.893048e-01  1.344655e-01  3.198845e-02  7.212768e-02  -3.041473e-01  -8.642302e-02  4.490955e-02  3.540545e-02  6.897373e-02  5.909539e-02  1.691182e-01  8.417355e-02  2.317884e-02  -2.450418e-01  -5.290061e-02  -1.049752e-01  2.374143e-01  -3.197905e-01  -4.418041e-04  -2.210848e-01  3.932456e-01  -3.053725e-01  -8.353228e-02  2.630392e-02  3.223374e-01  -6.587100e-02  -1.104117e-02  -1.433184e-01  2.315130e-01  -1.825701e-01  7.494627e-04  -2.194327e-01  2.962743e-01  1.830688e-01  -2.026219e-03  9.201612e-02  -2.886215e-01  6.618653e-02  1.407032e-01  -8.640541e-02  -3.046713e-01  -1.435967e-01  1.871865e-02  -1.244787e-01  2.711547e-01  2.726189e-01  6.300228e-02  -3.314883e-02  -3.422064e-01  2.683445e-01  -3.201170e-02  -4.824999e-02  -2.079835e-01  
      </Weights>
      <Biases Rows="128" Columns="1">
        9.993538e-03  -2.909819e-02  2.316983e-02  -1.544257e-02  -2.310210e-02  3.554661e-03  1.902596e-03  3.537279e-02  2.134562e-02  3.169019e-02  -2.311546e-02  -4.833493e-03  5.265098e-04  1.790587e-02  -2.518458e-02  2.707641e-02  4.099494e-03  2.047231e-03  1.658504e-02  1.920867e-02  -2.188276e-02  -5.528509e-03  4.343379e-03  -6.565780e-03  -2.565277e-03  -1.495849e-02  1.300063e-02  -2.069294e-02  -1.557668e-02  2.266384e-02  -5.198039e-03  -9.388409e-03  -1.298417e-02  -3.230480e-02  -2.401529e-03  1.975398e-02  -5.110773e-04  1.378039e-02  4.172088e-03  -1.113208e-02  3.283421e-02  -5.262323e-03  4.946813e-03  -6.463866e-03  -1.781986e-02  -2.766394e-02  -8.771064e-03  -2.015504e-02  -2.312724e-02  1.940355e-02  -1.727499e-02  -1.388359e-02  -1.968368e-02  5.385620e-03  -5.165247e-03  -6.452009e-03  1.804306e-02  -2.649807e-02  -7.518310e-03  2.889069e-02  1.721193e-02  -6.786640e-03  -2.001417e-04  -2.855431e-02  -9.827391e-03  -1.616178e-03  -1.297449e-02  -7.359461e-03  1.260419e-02  -3.073006e-02  -1.343338e-02  1.580752e-02  -1.218672e-02  -4.065085e-03  -8.724544e-03  2.745245e-02  1.970674e-02  -4.502058e-03  3.938376e-04  -2.887190e-04  -3.329991e-02  3.201393e-03  2.964041e-02  1.020381e-03  -2.455820e-02  -3.781169e-03  -1.656776e-02  -2.174063e-02  1.698690e-04  -3.269795e-02  2.201740e-02  1.757652e-02  1.878041e-02  -3.215197e-03  -1.164041e-02  6.265058e-03  1.733912e-02  5.895920e-03  7.159091e-03  1.835963e-02  -1.860325e-02  1.959001e-02  -2.659117e-02  4.269997e-02  -7.088878e-03  3.148290e-02  -3.897412e-03  -1.344459e-02  2.627346e-02  -3.835541e-03  2.209418e-02  -2.586632e-02  1.021273e-02  3.202989e-02  9.269493e-03  2.253467e-02  -2.079214e-03  -1.332569e-02  3.323607e-03  4.513077e-03  -1.707410e-02  -2.343859e-02  -4.012259e-03  1.713224e-02  4.440319e-02  -1.334407e-02  2.237997e-02  -1.152969e-03  
      </Biases>
    </DenseLayer>
    <DenseLayer Width="128" ActivationFunction="3">
      <Weights Rows="128" Columns="128">
        1.316345e-01  -4.475645e-02  -6.324271e-02  5.271136e-02  -1.397198e-01  -9.643994e-02  2.253050e-02  -6.187042e-02  2.186058e-02  9.519397e-02  -1.786263e-01  1.020182e-04  -7.337840e-02  -9.447068e-03  1.737648e-01  1.611851e-01  3.436382e-02  1.516302e-01  5.431663e-03  1.839689e-01  3.724029e-02  -7.439039e-02  1.337814e-01  7.144693e-03  -2.328138e-02  -2.113886e-01  -9.669103e-02  -4.514030e-02  -2.659946e-02  4.542970e-02  2.196970e-02  -1.014831e-01  9.998856e-02  -1.029493e-01  7.741355e-02  7.577829e-02  1.029406e-01  -7.677838e-02  1.388557e-01  1.355342e-02  1.539431e-01  -6.953826e-02  -7.038430e-02  -2.088174e-01  -1.610575e-03  -6.836382e-02  -4.385235e-02  -8.990283e-03  -5.880154e-02  -3.856708e-02  -1.855837e-01  -1.200893e-01  2.950792e-02  8.208236e-03  -7.258592e-02  -6.911275e-02  -7.668786e-02  4.134041e-02  -6.416760e-02  -5.723671e-02  9.429085e-02  -1.212240e-01  2.231817e-01  4.803924e-02  9.387499e-02  -6.012656e-02  1.031803e-01  -1.394984e-01  -8.396424e-02  -5.047839e-02  -1.243371e-01  -6.931038e-02  1.182511e-01  1.047224e-02  -1.338052e-01  4.997130e-02  3.627293e-02  -1.276414e-02  -1.819060e-01  -1.905329e-01  1.088742e-01  5.420862e-02  -1.405739e-01  -1.325059e-01  -1.120875e-02  -5.875245e-02  6.645908e-02  -7.363148e-02  1.035011e-01  -7.914722e-02  -1.897216e-02  1.107700e-01  -7.074337e-02  -5.437392e-02  -1.218389e-01  9.177634e-02  -5.848827e-02  1.046268e-01  -1.249406e-02  -1.893916e-02  -1.360600e-01  -7.735157e-02  -5.982142e-02  1.124783e-01  1.724236e-01  1.937618e-02  2.240960e-01  3.004887e-02  6.588437e-02  -8.904727e-02  -2.831869e-02  3.440804e-02  -7.125430e-02  8.714592e-02  1.164800e-02  4.538205e-02  -5.053378e-02  1.233534e-01  1.387570e-01  6.082311e-03  1.485244e-02  -8.609265e-02  -2.639218e-02  3.479985e-02  8.303817e-02  1.882009e-02  8.860350e-02  1.044416e-01  -2.018366e-02  1.840728e-02  1.416108e-01  1.211790e-01  8.018611e-02  -1.331940e-01  1.707796e-01  1.330590e-01  -9.531645e-02  -1.474967e-01  -9.735810e-02  -6.620324e-02  3.493777e-02  1.322916e-01  2.964422e-02  -3.221535e-02  8.116633e-02  1.164282e-02  1.182032e-01  1.904500e-01  -2.358454e-01  -6.395143e-02  1.666582e-01  5.284334e-02  1.093287e-02  -2.336392e-01  -1.806569e-01  -2.056401e-02  -1.214402e-01  -2.998243e-02  -8.467508e-02  4.203199e-02  -2.622682e-01  -6.929632e-02  -9.928028e-02  1.301738e-01  1.664230e-01  1.922099e-01  1.608119e-01  3.727320e-02  7.914329e-02  3.687656e-02  -6.823985e-02  -1.597904e-01  -2.054271e-01  4.013684e-02  -3.416821e-01  -1.843298e-01  3.734899e-02  -5.247883e-02  -5.385232e-02  1.397858e-01  -1.723682e-01  1.487270e-01  -5.078861e-02  2.821107e-01  -2.859722e-02  -2.032042e-01  9.413885e-02  -4.942345e-02  2.667938e-01  -1.229722e-02  1.880057e-01  -2.218929e-01  -3.753455e-02  2.973069e-01  3.161334e-02  -4.099651e-02  -2.266040e-01  -2.155837e-01  -1.421600e-01  5.490941e-02  -4.097100e-02  2.183021e-01  4.573640e-02  -7.495075e-02  -4.583264e-02  -1.004461e-01  9.887722e-03  -6.577639e-02  -8.953734e-02  -5.998571e-03  1.117611e-01  -1.507391e-01  -2.697704e-01  5.197541e-03  -5.174379e-02  9.822773e-02  1.305820e-01  -8.863205e-02  6.190416e-02  1.807422e-01  1.725862e-01  5.717968e-02  -1.238064e-01  1.116187e-01  2.195054e-01  -2.015068e-02  -2.010905e-02  1.187005e-02  -7.056606e-02  4.196738e-02  -4.737623e-02  1.422654e-01  2.684116e-02  1.013514e-01  4.836925e-02  -1.193340e-02  1.650918e-01  -1.744729e-01  2.734315e-03  5.487569e-02  -5.737619e-02  1.757771e-01  7.053841e-02  1.722059e-01  -1.040244e-02  1.005849e-01  -6.534631e-02  -3.655893e-02  -2.222127e-01  3.951447e-02  -1.479047e-01  1.993765e-01  4.235668e-02  -2.456317e-01  3.063023e-02  4.127014e-02  -1.580701e-01  1.641294e-01  -3.587826e-02  -4.196230e-02  4.304922e-02  7.990258e-02  1.302921e-01  -1.396462e-01  6.248774e-02  -1.360371e-01  2.369344e-01  -1.997616e-01  -1.298786e-01  -3.669456e-02  1.168395e-01  -8.460768e-02  1.864787e-02  -1.072610e-01  6.321495e-02  5.162742e-02  9.709075e-02  2.419666e-02  -2.919035e-01  1.052909e-02  2.101196e-01  7.089204e-02  2.551780e-01  7.100831e-02  -8.983532e-02  -9.543617e-03  -2.348120e-02  -7.986527e-02  1.326399e-01  2.866242e-02  1.788623e-01  3.252200e-02  -8.253781e-02  -2.726933e-01  -5.996085e-02  -1.540392e-01  8.423704e-02  1.097305e-01  1.473644e-01  2.622391e-01  5.748402e-02  -4.726216e-02  3.467191e-01  2.685064e-01  1.028059e-01  -6.187290e-02  2.031221e-01  -1.333383e-01  -6.862790e-02  4.867206e-02  -3.359212e-02  -1.939493e-01  -1.173872e-01  -5.216740e-02  3.783327e-02  1.470896e-01  -1.424760e-01  1.186709e-01  5.492959e-02  9.013689e-02  3.190120e-02  -3.274048e-01  -1.146640e-01  3.888019e-02  7.402072e-02  3.091273e-01  5.572946e-02  -8.211228e-02  -1.558489e-01  -1.585845e-01  5.887655e-02  6.430412e-02  -1.473286e-01  1.516383e-01  8.585716e-02  4.346444e-02  2.030516e-01  -8.183496e-02  3.880223e-02  1.024217e-01  2.783792e-01  6.620239e-02  2.320510e-01  3.230422e-02  -6.858449e-02  1.513360e-01  5.238161e-02  -2.856223e-01  -1.223902e-01  1.184809e-01  1.858773e-01  -9.596795e-02  -1.837399e-01  -8.829015e-02  1.808149e-02  -4.103522e-02  -1.230467e-01  -1.663991e-01  2.181614e-01  -3.167356e-02  -7.087100e-02  3.279458e-02  -1.153296e-02  2.280809e-02  -8.663082e-02  1.205019e-01  -7.437672e-02  -4.160137e-02  -7.619271e-02  -2.375005e-02  -1.252426e-01  -1.536952e-01  -2.481689e-02  1.558025e-03  3.715139e-02  1.688965e-01  1.622540e-01  7.836383e-02  1.507678e-01  -3.765194e-02  1.076554e-01  2.516975e-01  -2.435329e-01  -7.206313e-02  -1.560462e-01  -1.497985e-01  -1.648405e-02  1.083536e-01  -1.040243e-01  1.110067e-01  -1.833409e-02  -1.401906e-02  -1.476838e-01  -3.370478e-02  -4.717896e-02  -8.718452e-02  7.883519e-03  -2.164193e-01  2.295136e-02  -7.168750e-02  7.927608e-02  2.300770e-02  -9.432810e-02  -2.119797e-02  1.237385e-03  -6.973329e-02  1.944090e-01  -4.196670e-02  9.728649e-02  6.538837e-02  4.516381e-02  9.603273e-02  -1.546414e-01  4.225772e-02  -9.531952e-02  1.464064e-01  -1.805393e-01  1.271105e-01  1.548666e-02  -3.161371e-02  1.440003e-01  2.303254e-01  -1.432682e-01  1.514384e-01  8.767664e-02  3.594441e-02  1.547590e-01  -1.765794e-01  1.880397e-02  1.395503e-01  -1.743159e-01  -4.287358e-02  -6.522878e-02  1.065630e-01  -5.701397e-02  6.640962e-02  -1.710341e-02  1.086735e-01  1.931536e-01  1.745206e-01  4.449499e-02  8.584282e-02  -6.455613e-02  -1.119405e-02  -3.200879e-02  8.831491e-02  -1.155774e-01  -1.451499e-01  -1.883320e-01  1.707908e-01  -6.445953e-02  1.277165e-01  1.428039e-01  -1.131789e-01  -7.532916e-02  -2.367261e-03  2.765051e-02  -2.895464e-02  2.575570e-02  -1.493628e-01  1.696556e-01  -1.370644e-04  3.892139e-02  4.335178e-02  9.380575e-02  1.022815e-01  2.846165e-02  -1.655071e-01  -8.578996e-02  -1.097158e-02  -1.089648e-01  -1.702637e-02  -6.908219e-02  9.398247e-02  -1.590354e-01  1.971340e-01  1.165412e-01  -9.164659e-02  -9.261262e-02  2.905132e-02  -2.718942e-02  -2.093604e-01  4.554590e-02  -1.259133e-01  -2.890697e-02  1.758601e-01  -7.907040e-02  1.241309e-01  -1.797059e-01  -2.737034e-02  9.543478e-02  -1.588219e-02  1.973476e-01  -2.401061e-02  -2.460575e-02  -7.357090e-03  8.032323e-02  -1.468349e-02  9.683783e-02  1.301312e-01  -8.970700e-02  3.656556e-02  -2.231154e-01  -1.883389e-01  5.846348e-02  -2.061335e-01  -1.632694e-01  4.724349e-02  1.162459e-01  -1.935307e-01  8.323723e-02  4.858563e-02  -1.516967e-01  -3.009631e-02  -7.552204e-02  -1.343432e-01  3.978414e-02  1.837790e-02  -9.538391e-02  -1.397720e-01  -2.192484e-02  -1.603373e-01  1.924134e-01  1.156087e-02  7.428768e-02  1.351318e-01  1.312043e-01  -6.648370e-02  -2.676572e-02  -9.427281e-02  -8.919265e-02  8.748979e-02  2.500772e-01  -1.037014e-01  -1.842612e-01  2.033931e-01  -3.414025e-07  5.226265e-02  1.442948e-01  -1.034281e-01  1.342978e-01  -1.005635e-01  7.239304e-02  8.384243e-02  2.236510e-01  1.605908e-01  -1.090661e-01  -6.445845e-02  -2.223102e-01  -1.479438e-01  1.295484e-02  -5.304947e-02  1.101668e-01  1.013777e-01  1.164684e-01  1.655656e-01  1.483734e-01  1.005671e-01  3.374433e-01  2.899931e-01  8.880199e-02  -4.522211e-02  -5.055156e-02  -1.280594e-01  1.732851e-01  -1.766861e-01  -9.264827e-02  -7.437307e-02  -1.737975e-01  8.152749e-02  -8.456939e-02  -8.487102e-02  -2.003816e-02  1.574886e-01  1.247653e-01  1.895252e-01  1.287868e-01  -1.920560e-01  6.560726e-02  6.152152e-02  -9.936420e-02  2.324227e-01  1.425025e-01  6.871932e-03  3.929423e-02  -1.043737e-01  7.850368e-02  -4.488071e-02  4.481332e-02  9.013786e-02  1.547128e-02  1.190485e-01  1.717630e-01  -1.276637e-01  8.038025e-02  1.353660e-01  3.154022e-01  1.393159e-01  1.268732e-02  -1.335000e-01  2.004900e-02  1.632277e-01  -3.898596e-03  -1.163303e-01  3.622229e-02  -5.986857e-02  1.627529e-01  3.339510e-02  -8.754248e-02  1.314110e-02  -8.947238e-02  8.801918e-02  3.803809e-02  -1.562213e-01  1.678145e-01  -6.710215e-02  -1.718260e-01  -7.465862e-02  9.226105e-02  1.609702e-01  -2.342097e-01  -7.492979e-02  -1.316353e-01  2.347561e-03  -7.118914e-02  -2.028773e-01  -8.229165e-02  -1.444422e-01  -8.682144e-02  4.776923e-02  -1.630371e-04  4.865053e-02  3.757332e-02  1.629285e-01  -4.808095e-03  3.306450e-02  -4.414806e-02  1.585307e-01  -1.433724e-01  -2.419946e-01  4.753695e-03  5.586346e-02  8.194459e-03  5.121044e-02  -7.995918e-02  9.856052e-02  -1.622813e-01  1.360177e-01  7.842064e-02  6.349495e-02  4.466090e-02  -7.513112e-02  -3.999121e-02  -9.438690e-02  -7.295521e-02  2.985743e-02  6.806907e-02  7.422202e-02  1.135546e-01  -2.870745e-02  1.075337e-01  -2.101799e-02  1.595826e-01  -1.478776e-01  -3.301923e-03  1.051380e-01  -1.075739e-01  1.556312e-01  3.333256e-02  2.000561e-01  1.279592e-01  -7.372223e-02  -1.443793e-01  5.685349e-02  -5.075207e-02  7.548877e-02  -8.775451e-02  8.427348e-02  -1.877465e-01  7.588521e-02  1.485187e-02  6.422286e-02  -1.594736e-01  -2.392728e-01  -8.316021e-02  -1.097129e-01  -2.523432e-01  -1.941596e-01  -1.326417e-02  -4.605023e-02  -1.348777e-01  6.364546e-03  -7.485243e-02  3.804416e-02  1.760328e-01  3.880915e-02  1.391954e-02  4.270615e-02  2.224666e-02  -1.797997e-01  1.172885e-01  -1.204387e-01  3.203098e-02  -2.082770e-01  -7.130415e-03  8.204194e-02  1.836246e-01  -2.240480e-02  7.409213e-02  -3.308344e-02  6.553387e-02  -4.748527e-02  -1.329935e-01  9.061240e-02  -6.475385e-02  -8.132738e-02  6.406996e-02  -1.424537e-02  -5.494593e-02  -6.604604e-02  -5.823187e-02  6.025341e-02  -1.190515e-01  -1.157332e-01  -1.987957e-01  1.333755e-01  7.800016e-02  1.848080e-01  1.062638e-01  -7.903940e-02  -1.274845e-01  2.268146e-03  1.297232e-01  -2.034386e-01  -1.693991e-01  2.113840e-02  6.505686e-02  -7.586739e-02  -1.092399e-01  -1.144820e-01  8.171820e-02  -7.433540e-02  -5.891434e-02  9.179298e-02  -7.231311e-02  3.721637e-02  -1.510874e-01  -1.082011e-01  1.795344e-01  -1.316976e-01  6.187616e-02  1.791266e-01  7.775333e-02  3.552701e-03  -1.676382e-02  -1.301582e-02  -7.962973e-02  -5.146799e-02  -1.692591e-01  -2.900900e-02  2.548663e-02  -7.307091e-02  3.353603e-02  8.175684e-02  -6.649710e-02  -1.960221e-01  8.705493e-02  5.746833e-02  1.203515e-01  -2.630433e-02  9.189963e-02  -1.131033e-01  1.557207e-01  1.858355e-01  5.574630e-02  -1.253544e-03  3.818572e-02  3.232715e-02  1.633226e-02  -6.829283e-02  -1.630472e-01  -7.767939e-02  1.259032e-01  -4.290399e-02  9.015847e-02  -4.976536e-03  -1.056032e-01  -2.102152e-01  2.717939e-01  -2.211599e-02  -8.676906e-04  4.900610e-03  1.187399e-01  2.341239e-01  1.569870e-01  -5.330396e-02  2.221255e-02  -1.438055e-01  4.369351e-02  5.550480e-02  1.988445e-01  -6.362083e-02  -5.125169e-02  -1.499586e-01  -1.864024e-01  -2.405133e-01  6.714695e-03  -8.687147e-03  9.248424e-02  9.755264e-02  1.168235e-01  2.313613e-01  -6.496458e-02  1.628646e-01  1.827285e-01  2.371858e-01  5.608908e-02  -1.848459e-01  1.209192e-01  1.371942e-02  2.183062e-02  -1.421329e-02  -1.619933e-01  -7.104903e-02  -1.955180e-01  7.112135e-03  1.107306e-01  -1.447305e-02  -2.235873e-01  -1.696996e-02  -7.958689e-02  2.599679e-02  7.340871e-02  -5.138111e-02  -1.343454e-02  2.521235e-02  1.186481e-01  1.019779e-01  1.991551e-01  -1.659376e-01  8.717413e-02  -1.753445e-01  1.621503e-01  5.966756e-02  -1.924103e-01  -2.698825e-02  7.012200e-02  -7.204502e-02  -4.139600e-02  -1.973839e-01  -1.363865e-01  6.762350e-02  2.780513e-01  -4.871493e-02  6.047095e-02  -1.437402e-01  7.123381e-02  6.168221e-02  4.509733e-02  -3.084128e-01  -1.717745e-01  -5.389986e-02  3.015119e-01  -1.428574e-01  -7.319227e-02  3.849772e-02  -2.410084e-01  1.489399e-01  -4.080217e-03  -1.404244e-01  7.200381e-02  -1.158409e-01  -1.972658e-01  9.156602e-02  1.133027e-01  -3.519987e-02  -2.050449e-01  -7.914368e-02  -1.608663e-01  -7.052369e-02  -3.804410e-02  -2.091799e-01  -2.209120e-01  6.895230e-02  1.617124e-02  -1.183648e-01  2.324879e-02  5.739520e-02  1.568440e-01  -5.849626e-02  9.378680e-02  -2.071677e-01  -6.356206e-03  2.862924e-01  -2.535731e-01  -9.594718e-06  8.003527e-02  2.067709e-01  -1.905573e-01  -1.398762e-01  1.705010e-02  2.287366e-02  6.596405e-02  6.570322e-02  1.070394e-01  9.863273e-03  1.191394e-01  -1.816223e-01  9.355273e-02  7.653624e-04  -1.189842e-02  -1.081337e-01  -1.188384e-01  -1.536092e-01  4.054731e-02  -8.978359e-02  2.285492e-01  -9.795560e-02  -1.487692e-01  1.127913e-02  9.958863e-02  1.321584e-01  2.010046e-01  1.471589e-01  9.369218e-02  -1.199943e-01  -4.482755e-02  -6.675657e-02  2.416983e-01  -2.639635e-02  2.241881e-02  2.761658e-02  1.317993e-04  -2.968099e-01  -1.086228e-02  -1.015302e-01  -1.799634e-02  1.362124e-01  1.279929e-01  1.839921e-01  1.076758e-01  -3.903268e-02  1.611974e-01  2.626700e-01  4.833225e-02  3.081173e-02  1.019667e-01  7.578692e-02  -1.760363e-02  -1.105590e-01  -1.159733e-02  -9.945152e-02  2.194253e-02  1.232765e-01  1.400407e-01  -9.261732e-02  3.133190e-02  -7.866646e-02  -1.313887e-01  2.327036e-01  1.547810e-01  -2.733068e-01  -1.964547e-01  1.769910e-01  -3.030045e-02  2.668671e-01  7.555977e-02  -1.274349e-01  -1.571209e-01  2.076342e-02  6.357098e-02  -8.637855e-02  -1.459942e-01  5.962212e-02  -2.235626e-02  7.833827e-02  2.051920e-01  -2.218839e-01  -5.759928e-02  9.609269e-03  3.001442e-01  8.548621e-03  1.324015e-01  -7.621297e-02  -3.202413e-02  1.540017e-01  -9.047797e-02  -1.433747e-01  5.149080e-02  1.232784e-01  2.363488e-01  -1.715988e-01  2.393189e-02  3.864993e-02  -2.155255e-01  8.894560e-03  -6.721347e-02  -2.255712e-02  1.407667e-01  4.464912e-02  6.454632e-02  -1.745740e-01  5.230242e-02  1.186435e-01  -1.066462e-01  1.409597e-01  -2.403440e-02  -2.773707e-02  -2.982936e-02  -1.991136e-01  -4.437611e-02  -1.524115e-01  -3.381235e-02  -7.144383e-02  1.004862e-01  -5.494841e-02  9.587446e-02  1.187766e-01  1.690156e-01  -6.090776e-02  -1.589466e-01  1.087171e-01  -1.384253e-01  -1.468335e-01  -1.115164e-01  -4.675936e-02  5.204441e-02  3.770314e-02  4.243271e-02  1.323578e-01  1.218803e-01  -9.951430e-02  1.893006e-01  1.229088e-01  2.011629e-01  -3.299404e-02  -4.741205e-03  -4.586209e-02  4.442314e-02  -8.986323e-02  -6.867848e-02  -1.233605e-01  -7.789350e-02  -4.305878e-03  2.056431e-01  -1.141851e-01  -6.958245e-02  6.794734e-02  -1.205308e-02  2.217510e-01  7.852046e-03  7.979319e-02  -5.022420e-02  -1.219066e-01  -4.752890e-03  5.105089e-02  1.457825e-01  1.194748e-01  -4.458736e-02  5.676578e-02  2.651580e-02  -2.208473e-01  5.967911e-02  -1.074228e-01  1.352900e-02  7.020791e-03  1.175222e-01  3.477806e-01  6.353613e-03  1.046187e-01  1.985290e-01  2.766729e-01  1.028889e-01  2.444285e-02  -2.145881e-03  5.466820e-02  7.510299e-02  -7.711163e-02  -3.623640e-02  -2.533503e-01  -1.599408e-02  2.041564e-02  -1.047265e-02  -6.525675e-02  -6.397223e-03  -2.643891e-02  -2.081261e-01  1.375317e-01  4.860032e-02  -8.554733e-02  4.846292e-02  1.471367e-01  -5.714177e-02  2.500918e-01  -9.277981e-02  -1.510337e-01  -1.617388e-01  5.767910e-02  7.313701e-02  -1.110469e-01  1.289379e-02  -4.602417e-02  -1.207862e-01  1.291323e-01  2.248722e-01  -8.775077e-02  -2.974641e-02  -3.893433e-03  2.553298e-01  7.373042e-02  1.313868e-01  -1.246110e-01  6.158854e-02  -1.429835e-02  -2.150348e-01  -1.290936e-01  -1.020677e-01  1.092846e-01  2.589485e-01  6.871606e-02  -9.170885e-02  1.942134e-02  -9.027077e-02  1.678932e-02  -3.174201e-02  -4.988300e-02  4.914674e-02  1.400789e-01  -8.249599e-02  7.800536e-03  -4.302928e-02  1.668659e-01  -2.080697e-01  8.596599e-03  -2.756154e-01  -8.937623e-02  -6.171831e-02  1.700905e-02  -1.896209e-02  5.348179e-02  -5.228912e-03  -5.526033e-02  7.789084e-02  8.931506e-02  1.545698e-01  5.472815e-02  2.167458e-01  -1.126420e-01  -6.310248e-02  7.734465e-02  -1.091907e-01  -1.241178e-01  -1.727391e-02  -9.128955e-02  -9.851497e-02  -2.756163e-02  -6.059804e-02  -4.731020e-02  4.515712e-02  1.086424e-01  -1.884756e-01  1.502881e-01  -2.282610e-01  2.120379e-01  7.839532e-02  7.929071e-02  -1.910645e-01  1.255774e-01  -5.181863e-02  5.152541e-02  3.973109e-03  2.587302e-02  5.567345e-03  9.842715e-02  9.569510e-02  -1.028202e-01  1.922619e-02  -2.340499e-02  -6.505355e-02  9.357069e-02  -1.754522e-01  -5.186643e-02  -5.852312e-02  1.220349e-01  -2.775194e-01  4.146394e-02  -1.830378e-01  1.012988e-01  1.983875e-01  2.284254e-01  -1.371980e-02  -7.715505e-02  7.797887e-02  -1.948305e-02  1.231457e-01  -2.323854e-01  -1.546514e-03  3.919956e-02  -3.996060e-01  -3.256558e-01  1.396069e-01  8.724211e-03  -1.332054e-01  1.701875e-01  -6.546253e-03  1.194418e-01  2.664506e-01  3.431668e-01  -2.456368e-03  -8.571027e-02  -1.160622e-01  4.909470e-02  -9.006820e-03  4.660705e-02  -7.008334e-02  2.815937e-03  -1.890312e-01  1.092244e-01  3.845000e-02  4.537274e-02  2.324755e-02  -7.721829e-02  -8.637226e-02  1.179446e-01  1.798557e-02  -9.644701e-02  4.209159e-02  1.578164e-01  1.034585e-01  4.291805e-02  8.130902e-02  6.018036e-02  4.934160e-02  2.147702e-02  1.056639e-01  -1.456618e-01  -2.560052e-01  3.230985e-02  -1.886693e-01  1.805940e-01  1.465222e-01  1.298580e-01  1.654759e-01  1.911589e-01  1.048957e-01  1.063179e-01  -3.978770e-01  -1.835072e-02  5.606327e-03  -1.401630e-02  4.989337e-04  -9.500028e-02  8.250865e-02  1.497674e-01  -8.181342e-02  -9.338467e-02  -5.441913e-02  3.057445e-03  -1.027447e-01  -1.556617e-01  4.542841e-02  -2.008015e-01  1.991760e-01  1.791599e-01  8.486389e-02  1.548834e-01  1.722660e-01  2.099671e-01  -1.178528e-02  -1.663701e-02  3.341033e-02  -7.759712e-02  -2.464718e-01  -2.182318e-02  -1.167797e-01  -2.920887e-02  1.133010e-02  -2.299989e-01  3.120429e-01  -1.095737e-01  -7.793979e-02  -1.516005e-01  6.289164e-02  -2.071274e-01  1.269623e-01  5.306721e-02  -7.590756e-02  9.087018e-02  -2.681938e-02  1.944091e-01  4.177583e-02  -4.826089e-02  -1.530434e-02  1.084911e-01  -7.730022e-02  -2.416094e-02  8.429787e-02  -7.690057e-02  1.838006e-01  -7.989319e-02  -8.018579e-02  -1.056103e-02  1.129552e-02  1.551870e-01  6.177609e-02  1.335524e-01  -7.859437e-02  -1.059745e-01  -1.299004e-02  1.094548e-01  1.074300e-01  -1.927154e-01  4.636316e-02  -4.898058e-02  5.797867e-02  -1.914949e-02  -1.125021e-01  6.345084e-02  1.555359e-01  1.598440e-02  -1.135820e-01  -1.230722e-01  4.322281e-02  -1.844443e-01  1.551002e-02  1.720004e-02  -4.403706e-02  3.557141e-02  -6.196507e-02  7.105563e-03  1.558678e-01  1.080738e-01  5.521980e-02  -7.913603e-02  8.500651e-03  -6.052328e-03  -4.843356e-02  1.175605e-01  1.161458e-01  -1.010249e-01  1.438799e-01  -1.573881e-01  -4.850740e-02  -3.666111e-02  1.316109e-01  1.449666e-01  3.395978e-02  -2.825234e-02  4.772895e-02  1.464994e-01  -2.531172e-02  -5.408603e-02  1.959995e-01  5.338119e-02  -1.032225e-01  7.656582e-02  1.526686e-01  5.084042e-02  6.879027e-02  8.246667e-02  -2.076044e-02  -2.077482e-01  -2.092282e-01  3.416218e-02  -8.135160e-02  6.750799e-02  1.673724e-01  6.889898e-04  5.659220e-02  5.481932e-02  -1.110360e-01  6.871260e-02  -4.881096e-02  7.925931e-02  -2.254383e-02  -5.180879e-02  -7.749371e-03  -1.172600e-01  -1.465996e-01  -7.414127e-02  -8.883926e-02  7.173501e-02  -1.664664e-03  -1.022644e-01  7.225402e-02  -3.628144e-02  1.404995e-01  -1.185406e-01  8.805353e-02  -9.151179e-02  -7.069302e-02  -1.347377e-01  2.355157e-01  6.372184e-02  4.144554e-02  5.166532e-02  -4.466693e-03  -8.828248e-03  2.691006e-02  -1.067787e-02  -1.565295e-02  -2.471686e-02  3.805229e-02  -1.503074e-01  1.264725e-01  -4.674489e-03  1.086212e-01  2.274021e-01  1.363078e-01  7.842546e-04  4.062284e-02  -4.043604e-02  -6.276702e-02  -3.593378e-02  1.334498e-01  5.470505e-02  1.990135e-02  7.029215e-02  -6.453042e-02  4.700120e-03  -9.691944e-03  -1.858112e-02  -1.021702e-01  1.428256e-01  -9.018418e-02  3.051359e-02  -5.122558e-02  1.106649e-01  -1.859848e-01  -1.308351e-01  2.411425e-01  -1.686128e-02  7.846116e-02  -1.954739e-01  -6.855606e-02  -7.986049e-02  -5.856811e-02  7.509346e-02  -4.861707e-02  5.747376e-02  -1.199388e-01  -1.559907e-01  -1.737750e-01  1.898347e-01  1.932870e-01  1.396874e-01  6.216235e-02  4.175753e-02  1.244855e-01  -7.242000e-02  -6.885704e-02  -1.413785e-01  7.215443e-02  5.070913e-02  -2.924458e-01  -3.498814e-01  9.597135e-02  1.833356e-01  -2.043962e-01  1.536145e-01  -1.581257e-01  -1.155174e-01  2.642489e-01  6.033071e-02  1.819659e-01  -4.597628e-02  -7.975382e-02  9.182769e-02  1.283413e-01  4.121715e-04  1.001502e-01  -5.041314e-02  -2.095920e-01  7.346693e-02  -7.717185e-02  -7.865634e-03  -7.273229e-02  -2.750142e-01  -1.886377e-01  -1.086514e-01  8.700727e-02  -5.496860e-02  2.493927e-02  -4.832485e-02  1.498230e-01  -6.621549e-02  1.031313e-01  -1.950394e-01  -1.266056e-01  8.816532e-02  4.582039e-02  -1.939095e-02  -2.347786e-01  -1.123099e-01  4.437897e-03  1.990606e-01  -7.477002e-02  -1.148166e-01  -7.453772e-02  1.933902e-01  1.044352e-01  -1.228794e-01  -1.468194e-01  4.039164e-02  6.352131e-02  4.712553e-02  1.921449e-01  6.322288e-02  -5.804382e-02  -3.765926e-02  -1.126111e-01  1.501995e-01  1.680216e-01  2.100668e-01  1.064032e-01  -1.621687e-01  2.485589e-01  7.919095e-02  6.225518e-02  -6.998935e-02  1.491810e-01  1.428491e-01  2.370315e-01  5.596173e-02  1.050648e-01  -3.449277e-02  -9.257792e-03  -1.183656e-01  -3.103460e-01  3.123629e-03  -2.220025e-01  -7.213703e-02  -1.002419e-01  -2.781257e-01  6.967195e-02  2.504076e-02  8.217771e-03  -1.479035e-01  -7.231919e-02  1.394643e-01  8.195990e-04  6.762647e-03  -3.298854e-02  -4.961824e-02  5.408079e-02  2.712299e-02  -6.481212e-02  1.244972e-01  1.093925e-01  -2.743168e-02  9.039300e-02  1.354492e-01  7.295547e-02  5.406372e-02  2.205601e-02  4.122891e-03  -2.100841e-01  -6.797924e-02  2.114637e-01  -1.088899e-02  9.122171e-02  -4.821530e-02  1.195349e-02  9.662922e-02  5.871635e-02  7.179324e-02  -2.643840e-02  -1.086803e-01  2.463788e-02  1.232315e-01  -6.387529e-02  2.284970e-01  2.069772e-02  1.842770e-01  1.024692e-01  1.360506e-02  5.253062e-02  2.284990e-02  6.032474e-02  -1.680026e-01  -5.706159e-02  -6.075189e-02  -8.925471e-02  3.208454e-02  -1.267422e-01  4.296220e-02  -3.128931e-03  -5.652289e-02  1.872267e-01  1.429320e-01  1.022324e-01  -1.029321e-02  1.776181e-01  2.500364e-02  -1.587980e-01  -1.324637e-01  4.502974e-02  3.836529e-02  1.212687e-01  4.289874e-02  -9.125447e-03  1.820436e-01  -1.495317e-01  -4.771937e-02  1.105943e-01  5.588506e-02  -1.777774e-01  2.846167e-02  8.868152e-02  1.625068e-01  -1.547485e-01  8.816529e-02  -2.211407e-03  8.963938e-02  -1.858445e-01  -5.337989e-02  -4.403590e-02  -9.173822e-02  -3.838602e-02  1.454995e-02  -5.427465e-02  6.272613e-02  3.390299e-02  -3.097180e-02  -7.623879e-02  1.291406e-01  5.769325e-02  1.106934e-01  2.256957e-02  -6.583684e-02  -1.903418e-01  -1.626713e-02  -1.591956e-01  -1.452998e-01  -5.259729e-03  3.389247e-02  1.228205e-01  1.027946e-01  7.095063e-02  -5.688688e-02  1.407364e-01  1.322673e-01  -2.026961e-02  -6.781793e-02  -7.838850e-02  1.008574e-01  1.438158e-01  -1.437323e-01  -8.163035e-03  -2.251384e-02  6.547251e-02  -6.053709e-02  -1.406226e-01  -1.218195e-01  -9.009877e-03  -1.335662e-02  -1.358058e-01  -1.326683e-01  -6.408033e-02  3.206486e-02  -9.527327e-02  -2.037697e-01  6.930820e-02  1.010457e-01  -1.271303e-01  2.548810e-02  1.375542e-01  1.983845e-01  5.864657e-02  5.680183e-02  -1.168487e-01  9.644157e-02  1.049590e-02  4.794832e-02  -1.681456e-01  -2.789048e-02  -1.158015e-01  1.099004e-01  -1.942259e-02  -5.465189e-02  1.337263e-01  -7.960726e-03  -2.301557e-03  -7.800028e-02  -5.490671e-02  3.303274e-02  2.644783e-02  2.674199e-02  -2.891502e-02  -1.942825e-01  -2.303463e-01  -1.225281e-01  -1.762464e-02  1.282031e-01  1.356256e-01  1.130491e-01  -1.691992e-01  -1.253418e-01  3.136714e-02  1.807835e-01  -3.050875e-02  2.717156e-01  -1.574635e-01  4.795520e-02  4.390414e-02  2.926584e-02  1.258921e-01  -2.098582e-01  9.596270e-02  -1.461736e-01  -3.564422e-01  -2.805280e-01  2.685571e-02  -7.013334e-02  -1.371801e-01  -1.303873e-02  -1.712906e-01  1.647583e-01  2.298233e-01  1.789003e-01  2.338839e-01  4.574843e-02  5.407922e-02  2.035501e-02  -6.157256e-03  2.389771e-02  -3.525855e-02  -1.354278e-01  -4.316055e-02  2.682045e-01  1.499523e-01  -2.100416e-01  -6.846332e-02  -3.110351e-01  2.899717e-03  1.301540e-01  -4.978408e-02  1.174410e-01  -1.261934e-02  7.910959e-02  -1.779909e-02  -1.502844e-01  -1.050230e-01  1.197126e-01  2.593974e-02  2.350646e-01  -1.129798e-01  -7.443339e-02  -2.895041e-01  -1.147422e-01  -2.235416e-01  -3.214848e-02  -8.573917e-02  5.958701e-02  1.350458e-01  3.447905e-01  1.676108e-02  -1.058744e-01  -2.945748e-01  1.089293e-01  3.153423e-02  1.792394e-02  5.002027e-02  -1.290708e-01  -8.021166e-02  -5.479432e-02  -2.595002e-02  -1.150771e-01  2.665901e-02  3.745711e-02  -8.580083e-02  -2.161462e-01  5.662208e-02  -9.624217e-02  2.231261e-01  -4.437046e-02  -1.389194e-02  -1.767484e-02  1.912902e-01  -1.366630e-02  1.175274e-01  -8.525459e-02  -1.817431e-02  -8.531469e-02  -2.511917e-01  -7.270319e-02  3.084624e-02  -2.531667e-02  1.611302e-02  -1.800355e-01  3.079159e-01  1.544858e-01  -1.175896e-01  -6.464186e-02  1.476426e-01  1.187539e-01  -7.305329e-02  1.944167e-01  -1.602066e-01  -6.914157e-02  9.494518e-02  6.961183e-02  -2.445598e-03  -1.143561e-01  -5.721131e-02  6.791329e-02  -2.930624e-02  -1.896869e-01  -3.751388e-02  9.208515e-02  1.123576e-01  3.472571e-02  2.339919e-01  1.735781e-01  -1.821171e-01  1.470073e-01  -1.320736e-02  1.801617e-01  6.517513e-02  -1.066651e-01  -1.117972e-01  -1.797933e-01  1.412742e-01  6.144579e-02  4.992132e-02  1.225527e-03  1.372981e-03  -2.523110e-02  -1.955129e-01  -8.856015e-02  -3.935711e-02  -1.125650e-01  9.035286e-02  7.773097e-02  -1.084934e-01  1.638033e-01  6.297749e-02  1.058237e-01  1.932479e-01  8.412001e-02  -1.105902e-02  -5.581418e-02  -9.339172e-02  9.741595e-02  3.278796e-02  5.197389e-02  -9.462512e-02  -5.626746e-02  -1.359961e-01  4.641593e-02  9.600662e-02  -6.141096e-02  -5.482644e-02  4.394839e-02  -6.769302e-02  1.476417e-01  -5.435600e-03  -1.173295e-01  -2.159162e-01  -3.472321e-02  -3.615031e-02  6.465616e-02  -9.816593e-03  7.698712e-02  6.533717e-02  1.238295e-01  1.147212e-01  -1.277470e-01  -1.430613e-01  1.149341e-01  -2.038495e-01  -1.930915e-01  1.271645e-01  -3.245712e-01  2.282663e-02  9.391995e-02  1.053015e-01  -8.233435e-02  2.050958e-01  4.854597e-02  -2.681759e-02  2.004796e-01  -8.151554e-03  -2.509645e-01  -6.078959e-03  -1.748049e-01  1.635474e-01  -1.616978e-01  1.113913e-01  -1.440115e-02  -1.233781e-01  -4.307674e-02  8.799352e-02  -1.277421e-01  -4.225970e-02  -1.470533e-01  3.855697e-02  -1.363391e-01  -5.810016e-03  -5.003591e-02  -8.930433e-02  -6.270146e-02  -2.309588e-01  -2.084314e-01  -2.299374e-01  8.955548e-02  3.648694e-02  7.223373e-02  -6.451949e-02  -7.191978e-02  6.656587e-02  1.633449e-01  -5.937251e-03  3.573263e-02  9.807545e-02  5.281697e-02  8.560840e-02  1.880440e-02  -9.357156e-02  2.276490e-03  -8.462337e-02  -3.228158e-03  5.610079e-02  -1.450276e-01  1.380649e-01  -2.199438e-01  9.139752e-02  1.486939e-01  -1.823004e-01  1.629226e-01  -1.813200e-01  1.620725e-01  9.972254e-02  -8.398248e-02  -1.070237e-01  5.721534e-02  5.825843e-02  -2.945980e-03  4.156925e-02  -5.643922e-02  -1.200786e-01  7.242610e-02  9.322899e-02  -1.687973e-02  4.434005e-02  -1.594069e-01  -1.087410e-01  4.996816e-02  -1.029636e-02  1.412581e-01  -1.091218e-01  -1.385228e-02  -1.927121e-01  -1.644057e-01  -1.121748e-01  1.574227e-01  1.334588e-01  2.733293e-01  4.458883e-02  1.083958e-01  6.708710e-02  -3.752128e-02  4.584048e-02  -2.753042e-01  7.339720e-02  6.041855e-03  -6.696449e-02  -6.378943e-02  6.089813e-03  -1.085960e-02  -1.309628e-01  1.863749e-01  2.159486e-02  1.296939e-01  4.774162e-02  1.647959e-01  -5.932961e-02  1.703179e-02  -9.159749e-02  9.998416e-02  9.475943e-02  8.131234e-02  -6.909660e-02  -1.195235e-01  -1.148894e-01  2.096993e-02  -6.591619e-02  -2.206151e-01  3.732761e-02  -1.641213e-01  -6.373002e-02  -1.003718e-01  1.487218e-01  -5.837307e-02  -1.058511e-01  1.436365e-01  1.178221e-01  -1.096481e-01  8.857456e-02  -9.726808e-02  7.652259e-03  9.408814e-02  1.098241e-01  -8.063848e-02  1.993177e-02  1.588995e-01  -7.419514e-02  -3.901861e-02  -3.003805e-02  3.215233e-04  -5.025209e-02  1.939191e-01  1.629376e-01  -1.487515e-01  -2.088500e-02  7.736526e-02  3.138353e-02  6.459529e-02  8.019247e-02  6.447792e-03  -2.087316e-02  -6.384815e-02  -8.049795e-02  1.023972e-01  7.070617e-02  1.193092e-01  1.539476e-01  -9.226706e-02  1.041480e-01  -2.439932e-02  1.743100e-01  -6.857651e-02  1.707192e-01  3.855913e-03  -4.515544e-03  6.242902e-02  -1.040362e-01  1.181935e-01  -4.240864e-02  5.337176e-02  -6.355606e-02  1.316414e-01  5.456559e-02  1.188117e-01  9.629701e-02  -1.789437e-01  7.602672e-02  2.354347e-02  -2.948870e-02  4.935198e-02  -1.414288e-01  -1.411949e-02  -7.527925e-02  -1.188204e-01  -1.365515e-01  7.255480e-02  6.635203e-02  1.304330e-02  -5.824922e-02  1.848749e-02  -4.295580e-02  3.016236e-03  -9.745105e-02  6.900333e-02  -7.587443e-02  -1.547558e-01  -7.247340e-02  -9.875655e-02  1.048804e-01  -1.361098e-01  -6.356466e-02  1.435320e-01  -6.866051e-02  -5.247420e-02  -5.514742e-03  1.198098e-01  -4.519268e-02  4.950715e-02  -2.430772e-02  -7.831291e-02  -7.873742e-02  8.067324e-02  -1.868767e-01  -6.061554e-02  -3.301334e-02  -2.437318e-02  -1.460906e-02  -5.347463e-02  -2.519711e-02  -6.979536e-02  -3.300766e-02  7.657278e-02  2.595277e-02  1.309965e-01  7.828930e-02  2.561554e-02  -1.196751e-01  -3.948000e-02  -5.766040e-02  -8.370528e-02  8.483309e-02  1.162741e-01  8.877439e-02  -3.443175e-02  -5.863547e-02  1.775592e-01  -2.556496e-02  -2.415191e-02  -7.017764e-02  -4.406338e-02  -1.034711e-01  -3.761046e-02  6.050516e-02  -1.689073e-01  4.443567e-02  -2.946345e-02  1.241293e-01  -1.592392e-01  1.585628e-01  -1.422082e-01  -1.063526e-01  -7.800116e-02  -8.262758e-02  -1.994257e-01  -4.660212e-02  3.886430e-02  5.959510e-02  1.178040e-01  1.146358e-01  -1.816006e-02  1.570738e-02  1.216957e-02  1.362556e-01  -1.041680e-01  8.185793e-02  3.412414e-02  1.438754e-02  1.472022e-02  1.058675e-01  4.857916e-02  -1.064084e-01  -5.749553e-02  3.332134e-02  -5.380200e-02  -2.910603e-02  1.036318e-01  -8.628137e-02  -1.175878e-01  -1.645112e-01  3.632627e-02  2.198120e-01  -1.048703e-01  -9.480931e-02  -1.217295e-01  1.418116e-02  1.451437e-01  -2.087612e-01  1.314968e-02  -9.308011e-02  1.885617e-01  4.314401e-02  -1.372742e-01  2.861327e-03  -1.121549e-01  -6.504789e-02  -4.285420e-02  1.688828e-02  -5.775950e-02  6.102040e-02  -9.412795e-02  6.150773e-02  -1.669010e-01  1.482147e-01  -7.247179e-02  -2.316276e-02  4.473317e-02  -9.094232e-02  -2.210322e-01  -8.984096e-02  9.805793e-02  8.846765e-02  -7.416950e-02  8.238517e-02  2.175206e-01  -1.082870e-01  6.222976e-02  -6.931911e-02  1.436598e-02  1.867603e-01  -1.215882e-02  -1.430134e-01  -1.931898e-03  1.000090e-01  1.181286e-01  -6.004691e-02  1.474320e-01  -7.052009e-02  4.710165e-02  2.070430e-01  -1.750543e-01  -1.014644e-01  -2.341735e-01  -1.643308e-01  -6.424813e-03  9.397532e-02  -8.638147e-04  6.927760e-02  -6.044453e-02  -2.932864e-01  -1.296171e-01  -8.900476e-02  1.090724e-01  1.022170e-01  1.685303e-01  9.618982e-02  -5.402885e-02  1.576736e-01  1.034236e-03  1.278138e-01  -1.825505e-01  -1.240179e-01  2.205664e-02  -2.033810e-01  -2.340805e-01  1.074058e-01  1.179956e-01  3.344741e-03  -6.547460e-02  -1.751122e-01  -2.961692e-02  3.454153e-03  2.030626e-01  1.928172e-01  8.951449e-02  -4.497375e-02  8.674554e-02  2.841171e-02  1.419225e-03  2.496587e-02  7.209281e-03  -1.776072e-01  1.304669e-01  3.679097e-02  -1.348765e-01  5.322179e-02  -6.931528e-02  -7.988019e-02  8.703633e-02  1.007265e-01  -4.066353e-02  -8.438414e-02  -5.427140e-02  -5.214161e-02  -4.705430e-02  -2.176619e-02  1.642266e-01  3.917251e-02  -4.376337e-02  5.604257e-02  -1.526701e-01  -1.688389e-01  9.894276e-02  6.435835e-02  -8.288694e-02  -7.609762e-02  -1.146662e-01  1.377508e-02  1.566348e-01  1.906350e-01  -1.604805e-01  -1.884374e-01  -7.531209e-02  2.344942e-02  -1.761671e-01  8.027447e-02  -1.416534e-01  -6.731039e-02  7.781262e-02  -1.548213e-01  6.432085e-02  -5.408790e-02  -1.074282e-01  -1.284274e-01  2.871170e-02  2.274487e-01  -4.305368e-02  8.214051e-02  2.056423e-01  -3.679267e-02  -5.584884e-03  2.337245e-02  -8.954905e-02  1.015306e-01  -1.362369e-01  -8.399118e-02  -1.519797e-01  -2.186664e-01  -2.149914e-02  -3.085097e-02  3.993121e-02  -1.375291e-02  2.215951e-02  1.342704e-01  -2.357297e-02  7.914780e-03  1.330176e-01  -1.246159e-01  1.003540e-01  1.054929e-01  1.254159e-02  1.329794e-02  -8.199688e-02  -2.673706e-02  1.304423e-01  8.222055e-02  -9.561651e-02  -4.271759e-02  -1.262498e-01  1.002773e-01  -1.015407e-01  -1.584849e-01  -1.764612e-01  -3.223512e-02  -1.210473e-01  -6.537156e-03  -9.182325e-02  -5.696630e-02  1.470505e-01  1.430893e-01  1.954383e-01  2.562183e-01  -2.147590e-02  -2.404378e-02  -1.603867e-01  1.358228e-01  7.401481e-02  2.266619e-01  4.743998e-02  1.363737e-01  6.346700e-02  -1.312533e-01  -9.482365e-02  1.226527e-01  -1.579508e-01  9.663789e-02  -1.609463e-02  5.711462e-02  2.437883e-01  3.120987e-02  9.163075e-02  2.893796e-01  2.451100e-02  -3.296739e-03  -1.612786e-01  -1.804184e-02  -2.011442e-01  5.597341e-02  7.453725e-02  1.045144e-02  -3.205480e-01  -1.422488e-01  1.300736e-01  -1.530920e-02  -6.158314e-02  -1.075577e-01  -1.560876e-02  6.475893e-02  2.184332e-01  1.770322e-01  -2.607618e-01  3.333955e-03  7.577483e-02  6.168913e-02  1.091765e-01  -2.742457e-03  4.917389e-02  1.089113e-01  -1.186677e-02  -8.805762e-02  -1.236519e-01  7.646166e-02  -7.432373e-02  8.148180e-02  8.805683e-02  1.233378e-02  -4.881864e-02  -1.397938e-01  -1.502688e-02  1.222339e-01  1.274399e-01  -4.849447e-02  4.923558e-02  -6.276990e-02  1.688036e-01  -9.110754e-02  -1.353298e-01  -7.142007e-02  -3.695153e-02  5.516678e-02  -6.926307e-02  -9.860453e-02  1.073630e-01  -1.276449e-01  -4.865347e-02  -8.104346e-02  4.963515e-02  2.063644e-01  -2.599062e-02  2.808530e-02  -5.228437e-02  5.116467e-02  3.165203e-03  -1.387993e-01  -5.268151e-02  -4.129281e-02  -4.536728e-02  -6.934571e-02  4.913509e-02  7.408736e-03  -1.995142e-01  -1.798723e-02  5.165628e-02  2.053642e-01  1.191067e-01  1.460502e-01  4.825700e-02  1.527188e-01  -1.529297e-01  -3.922086e-02  -1.981622e-03  -1.017068e-01  -1.985927e-01  2.660298e-02  -4.348345e-02  -9.671082e-02  -1.279686e-01  8.113472e-02  1.035980e-01  2.272187e-02  -3.243767e-02  -1.130164e-01  -5.961813e-04  8.817164e-03  -8.199044e-02  -5.085292e-02  -1.821903e-03  8.989228e-02  -3.549191e-02  4.339147e-02  -2.338871e-02  -3.169239e-02  1.170586e-01  3.585463e-02  -2.852088e-02  3.713739e-02  9.343305e-03  -9.855937e-02  -2.117961e-01  2.119010e-02  -1.067344e-01  -1.918752e-01  8.506536e-02  6.432322e-03  3.299757e-02  1.122326e-01  -1.094952e-01  -1.514163e-02  -2.868966e-03  1.722433e-01  -7.089287e-02  -3.423410e-02  6.296136e-02  -2.249848e-02  1.824860e-01  6.085232e-02  -1.676182e-01  1.061447e-01  -1.386853e-02  2.038198e-01  9.983954e-03  1.885669e-01  -1.030950e-01  7.669880e-03  4.481331e-02  -7.248207e-02  -7.502598e-02  1.074889e-01  -1.522808e-02  -4.730732e-02  3.586936e-02  1.075443e-01  3.079787e-02  8.705372e-02  -8.288013e-02  1.430328e-01  -1.574333e-01  6.717510e-02  -7.431073e-02  1.136721e-01  6.278925e-02  -3.776086e-02  6.370762e-03  3.281638e-02  1.549669e-01  2.253380e-02  9.954242e-04  -8.912101e-02  -6.679352e-02  -2.240339e-01  -2.159675e-02  -4.601236e-02  2.714182e-01  2.134701e-01  2.807823e-01  -1.012356e-03  -1.991434e-01  -2.460662e-02  1.169952e-01  9.931176e-02  1.833030e-01  -7.250573e-03  -1.517466e-01  5.503475e-02  1.584371e-01  1.429044e-01  1.107166e-01  1.356477e-01  -8.858788e-03  1.332427e-01  1.527349e-02  -1.113175e-02  -1.615225e-01  -9.781152e-02  -6.916268e-03  -2.232290e-01  6.652650e-02  6.151452e-02  4.301558e-02  -1.390289e-01  -1.376698e-01  7.153149e-02  -1.662316e-01  1.715223e-01  7.954209e-02  -1.880844e-02  -1.002587e-01  -1.271936e-01  -1.084155e-01  -1.588909e-01  1.441315e-01  -1.498348e-01  -1.883562e-01  -3.690058e-02  -1.579824e-02  2.496548e-02  1.706328e-01  -3.266549e-02  1.416302e-02  6.948417e-02  5.300323e-02  3.013363e-02  1.971444e-01  3.809825e-02  7.876384e-02  1.694137e-01  3.031910e-02  9.605148e-02  5.140640e-02  7.736199e-02  -1.540535e-01  3.886940e-02  -1.544814e-01  -1.165709e-02  5.176941e-03  1.041579e-01  -4.192334e-02  -1.401074e-01  -1.584413e-01  -1.568363e-02  -2.474918e-02  3.529971e-03  -1.079067e-02  -7.878581e-02  -3.259359e-02  -3.940047e-02  -7.560485e-03  2.042262e-01  -1.955976e-02  -5.226598e-02  5.605416e-02  1.459755e-01  9.953048e-03  8.323420e-02  -1.050493e-01  -1.367154e-02  -3.825357e-03  -1.139902e-01  -2.176316e-02  4.149525e-03  2.218116e-02  -1.299852e-01  8.602657e-02  -1.073249e-01  1.652237e-01  1.437395e-01  -6.410640e-02  1.994878e-01  1.878745e-01  1.493002e-01  5.470035e-02  4.671097e-02  -1.662732e-01  -4.270438e-02  5.256879e-02  -2.077470e-02  -9.354475e-03  8.023491e-02  3.698179e-02  -5.501623e-02  8.613095e-02  2.688160e-02  -4.415455e-02  -1.219808e-01  1.407427e-01  1.362415e-01  -2.245921e-01  -1.443665e-01  7.287993e-02  4.112981e-02  2.739657e-01  8.109158e-02  2.673155e-02  5.344008e-02  9.481309e-02  -8.068225e-03  1.309547e-01  -1.299140e-01  -9.258184e-02  -4.539084e-02  -2.062004e-02  2.200834e-01  -6.605683e-02  -1.524389e-01  1.180034e-01  8.515954e-02  -7.490279e-02  6.608619e-02  2.831738e-02  7.906552e-02  1.341915e-01  1.506145e-02  -2.264291e-01  -1.497542e-01  2.468038e-01  3.010737e-01  1.205067e-01  -1.321571e-01  1.401577e-01  -1.135149e-01  9.407367e-02  1.186159e-01  -3.442847e-02  1.040617e-01  9.232063e-02  2.578910e-02  -1.645022e-01  -1.096214e-01  9.061643e-02  5.967733e-02  1.382998e-01  -4.069600e-02  4.252507e-02  -9.052719e-02  -2.763101e-02  -2.054593e-01  -1.885472e-01  8.591570e-03  -7.027267e-02  2.090534e-01  1.883669e-01  6.378453e-02  -3.038245e-03  9.557038e-02  -1.338685e-01  1.331596e-01  7.171857e-02  -1.004268e-01  -1.848463e-01  1.738768e-03  1.136752e-01  -9.807987e-02  -1.003541e-01  -8.142825e-02  -6.393833e-03  -2.738446e-02  -1.515948e-01  1.919821e-01  -5.183943e-02  -6.270851e-02  5.635795e-02  -8.856638e-02  1.097156e-01  -7.681114e-02  3.429272e-02  -1.238687e-01  3.977018e-02  -1.359096e-01  -5.304659e-02  2.375284e-01  -2.069587e-02  -7.245080e-02  1.979561e-01  3.631108e-02  1.856661e-01  -4.884639e-03  -7.312590e-02  1.132329e-01  3.762425e-02  1.379908e-01  1.636587e-02  1.514079e-01  5.283814e-02  6.726746e-03  -3.476066e-02  8.038987e-02  -1.707049e-02  -1.122883e-01  7.794522e-02  -1.393827e-01  1.001423e-01  4.719746e-02  3.313975e-01  1.884678e-01  1.367979e-02  3.236687e-01  1.662609e-01  5.537590e-02  -1.994996e-01  4.966105e-02  -1.666395e-01  9.387562e-02  1.207265e-01  -5.810949e-02  -2.961582e-01  -1.647621e-01  -7.522459e-02  -2.385750e-02  -7.686289e-02  -1.497408e-01  1.059631e-01  3.075423e-02  1.525623e-01  -3.138200e-04  -2.686053e-01  -1.231188e-01  4.128742e-03  1.197633e-01  2.960453e-01  -1.356101e-02  -8.929940e-02  9.382796e-02  -2.653201e-02  -6.987216e-02  3.128415e-02  -1.947173e-03  4.647417e-03  7.724532e-02  5.688446e-02  1.954683e-01  -2.600061e-01  -2.858925e-02  1.511323e-01  2.235542e-01  3.346407e-02  2.014069e-01  -1.120334e-01  -1.634267e-01  -2.866188e-02  -1.740337e-01  -1.743778e-01  -6.095426e-02  7.302928e-02  1.529809e-01  -3.097664e-02  -1.144625e-01  -2.097069e-02  -1.706148e-02  6.878293e-02  2.670185e-02  -1.870415e-02  3.163688e-02  9.576371e-02  8.343009e-02  -7.311390e-04  8.231191e-02  8.265752e-02  -1.039289e-01  -9.913863e-03  -6.072071e-02  -5.135339e-02  2.029384e-02  -2.459621e-02  -6.174642e-02  1.568150e-03  -1.487684e-02  -1.111636e-02  -5.392434e-02  8.479510e-02  -1.750246e-02  1.032097e-01  -7.461889e-02  -1.811624e-01  5.880056e-02  3.601533e-02  -2.455079e-01  -1.084479e-02  2.025563e-01  -1.688110e-01  -7.764078e-02  1.041524e-01  -4.124426e-04  8.180296e-02  6.765091e-02  -1.149552e-01  9.405496e-02  9.617336e-02  -1.353099e-01  3.975773e-02  4.605243e-02  1.028725e-01  -1.045182e-01  2.511631e-02  1.218128e-01  1.946620e-01  5.631721e-02  1.073441e-01  -2.599320e-02  -4.510254e-02  -1.542638e-02  1.766951e-01  1.120256e-01  -8.084976e-02  2.906986e-02  -4.530825e-02  6.979926e-02  5.138579e-02  8.999544e-02  2.617586e-02  2.619565e-02  2.254190e-02  7.400964e-02  -5.191913e-02  -1.560933e-01  -6.774063e-02  7.918291e-02  1.033198e-01  1.319600e-02  -8.483654e-02  -7.708390e-02  8.690422e-03  -1.559384e-01  8.696096e-02  1.261503e-02  7.699193e-02  -1.562474e-01  5.787408e-03  1.163592e-01  -1.171723e-01  8.479663e-02  1.186391e-02  2.665238e-03  -1.140722e-01  2.129552e-01  -7.680003e-02  -1.290220e-01  1.816128e-01  1.177778e-01  -1.492355e-01  -9.007397e-02  4.056231e-03  -1.130947e-01  5.934603e-02  -1.281362e-01  -1.512965e-01  6.451013e-02  6.461544e-02  7.945272e-02  1.080466e-01  -2.952399e-02  7.233717e-03  7.525671e-02  6.315461e-02  8.771531e-02  -1.384554e-01  2.633476e-02  -4.285267e-03  -1.834520e-01  1.015049e-02  -6.173599e-02  6.971344e-03  3.607095e-02  -8.830284e-02  -1.144899e-01  -9.093039e-02  5.218576e-02  2.274254e-02  1.311847e-01  -6.207422e-02  7.348674e-02  1.244460e-01  -1.083413e-01  1.121935e-01  8.569627e-02  1.282369e-01  7.954295e-02  -6.973026e-03  -1.504219e-01  6.756854e-02  1.994507e-02  -1.374649e-01  2.844935e-02  9.594307e-02  9.937574e-02  -2.043918e-01  7.746410e-02  7.106172e-03  1.458547e-01  1.400017e-02  -1.136096e-01  -1.401610e-01  -5.113826e-02  5.697569e-02  8.574127e-02  1.911981e-01  9.915856e-02  4.668220e-02  -1.126207e-01  6.506261e-02  -1.521637e-02  5.740001e-02  1.321252e-01  -4.391191e-02  8.125541e-02  1.493308e-01  -3.135594e-02  -1.253684e-01  -1.069198e-01  6.379470e-02  1.209665e-01  -1.552373e-01  1.068288e-02  4.172548e-02  9.584408e-02  7.711795e-02  -8.914234e-02  8.938643e-02  1.133860e-01  -6.525391e-02  -1.621811e-02  -8.816347e-02  -1.329568e-01  -4.470393e-02  1.114930e-01  1.039131e-01  4.327969e-02  -1.183734e-01  2.903448e-02  -2.233045e-02  -8.389268e-02  -5.046756e-02  2.107998e-03  9.438310e-02  1.001215e-01  -1.014365e-01  6.271373e-02  1.001274e-01  1.643701e-01  -8.556515e-02  7.040938e-02  6.953961e-02  3.757490e-02  -1.329089e-01  2.231027e-01  -8.527561e-02  -1.588962e-01  1.478685e-02  6.464938e-02  -3.256165e-02  3.578115e-02  1.092604e-01  1.154188e-01  7.942599e-03  -1.376211e-01  -1.391165e-01  -7.363249e-03  -1.224262e-01  5.301200e-02  5.918086e-02  -7.255639e-02  1.134025e-02  1.218118e-01  1.205596e-02  -4.903341e-02  1.639331e-01  2.654095e-03  1.006118e-01  4.945321e-03  1.728348e-01  3.438969e-02  -1.037465e-01  -1.208645e-01  1.263578e-01  -7.812133e-02  2.168350e-01  -1.314758e-01  -9.412751e-02  -1.134522e-03  6.365821e-02  2.359833e-02  -7.469355e-02  1.716279e-01  1.205975e-01  4.842978e-02  -1.477562e-02  1.001509e-01  -2.188831e-01  -1.258929e-01  9.832550e-02  1.271478e-02  -3.189446e-02  -3.242628e-02  3.235749e-02  -9.803373e-02  1.531669e-01  -1.717976e-01  -2.346202e-02  -1.238153e-01  -5.127618e-02  1.285545e-01  -1.674691e-01  3.865730e-03  1.327008e-01  1.829695e-02  1.295066e-02  -1.138457e-01  -6.905632e-02  1.003883e-01  -1.164613e-01  4.671801e-02  1.650428e-02  7.660872e-02  -1.296423e-01  6.756050e-03  6.697160e-02  -2.898279e-02  -1.192286e-01  -5.104252e-02  -6.831886e-02  -1.673622e-01  6.811694e-02  -1.169033e-01  -3.309800e-02  -6.096051e-02  -2.181299e-02  1.336583e-02  1.911493e-01  1.770592e-01  -2.992934e-02  1.298106e-01  -6.364162e-03  -2.009740e-01  1.007488e-01  -3.122030e-02  -9.274853e-02  1.286901e-01  -1.515068e-01  2.553495e-02  8.951727e-02  -1.343137e-02  -4.356148e-02  -1.123621e-01  -7.781113e-03  6.085761e-02  -2.999914e-02  1.060300e-01  -1.011881e-01  1.360922e-01  -5.260672e-02  -6.809601e-03  1.527101e-01  6.242777e-02  -5.332588e-02  2.495203e-02  1.399646e-01  -4.664820e-02  8.511381e-03  1.682339e-01  1.733218e-02  -1.183463e-01  8.746470e-02  1.274808e-01  5.679758e-02  -8.507917e-02  1.016163e-01  1.271865e-02  -1.577523e-03  1.049181e-01  1.972868e-01  -1.425191e-01  -1.373879e-01  1.877896e-01  -5.566302e-02  -3.969458e-02  -1.463900e-01  5.180559e-03  1.685070e-01  -8.322553e-02  9.676358e-02  4.318481e-02  2.301546e-02  -1.578617e-01  1.979982e-03  -7.338280e-02  2.272516e-03  5.178317e-02  -1.025749e-01  -1.639818e-01  -5.404552e-02  -6.514519e-02  -2.135251e-02  1.625277e-01  1.034878e-02  1.102377e-01  3.746321e-03  5.247157e-02  1.564765e-03  6.316896e-02  1.246624e-01  -3.303220e-02  1.331380e-02  8.584413e-02  1.561849e-01  1.305794e-01  -3.128456e-02  1.245812e-01  1.076562e-01  7.784550e-03  -1.170253e-01  2.364183e-01  8.199133e-02  -1.704564e-03  -2.292114e-01  -1.266434e-01  -1.136720e-01  9.017314e-02  1.332682e-01  4.982490e-02  -2.088810e-02  -6.989871e-03  -1.473006e-01  -9.490052e-02  6.608644e-04  -1.370539e-01  9.087075e-02  -6.192508e-02  7.768454e-02  -9.888235e-02  1.415586e-02  -1.371670e-01  -8.982243e-02  -1.493509e-01  -5.809034e-02  -8.278365e-02  -1.276190e-01  2.254467e-01  5.348850e-02  5.754650e-02  4.885510e-03  -1.017652e-01  2.315492e-03  -1.201652e-01  1.351846e-01  3.687523e-02  -2.458600e-02  -1.187270e-01  -5.774997e-02  -1.961459e-01  7.816718e-03  1.453412e-01  -4.826624e-02  -1.309284e-03  -1.049447e-01  4.488130e-02  2.893772e-03  1.804457e-02  -1.724624e-01  -6.298317e-02  -9.481426e-02  -1.144252e-01  1.009228e-01  7.206631e-02  -1.791981e-01  -1.868564e-02  -2.440341e-02  -2.840220e-02  -9.612168e-02  -1.121015e-02  3.925353e-02  -5.850956e-02  6.211821e-02  -1.716042e-02  -4.106445e-02  -1.375794e-02  -1.328996e-01  9.123025e-02  1.823295e-01  1.736458e-01  -4.518427e-02  1.704591e-01  5.586979e-02  8.226425e-03  3.511397e-02  1.589210e-01  -8.867539e-02  -1.179757e-01  -1.677227e-01  -3.311131e-02  1.378674e-01  7.141694e-02  -4.176088e-02  -7.481001e-02  4.950709e-02  -2.504122e-02  6.812079e-02  9.211405e-02  4.237124e-02  2.724810e-02  8.402142e-02  -2.306752e-02  4.733324e-02  1.218894e-01  3.246343e-02  1.093193e-01  -2.380493e-01  -1.634842e-01  -1.997363e-02  -1.719913e-01  -1.347752e-01  -2.039583e-02  1.472044e-01  -3.818978e-02  2.890114e-02  -1.056332e-01  -1.189740e-01  1.772833e-01  3.880521e-02  1.754873e-01  -6.411128e-02  -6.889406e-02  1.866223e-02  -7.456647e-02  1.408125e-01  -1.399939e-02  -1.977020e-01  9.809611e-03  1.550057e-01  2.252361e-02  -2.312981e-01  -2.674147e-02  -2.450352e-01  -1.723251e-02  3.392224e-02  1.263139e-01  -1.610747e-02  4.424457e-02  -5.761821e-02  -8.009669e-02  -3.361472e-02  6.739094e-02  7.236090e-02  -1.896729e-01  1.849221e-01  1.046929e-01  -1.980600e-01  -1.704617e-01  5.852776e-02  -1.202455e-01  9.668437e-02  6.468911e-02  -5.167000e-02  1.639793e-01  2.094555e-01  5.146727e-03  7.397993e-03  -2.499009e-01  -7.600875e-03  3.360259e-02  -7.574361e-02  1.586749e-01  7.935321e-02  2.862619e-02  1.187772e-02  -2.079852e-01  4.006005e-02  1.162776e-01  -4.963472e-03  8.179700e-02  6.544630e-02  1.777837e-01  -2.808930e-02  1.246949e-01  2.307780e-02  1.680304e-02  2.164221e-01  1.649271e-02  6.285833e-02  1.554907e-01  -1.248794e-01  -8.113667e-02  -1.011973e-01  -4.910003e-02  1.341299e-01  -1.751388e-01  -7.734568e-02  9.595583e-02  -1.138463e-01  9.116450e-02  -7.844435e-02  5.002483e-02  2.112198e-01  -1.096206e-01  -4.764956e-02  -1.211843e-02  -4.864664e-02  6.658723e-02  1.797146e-02  1.198159e-01  1.387210e-01  -2.566299e-02  -1.714764e-01  -4.831152e-02  -1.412427e-01  7.210239e-02  -4.956005e-02  -5.401379e-02  -2.769416e-03  -1.058688e-01  -9.517267e-02  7.005370e-02  -9.289223e-02  -1.780614e-01  5.090080e-02  -3.436372e-02  3.187184e-02  -5.066932e-02  -8.438514e-02  3.920253e-02  -1.284138e-02  1.237535e-01  -1.297344e-01  1.553204e-01  -1.656209e-02  -6.174728e-02  1.501641e-02  -2.548873e-02  -2.704173e-01  8.771689e-02  1.187053e-01  8.913168e-02  -8.762380e-02  -6.512938e-02  2.353316e-01  1.011943e-01  1.148912e-01  1.159838e-01  2.819673e-01  2.231744e-02  -1.802398e-01  2.018376e-01  -1.472147e-01  1.404532e-01  -3.763107e-02  -5.343348e-02  -4.486063e-02  1.416664e-02  1.605847e-01  2.551831e-03  -5.141361e-02  7.064687e-02  -9.397851e-03  7.168352e-02  4.727298e-02  -1.719565e-02  -2.890609e-01  -9.034317e-02  1.280735e-01  -1.079513e-01  3.041258e-01  7.115369e-02  -1.087570e-01  -8.011594e-02  9.519055e-03  7.601797e-02  -9.451234e-02  1.224624e-02  -1.273536e-01  -5.558846e-03  -1.215623e-01  6.754338e-02  -7.836638e-02  -1.095439e-01  -3.502418e-02  2.240400e-01  -3.356931e-02  1.911615e-01  -1.881969e-01  -2.786946e-03  1.243914e-03  -9.737749e-03  -1.116761e-01  -4.166266e-02  1.345425e-01  2.517183e-01  3.615412e-02  2.774207e-02  -9.502704e-03  -2.244438e-01  -8.368234e-02  1.111132e-01  -9.742609e-02  6.857844e-02  -1.432934e-01  1.965058e-02  -7.249770e-02  -1.392007e-01  2.947561e-02  -2.705837e-01  -1.049059e-01  -1.712086e-01  -5.980501e-02  -6.351001e-02  -9.458780e-02  2.084745e-03  -1.936097e-01  1.012774e-01  -9.293230e-02  8.991855e-02  -6.639242e-02  5.091197e-02  -7.002904e-02  7.911228e-02  -8.307829e-02  -7.829984e-02  1.330933e-01  -2.732549e-01  -2.502988e-01  -1.817066e-01  1.749646e-01  -1.403011e-01  -9.639250e-02  1.897974e-01  1.083004e-01  5.297653e-02  -2.683206e-02  1.653230e-01  -1.084858e-01  1.553754e-01  4.391387e-02  -9.293967e-02  -2.432868e-02  1.676815e-01  5.426328e-02  -1.701116e-02  6.502123e-02  -8.868433e-02  -8.734553e-02  -5.353484e-02  2.234035e-02  -4.421679e-02  1.238911e-02  -1.028626e-01  2.140764e-01  -9.811305e-03  -3.070072e-02  1.527919e-01  -1.344225e-01  -8.324608e-02  -1.668148e-01  7.221335e-02  -2.096851e-02  1.608343e-01  9.116072e-02  -8.171301e-02  1.256259e-02  4.459803e-02  -5.370861e-02  8.208079e-03  -3.418155e-02  -5.671406e-02  8.157071e-02  -1.040287e-01  1.180108e-01  -5.196001e-02  1.891390e-01  8.998665e-02  -1.285664e-01  1.002588e-01  -6.251810e-02  -1.081595e-01  -1.321730e-01  -2.035233e-01  -4.990475e-02  1.240010e-01  7.797349e-02  -1.044331e-01  -2.360684e-02  -1.838772e-01  -3.661111e-02  1.169409e-01  -2.569137e-03  1.979903e-01  1.166061e-01  -4.128824e-02  9.727434e-02  -2.356712e-03  9.834474e-02  -1.136806e-02  3.967537e-02  1.692154e-01  1.541752e-01  -2.204681e-02  1.022822e-02  -9.210598e-02  -1.216199e-01  -2.457510e-02  -1.172233e-01  -1.136271e-01  -2.299095e-01  -1.132903e-01  1.119644e-02  -7.060276e-02  -3.963587e-02  1.093163e-01  -7.872625e-02  -1.448596e-01  7.278036e-02  -2.480729e-02  -2.463222e-01  -8.908688e-02  1.819693e-02  1.650987e-01  4.269411e-02  9.221868e-02  8.439011e-02  -1.228961e-01  7.021510e-02  -1.639046e-01  -1.157865e-01  3.180597e-02  4.710523e-02  7.928273e-03  -4.729026e-02  -9.600319e-02  -4.974950e-02  -7.873154e-02  -6.465956e-03  -1.740815e-01  -5.988995e-02  1.124451e-01  -8.507903e-02  -1.316656e-01  -1.577293e-01  5.283599e-02  -1.579659e-02  -3.636082e-02  2.272704e-01  -7.165128e-02  1.048430e-01  1.486304e-01  -4.014064e-02  3.572622e-02  9.236297e-02  -3.632702e-02  1.928824e-01  1.634742e-01  -1.160032e-01  1.892821e-01  -8.785688e-02  -1.137990e-01  -4.481674e-02  -1.782145e-01  1.457393e-02  -5.759853e-03  -1.658197e-01  -8.563826e-02  8.157776e-02  4.052787e-02  -1.786558e-01  -1.619265e-01  2.190826e-02  3.771539e-02  -4.465743e-02  1.115960e-01  6.338120e-02  -1.183164e-01  -1.205707e-02  9.918565e-02  -1.066301e-02  -1.383060e-02  -1.678775e-01  -6.250376e-02  -1.295069e-01  -1.588606e-01  -1.085926e-01  -4.955218e-02  1.190397e-01  -8.812329e-02  -3.652180e-02  -8.590090e-02  -1.069460e-01  -1.141526e-02  1.166276e-01  -7.046123e-03  -2.362650e-01  -1.781741e-01  -1.168196e-01  2.839237e-02  -2.907013e-02  -5.526286e-02  5.801412e-02  7.367615e-02  1.029551e-01  2.220947e-02  -1.022956e-01  -2.872317e-02  6.570965e-02  9.728944e-02  9.144789e-02  1.791680e-02  8.187155e-02  1.035848e-01  -1.866847e-01  3.776418e-02  -1.498374e-01  1.738455e-01  1.344701e-01  7.416125e-02  6.074658e-02  -2.495565e-02  2.628896e-01  -4.483728e-02  1.046003e-01  -8.504993e-02  6.919102e-02  -4.693013e-03  2.751062e-03  -2.455082e-02  -1.851395e-02  -1.560121e-01  -1.294737e-01  -1.588574e-01  8.836833e-02  -1.660222e-01  3.342667e-02  2.399820e-02  -2.972321e-02  9.069913e-02  1.264516e-01  -1.682976e-01  8.203477e-02  1.110933e-01  5.590512e-02  -4.448278e-02  6.060708e-02  -7.794444e-02  8.305601e-02  -1.389155e-01  -1.025431e-01  -7.640669e-02  7.653233e-02  6.503150e-02  9.202218e-02  7.569182e-02  -5.207103e-02  4.144381e-02  7.058261e-02  -2.622069e-01  1.211935e-02  -9.099687e-03  1.061081e-03  4.914799e-02  2.251894e-01  9.555905e-02  9.991233e-02  2.612886e-01  -6.898448e-02  -1.426858e-02  1.632222e-01  3.931793e-02  8.456277e-03  9.129699e-02  -6.555006e-02  1.484681e-01  6.437167e-03  2.162093e-02  1.294286e-01  8.791729e-02  -7.590222e-02  9.166259e-03  -1.577845e-01  -1.071492e-02  -7.026863e-02  5.897561e-02  7.006494e-03  -5.897525e-02  4.094223e-02  -2.997413e-02  -1.120822e-01  -1.593183e-01  -3.568880e-02  3.811568e-02  1.678347e-01  1.375545e-01  2.057690e-01  -9.307933e-02  -2.927250e-02  -1.044185e-01  -7.005629e-02  4.999978e-02  9.086763e-02  3.222317e-02  1.466488e-01  -1.325245e-01  -7.866353e-02  1.585974e-01  -5.207621e-02  -1.218408e-01  1.314283e-01  -6.633823e-03  -1.201666e-01  -1.683135e-01  -1.014562e-01  -9.016559e-02  -2.541138e-02  -1.638284e-01  2.147330e-02  1.600171e-02  -1.476778e-01  -5.755931e-02  -7.734348e-02  -6.944922e-02  1.455210e-01  8.520316e-02  9.289482e-02  -4.591390e-02  -1.590546e-01  5.330609e-02  -7.231010e-02  -4.027112e-02  -2.062199e-01  1.984610e-01  -1.450632e-01  1.144078e-01  1.974233e-01  7.898886e-02  2.113998e-02  1.217026e-01  7.748981e-02  -1.113512e-01  -7.071108e-02  4.904260e-02  -7.727500e-02  -5.612141e-02  -1.053210e-01  -2.045789e-02  -1.559367e-01  -4.373456e-02  7.833428e-02  2.884922e-02  -9.932682e-02  7.970908e-02  -3.188808e-02  3.734798e-02  -7.021210e-02  -7.457409e-02  -1.379377e-01  9.862429e-02  -1.729448e-01  -8.709703e-03  -9.485892e-02  1.723792e-01  5.073266e-02  -1.041473e-01  3.592758e-02  3.926459e-02  2.500841e-02  -1.633029e-01  -2.588769e-02  -1.338176e-01  7.022167e-02  1.160740e-01  -8.691419e-02  3.376663e-02  2.203565e-01  3.185675e-02  -2.314966e-01  -1.725789e-01  9.008195e-02  -1.747171e-01  3.328918e-02  4.237035e-02  -6.159646e-02  5.622713e-02  1.771126e-01  1.288987e-02  1.260327e-01  -1.663731e-01  -7.327304e-03  -6.586058e-02  -7.522569e-02  -8.786988e-02  -1.707161e-01  -8.246476e-06  1.659786e-01  -5.162553e-02  -1.251823e-02  7.537895e-02  -2.600757e-02  7.550848e-02  -5.800110e-02  -8.529694e-02  -1.516211e-01  -9.729508e-02  -1.400042e-01  -1.356875e-01  3.920345e-02  3.836351e-02  -1.916995e-01  1.888506e-01  9.768400e-02  6.110641e-02  -9.429935e-02  1.253178e-01  -4.703591e-03  -9.022692e-02  -6.576668e-02  7.415336e-02  1.524092e-01  -2.734642e-02  -1.086027e-02  -9.492882e-02  7.351449e-02  -3.451030e-02  -1.450106e-01  -9.026013e-02  8.116294e-02  6.211209e-02  -2.495532e-02  1.324113e-01  5.330733e-02  -5.435050e-02  -1.692210e-01  5.154474e-02  -4.315226e-02  -1.270335e-01  -1.344423e-01  1.170691e-01  -1.855270e-03  2.794978e-04  2.116768e-01  -5.254976e-02  -2.180044e-02  -1.064799e-01  1.431746e-01  -7.591121e-02  -1.270024e-01  -8.011937e-02  2.336373e-02  -6.186789e-02  1.324776e-01  -1.296120e-01  1.210224e-01  -1.162078e-01  9.955524e-02  6.667861e-02  1.681390e-01  -4.143336e-02  2.423550e-02  1.119368e-01  1.719424e-01  1.409611e-01  9.085114e-02  5.555998e-02  3.766771e-02  2.089939e-01  -4.768974e-02  -6.074997e-02  2.600519e-02  1.460403e-01  4.435538e-03  4.778656e-02  1.044896e-01  -1.720942e-03  -1.774294e-01  6.666979e-02  -9.113951e-02  -5.737001e-02  -1.080271e-01  1.375238e-01  -4.364434e-02  1.074618e-01  -9.987049e-02  -1.623423e-01  1.012409e-01  6.586908e-02  1.290808e-02  -1.502316e-01  1.871580e-01  9.641744e-02  7.920469e-02  -1.588463e-01  1.552334e-01  7.865544e-02  -1.102645e-01  -1.987276e-01  9.265493e-02  7.425942e-02  -4.647533e-02  -1.094762e-01  -9.778208e-02  2.843993e-02  1.882365e-01  1.277703e-01  -1.878636e-01  -3.888756e-03  -3.236342e-02  3.522118e-02  -1.546365e-01  1.087250e-01  -4.119897e-02  1.921213e-02  -8.137981e-02  -1.372014e-01  -1.085344e-01  -1.889479e-01  -2.481829e-02  -6.274272e-02  2.312881e-02  4.326570e-02  5.545986e-02  -6.794097e-02  1.432363e-01  -4.042724e-03  8.041129e-02  -2.128390e-02  -7.266688e-02  9.134502e-03  -5.653189e-02  -7.335397e-02  -4.919410e-02  5.824998e-02  -1.347552e-01  -2.061508e-01  -3.793008e-02  6.756338e-02  -1.508491e-02  2.106185e-02  -1.292973e-01  -8.870374e-02  -1.370565e-01  1.092375e-01  1.274082e-01  3.199967e-02  -5.187260e-02  5.466184e-02  -3.104372e-02  2.791522e-02  3.309091e-02  -2.982845e-02  9.678695e-02  -6.299195e-02  4.019288e-02  -1.950404e-02  1.131733e-02  -4.924474e-03  -9.207255e-02  9.143923e-02  2.839741e-02  -1.641071e-01  1.705643e-01  2.126088e-01  -1.576339e-02  4.214193e-02  -1.448455e-01  4.773195e-02  1.440903e-02  -1.427201e-01  -6.823398e-02  -8.271278e-02  1.075736e-01  -1.449018e-01  1.110896e-01  -1.165908e-01  -7.937041e-02  7.723857e-02  9.874698e-02  4.308956e-02  1.759417e-01  1.894049e-02  -6.039225e-02  9.389865e-02  -2.762071e-01  7.263415e-02  -2.032259e-02  -2.740906e-01  -7.555634e-02  1.875941e-01  -7.833644e-02  -1.877769e-01  1.455488e-01  -5.178358e-02  -6.572783e-02  2.436174e-01  2.043200e-01  1.695780e-01  -6.202202e-02  1.087682e-01  7.541814e-02  1.183365e-01  -9.805176e-02  -1.294073e-01  -1.944918e-01  -1.074264e-01  2.002570e-01  1.261988e-01  -1.491168e-01  -1.166295e-01  -1.494420e-01  -4.971613e-02  3.221334e-02  9.348544e-02  3.491400e-02  -3.574717e-02  7.393216e-02  9.376317e-02  -2.349931e-02  -6.100538e-02  -1.395444e-01  -1.639212e-01  -2.850535e-02  -1.694364e-01  -3.048119e-03  -1.003184e-02  8.717752e-02  7.046386e-02  1.847551e-04  6.671675e-02  -6.556836e-02  1.165684e-01  1.505621e-01  1.176836e-01  -2.079664e-01  -2.379147e-01  1.320350e-01  1.193402e-01  -3.778763e-02  2.146714e-02  4.509495e-02  2.360792e-03  2.143298e-01  -1.654894e-01  -1.037800e-01  -2.571785e-02  1.411438e-01  -3.890060e-02  -3.635116e-02  3.343283e-02  -1.256401e-01  -4.048970e-02  1.779156e-01  -1.277740e-01  1.193830e-01  -3.295049e-02  1.443225e-01  3.434284e-02  1.007335e-01  -1.795965e-01  -9.069725e-02  -1.071444e-01  -7.782833e-02  -2.279638e-01  -1.373730e-02  -5.437233e-02  -2.545042e-01  2.048873e-01  5.651522e-02  -6.509253e-02  1.500631e-01  -4.201657e-02  -2.640728e-02  -1.123106e-01  -4.499566e-03  -4.086670e-02  -1.303763e-01  9.539230e-02  -3.620339e-02  1.028854e-01  9.326357e-03  -1.747140e-01  -1.351049e-01  -2.994684e-03  -1.526650e-01  7.163968e-02  -1.463007e-01  -1.716209e-01  -4.985488e-02  -2.391321e-02  -7.244677e-02  -2.963022e-01  4.862208e-02  6.755409e-02  1.061069e-01  1.232296e-01  1.350670e-01  -9.708874e-02  -9.875268e-02  -4.695404e-02  1.463257e-01  4.182074e-02  2.071602e-02  7.356550e-02  2.548350e-02  5.287342e-02  -8.061057e-02  -3.804114e-02  -8.408467e-02  4.385734e-02  -2.167927e-02  1.600410e-01  2.570484e-01  1.724809e-02  6.101388e-02  1.290055e-01  2.709938e-01  -3.015387e-02  5.918055e-02  8.074811e-02  -5.689959e-02  1.165621e-01  1.233402e-01  -8.896895e-02  -2.211015e-01  -1.734768e-01  -7.618158e-02  1.372553e-01  -1.081350e-01  -2.201852e-01  2.429245e-02  -4.130837e-02  1.685253e-01  1.487325e-01  -1.925369e-01  1.876212e-02  1.848431e-01  -2.319926e-02  2.424219e-01  5.153336e-02  5.103191e-04  -5.234225e-02  -1.941129e-02  2.001218e-02  -8.073851e-02  -4.969051e-02  1.016270e-01  4.240618e-02  -8.312675e-02  9.034208e-02  -2.742111e-01  -6.665681e-02  1.033046e-01  3.343099e-03  3.377457e-02  1.703467e-02  4.575701e-02  8.785637e-02  -2.451606e-02  -1.295027e-01  -8.884381e-02  -2.192672e-01  7.046673e-02  1.393385e-01  5.747894e-02  1.118262e-01  9.487762e-02  -6.500572e-02  6.753503e-02  3.935713e-02  -4.021993e-02  2.111891e-02  -1.401259e-01  -7.678884e-02  -5.425675e-02  1.378306e-02  3.250695e-02  -2.049238e-01  -1.932183e-02  -2.965209e-02  -6.670133e-02  6.544966e-02  8.395611e-02  -7.359981e-02  -1.143529e-01  1.737964e-02  -9.041806e-02  1.791809e-01  1.325160e-01  6.779024e-02  8.785886e-02  1.912147e-01  -1.551771e-01  1.132703e-01  2.223805e-01  -1.384625e-01  2.319187e-02  1.526439e-01  -2.161750e-01  7.355339e-02  1.302603e-01  -7.558288e-02  -9.998515e-02  -3.535422e-02  -5.763548e-02  -1.751529e-01  -3.791222e-02  1.807673e-02  -2.428071e-02  1.004876e-01  8.594856e-02  -4.290990e-02  1.532756e-01  -7.185268e-03  6.923638e-02  9.194364e-02  1.685422e-01  1.551088e-02  -1.160873e-01  -1.629868e-02  -2.886138e-02  4.513641e-02  -4.191358e-02  -1.113175e-01  9.140786e-02  -8.369799e-03  -9.318307e-02  1.385760e-01  -4.469456e-02  -1.291972e-01  -8.118602e-03  -1.622658e-01  1.330218e-01  9.457016e-02  6.342389e-02  -6.026351e-02  1.557691e-04  1.521657e-01  3.768891e-03  -5.746799e-02  -2.475651e-01  6.560653e-02  -1.433400e-01  -1.567500e-01  -1.868561e-01  1.769871e-01  3.942690e-02  -6.264944e-02  -3.622346e-02  -3.167078e-02  -4.509873e-02  1.413246e-01  9.763503e-02  -9.000476e-02  -5.453268e-02  3.210766e-02  1.006073e-01  1.061287e-01  1.136849e-01  -2.131469e-02  -1.405827e-01  1.613663e-02  1.526596e-02  6.032025e-02  -6.339955e-03  2.358039e-02  -2.303038e-01  4.006959e-02  -8.354603e-02  3.607323e-02  1.232582e-01  3.284528e-02  -8.370174e-02  1.803929e-01  -1.212458e-01  1.297376e-01  8.897153e-02  -1.749184e-01  7.048928e-02  9.136350e-02  -4.185124e-02  -9.091129e-02  -3.056300e-03  -7.486624e-02  1.275702e-01  1.199887e-01  -1.172249e-01  1.945498e-02  3.446789e-01  2.647375e-02  1.046645e-01  -1.445229e-01  -1.146707e-02  -6.485799e-02  -1.575414e-01  2.612290e-02  4.527958e-02  -1.698887e-02  5.052531e-02  -2.412286e-02  2.164069e-01  1.833042e-01  8.577006e-02  -9.370236e-02  -9.285879e-02  2.559249e-01  -1.222835e-01  -3.498399e-02  1.463243e-02  2.477286e-02  2.134858e-01  2.032236e-01  1.790624e-01  -8.781879e-02  1.054376e-01  1.087872e-02  -1.846242e-02  -2.527740e-01  7.424436e-02  -8.495115e-02  1.397967e-01  9.342751e-02  -1.137346e-01  7.583898e-02  6.322280e-02  5.215148e-02  -1.471345e-01  -8.795686e-03  7.278125e-02  9.927164e-02  -1.449790e-01  1.020497e-01  1.492404e-01  -1.623800e-01  8.423504e-02  -2.288118e-01  3.177807e-02  4.372212e-02  -4.945691e-02  -7.496433e-02  1.044589e-01  -2.072972e-03  3.518633e-02  3.660975e-02  1.502133e-02  -1.340052e-01  -1.246131e-01  1.822227e-01  -1.393521e-01  -1.146490e-02  9.927985e-03  -8.635446e-02  -3.231378e-02  1.190170e-01  1.961956e-01  9.116801e-03  5.507659e-02  -1.540255e-01  -1.038056e-01  -2.010630e-01  1.639394e-03  2.126792e-01  7.171385e-02  1.169982e-01  2.054481e-01  -1.152792e-01  -1.383202e-01  7.217921e-02  -1.544719e-01  1.192647e-02  -4.184217e-02  -3.639718e-01  -4.132819e-01  -3.461883e-02  -2.833445e-02  -1.843295e-01  1.179986e-01  3.832763e-02  5.964654e-03  1.273606e-01  3.192693e-01  1.307538e-01  -5.946848e-02  3.194058e-02  3.603006e-02  -5.166530e-02  5.846179e-02  -1.449956e-01  5.438013e-02  -1.713717e-01  2.079894e-01  1.930012e-01  -1.843846e-01  -9.748396e-03  -1.815801e-01  -1.540126e-01  8.206879e-02  4.923562e-02  -5.405805e-02  2.033547e-02  1.224001e-02  1.201773e-01  3.853933e-02  7.175077e-02  -1.091133e-01  -1.170840e-01  -3.914008e-02  -2.928446e-02  -9.194776e-02  -1.831064e-02  -1.384161e-03  8.771906e-04  -2.603393e-02  -4.883801e-02  8.870661e-02  -4.661233e-02  1.214169e-01  1.612040e-01  -1.255750e-01  -2.075205e-01  -5.123876e-02  1.201091e-01  -1.116508e-01  -8.082910e-03  -2.118024e-01  9.067076e-02  9.514529e-02  -2.298780e-02  1.076948e-01  -1.096208e-01  -2.067871e-02  1.229564e-01  -1.554620e-01  1.748502e-01  -1.938027e-01  1.141654e-01  -4.907448e-02  -1.501975e-01  -1.106373e-02  1.905363e-01  1.431363e-01  -8.611401e-02  9.426589e-02  -9.077064e-02  3.095005e-02  -3.079935e-01  -1.090591e-01  -1.614039e-01  -6.371474e-02  2.850924e-02  -1.260908e-01  5.450957e-02  -5.973997e-02  -1.195938e-02  6.915607e-02  -1.586520e-01  -8.158630e-02  -3.735970e-02  8.625386e-02  6.087646e-02  -9.362043e-02  -1.318130e-01  -4.461847e-02  -1.510134e-02  -6.953607e-02  -7.796021e-02  6.117493e-02  1.408155e-01  6.767660e-02  1.104616e-01  -5.300779e-02  1.651602e-01  6.385881e-02  6.378704e-02  -7.960486e-02  -2.109948e-01  -1.759144e-03  1.613361e-01  9.923694e-02  1.002908e-01  8.070151e-02  -2.833358e-03  -1.444217e-01  6.432084e-02  -1.585796e-01  1.232153e-01  -1.763685e-02  8.395720e-02  1.995608e-01  5.911624e-02  -1.454444e-01  4.497740e-02  -1.728887e-01  -6.848046e-02  -1.076222e-01  -9.900956e-03  2.777819e-01  9.999260e-02  3.924591e-03  1.335866e-01  3.596576e-02  4.962922e-02  9.125067e-03  2.620970e-02  -1.772419e-01  1.203218e-01  -1.002472e-01  -1.257188e-01  -2.474982e-01  -2.382597e-02  1.626987e-01  -4.198920e-02  -1.025791e-02  -1.535118e-01  -5.459664e-02  -5.299005e-02  7.042626e-02  -4.207052e-02  -1.833788e-01  -8.460334e-02  -8.353321e-02  9.406886e-02  4.271798e-02  -1.014512e-01  -4.565558e-02  4.732746e-02  -1.086261e-01  1.640858e-02  -1.005287e-01  4.160139e-02  1.885489e-01  -4.479983e-03  -1.249395e-01  1.333488e-01  -2.421644e-01  1.245476e-02  1.301765e-01  -3.262611e-02  -9.792096e-02  1.370532e-01  7.952129e-03  3.341515e-02  1.127389e-01  1.433044e-01  -1.671283e-01  -6.736663e-02  1.241654e-01  2.765431e-01  9.803029e-03  -4.752968e-03  1.755154e-02  -1.347188e-01  1.898161e-01  5.151123e-02  -8.019383e-02  -7.570974e-02  6.820418e-03  2.095613e-02  -4.938771e-03  1.227566e-01  -3.157382e-02  -1.574160e-01  1.124316e-01  -1.584220e-01  -1.692003e-01  8.508663e-02  8.343444e-02  -1.235009e-01  -7.652137e-02  -5.300686e-02  -1.662371e-01  2.837704e-01  1.840890e-01  1.065485e-01  5.779248e-02  1.591482e-01  -7.768190e-02  3.718889e-03  1.988888e-01  -1.111120e-01  -7.764789e-02  -2.420360e-02  -1.631643e-01  -6.873355e-02  1.381631e-02  -1.250491e-01  -5.334366e-02  1.342821e-01  1.669807e-01  -1.341558e-01  1.605213e-01  -8.892817e-02  5.107796e-03  7.855822e-02  -1.602526e-01  4.707900e-02  1.880120e-01  1.518197e-01  7.306139e-02  3.525577e-02  9.726380e-02  -2.977909e-01  1.183088e-02  1.480455e-01  -1.460010e-01  -3.450148e-02  -1.883403e-01  -1.280865e-01  1.097654e-01  7.072082e-02  2.056152e-01  5.381996e-02  1.051861e-01  -1.276390e-01  3.696085e-03  8.123663e-02  1.169811e-01  1.026830e-01  2.033903e-01  -8.990761e-02  1.341653e-01  -7.660557e-02  9.243862e-02  4.063484e-02  -2.665198e-01  -5.169128e-03  -1.681966e-01  -3.102460e-01  -1.270957e-01  5.675677e-02  1.065242e-01  -9.331718e-02  8.742101e-03  -2.879964e-03  -2.464622e-02  1.314043e-01  1.286292e-01  8.655419e-02  -1.516713e-01  -1.319099e-01  9.215742e-02  8.133036e-02  2.403632e-02  -5.406595e-02  -2.834513e-01  3.452349e-02  2.004887e-01  1.618669e-01  -8.221371e-02  -9.695981e-02  -8.464318e-02  -5.837232e-02  4.397855e-02  1.004546e-01  1.933093e-01  2.076225e-02  9.908547e-02  -2.121128e-02  -3.935903e-02  -4.078116e-02  -6.789246e-02  2.183151e-03  1.916694e-01  -9.292077e-02  4.610700e-02  -1.791895e-01  -3.331013e-03  3.118377e-02  8.296654e-02  1.714334e-02  4.334498e-02  -2.999696e-03  1.629789e-01  1.611290e-01  -4.780302e-02  -1.348944e-01  -3.088384e-02  2.477215e-02  7.844385e-02  2.076730e-01  -1.523795e-01  -4.845134e-02  1.768214e-01  -2.352084e-02  1.277497e-01  1.661257e-01  2.031544e-01  7.793822e-02  1.014336e-02  9.271669e-02  -1.180905e-01  1.484513e-01  8.716777e-02  1.535913e-02  6.914102e-02  1.045669e-01  1.977998e-01  -3.883577e-02  4.650695e-02  -1.344789e-01  -1.856019e-01  -1.815726e-01  -7.035878e-02  4.993988e-02  -4.594053e-02  -1.147433e-02  3.322375e-02  2.704270e-01  1.616981e-01  5.039052e-02  -5.570205e-02  4.112662e-02  -1.058880e-01  7.020374e-02  1.248063e-04  -1.054330e-01  1.079650e-01  -5.909253e-02  1.098946e-02  -1.441366e-01  1.080123e-01  3.423460e-02  -5.105080e-02  -8.684126e-02  7.983933e-02  1.960151e-02  1.901701e-02  -6.526161e-02  2.912310e-03  -2.231496e-01  8.006775e-02  3.077967e-01  -1.300062e-01  7.904162e-02  -2.737367e-01  -2.103431e-01  1.880930e-02  4.415898e-02  2.819005e-02  -4.397722e-02  1.050990e-01  -1.051127e-01  1.141406e-01  -6.585253e-02  2.863047e-02  7.949921e-02  2.068772e-01  -4.462312e-02  8.277943e-03  -1.287091e-01  1.508542e-02  -1.573379e-02  -9.776725e-02  1.270124e-01  4.469787e-02  -9.211529e-02  -2.346162e-01  5.832950e-02  4.141028e-02  -7.380324e-02  -6.370546e-02  -2.326362e-01  1.447774e-01  -6.659185e-04  2.118717e-01  -9.224380e-03  -3.349691e-02  3.149811e-02  -9.129521e-03  -2.907430e-02  1.381542e-01  9.499602e-02  6.102652e-02  -1.747859e-01  1.258667e-01  -2.874161e-02  -1.174394e-01  -8.854936e-02  -1.405974e-01  -1.146037e-01  4.649733e-02  3.654196e-02  2.440167e-01  -7.593357e-02  5.469173e-02  6.057701e-02  1.566993e-01  1.123473e-01  1.146612e-01  -5.193485e-02  1.772055e-01  1.793532e-01  4.959660e-02  -8.034199e-02  -8.348522e-02  -7.464554e-02  6.535828e-02  -3.140017e-02  4.399845e-03  9.887688e-02  2.774567e-01  5.228814e-02  -1.101856e-01  -1.689524e-01  -1.010474e-01  -1.082127e-01  -9.638437e-02  1.305546e-01  3.205280e-02  -7.009254e-02  2.521687e-02  -9.200724e-02  4.388486e-02  -7.852871e-02  9.790266e-02  1.872186e-02  -2.297349e-01  2.124144e-02  -1.189848e-01  1.687196e-01  1.528723e-02  1.297753e-01  1.561361e-01  2.829857e-01  9.677997e-02  -4.680223e-02  8.604464e-02  1.253737e-02  -1.605146e-01  -1.580042e-01  -6.368058e-02  -2.312577e-01  2.067422e-02  1.188723e-01  5.189469e-02  1.759876e-02  1.351597e-01  3.341692e-02  7.937564e-02  -1.292952e-01  -1.275038e-02  -1.342088e-01  -7.704968e-02  7.294787e-02  2.069969e-01  -6.653031e-03  8.548829e-02  -1.509876e-01  -8.604416e-03  5.231517e-02  3.665166e-02  1.262071e-02  -9.251671e-02  -1.193347e-01  -3.717626e-02  -2.190074e-02  2.110150e-01  -1.838087e-02  5.094355e-02  7.752709e-03  -2.927979e-02  1.656952e-01  -7.724296e-03  2.806106e-02  -6.736517e-02  1.015304e-01  2.713739e-02  -1.043989e-01  -1.179750e-01  -2.892328e-02  6.807009e-02  -8.577073e-02  -1.742900e-01  -1.147919e-01  -3.497530e-02  -9.245043e-02  4.253227e-02  1.238936e-01  -1.355759e-01  1.925065e-01  -1.083051e-01  4.120324e-02  -1.993237e-01  -8.182668e-02  1.659814e-03  1.002913e-01  2.509718e-02  -1.001737e-01  1.028361e-01  -9.123030e-02  1.893701e-02  3.658931e-02  2.957230e-02  -1.419114e-01  -2.889956e-02  1.343908e-01  -3.534488e-02  1.910305e-01  -5.805154e-02  2.058958e-02  -1.193954e-01  -8.961704e-02  -5.898405e-02  -1.474923e-02  -8.410019e-02  8.082219e-02  1.054204e-01  -5.741296e-02  2.596671e-02  1.431742e-01  1.602820e-02  -5.966771e-02  -7.273927e-02  -8.529329e-02  -1.300545e-01  4.158828e-02  1.623984e-01  -5.902417e-02  -3.271354e-02  -5.621827e-02  -2.607238e-01  -2.689274e-02  7.912599e-02  7.894506e-02  -1.312473e-01  -8.005495e-02  -3.040398e-02  -2.095929e-02  -1.093713e-02  -1.190442e-01  1.917213e-01  8.969750e-02  8.511070e-02  -9.235184e-02  -1.992844e-02  -1.797695e-01  -9.785754e-02  4.670300e-02  -1.358284e-01  3.827907e-02  -5.018339e-02  -1.367937e-01  -1.070222e-01  8.873715e-02  3.596489e-02  -1.302612e-02  1.504842e-01  -1.672610e-01  -1.817725e-01  1.999512e-01  8.196138e-02  1.002252e-01  3.416095e-02  2.851547e-01  -1.945581e-01  -1.423826e-01  -9.243161e-02  -1.966308e-01  -6.354908e-03  6.449973e-02  2.210511e-02  7.123075e-02  -7.852023e-04  -1.089840e-01  1.747292e-01  7.218371e-02  1.766769e-01  -7.560968e-03  6.894496e-02  9.041906e-02  -1.790849e-01  8.230157e-02  -1.490386e-02  -9.213339e-02  3.415313e-02  1.137363e-01  6.708235e-02  2.793905e-02  7.135179e-02  1.238357e-02  -7.623738e-02  -5.914246e-03  1.376167e-03  -1.072492e-01  -6.562989e-02  -3.054844e-02  -2.160226e-02  -1.452073e-01  -9.809695e-03  2.057411e-02  -1.374509e-01  -2.554006e-01  -7.206394e-02  1.406273e-02  -7.997629e-03  -5.108251e-02  2.036517e-02  -1.324146e-01  -9.445478e-02  3.941065e-02  1.963170e-01  -1.099688e-01  7.126243e-02  -1.852873e-02  1.863800e-02  1.019444e-01  -2.372622e-02  -4.717389e-02  -9.555150e-03  1.089339e-01  -1.623605e-02  -9.593689e-02  -1.156571e-01  -1.400048e-01  1.312382e-01  4.931208e-02  1.915416e-01  -6.376609e-03  -3.331836e-02  -1.036272e-01  6.052515e-02  1.140133e-01  1.609601e-01  7.875871e-02  6.186016e-02  -2.810115e-03  9.982913e-02  -9.466954e-02  7.385509e-02  -3.548331e-03  3.958377e-02  -4.657543e-02  -7.890196e-02  3.157830e-02  -9.478604e-02  1.243693e-01  -7.710394e-02  -6.048115e-03  1.724283e-01  6.142275e-03  -1.131450e-01  1.216335e-01  1.678271e-01  9.433031e-02  6.426658e-02  -1.556463e-01  -1.334880e-01  -6.106256e-02  -5.799169e-02  -8.078083e-02  -5.806254e-02  -1.306133e-01  2.161273e-01  1.531222e-01  -3.168448e-02  8.032735e-02  -1.410070e-02  2.718672e-01  -1.080826e-02  -7.819241e-02  -1.393207e-02  1.366321e-01  -5.463965e-02  2.623976e-01  -4.243200e-02  1.476844e-01  2.505821e-02  8.308724e-02  -7.136077e-02  1.628506e-01  1.474536e-01  -7.808801e-02  2.362553e-02  -4.222445e-02  -1.814385e-02  1.230741e-01  5.836114e-02  -1.282656e-01  -1.809441e-01  -1.219861e-01  1.245424e-01  -1.909658e-01  -4.262424e-02  1.846208e-01  1.085792e-01  2.178698e-02  5.508237e-02  -8.605184e-02  1.642947e-01  -5.197179e-02  7.859178e-02  -6.260147e-02  -8.426612e-03  -9.483621e-02  -1.054441e-01  -7.324459e-02  -2.403471e-02  -2.644362e-02  1.105867e-01  -3.243814e-02  6.904241e-02  -9.756307e-02  5.035497e-02  -2.605230e-03  -5.299080e-02  -4.813409e-02  -1.536676e-01  -8.969356e-04  1.972178e-01  9.107546e-02  1.711125e-01  6.832953e-02  9.752027e-02  -2.483128e-01  4.320108e-02  2.232013e-01  -9.315487e-03  -9.146830e-02  6.621952e-02  8.911192e-02  -2.969099e-02  6.449763e-02  4.744997e-02  5.469857e-02  -6.495184e-02  -2.379334e-02  -2.820135e-02  -9.104399e-02  -1.198713e-01  7.175963e-02  5.453076e-02  -3.600785e-02  7.472873e-02  -8.508413e-02  1.077183e-01  -8.080766e-02  -3.839254e-01  -1.139523e-01  -1.463550e-01  -2.970742e-01  -2.506970e-01  1.582095e-01  3.675276e-02  -8.587379e-03  1.955131e-01  -9.396842e-02  -1.456353e-02  3.300460e-01  1.986963e-01  4.608779e-02  -1.707788e-01  2.190560e-02  -1.748195e-01  2.217869e-01  1.193200e-01  1.709998e-01  -1.529903e-01  -2.326117e-01  3.516342e-03  2.314475e-01  1.446030e-02  -2.718336e-02  -3.131755e-01  -1.753901e-01  1.673381e-02  3.268220e-02  -4.851994e-02  -1.129145e-01  8.296655e-02  4.979461e-02  -2.200747e-02  1.039923e-01  -8.444592e-02  1.043346e-01  5.381575e-02  -1.448456e-01  -4.881312e-02  -4.076507e-02  -1.408265e-03  -8.134660e-02  1.366587e-01  -1.077597e-01  -1.766030e-02  1.325924e-01  2.171389e-01  -1.337843e-01  -1.740558e-01  -2.403517e-01  -1.898395e-02  1.194515e-01  -9.824467e-02  1.920933e-01  -2.322468e-01  -1.413101e-01  -9.963743e-02  -1.950974e-02  1.133183e-01  9.978382e-02  -1.058719e-01  9.761167e-02  2.232897e-02  4.247946e-02  -2.981239e-02  2.323510e-01  1.770321e-01  1.127523e-01  1.815361e-01  2.345569e-01  1.331473e-01  -9.081819e-02  1.022250e-01  -2.888138e-01  -7.427414e-04  -1.066226e-01  -2.961509e-02  -1.748178e-01  1.746673e-01  -3.008985e-02  -8.158699e-02  2.673350e-01  8.727305e-02  6.952910e-03  1.021355e-01  -1.509500e-01  4.427968e-02  1.260698e-01  -8.013410e-02  4.953910e-02  -1.022109e-01  1.286751e-01  -1.813149e-02  9.757453e-02  -3.979374e-02  -1.156170e-01  -2.906702e-02  8.221134e-02  -1.077188e-01  -9.897003e-03  -1.318686e-03  -8.317108e-02  1.173806e-02  -4.051202e-03  3.163772e-02  -2.734155e-01  1.535031e-01  6.139727e-02  1.708829e-01  8.382109e-02  -2.112981e-02  -4.515069e-02  -2.218330e-01  -5.073861e-02  1.064399e-01  1.146621e-01  -9.251526e-02  4.174558e-02  5.325589e-02  -1.745095e-01  -1.191308e-02  -3.877532e-02  -3.957065e-02  9.977271e-02  4.155031e-02  7.380141e-02  2.172719e-01  1.044182e-01  -1.123509e-01  4.234655e-02  2.241752e-01  8.870698e-02  -1.229688e-01  6.712975e-02  -1.269134e-01  1.745691e-01  4.124315e-02  -1.377513e-01  -9.928626e-02  -2.715552e-02  -4.599161e-02  1.062412e-01  -4.874303e-03  -2.092843e-01  -1.275537e-01  7.593263e-02  -3.379929e-03  6.658566e-02  -8.317521e-02  -3.353444e-02  -4.203966e-02  4.715687e-02  1.449482e-01  9.194364e-02  -8.567696e-02  6.445861e-02  -5.759603e-04  -1.032866e-01  -4.436060e-02  1.315605e-01  4.526990e-02  6.713911e-02  5.854759e-02  4.141191e-03  -2.508852e-01  -8.632293e-02  2.342231e-01  1.493693e-01  8.923042e-02  2.445325e-02  -7.315984e-02  -2.299987e-02  6.397945e-02  -1.349551e-01  -3.032424e-01  -5.761124e-02  6.425565e-02  2.905485e-02  -1.210389e-01  -4.028673e-02  -1.138505e-01  -3.733758e-04  2.072346e-01  8.630171e-02  -1.310288e-01  9.792697e-02  4.771176e-02  -1.527073e-01  -3.547719e-02  5.759722e-02  -5.169575e-02  -8.095825e-02  1.459583e-01  -5.106520e-02  -2.223017e-01  1.861975e-02  2.303791e-03  -1.508527e-01  -3.260490e-02  6.526110e-02  -5.475371e-02  5.896171e-02  2.054830e-01  2.591336e-02  1.486039e-01  -3.794599e-02  6.736496e-02  5.025174e-02  1.068052e-02  -3.098072e-02  -2.339415e-01  1.668283e-02  -1.107300e-01  -8.199255e-02  9.910388e-02  1.219733e-01  -1.385579e-02  -2.948988e-02  4.890157e-02  -8.742954e-03  -1.254472e-02  -8.418249e-02  -5.065350e-02  3.080609e-03  9.644306e-02  -2.240135e-02  -3.702915e-02  -1.096369e-01  -3.197054e-02  5.345273e-03  7.401627e-02  8.111825e-02  1.308548e-01  -1.846045e-02  2.411290e-01  -5.531312e-03  2.018760e-01  7.388867e-02  -4.895452e-03  8.711209e-02  1.213120e-01  1.235682e-01  1.066027e-01  5.468656e-02  -4.547732e-02  -4.960712e-02  -8.375238e-02  -1.670665e-01  2.466240e-02  -7.120914e-02  -1.327312e-02  -1.891611e-01  -9.969249e-02  1.259947e-01  6.915884e-02  5.977288e-02  -1.627116e-01  -1.083789e-01  3.301841e-02  -3.614658e-02  -6.705537e-02  1.369612e-01  7.708018e-02  1.060697e-01  -1.051393e-01  1.076822e-01  1.399295e-01  -2.664384e-02  1.321748e-01  7.303850e-03  -4.991829e-02  9.513934e-03  -6.002473e-02  1.098135e-01  3.167960e-02  -4.738469e-02  9.184748e-02  8.736498e-02  3.804569e-03  -3.383077e-02  1.316754e-01  4.875707e-02  -1.418810e-01  6.435487e-03  8.326090e-02  3.397775e-02  -1.530178e-01  2.351648e-01  -3.364798e-02  -5.499117e-02  -2.461087e-01  -8.432379e-02  -1.947786e-02  7.887702e-02  1.590887e-01  -2.697198e-02  -8.715289e-02  -7.773239e-02  1.880657e-02  -1.750088e-01  1.857484e-01  -1.470926e-01  -7.435463e-02  -8.444922e-02  1.576745e-01  -2.430792e-03  1.856211e-01  -1.585490e-01  1.497383e-02  -1.355422e-01  5.667003e-02  -1.901441e-01  1.078073e-01  -8.691400e-02  5.514785e-02  -7.857382e-02  -1.269879e-01  5.263263e-02  1.745481e-01  -1.029605e-01  3.449707e-02  6.928635e-02  1.849170e-03  7.115514e-02  8.627316e-02  1.257945e-01  6.830971e-02  -5.216977e-02  -2.708096e-02  2.979004e-02  -1.207054e-02  -3.110469e-02  -7.720146e-02  -1.260750e-01  5.611590e-02  -1.054150e-01  -1.297352e-01  5.657304e-02  -2.192714e-02  -8.115610e-02  9.244232e-02  1.110622e-01  1.125912e-02  2.095700e-03  -2.207915e-02  -1.024164e-01  -1.227179e-02  -1.245420e-02  -1.192982e-01  5.162895e-02  -1.539683e-01  -6.975154e-03  1.137749e-01  -5.391126e-02  -1.799586e-01  9.581418e-02  5.069503e-02  3.707926e-02  -1.840628e-01  7.466996e-02  -7.837393e-02  -2.360706e-01  -2.396150e-02  1.368655e-02  2.817735e-02  1.608485e-01  2.529278e-02  -1.435295e-02  -1.704874e-01  5.346126e-02  -1.142736e-01  1.022426e-01  4.431490e-02  2.046990e-01  -7.167166e-02  -2.248929e-02  -9.169995e-02  8.800922e-02  -1.002523e-01  6.002589e-02  -9.665709e-02  9.430124e-02  2.206066e-01  7.806085e-02  -9.189416e-02  1.422922e-01  2.343028e-01  -1.951646e-01  -6.672841e-02  2.151699e-02  -1.539681e-01  -6.224951e-02  3.533462e-02  -1.927994e-01  -3.183784e-01  1.673307e-01  -1.203931e-01  -9.018935e-02  -4.811815e-02  -1.632926e-01  1.264517e-01  2.042290e-03  8.720292e-03  1.232934e-01  -1.532742e-01  -2.231087e-01  6.860841e-02  6.208368e-02  1.532257e-01  3.552244e-02  -7.789726e-02  6.667610e-02  -6.022343e-03  2.400785e-02  -3.216663e-02  -1.130391e-01  -7.464264e-02  -1.305641e-01  4.698352e-02  -6.749983e-02  -4.928423e-02  8.829920e-02  4.632194e-02  1.628976e-01  -5.328726e-03  1.162321e-01  -1.218688e-01  1.294611e-01  8.618993e-02  -3.400554e-02  3.828625e-02  -4.390569e-03  -6.817692e-02  2.668450e-01  6.298003e-02  1.710602e-01  -3.189741e-02  -8.409341e-02  -3.115663e-02  9.075818e-02  -8.159449e-02  1.507028e-01  -1.041817e-01  2.120109e-01  -6.535175e-02  -3.578490e-02  -7.612262e-03  5.855868e-03  6.547326e-03  -7.095969e-04  -1.004065e-01  -4.687498e-03  -1.175784e-01  2.346672e-02  5.660029e-02  8.940515e-02  -1.413227e-01  2.639433e-01  1.797364e-01  1.318366e-01  -2.280084e-02  1.514471e-01  -1.767796e-01  -1.073049e-01  3.964734e-02  -8.663072e-02  -4.771326e-02  -1.597363e-01  -9.306557e-02  9.167202e-02  1.469934e-01  -5.146293e-02  -8.561397e-02  9.763841e-02  -1.062722e-01  -1.188358e-01  6.425495e-02  4.792637e-02  -1.854903e-03  -1.282428e-01  -6.846544e-02  -2.563968e-02  1.235295e-01  1.039041e-01  5.252570e-02  -2.074450e-01  1.761431e-01  -1.071409e-01  9.658852e-02  1.647724e-01  -8.832501e-02  9.965830e-02  1.699252e-01  -1.596463e-01  -7.057463e-02  -9.654640e-02  1.100500e-01  -8.006967e-02  7.160027e-02  -1.110270e-01  -3.751132e-02  -1.039242e-01  2.813842e-02  -5.076202e-02  -5.143122e-02  3.774112e-02  4.646903e-02  3.405712e-02  -3.483821e-02  -8.789536e-02  -1.799064e-01  6.495220e-02  -1.028515e-01  -3.958658e-02  -7.684390e-02  1.276495e-01  -1.320055e-01  5.923291e-02  1.068124e-01  6.323825e-03  2.208160e-01  1.087473e-01  7.622495e-02  -3.991591e-02  2.871331e-02  -4.730068e-02  -5.780413e-02  -5.500674e-02  3.998501e-02  3.927467e-02  -2.539338e-02  -5.103209e-02  4.019680e-03  2.441864e-02  -9.958770e-02  1.319856e-01  -4.952402e-02  -1.481148e-01  -1.543021e-01  -8.049545e-02  1.294564e-01  -6.051000e-02  -1.472206e-01  -1.147251e-01  -3.968864e-02  -6.141775e-02  1.661060e-01  -1.766651e-01  2.110763e-02  6.444861e-02  -9.778306e-03  -1.443582e-01  7.633065e-02  6.869806e-02  1.824092e-01  1.214273e-02  -9.885158e-02  -9.708605e-02  1.921214e-02  5.680944e-02  6.695347e-04  -1.213881e-01  4.765901e-02  1.076727e-01  -1.104485e-01  -9.213495e-02  -6.367686e-02  1.170246e-01  1.299065e-01  -3.606690e-02  -1.109945e-01  -8.602930e-02  -3.483045e-02  -5.552306e-03  1.532212e-01  4.861219e-02  -1.328084e-01  -5.156716e-03  8.307418e-02  1.281213e-01  3.545554e-02  1.015291e-01  6.695374e-02  -7.121659e-02  1.371412e-02  -1.317786e-01  5.484902e-02  -1.437465e-01  -1.026004e-01  -7.286758e-02  -8.557793e-02  -1.231310e-01  -1.781873e-01  1.373135e-01  -2.883677e-03  8.519559e-02  -1.042670e-01  1.217793e-01  3.505655e-02  8.613268e-02  -7.272315e-03  3.805172e-02  5.734646e-02  -7.493544e-02  4.034249e-02  -1.150968e-01  -2.550443e-01  4.082832e-02  7.289962e-02  4.308005e-02  -5.135939e-02  7.443467e-02  -2.048281e-01  2.332909e-02  -5.126046e-02  5.787256e-02  -1.080816e-02  1.265486e-02  -1.085051e-02  -2.028296e-01  -1.790859e-01  -4.790608e-02  -3.784056e-02  1.352303e-02  5.670550e-02  1.551931e-01  1.669455e-01  1.039560e-01  1.133154e-01  -4.603337e-03  1.215461e-01  2.629909e-01  5.937732e-02  -8.279085e-04  -9.335415e-02  6.348187e-02  1.955716e-01  -8.421487e-02  -1.769211e-02  2.691153e-02  5.621090e-03  -1.267973e-01  -7.050949e-02  1.222356e-01  4.062931e-02  1.159343e-01  1.264410e-01  -1.994483e-02  -1.371821e-01  1.839439e-01  -3.409911e-03  -7.705192e-02  -7.784992e-02  4.605304e-02  1.247832e-02  -3.063850e-03  -1.080324e-01  -5.472981e-02  7.137518e-02  -3.706448e-02  -2.368047e-02  6.080658e-02  -1.516719e-01  3.074659e-02  -1.714825e-01  1.260567e-01  -1.753830e-01  -1.094344e-01  -1.407185e-01  7.943753e-02  -4.875702e-02  1.833201e-01  -1.270400e-01  5.700460e-02  3.813506e-02  -7.564841e-03  -5.280799e-02  8.947512e-02  -4.836918e-02  -6.931307e-03  -1.009936e-01  -1.887970e-01  -8.303799e-02  -2.463867e-02  2.709046e-02  1.090367e-01  -8.286400e-02  -5.069590e-02  -3.708256e-02  3.301911e-02  -1.620334e-01  8.928570e-02  1.896392e-01  2.061556e-01  -1.385058e-01  1.193240e-01  4.355593e-03  -1.614279e-01  1.408809e-01  -4.028999e-02  -3.168157e-02  1.142784e-01  7.672828e-02  