<?xml version="1.0"?>
<MethodSetup Method="BDT::BDTG">
  <GeneralInfo>
    <Info name="TMVA Release" value="4.2.1 [262657]"/>
    <Info name="ROOT Release" value="6.26/08 [399880]"/>
    <Info name="Creator" value="pgaigne"/>
    <Info name="Date" value="Tue Apr 11 10:50:10 2023"/>
    <Info name="Host" value="Linux 28693209b56e 5.15.0-1022-azure #27~20.04.1-Ubuntu SMP Mon Oct 17 02:03:50 UTC 2022 x86_64 x86_64 x86_64 GNU/Linux"/>
    <Info name="Dir" value="/afs/cern.ch/user/p/pgaigne/xiccpp/Xicc/TMVA"/>
    <Info name="Training events" value="55191"/>
    <Info name="TrainingTime" value="2.80185690e+01"/>
    <Info name="AnalysisType" value="Classification"/>
  </GeneralInfo>
  <Options>
    <Option name="V" modified="Yes">False</Option>
    <Option name="VerbosityLevel" modified="No">Default</Option>
    <Option name="VarTransform" modified="No">None</Option>
    <Option name="H" modified="Yes">False</Option>
    <Option name="CreateMVAPdfs" modified="No">False</Option>
    <Option name="IgnoreNegWeightsInTraining" modified="No">False</Option>
    <Option name="NTrees" modified="Yes">1000</Option>
    <Option name="MaxDepth" modified="Yes">2</Option>
    <Option name="MinNodeSize" modified="Yes">2.5%</Option>
    <Option name="nCuts" modified="Yes">20</Option>
    <Option name="BoostType" modified="Yes">Grad</Option>
    <Option name="AdaBoostR2Loss" modified="No">quadratic</Option>
    <Option name="UseBaggedBoost" modified="Yes">True</Option>
    <Option name="Shrinkage" modified="Yes">1.000000e-01</Option>
    <Option name="AdaBoostBeta" modified="No">5.000000e-01</Option>
    <Option name="UseRandomisedTrees" modified="No">False</Option>
    <Option name="UseNvars" modified="No">5</Option>
    <Option name="UsePoissonNvars" modified="No">True</Option>
    <Option name="BaggedSampleFraction" modified="Yes">5.000000e-01</Option>
    <Option name="UseYesNoLeaf" modified="No">True</Option>
    <Option name="NegWeightTreatment" modified="No">pray</Option>
    <Option name="Css" modified="No">1.000000e+00</Option>
    <Option name="Cts_sb" modified="No">1.000000e+00</Option>
    <Option name="Ctb_ss" modified="No">1.000000e+00</Option>
    <Option name="Cbb" modified="No">1.000000e+00</Option>
    <Option name="NodePurityLimit" modified="No">5.000000e-01</Option>
    <Option name="SeparationType" modified="No">giniindex</Option>
    <Option name="RegressionLossFunctionBDTG" modified="No">huber</Option>
    <Option name="HuberQuantile" modified="No">7.000000e-01</Option>
    <Option name="DoBoostMonitor" modified="No">False</Option>
    <Option name="UseFisherCuts" modified="No">False</Option>
    <Option name="MinLinCorrForFisher" modified="No">8.000000e-01</Option>
    <Option name="UseExclusiveVars" modified="No">False</Option>
    <Option name="DoPreselection" modified="No">False</Option>
    <Option name="SigToBkgFraction" modified="No">1.000000e+00</Option>
    <Option name="PruneMethod" modified="No">nopruning</Option>
    <Option name="PruneStrength" modified="No">0.000000e+00</Option>
    <Option name="PruningValFraction" modified="No">5.000000e-01</Option>
    <Option name="SkipNormalization" modified="No">False</Option>
    <Option name="nEventsMin" modified="No">0</Option>
    <Option name="UseBaggedGrad" modified="No">False</Option>
    <Option name="GradBaggingFraction" modified="No">5.000000e-01</Option>
    <Option name="UseNTrainEvents" modified="No">0</Option>
    <Option name="NNodesMax" modified="No">0</Option>
  </Options>
  <Variables NVar="21">
    <Variable VarIndex="0" Expression="log(TMath::Max(10e-10,Xicc_IPCHI2_OWNPV))" Label="log(TMath::Max(10e-10,Xicc_IPCHI2_OWNPV))" Title="log_Xicc_IPCHI2_OWNPV" Unit="" Internal="log_TMath_Max_10e_M_10,Xicc_IPCHI2_OWNPV__" Type="F" Min="-8.72431469e+00" Max="4.82757521e+00"/>
    <Variable VarIndex="1" Expression="TMath::ACos(Xicc_DIRA_OWNPV)" Label="TMath::ACos(Xicc_DIRA_OWNPV)" Title="acos_Xicc_DIRA_OWNPV" Unit="" Internal="TMath_ACos_Xicc_DIRA_OWNPV_" Type="F" Min="3.12799530e-05" Max="1.41496211e-01"/>
    <Variable VarIndex="2" Expression="log(TMath::Max(10e-10,Xicc_FDCHI2_OWNPV))" Label="log(TMath::Max(10e-10,Xicc_FDCHI2_OWNPV))" Title="log_Xicc_FDCHI2_OWNPV" Unit="" Internal="log_TMath_Max_10e_M_10,Xicc_FDCHI2_OWNPV__" Type="F" Min="-4.59966516e+00" Max="1.16601973e+01"/>
    <Variable VarIndex="3" Expression="Lc_ENDVERTEX_CHI2/Lc_ENDVERTEX_NDOF" Label="Lc_ENDVERTEX_CHI2/Lc_ENDVERTEX_NDOF" Title="Lc_ENDVERTEX_CHI2_NDOF" Unit="" Internal="Lc_ENDVERTEX_CHI2_D_Lc_ENDVERTEX_NDOF" Type="F" Min="1.10579285e-05" Max="9.99967098e+00"/>
    <Variable VarIndex="4" Expression="log(TMath::Max(10e-10,Xicc_ENDVERTEX_CHI2/Xicc_ENDVERTEX_NDOF))" Label="log(TMath::Max(10e-10,Xicc_ENDVERTEX_CHI2/Xicc_ENDVERTEX_NDOF))" Title="log_Xicc_ENDVERTEX_CHI2_NDOF" Unit="" Internal="log_TMath_Max_10e_M_10,Xicc_ENDVERTEX_CHI2_D_Xicc_ENDVERTEX_NDOF__" Type="F" Min="-4.70480728e+00" Max="3.21869230e+00"/>
    <Variable VarIndex="5" Expression="log(TMath::Max(10e-10,Xicc_CHI2NDOF_DTF_PV))" Label="log(TMath::Max(10e-10,Xicc_CHI2NDOF_DTF_PV))" Title="log_Xicc_CHI2NDOF_DTF_PV" Unit="" Internal="log_TMath_Max_10e_M_10,Xicc_CHI2NDOF_DTF_PV__" Type="F" Min="-2.07232666e+01" Max="3.98276353e+00"/>
    <Variable VarIndex="6" Expression="LcP_PIDp" Label="LcP_PIDp" Title="LcP_PIDp" Unit="" Internal="LcP_PIDp" Type="F" Min="5.00036240e+00" Max="1.28169632e+02"/>
    <Variable VarIndex="7" Expression="LcK_PIDK" Label="LcK_PIDK" Title="LcK_PIDK" Unit="" Internal="LcK_PIDK" Type="F" Min="5.00042725e+00" Max="1.22970398e+02"/>
    <Variable VarIndex="8" Expression="LcPi_PIDK" Label="LcPi_PIDK" Title="LcPi_PIDK" Unit="" Internal="LcPi_PIDK" Type="F" Min="-1.62038010e+02" Max="4.99840069e+00"/>
    <Variable VarIndex="9" Expression="XiccK_PIDK" Label="XiccK_PIDK" Title="XiccK_PIDK" Unit="" Internal="XiccK_PIDK" Type="F" Min="-1.95616817e+01" Max="1.24393028e+02"/>
    <Variable VarIndex="10" Expression="XiccPi1_PIDK" Label="XiccPi1_PIDK" Title="XiccPi1_PIDK" Unit="" Internal="XiccPi1_PIDK" Type="F" Min="-1.00000000e+03" Max="2.02252083e+01"/>
    <Variable VarIndex="11" Expression="XiccPi2_PIDK" Label="XiccPi2_PIDK" Title="XiccPi2_PIDK" Unit="" Internal="XiccPi2_PIDK" Type="F" Min="-1.00000000e+03" Max="1.99648209e+01"/>
    <Variable VarIndex="12" Expression="TMath::Min(TMath::Min(XiccK_PT,Lc_PT),TMath::Min(XiccPi1_PT,XiccPi2_PT))" Label="TMath::Min(TMath::Min(XiccK_PT,Lc_PT),TMath::Min(XiccPi1_PT,XiccPi2_PT))" Title="min_Xicc_Daughters_PT" Unit="" Internal="TMath_Min_TMath_Min_XiccK_PT,Lc_PT_,TMath_Min_XiccPi1_PT,XiccPi2_PT__" Type="F" Min="2.00000031e+02" Max="4.26785254e+03"/>
    <Variable VarIndex="13" Expression="Lc_PT" Label="Lc_PT" Title="Lc_PT" Unit="" Internal="Lc_PT" Type="F" Min="2.50914478e+03" Max="2.51158535e+04"/>
    <Variable VarIndex="14" Expression="XiccPi1_PT" Label="XiccPi1_PT" Title="XiccPi1_PT" Unit="" Internal="XiccPi1_PT" Type="F" Min="2.00004364e+02" Max="8.64877148e+03"/>
    <Variable VarIndex="15" Expression="XiccPi2_PT" Label="XiccPi2_PT" Title="XiccPi2_PT" Unit="" Internal="XiccPi2_PT" Type="F" Min="2.00000031e+02" Max="8.94885156e+03"/>
    <Variable VarIndex="16" Expression="XiccK_PT" Label="XiccK_PT" Title="XiccK_PT" Unit="" Internal="XiccK_PT" Type="F" Min="2.50001678e+02" Max="1.30009697e+04"/>
    <Variable VarIndex="17" Expression="log(TMath::Max(10e-10,Lc_IPCHI2_OWNPV))" Label="log(TMath::Max(10e-10,Lc_IPCHI2_OWNPV))" Title="log_Lc_IPCHI2_OWNPV" Unit="" Internal="log_TMath_Max_10e_M_10,Lc_IPCHI2_OWNPV__" Type="F" Min="-2.07232666e+01" Max="7.30529547e+00"/>
    <Variable VarIndex="18" Expression="log(TMath::Max(10e-10,XiccK_IPCHI2_OWNPV))" Label="log(TMath::Max(10e-10,XiccK_IPCHI2_OWNPV))" Title="log_XiccK_IPCHI2_OWNPV" Unit="" Internal="log_TMath_Max_10e_M_10,XiccK_IPCHI2_OWNPV__" Type="F" Min="4.88185942e-05" Max="8.90814686e+00"/>
    <Variable VarIndex="19" Expression="log(TMath::Max(10e-10,XiccPi1_IPCHI2_OWNPV))" Label="log(TMath::Max(10e-10,XiccPi1_IPCHI2_OWNPV))" Title="log_XiccPi1_IPCHI2_OWNPV" Unit="" Internal="log_TMath_Max_10e_M_10,XiccPi1_IPCHI2_OWNPV__" Type="F" Min="1.08793785e-04" Max="8.11861229e+00"/>
    <Variable VarIndex="20" Expression="log(TMath::Max(10e-10,XiccPi2_IPCHI2_OWNPV))" Label="log(TMath::Max(10e-10,XiccPi2_IPCHI2_OWNPV))" Title="log_XiccPi2_IPCHI2_OWNPV" Unit="" Internal="log_TMath_Max_10e_M_10,XiccPi2_IPCHI2_OWNPV__" Type="F" Min="3.72003124e-05" Max="8.67195702e+00"/>
  </Variables>
  <Spectators NSpec="2">
    <Spectator SpecIndex="0" Expression="Xicc_M" Label="Xicc_M" Title="F" Unit="" Internal="Xicc_M" Type="F" Min="3.60600659e+03" Max="3.89999976e+03"/>
    <Spectator SpecIndex="1" Expression="Lc_M" Label="Lc_M" Title="F" Unit="" Internal="Lc_M" Type="F" Min="2.27000122e+03" Max="2.30599585e+03"/>
  </Spectators>
  <Classes NClass="2">
    <Class Name="Signal" Index="0"/>
    <Class Name="Background" Index="1"/>
  </Classes>
  <Transformations NTransformations="0"/>
  <MVAPdfs/>
  <Weights NTrees="1000" AnalysisType="1">
    <BinaryTree type="DecisionTree" boostWeight="1.0000000000000000e+00" itree="0">
      <Node pos="s" depth="0" NCoef="0" IVar="1" Cut="6.7659793421626091e-03" cType="1" res="9.2231333255767822e-03" rms="4.9991491436958313e-01" purity="5.0922310352325439e-01" nType="0">
        <Node pos="l" depth="1" NCoef="0" IVar="5" Cut="1.0216170549392700e+00" cType="1" res="3.0653327703475952e-01" rms="3.9501562714576721e-01" purity="8.0653333663940430e-01" nType="0">
          <Node pos="l" depth="2" NCoef="0" IVar="-1" Cut="0.0000000000000000e+00" cType="1" res="8.5681758821010590e-02" rms="2.5780984759330750e-01" purity="9.2840880155563354e-01" nType="-99"/>
          <Node pos="r" depth="2" NCoef="0" IVar="-1" Cut="0.0000000000000000e+00" cType="1" res="-4.7403804957866669e-02" rms="4.4025218486785889e-01" purity="2.6298096776008606e-01" nType="-99"/>
        </Node>
        <Node pos="r" depth="1" NCoef="0" IVar="12" Cut="5.3443743896484375e+02" cType="1" res="-3.8024601340293884e-01" rms="3.2467362284660339e-01" purity="1.1975398659706116e-01" nType="0">
          <Node pos="l" depth="2" NCoef="0" IVar="-1" Cut="0.0000000000000000e+00" cType="1" res="-8.8353723287582397e-02" rms="2.3418045043945312e-01" purity="5.8231376111507416e-02" nType="-99"/>
          <Node pos="r" depth="2" NCoef="0" IVar="-1" Cut="0.0000000000000000e+00" cType="1" res="8.8906977325677872e-03" rms="4.9801996350288391e-01" purity="5.4445344209671021e-01" nType="-99"/>
        </Node>
      </Node>
    </BinaryTree>
    <BinaryTree type="DecisionTree" boostWeight="1.0000000000000000e+00" itree="1">
      <Node pos="s" depth="0" NCoef="0" IVar="1" Cut="6.7698857747018337e-03" cType="1" res="-1.9988422282040119e-03" rms="4.6761420369148254e-01" purity="4.9819976091384888e-01" nType="0">
        <Node pos="l" depth="1" NCoef="0" IVar="5" Cut="1.0216170549392700e+00" cType="1" res="2.7308756113052368e-01" rms="3.8137710094451904e-01" purity="8.0343550443649292e-01" nType="0">
          <Node pos="l" depth="2" NCoef="0" IVar="-1" Cut="0.0000000000000000e+00" cType="1" res="7.7019751071929932e-02" rms="2.6335623860359192e-01" purity="9.2502170801162720e-01" nType="-99"/>
          <Node pos="r" depth="2" NCoef="0" IVar="-1" Cut="0.0000000000000000e+00" cType="1" res="-4.0773905813694000e-02" rms="4.4542360305786133e-01" purity="2.7287891507148743e-01" nType="-99"/>
        </Node>
        <Node pos="r" depth="1" NCoef="0" IVar="9" Cut="2.6642221450805664e+01" cType="1" res="-3.5581502318382263e-01" rms="3.0052566528320312e-01" purity="1.0560549050569534e-01" nType="0">
          <Node pos="l" depth="2" NCoef="0" IVar="-1" Cut="0.0000000000000000e+00" cType="1" res="-8.2591779530048370e-02" rms="2.1358588337898254e-01" purity="4.9705855548381805e-02" nType="-99"/>
          <Node pos="r" depth="2" NCoef="0" IVar="-1" Cut="0.0000000000000000e+00" cType="1" res="3.5519348457455635e-03" rms="4.8855105042457581e-01" purity="4.9092155694961548e-01" nType="-99"/>
        </Node>
      </Node>
    </BinaryTree>
    <BinaryTree type="DecisionTree" boostWeight="1.0000000000000000e+00" itree="2">
      <Node pos="s" depth="0" NCoef="0" IVar="1" Cut="6.7671900615096092e-03" cType="1" res="2.1045994944870472e-03" rms="4.4058611989021301e-01" purity="5.0149238109588623e-01" nType="0">
        <Node pos="l" depth="1" NCoef="0" IVar="5" Cut="9.6839016675949097e-01" cType="1" res="2.4542911350727081e-01" rms="3.6832690238952637e-01" purity="8.0314320325851440e-01" nType="0">
          <Node pos="l" depth="2" NCoef="0" IVar="-1" Cut="0.0000000000000000e+00" cType="1" res="7.1381442248821259e-02" rms="2.5805035233497620e-01" purity="9.2826396226882935e-01" nType="-99"/>
          <Node pos="r" depth="2" NCoef="0" IVar="-1" Cut="0.0000000000000000e+00" cType="1" res="-3.3854160457849503e-02" rms="4.4944423437118530e-01" purity="2.9728651046752930e-01" nType="-99"/>
        </Node>
        <Node pos="r" depth="1" NCoef="0" IVar="9" Cut="2.1746456146240234e+01" cType="1" res="-3.0380415916442871e-01" rms="3.1557288765907288e-01" purity="1.2225539237260818e-01" nType="0">
          <Node pos="l" depth="2" NCoef="0" IVar="-1" Cut="0.0000000000000000e+00" cType="1" res="-7.7139794826507568e-02" rms="2.0059488713741302e-01" purity="4.3569266796112061e-02" nType="-99"/>
          <Node pos="r" depth="2" NCoef="0" IVar="-1" Cut="0.0000000000000000e+00" cType="1" res="-3.7352931685745716e-03" rms="4.8436814546585083e-01" purity="4.3628823757171631e-01" nType="-99"/>
        </Node>
      </Node>
    </BinaryTree>
    <BinaryTree type="DecisionTree" boostWeight="1.0000000000000000e+00" itree="3">
      <Node pos="s" depth="0" NCoef="0" IVar="1" Cut="6.7745279520750046e-03" cType="1" res="-1.6414228593930602e-03" rms="4.1783735156059265e-01" purity="4.9567520618438721e-01" nType="0">
        <Node pos="l" depth="1" NCoef="0" IVar="5" Cut="1.2429100275039673e+00" cType="1" res="2.2327728569507599e-01" rms="3.5950586199760437e-01" purity="8.0116498470306396e-01" nType="0">
          <Node pos="l" depth="2" NCoef="0" IVar="-1" Cut="0.0000000000000000e+00" cType="1" res="6.3640274107456207e-02" rms="2.8048312664031982e-01" purity="9.0753740072250366e-01" nType="-99"/>
          <Node pos="r" depth="2" NCoef="0" IVar="-1" Cut="0.0000000000000000e+00" cType="1" res="-3.5368412733078003e-02" rms="4.4133779406547546e-01" purity="2.6503136754035950e-01" nType="-99"/>
        </Node>
        <Node pos="r" depth="1" NCoef="0" IVar="9" Cut="3.2913101196289062e+01" cType="1" res="-2.8329616785049438e-01" rms="2.9781001806259155e-01" purity="1.1312530189752579e-01" nType="0">
          <Node pos="l" depth="2" NCoef="0" IVar="-1" Cut="0.0000000000000000e+00" cType="1" res="-6.8145178258419037e-02" rms="2.3911395668983459e-01" purity="6.5868265926837921e-02" nType="-99"/>
          <Node pos="r" depth="2" NCoef="0" IVar="-1" Cut="0.0000000000000000e+00" cType="1" res="2.6727247983217239e-02" rms="4.7782212495803833e-01" purity="6.0719066858291626e-01" nType="-99"/>
        </Node>
      </Node>
    </BinaryTree>
    <BinaryTree type="DecisionTree" boostWeight="1.0000000000000000e+00" itree="4">
      <Node pos="s" depth="0" NCoef="0" IVar="1" Cut="1.3510900549590588e-02" cType="1" res="3.4065614454448223e-03" rms="3.9725708961486816e-01" purity="5.0312685966491699e-01" nType="0">
        <Node pos="l" depth="1" NCoef="0" IVar="5" Cut="1.1750115156173706e+00" cType="1" res="1.5379196405410767e-01" rms="3.7973794341087341e-01" purity="7.1523362398147583e-01" nType="0">
          <Node pos="l" depth="2" NCoef="0" IVar="-1" Cut="0.0000000000000000e+00" cType="1" res="5.5924776941537857e-02" rms="3.0956235527992249e-01" purity="8.6302441358566284e-01" nType="-99"/>
          <Node pos="r" depth="2" NCoef="0" IVar="-1" Cut="0.0000000000000000e+00" cType="1" res="-4.8879068344831467e-02" rms="3.6481243371963501e-01" purity="1.6760085523128510e-01" nType="-99"/>
        </Node>
        <Node pos="r" depth="1" NCoef="0" IVar="8" Cut="-3.3910346984863281e+01" cType="1" res="-3.3815124630928040e-01" rms="1.4388413727283478e-01" purity="2.1386580541729927e-02" nType="0">
          <Node pos="l" depth="2" NCoef="0" IVar="-1" Cut="0.0000000000000000e+00" cType="1" res="-5.7817120105028152e-02" rms="2.9844504594802856e-01" purity="9.9995359778404236e-02" nType="-99"/>
          <Node pos="r" depth="2" NCoef="0" IVar="-1" Cut="0.0000000000000000e+00" cType="1" res="-7.6120212674140930e-02" rms="9.7967654466629028e-02" purity="9.6212010830640793e-03" nType="-99"/>
        </Node>
      </Node>
    </BinaryTree>
    <BinaryTree type="DecisionTree" boostWeight="1.0000000000000000e+00" itree="5">
      <Node pos="s" depth="0" NCoef="0" IVar="1" Cut="6.7758075892925262e-03" cType="1" res="-7.6829111203551292e-03" rms="3.7897792458534241e-01" purity="4.8868376016616821e-01" nType="0">
        <Node pos="l" depth="1" NCoef="0" IVar="9" Cut="1.2568264007568359e+01" cType="1" res="1.7653787136077881e-01" rms="3.4739163517951965e-01" purity="7.9435688257217407e-01" nType="0">
          <Node pos="l" depth="2" NCoef="0" IVar="-1" Cut="0.0000000000000000e+00" cType="1" res="-2.1707080304622650e-02" rms="4.2767009139060974e-01" purity="4.6489602327346802e-01" nType="-99"/>
          <Node pos="r" depth="2" NCoef="0" IVar="-1" Cut="0.0000000000000000e+00" cType="1" res="5.9359870851039886e-02" rms="2.6020607352256775e-01" purity="9.0130281448364258e-01" nType="-99"/>
        </Node>
        <Node pos="r" depth="1" NCoef="0" IVar="1" Cut="1.3193527236580849e-02" cType="1" res="-2.3437444865703583e-01" rms="2.8054705262184143e-01" purity="1.1253996193408966e-01" nType="0">
          <Node pos="l" depth="2" NCoef="0" IVar="-1" Cut="0.0000000000000000e+00" cType="1" res="-1.3114416040480137e-02" rms="4.2557480931282043e-01" purity="3.3018282055854797e-01" nType="-99"/>
          <Node pos="r" depth="2" NCoef="0" IVar="-1" Cut="0.0000000000000000e+00" cType="1" res="-7.0215813815593719e-02" rms="1.3082590699195862e-01" purity="2.0153472200036049e-02" nType="-99"/>
        </Node>
      </Node>
    </BinaryTree>
    <BinaryTree type="DecisionTree" boostWeight="1.0000000000000000e+00" itree="6">
      <Node pos="s" depth="0" NCoef="0" IVar="5" Cut="8.0008685588836670e-01" cType="1" res="8.3179591456428170e-04" rms="3.6165988445281982e-01" purity="5.0085306167602539e-01" nType="0">
        <Node pos="l" depth="1" NCoef="0" IVar="2" Cut="2.4323072433471680e+00" cType="1" res="1.5759381651878357e-01" rms="3.1893402338027954e-01" purity="7.5257420539855957e-01" nType="0">
          <Node pos="l" depth="2" NCoef="0" IVar="-1" Cut="0.0000000000000000e+00" cType="1" res="-6.1964511871337891e-02" rms="2.5526937842369080e-01" purity="9.5890097320079803e-02" nType="-99"/>
          <Node pos="r" depth="2" NCoef="0" IVar="-1" Cut="0.0000000000000000e+00" cType="1" res="6.3691571354866028e-02" rms="2.1965244412422180e-01" purity="9.3474555015563965e-01" nType="-99"/>
        </Node>
        <Node pos="r" depth="1" NCoef="0" IVar="12" Cut="6.5788348388671875e+02" cType="1" res="-2.2011402249336243e-01" rms="2.9720327258110046e-01" purity="1.4606864750385284e-01" nType="0">
          <Node pos="l" depth="2" NCoef="0" IVar="-1" Cut="0.0000000000000000e+00" cType="1" res="-6.1856579035520554e-02" rms="2.3356691002845764e-01" purity="7.9493843019008636e-02" nType="-99"/>
          <Node pos="r" depth="2" NCoef="0" IVar="-1" Cut="0.0000000000000000e+00" cType="1" res="3.4786798059940338e-02" rms="4.2482385039329529e-01" purity="6.5538287162780762e-01" nType="-99"/>
        </Node>
      </Node>
    </BinaryTree>
    <BinaryTree type="DecisionTree" boostWeight="1.0000000000000000e+00" itree="7">
      <Node pos="s" depth="0" NCoef="0" IVar="1" Cut="6.7671900615096092e-03" cType="1" res="-2.5129346176981926e-03" rms="3.4252101182937622e-01" purity="4.9785545468330383e-01" nType="0">
        <Node pos="l" depth="1" NCoef="0" IVar="5" Cut="9.0991574525833130e-01" cType="1" res="1.4699262380599976e-01" rms="3.2058534026145935e-01" purity="8.0086618661880493e-01" nType="0">
          <Node pos="l" depth="2" NCoef="0" IVar="-1" Cut="0.0000000000000000e+00" cType="1" res="5.4216694086790085e-02" rms="2.3815819621086121e-01" purity="9.3433260917663574e-01" nType="-99"/>
          <Node pos="r" depth="2" NCoef="0" IVar="-1" Cut="0.0000000000000000e+00" cType="1" res="-2.9151521623134613e-02" rms="4.1979959607124329e-01" purity="2.9057154059410095e-01" nType="-99"/>
        </Node>
        <Node pos="r" depth="1" NCoef="0" IVar="12" Cut="4.0954379272460938e+02" cType="1" res="-1.9258378446102142e-01" rms="2.6696336269378662e-01" purity="1.1262887716293335e-01" nType="0">
          <Node pos="l" depth="2" NCoef="0" IVar="-1" Cut="0.0000000000000000e+00" cType="1" res="-6.1384212225675583e-02" rms="1.7058986425399780e-01" purity="3.8758784532546997e-02" nType="-99"/>
          <Node pos="r" depth="2" NCoef="0" IVar="-1" Cut="0.0000000000000000e+00" cType="1" res="1.5638481127098203e-03" rms="4.1248136758804321e-01" purity="3.7520441412925720e-01" nType="-99"/>
        </Node>
      </Node>
    </BinaryTree>
    <BinaryTree type="DecisionTree" boostWeight="1.0000000000000000e+00" itree="8">
      <Node pos="s" depth="0" NCoef="0" IVar="9" Cut="1.5387502670288086e+01" cType="1" res="2.0821276120841503e-03" rms="3.3195835351943970e-01" purity="5.0342285633087158e-01" nType="0">
        <Node pos="l" depth="1" NCoef="0" IVar="5" Cut="2.9331588745117188e-01" cType="1" res="-1.7530995607376099e-01" rms="2.7742773294448853e-01" purity="2.0034398138523102e-01" nType="0">
          <Node pos="l" depth="2" NCoef="0" IVar="-1" Cut="0.0000000000000000e+00" cType="1" res="4.4613187201321125e-03" rms="3.3585903048515320e-01" purity="5.6570577621459961e-01" nType="-99"/>
          <Node pos="r" depth="2" NCoef="0" IVar="-1" Cut="0.0000000000000000e+00" cType="1" res="-5.7101272046566010e-02" rms="2.3269556462764740e-01" purity="1.0031271725893021e-01" nType="-99"/>
        </Node>
        <Node pos="r" depth="1" NCoef="0" IVar="1" Cut="1.3512428849935532e-02" cType="1" res="1.4732620120048523e-01" rms="3.0090427398681641e-01" purity="7.5157600641250610e-01" nType="0">
          <Node pos="l" depth="2" NCoef="0" IVar="-1" Cut="0.0000000000000000e+00" cType="1" res="5.3940214216709137e-02" rms="2.5899824500083923e-01" purity="8.8493913412094116e-01" nType="-99"/>
          <Node pos="r" depth="2" NCoef="0" IVar="-1" Cut="0.0000000000000000e+00" cType="1" res="-5.6285634636878967e-02" rms="2.1739675104618073e-01" purity="5.7601388543844223e-02" nType="-99"/>
        </Node>
      </Node>
    </BinaryTree>
    <BinaryTree type="DecisionTree" boostWeight="1.0000000000000000e+00" itree="9">
      <Node pos="s" depth="0" NCoef="0" IVar="2" Cut="3.1431264877319336e+00" cType="1" res="2.9107048176229000e-03" rms="3.1537258625030518e-01" purity="5.0732636451721191e-01" nType="0">
        <Node pos="l" depth="1" NCoef="0" IVar="12" Cut="4.7127230834960938e+02" cType="1" res="-1.9368594884872437e-01" rms="2.3915745317935944e-01" purity="1.1773919314146042e-01" nType="0">
          <Node pos="l" depth="2" NCoef="0" IVar="-1" Cut="0.0000000000000000e+00" cType="1" res="-5.9191718697547913e-02" rms="2.0147606730461121e-01" purity="6.3118256628513336e-02" nType="-99"/>
          <Node pos="r" depth="2" NCoef="0" IVar="-1" Cut="0.0000000000000000e+00" cType="1" res="-7.9492973163723946e-03" rms="3.5277339816093445e-01" purity="4.3842148780822754e-01" nType="-99"/>
        </Node>
        <Node pos="r" depth="1" NCoef="0" IVar="5" Cut="1.2004287242889404e+00" cType="1" res="1.1648266017436981e-01" rms="2.9773923754692078e-01" purity="7.3238706588745117e-01" nType="0">
          <Node pos="l" depth="2" NCoef="0" IVar="-1" Cut="0.0000000000000000e+00" cType="1" res="5.5082436650991440e-02" rms="2.2326569259166718e-01" purity="9.2614078521728516e-01" nType="-99"/>
          <Node pos="r" depth="2" NCoef="0" IVar="-1" Cut="0.0000000000000000e+00" cType="1" res="-4.2579900473356247e-02" rms="3.0410146713256836e-01" purity="1.3752736151218414e-01" nType="-99"/>
        </Node>
      </Node>
    </BinaryTree>
    <BinaryTree type="DecisionTree" boostWeight="1.0000000000000000e+00" itree="10">
      <Node pos="s" depth="0" NCoef="0" IVar="2" Cut="3.2472188472747803e+00" cType="1" res="1.0501533979550004e-03" rms="3.0627596378326416e-01" purity="5.0072258710861206e-01" nType="0">
        <Node pos="l" depth="1" NCoef="0" IVar="12" Cut="5.9838616943359375e+02" cType="1" res="-1.7418271303176880e-01" rms="2.3411099612712860e-01" purity="1.2427370995283127e-01" nType="0">
          <Node pos="l" depth="2" NCoef="0" IVar="-1" Cut="0.0000000000000000e+00" cType="1" res="-5.5045913904905319e-02" rms="2.0072282850742340e-01" purity="8.2094587385654449e-02" nType="-99"/>
          <Node pos="r" depth="2" NCoef="0" IVar="-1" Cut="0.0000000000000000e+00" cType="1" res="1.9074274227023125e-02" rms="3.8013249635696411e-01" purity="5.9136164188385010e-01" nType="-99"/>
        </Node>
        <Node pos="r" depth="1" NCoef="0" IVar="5" Cut="1.5174301862716675e+00" cType="1" res="1.1228627711534500e-01" rms="2.9443874955177307e-01" purity="7.3968863487243652e-01" nType="0">
          <Node pos="l" depth="2" NCoef="0" IVar="-1" Cut="0.0000000000000000e+00" cType="1" res="4.8307482153177261e-02" rms="2.5243866443634033e-01" purity="8.8237947225570679e-01" nType="-99"/>
          <Node pos="r" depth="2" NCoef="0" IVar="-1" Cut="0.0000000000000000e+00" cType="1" res="-4.7645002603530884e-02" rms="2.7475979924201965e-01" purity="1.0157087445259094e-01" nType="-99"/>
        </Node>
      </Node>
    </BinaryTree>
    <BinaryTree type="DecisionTree" boostWeight="1.0000000000000000e+00" itree="11">
      <Node pos="s" depth="0" NCoef="0" IVar="9" Cut="1.6471521377563477e+01" cType="1" res="2.3892379831522703e-03" rms="2.9712176322937012e-01" purity="5.0166153907775879e-01" nType="0">
        <Node pos="l" depth="1" NCoef="0" IVar="5" Cut="2.9335215687751770e-01" cType="1" res="-1.2958495318889618e-01" rms="2.6221463084220886e-01" purity="2.2631049156188965e-01" nType="0">
          <Node pos="l" depth="2" NCoef="0" IVar="-1" Cut="0.0000000000000000e+00" cType="1" res="1.1719440110027790e-02" rms="3.0686864256858826e-01" purity="6.1729842424392700e-01" nType="-99"/>
          <Node pos="r" depth="2" NCoef="0" IVar="-1" Cut="0.0000000000000000e+00" cType="1" res="-5.2535429596900940e-02" rms="2.1863187849521637e-01" purity="9.9838264286518097e-02" nType="-99"/>
        </Node>
        <Node pos="r" depth="1" NCoef="0" IVar="1" Cut="1.3499984517693520e-02" cType="1" res="1.2880988419055939e-01" rms="2.7261352539062500e-01" purity="7.6542562246322632e-01" nType="0">
          <Node pos="l" depth="2" NCoef="0" IVar="-1" Cut="0.0000000000000000e+00" cType="1" res="4.9556978046894073e-02" rms="2.4385967850685120e-01" purity="8.8954132795333862e-01" nType="-99"/>
          <Node pos="r" depth="2" NCoef="0" IVar="-1" Cut="0.0000000000000000e+00" cType="1" res="-4.2334590107202530e-02" rms="2.5400987267494202e-01" purity="8.6333923041820526e-02" nType="-99"/>
        </Node>
      </Node>
    </BinaryTree>
    <BinaryTree type="DecisionTree" boostWeight="1.0000000000000000e+00" itree="12">
      <Node pos="s" depth="0" NCoef="0" IVar="16" Cut="8.5720397949218750e+02" cType="1" res="2.9973599594086409e-03" rms="2.8936749696731567e-01" purity="5.0303715467453003e-01" nType="0">
        <Node pos="l" depth="1" NCoef="0" IVar="5" Cut="-1.3509681820869446e-01" cType="1" res="-1.4777263998985291e-01" rms="2.3172786831855774e-01" purity="1.7123138904571533e-01" nType="0">
          <Node pos="l" depth="2" NCoef="0" IVar="-1" Cut="0.0000000000000000e+00" cType="1" res="1.7746005207300186e-02" rms="2.6860931515693665e-01" purity="7.0966678857803345e-01" nType="-99"/>
          <Node pos="r" depth="2" NCoef="0" IVar="-1" Cut="0.0000000000000000e+00" cType="1" res="-5.1296744495630264e-02" rms="2.1467956900596619e-01" purity="1.1006858199834824e-01" nType="-99"/>
        </Node>
        <Node pos="r" depth="1" NCoef="0" IVar="1" Cut="1.3500527478754520e-02" cType="1" res="1.0527730733156204e-01" rms="2.7969157695770264e-01" purity="7.2812885046005249e-01" nType="0">
          <Node pos="l" depth="2" NCoef="0" IVar="-1" Cut="0.0000000000000000e+00" cType="1" res="4.2029865086078644e-02" rms="2.6551854610443115e-01" purity="8.4452611207962036e-01" nType="-99"/>
          <Node pos="r" depth="2" NCoef="0" IVar="-1" Cut="0.0000000000000000e+00" cType="1" res="-4.6618688851594925e-02" rms="2.0995542407035828e-01" purity="6.0436628758907318e-02" nType="-99"/>
        </Node>
      </Node>
    </BinaryTree>
    <BinaryTree type="DecisionTree" boostWeight="1.0000000000000000e+00" itree="13">
      <Node pos="s" depth="0" NCoef="0" IVar="9" Cut="2.1121452331542969e+01" cType="1" res="1.4598937013943214e-05" rms="2.8133669495582581e-01" purity="4.9729201197624207e-01" nType="0">
        <Node pos="l" depth="1" NCoef="0" IVar="5" Cut="3.4054002165794373e-01" cType="1" res="-9.1072976589202881e-02" rms="2.6789951324462891e-01" purity="2.7201673388481140e-01" nType="0">
          <Node pos="l" depth="2" NCoef="0" IVar="-1" Cut="0.0000000000000000e+00" cType="1" res="1.5934368595480919e-02" rms="2.8953313827514648e-01" purity="6.5977728366851807e-01" nType="-99"/>
          <Node pos="r" depth="2" NCoef="0" IVar="-1" Cut="0.0000000000000000e+00" cType="1" res="-4.4795881956815720e-02" rms="2.3673604428768158e-01" purity="1.2449803948402405e-01" nType="-99"/>
        </Node>
        <Node pos="r" depth="1" NCoef="0" IVar="1" Cut="2.0197462290525436e-02" cType="1" res="1.3226230442523956e-01" rms="2.4562139809131622e-01" purity="8.2436335086822510e-01" nType="0">
          <Node pos="l" depth="2" NCoef="0" IVar="-1" Cut="0.0000000000000000e+00" cType="1" res="4.7677058726549149e-02" rms="2.2940844297409058e-01" purity="8.9709013700485229e-01" nType="-99"/>
          <Node pos="r" depth="2" NCoef="0" IVar="-1" Cut="0.0000000000000000e+00" cType="1" res="-4.9644589424133301e-02" rms="2.1453538537025452e-01" purity="4.9242127686738968e-02" nType="-99"/>
        </Node>
      </Node>
    </BinaryTree>
    <BinaryTree type="DecisionTree" boostWeight="1.0000000000000000e+00" itree="14">
      <Node pos="s" depth="0" NCoef="0" IVar="5" Cut="6.5009909868240356e-01" cType="1" res="7.4436026625335217e-03" rms="2.7492260932922363e-01" purity="5.1450175046920776e-01" nType="0">
        <Node pos="l" depth="1" NCoef="0" IVar="2" Cut="1.8205126523971558e+00" cType="1" res="1.0447125136852264e-01" rms="2.4245309829711914e-01" purity="7.8807437419891357e-01" nType="0">
          <Node pos="l" depth="2" NCoef="0" IVar="-1" Cut="0.0000000000000000e+00" cType="1" res="-6.9623462855815887e-02" rms="1.4751772582530975e-01" purity="1.5595131553709507e-02" nType="-99"/>
          <Node pos="r" depth="2" NCoef="0" IVar="-1" Cut="0.0000000000000000e+00" cType="1" res="4.9305569380521774e-02" rms="2.1224437654018402e-01" purity="9.0700793266296387e-01" nType="-99"/>
        </Node>
        <Node pos="r" depth="1" NCoef="0" IVar="12" Cut="5.8499786376953125e+02" cType="1" res="-1.0287519544363022e-01" rms="2.6797080039978027e-01" purity="2.0345437526702881e-01" nType="0">
          <Node pos="l" depth="2" NCoef="0" IVar="-1" Cut="0.0000000000000000e+00" cType="1" res="-4.4347759336233139e-02" rms="2.2689241170883179e-01" purity="1.1790065467357635e-01" nType="-99"/>
          <Node pos="r" depth="2" NCoef="0" IVar="-1" Cut="0.0000000000000000e+00" cType="1" res="2.5581929832696915e-02" rms="3.6179873347282410e-01" purity="6.6198199987411499e-01" nType="-99"/>
        </Node>
      </Node>
    </BinaryTree>
    <BinaryTree type="DecisionTree" boostWeight="1.0000000000000000e+00" itree="15">
      <Node pos="s" depth="0" NCoef="0" IVar="12" Cut="3.9249893188476562e+02" cType="1" res="3.8468702696263790e-03" rms="2.6393404603004456e-01" purity="5.0963848829269409e-01" nType="0">
        <Node pos="l" depth="1" NCoef="0" IVar="4" Cut="-1.7952135205268860e-01" cType="1" res="-9.1554179787635803e-02" rms="2.3310053348541260e-01" purity="2.6204410195350647e-01" nType="0">
          <Node pos="l" depth="2" NCoef="0" IVar="-1" Cut="0.0000000000000000e+00" cType="1" res="3.2730065286159515e-02" rms="2.4402327835559845e-01" purity="7.7911508083343506e-01" nType="-99"/>
          <Node pos="r" depth="2" NCoef="0" IVar="-1" Cut="0.0000000000000000e+00" cType="1" res="-4.3998733162879944e-02" rms="2.1026733517646790e-01" purity="1.5674139559268951e-01" nType="-99"/>
        </Node>
        <Node pos="r" depth="1" NCoef="0" IVar="2" Cut="2.3572309017181396e+00" cType="1" res="1.1063805222511292e-01" rms="2.5538966059684753e-01" purity="7.8679376840591431e-01" nType="0">
          <Node pos="l" depth="2" NCoef="0" IVar="-1" Cut="0.0000000000000000e+00" cType="1" res="-5.5095277726650238e-02" rms="2.0616453886032104e-01" purity="8.2127451896667480e-02" nType="-99"/>
          <Node pos="r" depth="2" NCoef="0" IVar="-1" Cut="0.0000000000000000e+00" cType="1" res="4.2626030743122101e-02" rms="2.4266409873962402e-01" purity="8.4808284044265747e-01" nType="-99"/>
        </Node>
      </Node>
    </BinaryTree>
    <BinaryTree type="DecisionTree" boostWeight="1.0000000000000000e+00" itree="16">
      <Node pos="s" depth="0" NCoef="0" IVar="9" Cut="2.3216615676879883e+01" cType="1" res="-1.0066480608657002e-03" rms="2.6120120286941528e-01" purity="4.9348798394203186e-01" nType="0">
        <Node pos="l" depth="1" NCoef="0" IVar="5" Cut="3.3417481184005737e-01" cType="1" res="-6.8816907703876495e-02" rms="2.5415429472923279e-01" purity="2.9703104496002197e-01" nType="0">
          <Node pos="l" depth="2" NCoef="0" IVar="-1" Cut="0.0000000000000000e+00" cType="1" res="1.6095908358693123e-02" rms="2.7013316750526428e-01" purity="6.9011902809143066e-01" nType="-99"/>
          <Node pos="r" depth="2" NCoef="0" IVar="-1" Cut="0.0000000000000000e+00" cType="1" res="-3.9997957646846771e-02" rms="2.2978721559047699e-01" purity="1.3325008749961853e-01" nType="-99"/>
        </Node>
        <Node pos="r" depth="1" NCoef="0" IVar="2" Cut="2.2358725070953369e+00" cType="1" res="1.1863724887371063e-01" rms="2.2848632931709290e-01" purity="8.4011507034301758e-01" nType="0">
          <Node pos="l" depth="2" NCoef="0" IVar="-1" Cut="0.0000000000000000e+00" cType="1" res="-4.8847690224647522e-02" rms="2.3578897118568420e-01" purity="1.1130277812480927e-01" nType="-99"/>
          <Node pos="r" depth="2" NCoef="0" IVar="-1" Cut="0.0000000000000000e+00" cType="1" res="4.6860031783580780e-02" rms="2.1277348697185516e-01" purity="8.9610463380813599e-01" nType="-99"/>
        </Node>
      </Node>
    </BinaryTree>
    <BinaryTree type="DecisionTree" boostWeight="1.0000000000000000e+00" itree="17">
      <Node pos="s" depth="0" NCoef="0" IVar="16" Cut="7.0556817626953125e+02" cType="1" res="-6.3029199372977018e-04" rms="2.5232794880867004e-01" purity="4.9785545468330383e-01" nType="0">
        <Node pos="l" depth="1" NCoef="0" IVar="6" Cut="4.1473739624023438e+01" cType="1" res="-1.2260392308235168e-01" rms="1.8974685668945312e-01" purity="1.2081199139356613e-01" nType="0">
          <Node pos="l" depth="2" NCoef="0" IVar="-1" Cut="0.0000000000000000e+00" cType="1" res="-5.1393691450357437e-02" rms="1.7090138792991638e-01" purity="8.5933446884155273e-02" nType="-99"/>
          <Node pos="r" depth="2" NCoef="0" IVar="-1" Cut="0.0000000000000000e+00" cType="1" res="2.9113087803125381e-03" rms="2.7185937762260437e-01" purity="4.1416245698928833e-01" nType="-99"/>
        </Node>
        <Node pos="r" depth="1" NCoef="0" IVar="5" Cut="9.3524390459060669e-01" cType="1" res="5.9001587331295013e-02" rms="2.5761476159095764e-01" purity="6.8218880891799927e-01" nType="0">
          <Node pos="l" depth="2" NCoef="0" IVar="-1" Cut="0.0000000000000000e+00" cType="1" res="3.8742218166589737e-02" rms="2.1224656701087952e-01" purity="8.5612052679061890e-01" nType="-99"/>
          <Node pos="r" depth="2" NCoef="0" IVar="-1" Cut="0.0000000000000000e+00" cType="1" res="-1.9007397815585136e-02" rms="3.1520897150039673e-01" purity="2.3501895368099213e-01" nType="-99"/>
        </Node>
      </Node>
    </BinaryTree>
    <BinaryTree type="DecisionTree" boostWeight="1.0000000000000000e+00" itree="18">
      <Node pos="s" depth="0" NCoef="0" IVar="12" Cut="3.9370730590820312e+02" cType="1" res="1.8443198641762137e-03" rms="2.5374194979667664e-01" purity="4.9853426218032837e-01" nType="0">
        <Node pos="l" depth="1" NCoef="0" IVar="4" Cut="1.3221819885075092e-02" cType="1" res="-7.0821285247802734e-02" rms="2.2965937852859497e-01" purity="2.7057582139968872e-01" nType="0">
          <Node pos="l" depth="2" NCoef="0" IVar="-1" Cut="0.0000000000000000e+00" cType="1" res="2.1844867616891861e-02" rms="2.5869250297546387e-01" purity="7.1844577789306641e-01" nType="-99"/>
          <Node pos="r" depth="2" NCoef="0" IVar="-1" Cut="0.0000000000000000e+00" cType="1" res="-4.0132056921720505e-02" rms="2.0626437664031982e-01" purity="1.4723092317581177e-01" nType="-99"/>
        </Node>
        <Node pos="r" depth="1" NCoef="0" IVar="6" Cut="2.4733041763305664e+01" cType="1" res="8.9346148073673248e-02" rms="2.5374880433082581e-01" purity="7.7303534746170044e-01" nType="0">
          <Node pos="l" depth="2" NCoef="0" IVar="-1" Cut="0.0000000000000000e+00" cType="1" res="-5.8580716140568256e-03" rms="2.9264688491821289e-01" purity="5.4644185304641724e-01" nType="-99"/>
          <Node pos="r" depth="2" NCoef="0" IVar="-1" Cut="0.0000000000000000e+00" cType="1" res="5.0435092300176620e-02" rms="2.1243399381637573e-01" purity="8.8598936796188354e-01" nType="-99"/>
        </Node>
      </Node>
    </BinaryTree>
    <BinaryTree type="DecisionTree" boostWeight="1.0000000000000000e+00" itree="19">
      <Node pos="s" depth="0" NCoef="0" IVar="5" Cut="8.2204782962799072e-01" cType="1" res="-4.0178215131163597e-03" rms="2.4041965603828430e-01" purity="4.9403262138366699e-01" nType="0">
        <Node pos="l" depth="1" NCoef="0" IVar="2" Cut="2.4286100864410400e+00" cType="1" res="6.2596760690212250e-02" rms="2.2411099076271057e-01" purity="7.5128060579299927e-01" nType="0">
          <Node pos="l" depth="2" NCoef="0" IVar="-1" Cut="0.0000000000000000e+00" cType="1" res="-5.2635189145803452e-02" rms="1.9551427662372589e-01" purity="6.9103017449378967e-02" nType="-99"/>
          <Node pos="r" depth="2" NCoef="0" IVar="-1" Cut="0.0000000000000000e+00" cType="1" res="4.5391723513603210e-02" rms="1.9549454748630524e-01" purity="9.3234264850616455e-01" nType="-99"/>
        </Node>
        <Node pos="r" depth="1" NCoef="0" IVar="12" Cut="6.0690533447265625e+02" cType="1" res="-1.0003088414669037e-01" rms="2.3044848442077637e-01" purity="1.2325542420148849e-01" nType="0">
          <Node pos="l" depth="2" NCoef="0" IVar="-1" Cut="0.0000000000000000e+00" cType="1" res="-4.7384485602378845e-02" rms="1.8709942698478699e-01" purity="5.7279560714960098e-02" nType="-99"/>
          <Node pos="r" depth="2" NCoef="0" IVar="-1" Cut="0.0000000000000000e+00" cType="1" res="1.4708628877997398e-02" rms="3.8843446969985962e-01" purity="5.8643078804016113e-01" nType="-99"/>
        </Node>
      </Node>
    </BinaryTree>
    <BinaryTree type="DecisionTree" boostWeight="1.0000000000000000e+00" itree="20">
      <Node pos="s" depth="0" NCoef="0" IVar="9" Cut="1.2342185974121094e+01" cType="1" res="8.1227166811004281e-04" rms="2.3958003520965576e-01" purity="4.9638706445693970e-01" nType="0">
        <Node pos="l" depth="1" NCoef="0" IVar="13" Cut="5.7386748046875000e+03" cType="1" res="-9.3687117099761963e-02" rms="2.0552664995193481e-01" purity="1.7112879455089569e-01" nType="0">
          <Node pos="l" depth="2" NCoef="0" IVar="-1" Cut="0.0000000000000000e+00" cType="1" res="-5.0814226269721985e-02" rms="1.6744484007358551e-01" purity="7.7497005462646484e-02" nType="-99"/>
          <Node pos="r" depth="2" NCoef="0" IVar="-1" Cut="0.0000000000000000e+00" cType="1" res="-4.1895285248756409e-03" rms="2.6995116472244263e-01" purity="4.3225204944610596e-01" nType="-99"/>
        </Node>
        <Node pos="r" depth="1" NCoef="0" IVar="1" Cut="1.3515512458980083e-02" cType="1" res="5.9131089597940445e-02" rms="2.4050065875053406e-01" purity="6.9711512327194214e-01" nType="0">
          <Node pos="l" depth="2" NCoef="0" IVar="-1" Cut="0.0000000000000000e+00" cType="1" res="3.5094752907752991e-02" rms="2.3778462409973145e-01" purity="8.5307407379150391e-01" nType="-99"/>
          <Node pos="r" depth="2" NCoef="0" IVar="-1" Cut="0.0000000000000000e+00" cType="1" res="-4.0216356515884399e-02" rms="1.8504667282104492e-01" purity="4.7831535339355469e-02" nType="-99"/>
        </Node>
      </Node>
    </BinaryTree>
    <BinaryTree type="DecisionTree" boostWeight="1.0000000000000000e+00" itree="21">
      <Node pos="s" depth="0" NCoef="0" IVar="6" Cut="2.5842433929443359e+01" cType="1" res="3.7987113464623690e-03" rms="2.3723728954792023e-01" purity="5.0274795293807983e-01" nType="0">
        <Node pos="l" depth="1" NCoef="0" IVar="4" Cut="5.4006093740463257e-01" cType="1" res="-6.8098470568656921e-02" rms="2.2785596549510956e-01" purity="2.7960914373397827e-01" nType="0">
          <Node pos="l" depth="2" NCoef="0" IVar="-1" Cut="0.0000000000000000e+00" cType="1" res="9.4672269187867641e-04" rms="2.5675421953201294e-01" purity="5.9371298551559448e-01" nType="-99"/>
          <Node pos="r" depth="2" NCoef="0" IVar="-1" Cut="0.0000000000000000e+00" cType="1" res="-4.4133812189102173e-02" rms="1.9916225969791412e-01" purity="1.0295501351356506e-01" nType="-99"/>
        </Node>
        <Node pos="r" depth="1" NCoef="0" IVar="2" Cut="2.0404689311981201e+00" cType="1" res="6.8358629941940308e-02" rms="2.2669316828250885e-01" purity="7.0311498641967773e-01" nType="0">
          <Node pos="l" depth="2" NCoef="0" IVar="-1" Cut="0.0000000000000000e+00" cType="1" res="-4.9089714884757996e-02" rms="1.7110304534435272e-01" purity="5.5547840893268585e-02" nType="-99"/>
          <Node pos="r" depth="2" NCoef="0" IVar="-1" Cut="0.0000000000000000e+00" cType="1" res="3.7959747016429901e-02" rms="2.2016207873821259e-01" purity="8.0361950397491455e-01" nType="-99"/>
        </Node>
      </Node>
    </BinaryTree>
    <BinaryTree type="DecisionTree" boostWeight="1.0000000000000000e+00" itree="22">
      <Node pos="s" depth="0" NCoef="0" IVar="9" Cut="2.1568235397338867e+01" cType="1" res="2.9085534624755383e-03" rms="2.3352566361427307e-01" purity="5.0132471323013306e-01" nType="0">
        <Node pos="l" depth="1" NCoef="0" IVar="10" Cut="-2.8364698410034180e+01" cType="1" res="-5.3109478205442429e-02" rms="2.2656776010990143e-01" purity="2.7636438608169556e-01" nType="0">
          <Node pos="l" depth="2" NCoef="0" IVar="-1" Cut="0.0000000000000000e+00" cType="1" res="3.0412059277296066e-02" rms="2.5752973556518555e-01" purity="6.7786961793899536e-01" nType="-99"/>
          <Node pos="r" depth="2" NCoef="0" IVar="-1" Cut="0.0000000000000000e+00" cType="1" res="-3.1150888651609421e-02" rms="2.1307878196239471e-01" purity="2.1195133030414581e-01" nType="-99"/>
        </Node>
        <Node pos="r" depth="1" NCoef="0" IVar="2" Cut="2.3572316169738770e+00" cType="1" res="8.5573881864547729e-02" rms="2.1861848235130310e-01" purity="8.3329677581787109e-01" nType="0">
          <Node pos="l" depth="2" NCoef="0" IVar="-1" Cut="0.0000000000000000e+00" cType="1" res="-3.0364105477929115e-02" rms="2.7834898233413696e-01" purity="1.6966845095157623e-01" nType="-99"/>
          <Node pos="r" depth="2" NCoef="0" IVar="-1" Cut="0.0000000000000000e+00" cType="1" res="4.2581278830766678e-02" rms="2.0332442224025726e-01" purity="9.0012598037719727e-01" nType="-99"/>
        </Node>
      </Node>
    </BinaryTree>
    <BinaryTree type="DecisionTree" boostWeight="1.0000000000000000e+00" itree="23">
      <Node pos="s" depth="0" NCoef="0" IVar="5" Cut="7.8629684448242188e-01" cType="1" res="2.9416655888780951e-04" rms="2.2736337780952454e-01" purity="4.9987432360649109e-01" nType="0">
        <Node pos="l" depth="1" NCoef="0" IVar="2" Cut="2.3079633712768555e+00" cType="1" res="5.3355775773525238e-02" rms="2.0960794389247894e-01" purity="7.5741171836853027e-01" nType="0">
          <Node pos="l" depth="2" NCoef="0" IVar="-1" Cut="0.0000000000000000e+00" cType="1" res="-4.2667552828788757e-02" rms="2.0040646195411682e-01" purity="8.2808144390583038e-02" nType="-99"/>
          <Node pos="r" depth="2" NCoef="0" IVar="-1" Cut="0.0000000000000000e+00" cType="1" res="4.1148114949464798e-02" rms="1.9207774102687836e-01" purity="9.2728066444396973e-01" nType="-99"/>
        </Node>
        <Node pos="r" depth="1" NCoef="0" IVar="6" Cut="3.0147203445434570e+01" cType="1" res="-7.2604492306709290e-02" rms="2.3058825731277466e-01" purity="1.4605668187141418e-01" nType="0">
          <Node pos="l" depth="2" NCoef="0" IVar="-1" Cut="0.0000000000000000e+00" cType="1" res="-4.4384673237800598e-02" rms="1.9140529632568359e-01" purity="6.9404497742652893e-02" nType="-99"/>
          <Node pos="r" depth="2" NCoef="0" IVar="-1" Cut="0.0000000000000000e+00" cType="1" res="4.1172015480697155e-03" rms="2.9955747723579407e-01" purity="3.6089560389518738e-01" nType="-99"/>
        </Node>
      </Node>
    </BinaryTree>
    <BinaryTree type="DecisionTree" boostWeight="1.0000000000000000e+00" itree="24">
      <Node pos="s" depth="0" NCoef="0" IVar="9" Cut="1.3814168930053711e+01" cType="1" res="3.4053443232551217e-04" rms="2.2397348284721375e-01" purity="5.0340086221694946e-01" nType="0">
        <Node pos="l" depth="1" NCoef="0" IVar="11" Cut="-2.8604932785034180e+01" cType="1" res="-6.7600533366203308e-02" rms="2.0186269283294678e-01" purity="1.8463546037673950e-01" nType="0">
          <Node pos="l" depth="2" NCoef="0" IVar="-1" Cut="0.0000000000000000e+00" cType="1" res="2.4415036663413048e-02" rms="2.6089170575141907e-01" purity="5.8439189195632935e-01" nType="-99"/>
          <Node pos="r" depth="2" NCoef="0" IVar="-1" Cut="0.0000000000000000e+00" cType="1" res="-3.8868181407451630e-02" rms="1.8655247986316681e-01" purity="1.3561567664146423e-01" nType="-99"/>
        </Node>
        <Node pos="r" depth="1" NCoef="0" IVar="1" Cut="2.0231403410434723e-02" cType="1" res="4.7815740108489990e-02" rms="2.2641561925411224e-01" purity="7.2614467144012451e-01" nType="0">
          <Node pos="l" depth="2" NCoef="0" IVar="-1" Cut="0.0000000000000000e+00" cType="1" res="2.9388507828116417e-02" rms="2.2997722029685974e-01" purity="8.3469319343566895e-01" nType="-99"/>
          <Node pos="r" depth="2" NCoef="0" IVar="-1" Cut="0.0000000000000000e+00" cType="1" res="-4.7238517552614212e-02" rms="1.3605161011219025e-01" purity="2.1556971594691277e-02" nType="-99"/>
        </Node>
      </Node>
    </BinaryTree>
    <BinaryTree type="DecisionTree" boostWeight="1.0000000000000000e+00" itree="25">
      <Node pos="s" depth="0" NCoef="0" IVar="16" Cut="8.5719061279296875e+02" cType="1" res="2.5520094204694033e-03" rms="2.2513975203037262e-01" purity="5.0353288650512695e-01" nType="0">
        <Node pos="l" depth="1" NCoef="0" IVar="5" Cut="2.6271739602088928e-01" cType="1" res="-6.0846332460641861e-02" rms="1.9101595878601074e-01" purity="1.8911768496036530e-01" nType="0">
          <Node pos="l" depth="2" NCoef="0" IVar="-1" Cut="0.0000000000000000e+00" cType="1" res="6.6404785029590130e-03" rms="2.3650957643985748e-01" purity="6.0182940959930420e-01" nType="-99"/>
          <Node pos="r" depth="2" NCoef="0" IVar="-1" Cut="0.0000000000000000e+00" cType="1" res="-4.3466169387102127e-02" rms="1.6809639334678650e-01" purity="6.4678981900215149e-02" nType="-99"/>
        </Node>
        <Node pos="r" depth="1" NCoef="0" IVar="0" Cut="2.2462627887725830e+00" cType="1" res="4.6581402420997620e-02" rms="2.3626305162906647e-01" purity="7.2189044952392578e-01" nType="0">
          <Node pos="l" depth="2" NCoef="0" IVar="-1" Cut="0.0000000000000000e+00" cType="1" res="2.8167620301246643e-02" rms="2.2681318223476410e-01" purity="7.8539121150970459e-01" nType="-99"/>
          <Node pos="r" depth="2" NCoef="0" IVar="-1" Cut="0.0000000000000000e+00" cType="1" res="-4.6445161104202271e-02" rms="2.4763359129428864e-01" purity="1.6040481626987457e-01" nType="-99"/>
        </Node>
      </Node>
    </BinaryTree>
    <BinaryTree type="DecisionTree" boostWeight="1.0000000000000000e+00" itree="26">
      <Node pos="s" depth="0" NCoef="0" IVar="12" Cut="3.6136560058593750e+02" cType="1" res="-6.9474638439714909e-03" rms="2.1549318730831146e-01" purity="4.8272916674613953e-01" nType="0">
        <Node pos="l" depth="1" NCoef="0" IVar="20" Cut="1.9330370426177979e+00" cType="1" res="-6.1570100486278534e-02" rms="1.9356584548950195e-01" purity="2.2568668425083160e-01" nType="0">
          <Node pos="l" depth="2" NCoef="0" IVar="-1" Cut="0.0000000000000000e+00" cType="1" res="-4.7262910753488541e-02" rms="1.6950432956218719e-01" purity="9.1684490442276001e-02" nType="-99"/>
          <Node pos="r" depth="2" NCoef="0" IVar="-1" Cut="0.0000000000000000e+00" cType="1" res="-5.6173182092607021e-03" rms="2.1764583885669708e-01" purity="4.3863761425018311e-01" nType="-99"/>
        </Node>
        <Node pos="r" depth="1" NCoef="0" IVar="5" Cut="1.2370489835739136e+00" cType="1" res="4.6744123101234436e-02" rms="2.2234758734703064e-01" purity="7.3539036512374878e-01" nType="0">
          <Node pos="l" depth="2" NCoef="0" IVar="-1" Cut="0.0000000000000000e+00" cType="1" res="3.3174891024827957e-02" rms="2.0157845318317413e-01" purity="8.5381072759628296e-01" nType="-99"/>
          <Node pos="r" depth="2" NCoef="0" IVar="-1" Cut="0.0000000000000000e+00" cType="1" res="-2.6159109547734261e-02" rms="2.7179899811744690e-01" purity="1.5749061107635498e-01" nType="-99"/>
        </Node>
      </Node>
    </BinaryTree>
    <BinaryTree type="DecisionTree" boostWeight="1.0000000000000000e+00" itree="27">
      <Node pos="s" depth="0" NCoef="0" IVar="2" Cut="2.9097235202789307e+00" cType="1" res="-6.1920547159388661e-04" rms="2.1368682384490967e-01" purity="5.0130885839462280e-01" nType="0">
        <Node pos="l" depth="1" NCoef="0" IVar="10" Cut="-2.8356945037841797e+01" cType="1" res="-7.8607939183712006e-02" rms="1.7396435141563416e-01" purity="8.7544120848178864e-02" nType="0">
          <Node pos="l" depth="2" NCoef="0" IVar="-1" Cut="0.0000000000000000e+00" cType="1" res="7.4305585585534573e-03" rms="2.9279363155364990e-01" purity="3.3056709170341492e-01" nType="-99"/>
          <Node pos="r" depth="2" NCoef="0" IVar="-1" Cut="0.0000000000000000e+00" cType="1" res="-4.5704334974288940e-02" rms="1.5678250789642334e-01" purity="6.6569790244102478e-02" nType="-99"/>
        </Node>
        <Node pos="r" depth="1" NCoef="0" IVar="0" Cut="2.2379217147827148e+00" cType="1" res="3.6369737237691879e-02" rms="2.2070890665054321e-01" purity="6.9755160808563232e-01" nType="0">
          <Node pos="l" depth="2" NCoef="0" IVar="-1" Cut="0.0000000000000000e+00" cType="1" res="3.2054696232080460e-02" rms="2.1541900932788849e-01" purity="8.4036880731582642e-01" nType="-99"/>
          <Node pos="r" depth="2" NCoef="0" IVar="-1" Cut="0.0000000000000000e+00" cType="1" res="-4.8554461449384689e-02" rms="1.8515250086784363e-01" purity="8.9502118527889252e-02" nType="-99"/>
        </Node>
      </Node>
    </BinaryTree>
    <BinaryTree type="DecisionTree" boostWeight="1.0000000000000000e+00" itree="28">
      <Node pos="s" depth="0" NCoef="0" IVar="12" Cut="3.9370730590820312e+02" cType="1" res="1.2380827683955431e-03" rms="2.1400661766529083e-01" purity="4.9421325325965881e-01" nType="0">
        <Node pos="l" depth="1" NCoef="0" IVar="6" Cut="4.6684890747070312e+01" cType="1" res="-4.3409176170825958e-02" rms="1.9323600828647614e-01" purity="2.5853314995765686e-01" nType="0">
          <Node pos="l" depth="2" NCoef="0" IVar="-1" Cut="0.0000000000000000e+00" cType="1" res="-3.0965391546487808e-02" rms="1.8328611552715302e-01" purity="2.0347562432289124e-01" nType="-99"/>
          <Node pos="r" depth="2" NCoef="0" IVar="-1" Cut="0.0000000000000000e+00" cType="1" res="3.5193130373954773e-02" rms="2.2492098808288574e-01" purity="7.1829628944396973e-01" nType="-99"/>
        </Node>
        <Node pos="r" depth="1" NCoef="0" IVar="1" Cut="2.0018262788653374e-02" cType="1" res="5.4831974208354950e-02" rms="2.2513858973979950e-01" purity="7.7712005376815796e-01" nType="0">
          <Node pos="l" depth="2" NCoef="0" IVar="-1" Cut="0.0000000000000000e+00" cType="1" res="3.1792882829904556e-02" rms="2.2363743185997009e-01" purity="8.5303324460983276e-01" nType="-99"/>
          <Node pos="r" depth="2" NCoef="0" IVar="-1" Cut="0.0000000000000000e+00" cType="1" res="-3.8404569029808044e-02" rms="1.9033144414424896e-01" purity="4.7251436859369278e-02" nType="-99"/>
        </Node>
      </Node>
    </BinaryTree>
    <BinaryTree type="DecisionTree" boostWeight="1.0000000000000000e+00" itree="29">
      <Node pos="s" depth="0" NCoef="0" IVar="20" Cut="1.6518375873565674e+00" cType="1" res="-2.3276847787201405e-03" rms="2.1211560070514679e-01" purity="4.8764497041702271e-01" nType="0">
        <Node pos="l" depth="1" NCoef="0" IVar="9" Cut="2.8603504180908203e+01" cType="1" res="-5.8931961655616760e-02" rms="1.9087290763854980e-01" purity="2.0836673676967621e-01" nType="0">
          <Node pos="l" depth="2" NCoef="0" IVar="-1" Cut="0.0000000000000000e+00" cType="1" res="-4.0939263999462128e-02" rms="1.7703247070312500e-01" purity="1.1228533089160919e-01" nType="-99"/>
          <Node pos="r" depth="2" NCoef="0" IVar="-1" Cut="0.0000000000000000e+00" cType="1" res="1.1537520214915276e-02" rms="2.3305703699588776e-01" purity="7.0859527587890625e-01" nType="-99"/>
        </Node>
        <Node pos="r" depth="1" NCoef="0" IVar="19" Cut="1.4755028486251831e+00" cType="1" res="3.5759031772613525e-02" rms="2.1713270246982574e-01" purity="6.7555993795394897e-01" nType="0">
          <Node pos="l" depth="2" NCoef="0" IVar="-1" Cut="0.0000000000000000e+00" cType="1" res="-2.1995807066559792e-02" rms="2.0934960246086121e-01" purity="3.2362508773803711e-01" nType="-99"/>
          <Node pos="r" depth="2" NCoef="0" IVar="-1" Cut="0.0000000000000000e+00" cType="1" res="3.1613014638423920e-02" rms="2.1247562766075134e-01" purity="8.0185425281524658e-01" nType="-99"/>
        </Node>
      </Node>
    </BinaryTree>
    <BinaryTree type="DecisionTree" boostWeight="1.0000000000000000e+00" itree="30">
      <Node pos="s" depth="0" NCoef="0" IVar="6" Cut="2.8461175918579102e+01" cType="1" res="1.6353421378880739e-03" rms="2.1171686053276062e-01" purity="5.0243777036666870e-01" nType="0">
        <Node pos="l" depth="1" NCoef="0" IVar="13" Cut="6.8263623046875000e+03" cType="1" res="-4.0482405573129654e-02" rms="2.0970308780670166e-01" purity="3.1642645597457886e-01" nType="0">
          <Node pos="l" depth="2" NCoef="0" IVar="-1" Cut="0.0000000000000000e+00" cType="1" res="-3.2736621797084808e-02" rms="1.9649867713451385e-01" purity="2.2740621864795685e-01" nType="-99"/>
          <Node pos="r" depth="2" NCoef="0" IVar="-1" Cut="0.0000000000000000e+00" cType="1" res="1.7123965546488762e-02" rms="2.4219198524951935e-01" purity="6.8931233882904053e-01" nType="-99"/>
        </Node>
        <Node pos="r" depth="1" NCoef="0" IVar="2" Cut="1.6774708032608032e+00" cType="1" res="5.1016367971897125e-02" rms="2.0322577655315399e-01" purity="7.2052699327468872e-01" nType="0">
          <Node pos="l" depth="2" NCoef="0" IVar="-1" Cut="0.0000000000000000e+00" cType="1" res="-5.5384233593940735e-02" rms="1.1669330298900604e-01" purity="1.2358920648694038e-02" nType="-99"/>
          <Node pos="r" depth="2" NCoef="0" IVar="-1" Cut="0.0000000000000000e+00" cType="1" res="3.3723745495080948e-02" rms="2.0443622767925262e-01" purity="7.9854351282119751e-01" nType="-99"/>
        </Node>
      </Node>
    </BinaryTree>
    <BinaryTree type="DecisionTree" boostWeight="1.0000000000000000e+00" itree="31">
      <Node pos="s" depth="0" NCoef="0" IVar="4" Cut="5.7728457450866699e-01" cType="1" res="-7.8320241300389171e-04" rms="2.0539292693138123e-01" purity="4.9928313493728638e-01" nType="0">
        <Node pos="l" depth="1" NCoef="0" IVar="2" Cut="1.8382676839828491e+00" cType="1" res="4.1022699326276779e-02" rms="1.9496360421180725e-01" purity="7.6631051301956177e-01" nType="0">
          <Node pos="l" depth="2" NCoef="0" IVar="-1" Cut="0.0000000000000000e+00" cType="1" res="-4.4773068279027939e-02" rms="1.5599384903907776e-01" purity="4.3880816549062729e-02" nType="-99"/>
          <Node pos="r" depth="2" NCoef="0" IVar="-1" Cut="0.0000000000000000e+00" cType="1" res="3.1262442469596863e-02" rms="1.9358703494071960e-01" purity="8.6214298009872437e-01" nType="-99"/>
        </Node>
        <Node pos="r" depth="1" NCoef="0" IVar="12" Cut="5.2272888183593750e+02" cType="1" res="-4.2197749018669128e-02" rms="2.0706537365913391e-01" purity="2.3475545644760132e-01" nType="0">
          <Node pos="l" depth="2" NCoef="0" IVar="-1" Cut="0.0000000000000000e+00" cType="1" res="-3.9176866412162781e-02" rms="1.6994084417819977e-01" purity="1.0565400123596191e-01" nType="-99"/>
          <Node pos="r" depth="2" NCoef="0" IVar="-1" Cut="0.0000000000000000e+00" cType="1" res="1.8197681754827499e-02" rms="2.8417590260505676e-01" purity="6.8286514282226562e-01" nType="-99"/>
        </Node>
      </Node>
    </BinaryTree>
    <BinaryTree type="DecisionTree" boostWeight="1.0000000000000000e+00" itree="32">
      <Node pos="s" depth="0" NCoef="0" IVar="6" Cut="2.5842433929443359e+01" cType="1" res="-1.9530260469764471e-03" rms="1.9959315657615662e-01" purity="5.0296598672866821e-01" nType="0">
        <Node pos="l" depth="1" NCoef="0" IVar="13" Cut="4.6975517578125000e+03" cType="1" res="-4.3242208659648895e-02" rms="1.9648320972919464e-01" purity="2.9484188556671143e-01" nType="0">
          <Node pos="l" depth="2" NCoef="0" IVar="-1" Cut="0.0000000000000000e+00" cType="1" res="-4.7380562871694565e-02" rms="1.4291526377201080e-01" purity="1.2092608958482742e-01" nType="-99"/>
          <Node pos="r" depth="2" NCoef="0" IVar="-1" Cut="0.0000000000000000e+00" cType="1" res="-2.3030962329357862e-03" rms="2.4184332787990570e-01" purity="5.1060503721237183e-01" nType="-99"/>
        </Node>
        <Node pos="r" depth="1" NCoef="0" IVar="9" Cut="7.8582630157470703e+00" cType="1" res="3.6704689264297485e-02" rms="1.9467958807945251e-01" purity="6.9782572984695435e-01" nType="0">
          <Node pos="l" depth="2" NCoef="0" IVar="-1" Cut="0.0000000000000000e+00" cType="1" res="-4.1192959994077682e-02" rms="1.7571499943733215e-01" purity="1.3194726407527924e-01" nType="-99"/>
          <Node pos="r" depth="2" NCoef="0" IVar="-1" Cut="0.0000000000000000e+00" cType="1" res="2.8751380741596222e-02" rms="1.9174411892890930e-01" purity="7.8178113698959351e-01" nType="-99"/>
        </Node>
      </Node>
    </BinaryTree>
    <BinaryTree type="DecisionTree" boostWeight="1.0000000000000000e+00" itree="33">
      <Node pos="s" depth="0" NCoef="0" IVar="9" Cut="1.4488422393798828e+01" cType="1" res="-1.3312649680301547e-03" rms="1.9882124662399292e-01" purity="4.9898076057434082e-01" nType="0">
        <Node pos="l" depth="1" NCoef="0" IVar="9" Cut="8.1708688735961914e+00" cType="1" res="-4.6985357999801636e-02" rms="1.8457396328449249e-01" purity="1.8720103800296783e-01" nType="0">
          <Node pos="l" depth="2" NCoef="0" IVar="-1" Cut="0.0000000000000000e+00" cType="1" res="-4.3178148567676544e-02" rms="1.6850824654102325e-01" purity="9.9480792880058289e-02" nType="-99"/>
          <Node pos="r" depth="2" NCoef="0" IVar="-1" Cut="0.0000000000000000e+00" cType="1" res="-8.0938143655657768e-03" rms="1.9989719986915588e-01" purity="3.0560892820358276e-01" nType="-99"/>
        </Node>
        <Node pos="r" depth="1" NCoef="0" IVar="5" Cut="1.6530832052230835e+00" cType="1" res="3.3408153802156448e-02" rms="2.0222142338752747e-01" purity="7.3622220754623413e-01" nType="0">
          <Node pos="l" depth="2" NCoef="0" IVar="-1" Cut="0.0000000000000000e+00" cType="1" res="2.6332050561904907e-02" rms="1.9254885613918304e-01" purity="8.0025213956832886e-01" nType="-99"/>
          <Node pos="r" depth="2" NCoef="0" IVar="-1" Cut="0.0000000000000000e+00" cType="1" res="-3.7736866623163223e-02" rms="2.4103133380413055e-01" purity="1.0806331038475037e-01" nType="-99"/>
        </Node>
      </Node>
    </BinaryTree>
    <BinaryTree type="DecisionTree" boostWeight="1.0000000000000000e+00" itree="34">
      <Node pos="s" depth="0" NCoef="0" IVar="9" Cut="2.2200347900390625e+01" cType="1" res="2.0440807566046715e-03" rms="2.0569695532321930e-01" purity="4.9286231398582458e-01" nType="0">
        <Node pos="l" depth="1" NCoef="0" IVar="8" Cut="-4.0747718811035156e+01" cType="1" res="-2.7802878990769386e-02" rms="2.0471318066120148e-01" purity="2.7979657053947449e-01" nType="0">
          <Node pos="l" depth="2" NCoef="0" IVar="-1" Cut="0.0000000000000000e+00" cType="1" res="3.3716361969709396e-02" rms="2.3596726357936859e-01" purity="6.3061517477035522e-01" nType="-99"/>
          <Node pos="r" depth="2" NCoef="0" IVar="-1" Cut="0.0000000000000000e+00" cType="1" res="-2.2811867296695709e-02" rms="1.9726073741912842e-01" purity="2.3611061275005341e-01" nType="-99"/>
        </Node>
        <Node pos="r" depth="1" NCoef="0" IVar="1" Cut="1.3501379638910294e-02" cType="1" res="4.9790307879447937e-02" rms="1.9812202453613281e-01" purity="8.3370387554168701e-01" nType="0">
          <Node pos="l" depth="2" NCoef="0" IVar="-1" Cut="0.0000000000000000e+00" cType="1" res="3.4709103405475616e-02" rms="1.9402551651000977e-01" purity="9.2197620868682861e-01" nType="-99"/>
          <Node pos="r" depth="2" NCoef="0" IVar="-1" Cut="0.0000000000000000e+00" cType="1" res="-2.6357127353549004e-02" rms="2.0080733299255371e-01" purity="9.1677062213420868e-02" nType="-99"/>
        </Node>
      </Node>
    </BinaryTree>
    <BinaryTree type="DecisionTree" boostWeight="1.0000000000000000e+00" itree="35">
      <Node pos="s" depth="0" NCoef="0" IVar="0" Cut="1.5007739067077637e+00" cType="1" res="-2.7605856303125620e-03" rms="1.9809013605117798e-01" purity="4.8845604062080383e-01" nType="0">
        <Node pos="l" depth="1" NCoef="0" IVar="2" Cut="1.8875772953033447e+00" cType="1" res="2.5147637352347374e-02" rms="2.0111323893070221e-01" purity="6.3626784086227417e-01" nType="0">
          <Node pos="l" depth="2" NCoef="0" IVar="-1" Cut="0.0000000000000000e+00" cType="1" res="-4.5465268194675446e-02" rms="1.3032242655754089e-01" purity="2.8437042608857155e-02" nType="-99"/>
          <Node pos="r" depth="2" NCoef="0" IVar="-1" Cut="0.0000000000000000e+00" cType="1" res="2.8174728155136108e-02" rms="2.1037247776985168e-01" purity="8.1546950340270996e-01" nType="-99"/>
        </Node>
        <Node pos="r" depth="1" NCoef="0" IVar="7" Cut="2.2038679122924805e+01" cType="1" res="-5.9010606259107590e-02" rms="1.7909039556980133e-01" purity="1.9053603708744049e-01" nType="0">
          <Node pos="l" depth="2" NCoef="0" IVar="-1" Cut="0.0000000000000000e+00" cType="1" res="-5.4104793816804886e-02" rms="1.5744610130786896e-01" purity="9.7578704357147217e-02" nType="-99"/>
          <Node pos="r" depth="2" NCoef="0" IVar="-1" Cut="0.0000000000000000e+00" cType="1" res="-1.0752718895673752e-02" rms="2.0184935629367828e-01" purity="3.3369016647338867e-01" nType="-99"/>
        </Node>
      </Node>
    </BinaryTree>
    <BinaryTree type="DecisionTree" boostWeight="1.0000000000000000e+00" itree="36">
      <Node pos="s" depth="0" NCoef="0" IVar="19" Cut="1.5403192043304443e+00" cType="1" res="3.1322545837610960e-03" rms="2.0221810042858124e-01" purity="5.0085377693176270e-01" nType="0">
        <Node pos="l" depth="1" NCoef="0" IVar="8" Cut="-3.8047420501708984e+01" cType="1" res="-4.5680526643991470e-02" rms="1.8265263736248016e-01" purity="1.9629572331905365e-01" nType="0">
          <Node pos="l" depth="2" NCoef="0" IVar="-1" Cut="0.0000000000000000e+00" cType="1" res="1.2999492697417736e-02" rms="2.2424153983592987e-01" purity="5.2457731962203979e-01" nType="-99"/>
          <Node pos="r" depth="2" NCoef="0" IVar="-1" Cut="0.0000000000000000e+00" cType="1" res="-3.6350287497043610e-02" rms="1.7203329503536224e-01" purity="1.4197003841400146e-01" nType="-99"/>
        </Node>
        <Node pos="r" depth="1" NCoef="0" IVar="0" Cut="2.3051373958587646e+00" cType="1" res="3.1406320631504059e-02" rms="2.0754358172416687e-01" purity="6.7726445198059082e-01" nType="0">
          <Node pos="l" depth="2" NCoef="0" IVar="-1" Cut="0.0000000000000000e+00" cType="1" res="2.5687953457236290e-02" rms="2.0299103856086731e-01" purity="7.4904710054397583e-01" nType="-99"/>
          <Node pos="r" depth="2" NCoef="0" IVar="-1" Cut="0.0000000000000000e+00" cType="1" res="-3.9715863764286041e-02" rms="2.1317338943481445e-01" purity="1.0831011086702347e-01" nType="-99"/>
        </Node>
      </Node>
    </BinaryTree>
    <BinaryTree type="DecisionTree" boostWeight="1.0000000000000000e+00" itree="37">
      <Node pos="s" depth="0" NCoef="0" IVar="19" Cut="1.5465333461761475e+00" cType="1" res="1.4892979525029659e-03" rms="1.9949643313884735e-01" purity="4.9674212932586670e-01" nType="0">
        <Node pos="l" depth="1" NCoef="0" IVar="10" Cut="-2.8356945037841797e+01" cType="1" res="-4.2263202369213104e-02" rms="1.7385682463645935e-01" purity="2.0767812430858612e-01" nType="0">
          <Node pos="l" depth="2" NCoef="0" IVar="-1" Cut="0.0000000000000000e+00" cType="1" res="2.2385973483324051e-02" rms="2.1644023060798645e-01" purity="6.2566757202148438e-01" nType="-99"/>
          <Node pos="r" depth="2" NCoef="0" IVar="-1" Cut="0.0000000000000000e+00" cType="1" res="-3.5860374569892883e-02" rms="1.6297970712184906e-01" purity="1.4874729514122009e-01" nType="-99"/>
        </Node>
        <Node pos="r" depth="1" NCoef="0" IVar="6" Cut="1.0868326187133789e+01" cType="1" res="2.7518479153513908e-02" rms="2.0899139344692230e-01" purity="6.6871172189712524e-01" nType="0">
          <Node pos="l" depth="2" NCoef="0" IVar="-1" Cut="0.0000000000000000e+00" cType="1" res="-4.1519738733768463e-02" rms="2.0463848114013672e-01" purity="2.1203957498073578e-01" nType="-99"/>
          <Node pos="r" depth="2" NCoef="0" IVar="-1" Cut="0.0000000000000000e+00" cType="1" res="2.2921949625015259e-02" rms="2.0642077922821045e-01" purity="7.2062599658966064e-01" nType="-99"/>
        </Node>
      </Node>
    </BinaryTree>
    <BinaryTree type="DecisionTree" boostWeight="1.0000000000000000e+00" itree="38">
      <Node pos="s" depth="0" NCoef="0" IVar="20" Cut="1.1642768383026123e+00" cType="1" res="4.9943034537136555e-03" rms="2.0167359709739685e-01" purity="5.0575703382492065e-01" nType="0">
        <Node pos="l" depth="1" NCoef="0" IVar="4" Cut="1.3412554748356342e-02" cType="1" res="-5.0081174820661545e-02" rms="1.7472080886363983e-01" purity="1.6752766072750092e-01" nType="0">
          <Node pos="l" depth="2" NCoef="0" IVar="-1" Cut="0.0000000000000000e+00" cType="1" res="4.4878660701215267e-03" rms="2.3375315964221954e-01" purity="4.8242166638374329e-01" nType="-99"/>
          <Node pos="r" depth="2" NCoef="0" IVar="-1" Cut="0.0000000000000000e+00" cType="1" res="-4.5725267380475998e-02" rms="1.5171034634113312e-01" purity="8.4434024989604950e-02" nType="-99"/>
        </Node>
        <Node pos="r" depth="1" NCoef="0" IVar="9" Cut="7.1389985084533691e+00" cType="1" res="2.5988765060901642e-02" rms="2.0722539722919464e-01" purity="6.3468819856643677e-01" nType="0">
          <Node pos="l" depth="2" NCoef="0" IVar="-1" Cut="0.0000000000000000e+00" cType="1" res="-2.6484571397304535e-02" rms="2.0508922636508942e-01" purity="1.7180584371089935e-01" nType="-99"/>
          <Node pos="r" depth="2" NCoef="0" IVar="-1" Cut="0.0000000000000000e+00" cType="1" res="2.3611126467585564e-02" rms="2.0465345680713654e-01" purity="7.3172765970230103e-01" nType="-99"/>
        </Node>
      </Node>
    </BinaryTree>
    <BinaryTree type="DecisionTree" boostWeight="1.0000000000000000e+00" itree="39">
      <Node pos="s" depth="0" NCoef="0" IVar="7" Cut="2.1853857040405273e+01" cType="1" res="2.8645286802202463e-03" rms="1.9961139559745789e-01" purity="5.0045704841613770e-01" nType="0">
        <Node pos="l" depth="1" NCoef="0" IVar="4" Cut="3.7951996922492981e-01" cType="1" res="-3.6346387118101120e-02" rms="2.0491407811641693e-01" purity="3.2288822531700134e-01" nType="0">
          <Node pos="l" depth="2" NCoef="0" IVar="-1" Cut="0.0000000000000000e+00" cType="1" res="7.2239316068589687e-04" rms="2.1059760451316833e-01" purity="6.8181616067886353e-01" nType="-99"/>
          <Node pos="r" depth="2" NCoef="0" IVar="-1" Cut="0.0000000000000000e+00" cType="1" res="-3.5212744027376175e-02" rms="1.9923759996891022e-01" purity="1.3941194117069244e-01" nType="-99"/>
        </Node>
        <Node pos="r" depth="1" NCoef="0" IVar="1" Cut="1.3578849844634533e-02" cType="1" res="3.7580575793981552e-02" rms="1.8809327483177185e-01" purity="6.5767055749893188e-01" nType="0">
          <Node pos="l" depth="2" NCoef="0" IVar="-1" Cut="0.0000000000000000e+00" cType="1" res="3.4076612442731857e-02" rms="1.9809570908546448e-01" purity="8.3787995576858521e-01" nType="-99"/>
          <Node pos="r" depth="2" NCoef="0" IVar="-1" Cut="0.0000000000000000e+00" cType="1" res="-3.2602690160274506e-02" rms="1.2171532958745956e-01" purity="3.3157628029584885e-02" nType="-99"/>
        </Node>
      </Node>
    </BinaryTree>
    <BinaryTree type="DecisionTree" boostWeight="1.0000000000000000e+00" itree="40">
      <Node pos="s" depth="0" NCoef="0" IVar="6" Cut="2.8461175918579102e+01" cType="1" res="-4.1558034718036652e-04" rms="1.8848663568496704e-01" purity="5.0221616029739380e-01" nType="0">
        <Node pos="l" depth="1" NCoef="0" IVar="5" Cut="3.1767401378601789e-03" cType="1" res="-2.9657727107405663e-02" rms="1.8792334198951721e-01" purity="3.0338615179061890e-01" nType="0">
          <Node pos="l" depth="2" NCoef="0" IVar="-1" Cut="0.0000000000000000e+00" cType="1" res="1.9505942240357399e-02" rms="1.7924015223979950e-01" purity="7.8735619783401489e-01" nType="-99"/>
          <Node pos="r" depth="2" NCoef="0" IVar="-1" Cut="0.0000000000000000e+00" cType="1" res="-2.7325617149472237e-02" rms="1.8724252283573151e-01" purity="2.1465298533439636e-01" nType="-99"/>
        </Node>
        <Node pos="r" depth="1" NCoef="0" IVar="2" Cut="2.0404689311981201e+00" cType="1" res="3.2739248126745224e-02" rms="1.8357247114181519e-01" purity="7.2765016555786133e-01" nType="0">
          <Node pos="l" depth="2" NCoef="0" IVar="-1" Cut="0.0000000000000000e+00" cType="1" res="-3.6011539399623871e-02" rms="1.5497158467769623e-01" purity="4.8027329146862030e-02" nType="-99"/>
          <Node pos="r" depth="2" NCoef="0" IVar="-1" Cut="0.0000000000000000e+00" cType="1" res="2.8572777286171913e-02" rms="1.8424011766910553e-01" purity="8.2492810487747192e-01" nType="-99"/>
        </Node>
      </Node>
    </BinaryTree>
    <BinaryTree type="DecisionTree" boostWeight="1.0000000000000000e+00" itree="41">
      <Node pos="s" depth="0" NCoef="0" IVar="2" Cut="2.6664896011352539e+00" cType="1" res="3.1371000222861767e-03" rms="1.9450969994068146e-01" purity="5.0074797868728638e-01" nType="0">
        <Node pos="l" depth="1" NCoef="0" IVar="1" Cut="6.8345856852829456e-03" cType="1" res="-4.1847474873065948e-02" rms="1.7148311436176300e-01" purity="7.1007892489433289e-02" nType="0">
          <Node pos="l" depth="2" NCoef="0" IVar="-1" Cut="0.0000000000000000e+00" cType="1" res="-3.6889918148517609e-02" rms="2.8560665249824524e-01" purity="3.3158275485038757e-01" nType="-99"/>
          <Node pos="r" depth="2" NCoef="0" IVar="-1" Cut="0.0000000000000000e+00" cType="1" res="-2.9797272756695747e-02" rms="1.4759841561317444e-01" purity="3.6270026117563248e-02" nType="-99"/>
        </Node>
        <Node pos="r" depth="1" NCoef="0" IVar="0" Cut="1.9925951957702637e+00" cType="1" res="2.0951934158802032e-02" rms="2.0013184845447540e-01" purity="6.7093402147293091e-01" nType="0">
          <Node pos="l" depth="2" NCoef="0" IVar="-1" Cut="0.0000000000000000e+00" cType="1" res="2.6807738468050957e-02" rms="1.9316034018993378e-01" purity="8.4981852769851685e-01" nType="-99"/>
          <Node pos="r" depth="2" NCoef="0" IVar="-1" Cut="0.0000000000000000e+00" cType="1" res="-2.9747361317276955e-02" rms="2.0442566275596619e-01" purity="1.3725721836090088e-01" nType="-99"/>
        </Node>
      </Node>
    </BinaryTree>
    <BinaryTree type="DecisionTree" boostWeight="1.0000000000000000e+00" itree="42">
      <Node pos="s" depth="0" NCoef="0" IVar="4" Cut="8.6377912759780884e-01" cType="1" res="1.8594133143778890e-04" rms="1.9466753304004669e-01" purity="4.9457255005836487e-01" nType="0">
        <Node pos="l" depth="1" NCoef="0" IVar="2" Cut="2.0976970195770264e+00" cType="1" res="2.5280922651290894e-02" rms="1.9065429270267487e-01" purity="7.1790373325347900e-01" nType="0">
          <Node pos="l" depth="2" NCoef="0" IVar="-1" Cut="0.0000000000000000e+00" cType="1" res="-3.6919418722391129e-02" rms="1.5729224681854248e-01" purity="3.8667630404233932e-02" nType="-99"/>
          <Node pos="r" depth="2" NCoef="0" IVar="-1" Cut="0.0000000000000000e+00" cType="1" res="2.7065094560384750e-02" rms="1.9326858222484589e-01" purity="8.5298413038253784e-01" nType="-99"/>
        </Node>
        <Node pos="r" depth="1" NCoef="0" IVar="15" Cut="9.3762847900390625e+02" cType="1" res="-3.4817159175872803e-02" rms="1.9480444490909576e-01" purity="1.8306463956832886e-01" nType="0">
          <Node pos="l" depth="2" NCoef="0" IVar="-1" Cut="0.0000000000000000e+00" cType="1" res="-3.5998418927192688e-02" rms="1.6828402876853943e-01" purity="1.0102860629558563e-01" nType="-99"/>
          <Node pos="r" depth="2" NCoef="0" IVar="-1" Cut="0.0000000000000000e+00" cType="1" res="1.1049585416913033e-02" rms="2.6415759325027466e-01" purity="4.9204704165458679e-01" nType="-99"/>
        </Node>
      </Node>
    </BinaryTree>
    <BinaryTree type="DecisionTree" boostWeight="1.0000000000000000e+00" itree="43">
      <Node pos="s" depth="0" NCoef="0" IVar="12" Cut="3.6136343383789062e+02" cType="1" res="3.7153903394937515e-03" rms="1.9388070702552795e-01" purity="5.0416612625122070e-01" nType="0">
        <Node pos="l" depth="1" NCoef="0" IVar="5" Cut="2.1877145767211914e-01" cType="1" res="-2.8913466259837151e-02" rms="1.6890929639339447e-01" purity="2.4011397361755371e-01" nType="0">
          <Node pos="l" depth="2" NCoef="0" IVar="-1" Cut="0.0000000000000000e+00" cType="1" res="1.2511925771832466e-02" rms="1.9208319485187531e-01" purity="6.7856019735336304e-01" nType="-99"/>
          <Node pos="r" depth="2" NCoef="0" IVar="-1" Cut="0.0000000000000000e+00" cType="1" res="-3.5497885197401047e-02" rms="1.5762534737586975e-01" purity="9.8913162946701050e-02" nType="-99"/>
        </Node>
        <Node pos="r" depth="1" NCoef="0" IVar="6" Cut="1.4512690544128418e+01" cType="1" res="3.4689068794250488e-02" rms="2.1028444170951843e-01" purity="7.5482362508773804e-01" nType="0">
          <Node pos="l" depth="2" NCoef="0" IVar="-1" Cut="0.0000000000000000e+00" cType="1" res="-1.8069956451654434e-02" rms="2.5114962458610535e-01" purity="3.7696245312690735e-01" nType="-99"/>
          <Node pos="r" depth="2" NCoef="0" IVar="-1" Cut="0.0000000000000000e+00" cType="1" res="2.9845109209418297e-02" rms="2.0045089721679688e-01" purity="8.1644350290298462e-01" nType="-99"/>
        </Node>
      </Node>
    </BinaryTree>
    <BinaryTree type="DecisionTree" boostWeight="1.0000000000000000e+00" itree="44">
      <Node pos="s" depth="0" NCoef="0" IVar="16" Cut="1.1610180664062500e+03" cType="1" res="3.4540863707661629e-03" rms="1.9136650860309601e-01" purity="5.0835341215133667e-01" nType="0">
        <Node pos="l" depth="1" NCoef="0" IVar="11" Cut="-2.9678653717041016e+01" cType="1" res="-2.0659996196627617e-02" rms="1.8000335991382599e-01" purity="2.6507228612899780e-01" nType="0">
          <Node pos="l" depth="2" NCoef="0" IVar="-1" Cut="0.0000000000000000e+00" cType="1" res="2.8997831046581268e-02" rms="2.0788653194904327e-01" purity="6.9683182239532471e-01" nType="-99"/>
          <Node pos="r" depth="2" NCoef="0" IVar="-1" Cut="0.0000000000000000e+00" cType="1" res="-2.2424520924687386e-02" rms="1.7416647076606750e-01" purity="2.0812603831291199e-01" nType="-99"/>
        </Node>
        <Node pos="r" depth="1" NCoef="0" IVar="5" Cut="1.8964586257934570e+00" cType="1" res="3.1127264723181725e-02" rms="2.0007695257663727e-01" purity="7.8754138946533203e-01" nType="0">
          <Node pos="l" depth="2" NCoef="0" IVar="-1" Cut="0.0000000000000000e+00" cType="1" res="2.5743657723069191e-02" rms="1.9476139545440674e-01" purity="8.3246684074401855e-01" nType="-99"/>
          <Node pos="r" depth="2" NCoef="0" IVar="-1" Cut="0.0000000000000000e+00" cType="1" res="-3.5105705261230469e-02" rms="2.4317230284214020e-01" purity="1.0681475698947906e-01" nType="-99"/>
        </Node>
      </Node>
    </BinaryTree>
    <BinaryTree type="DecisionTree" boostWeight="1.0000000000000000e+00" itree="45">
      <Node pos="s" depth="0" NCoef="0" IVar="7" Cut="2.1853281021118164e+01" cType="1" res="6.3491991022601724e-04" rms="1.8964400887489319e-01" purity="4.9427354335784912e-01" nType="0">
        <Node pos="l" depth="1" NCoef="0" IVar="18" Cut="4.6661953926086426e+00" cType="1" res="-2.3810824379324913e-02" rms="1.9604453444480896e-01" purity="3.3913016319274902e-01" nType="0">
          <Node pos="l" depth="2" NCoef="0" IVar="-1" Cut="0.0000000000000000e+00" cType="1" res="-1.3123269192874432e-02" rms="1.8724788725376129e-01" purity="3.3282315731048584e-01" nType="-99"/>
          <Node pos="r" depth="2" NCoef="0" IVar="-1" Cut="0.0000000000000000e+00" cType="1" res="-6.4783446490764618e-02" rms="2.9339456558227539e-01" purity="4.4863981008529663e-01" nType="-99"/>
        </Node>
        <Node pos="r" depth="1" NCoef="0" IVar="1" Cut="1.3521423563361168e-02" cType="1" res="2.3887930437922478e-02" rms="1.8029849231243134e-01" purity="6.4184731245040894e-01" nType="0">
          <Node pos="l" depth="2" NCoef="0" IVar="-1" Cut="0.0000000000000000e+00" cType="1" res="2.6060260832309723e-02" rms="1.9346189498901367e-01" purity="8.2940441370010376e-01" nType="-99"/>
          <Node pos="r" depth="2" NCoef="0" IVar="-1" Cut="0.0000000000000000e+00" cType="1" res="-3.2707270234823227e-02" rms="1.1149647831916809e-01" purity="2.8358230367302895e-02" nType="-99"/>
        </Node>
      </Node>
    </BinaryTree>
    <BinaryTree type="DecisionTree" boostWeight="1.0000000000000000e+00" itree="46">
      <Node pos="s" depth="0" NCoef="0" IVar="6" Cut="2.8462377548217773e+01" cType="1" res="6.3967588357627392e-03" rms="1.9239975512027740e-01" purity="5.1431351900100708e-01" nType="0">
        <Node pos="l" depth="1" NCoef="0" IVar="7" Cut="2.6167968750000000e+01" cType="1" res="-1.7468364909291267e-02" rms="1.8829895555973053e-01" purity="3.2438233494758606e-01" nType="0">
          <Node pos="l" depth="2" NCoef="0" IVar="-1" Cut="0.0000000000000000e+00" cType="1" res="-2.9038563370704651e-02" rms="1.8194723129272461e-01" purity="2.2939008474349976e-01" nType="-99"/>
          <Node pos="r" depth="2" NCoef="0" IVar="-1" Cut="0.0000000000000000e+00" cType="1" res="1.7161650583148003e-02" rms="1.9403880834579468e-01" purity="5.2493816614151001e-01" nType="-99"/>
        </Node>
        <Node pos="r" depth="1" NCoef="0" IVar="5" Cut="1.6642353534698486e+00" cType="1" res="3.3393416553735733e-02" rms="1.9341816008090973e-01" purity="7.2916710376739502e-01" nType="0">
          <Node pos="l" depth="2" NCoef="0" IVar="-1" Cut="0.0000000000000000e+00" cType="1" res="2.9649520292878151e-02" rms="1.9008004665374756e-01" purity="7.7869570255279541e-01" nType="-99"/>
          <Node pos="r" depth="2" NCoef="0" IVar="-1" Cut="0.0000000000000000e+00" cType="1" res="-3.2052069902420044e-02" rms="2.0740310847759247e-01" purity="1.1144775897264481e-01" nType="-99"/>
        </Node>
      </Node>
    </BinaryTree>
    <BinaryTree type="DecisionTree" boostWeight="1.0000000000000000e+00" itree="47">
      <Node pos="s" depth="0" NCoef="0" IVar="20" Cut="1.5523567199707031e+00" cType="1" res="2.4129657540470362e-03" rms="1.8978545069694519e-01" purity="4.9978321790695190e-01" nType="0">
        <Node pos="l" depth="1" NCoef="0" IVar="11" Cut="-2.8677822113037109e+01" cType="1" res="-3.0275667086243629e-02" rms="1.7251110076904297e-01" purity="2.1375770866870880e-01" nType="0">
          <Node pos="l" depth="2" NCoef="0" IVar="-1" Cut="0.0000000000000000e+00" cType="1" res="2.5058435276150703e-02" rms="2.3918542265892029e-01" purity="5.9516358375549316e-01" nType="-99"/>
          <Node pos="r" depth="2" NCoef="0" IVar="-1" Cut="0.0000000000000000e+00" cType="1" res="-3.0171947553753853e-02" rms="1.6105121374130249e-01" purity="1.6937755048274994e-01" nType="-99"/>
        </Node>
        <Node pos="r" depth="1" NCoef="0" IVar="0" Cut="2.2375216484069824e+00" cType="1" res="2.2534891963005066e-02" rms="1.9699829816818237e-01" purity="6.7585003376007080e-01" nType="0">
          <Node pos="l" depth="2" NCoef="0" IVar="-1" Cut="0.0000000000000000e+00" cType="1" res="2.2423228248953819e-02" rms="1.9170741736888885e-01" purity="7.5681394338607788e-01" nType="-99"/>
          <Node pos="r" depth="2" NCoef="0" IVar="-1" Cut="0.0000000000000000e+00" cType="1" res="-2.3223357275128365e-02" rms="2.1922256052494049e-01" purity="1.5683160722255707e-01" nType="-99"/>
        </Node>
      </Node>
    </BinaryTree>
    <BinaryTree type="DecisionTree" boostWeight="1.0000000000000000e+00" itree="48">
      <Node pos="s" depth="0" NCoef="0" IVar="9" Cut="1.2101651191711426e+01" cType="1" res="2.6241352315992117e-03" rms="1.8760535120964050e-01" purity="5.0536042451858521e-01" nType="0">
        <Node pos="l" depth="1" NCoef="0" IVar="9" Cut="9.0857648849487305e+00" cType="1" res="-2.8910068795084953e-02" rms="1.7178897559642792e-01" purity="1.6948898136615753e-01" nType="0">
          <Node pos="l" depth="2" NCoef="0" IVar="-1" Cut="0.0000000000000000e+00" cType="1" res="-3.3634856343269348e-02" rms="1.5836139023303986e-01" purity="1.1955145746469498e-01" nType="-99"/>
          <Node pos="r" depth="2" NCoef="0" IVar="-1" Cut="0.0000000000000000e+00" cType="1" res="3.6100745201110840e-03" rms="2.0327921211719513e-01" purity="3.1974279880523682e-01" nType="-99"/>
        </Node>
        <Node pos="r" depth="1" NCoef="0" IVar="5" Cut="1.4061224460601807e+00" cType="1" res="2.1044798195362091e-02" rms="1.9389699399471283e-01" purity="7.0155924558639526e-01" nType="0">
          <Node pos="l" depth="2" NCoef="0" IVar="-1" Cut="0.0000000000000000e+00" cType="1" res="2.4862013757228851e-02" rms="1.8843694031238556e-01" purity="7.9994398355484009e-01" nType="-99"/>
          <Node pos="r" depth="2" NCoef="0" IVar="-1" Cut="0.0000000000000000e+00" cType="1" res="-2.5373907759785652e-02" rms="2.0991323888301849e-01" purity="1.3098275661468506e-01" nType="-99"/>
        </Node>
      </Node>
    </BinaryTree>
    <BinaryTree type="DecisionTree" boostWeight="1.0000000000000000e+00" itree="49">
      <Node pos="s" depth="0" NCoef="0" IVar="6" Cut="3.4326377868652344e+01" cType="1" res="1.8376547377556562e-03" rms="1.8185995519161224e-01" purity="5.0799858570098877e-01" nType="0">
        <Node pos="l" depth="1" NCoef="0" IVar="7" Cut="4.0061622619628906e+01" cType="1" res="-1.5218144282698631e-02" rms="1.8170619010925293e-01" purity="3.6535590887069702e-01" nType="0">
          <Node pos="l" depth="2" NCoef="0" IVar="-1" Cut="0.0000000000000000e+00" cType="1" res="-1.8436117097735405e-02" rms="1.7773897945880890e-01" purity="3.1699591875076294e-01" nType="-99"/>
          <Node pos="r" depth="2" NCoef="0" IVar="-1" Cut="0.0000000000000000e+00" cType="1" res="3.0976662412285805e-02" rms="1.9615592062473297e-01" purity="6.9423639774322510e-01" nType="-99"/>
        </Node>
        <Node pos="r" depth="1" NCoef="0" IVar="1" Cut="2.6956923305988312e-02" cType="1" res="3.4392289817333221e-02" rms="1.7766456305980682e-01" purity="7.8026264905929565e-01" nType="0">
          <Node pos="l" depth="2" NCoef="0" IVar="-1" Cut="0.0000000000000000e+00" cType="1" res="3.2334540039300919e-02" rms="1.8297287821769714e-01" purity="8.5203588008880615e-01" nType="-99"/>
          <Node pos="r" depth="2" NCoef="0" IVar="-1" Cut="0.0000000000000000e+00" cType="1" res="-5.5552903562784195e-02" rms="4.9910202622413635e-02" purity="0.0000000000000000e+00" nType="-99"/>
        </Node>
      </Node>
    </BinaryTree>
    <BinaryTree type="DecisionTree" boostWeight="1.0000000000000000e+00" itree="50">
      <Node pos="s" depth="0" NCoef="0" IVar="19" Cut="1.5465333461761475e+00" cType="1" res="4.0344484150409698e-03" rms="1.8697279691696167e-01" purity="5.0547569990158081e-01" nType="0">
        <Node pos="l" depth="1" NCoef="0" IVar="4" Cut="-1.9619867205619812e-01" cType="1" res="-2.6669826358556747e-02" rms="1.7311264574527740e-01" purity="2.0641355216503143e-01" nType="0">
          <Node pos="l" depth="2" NCoef="0" IVar="-1" Cut="0.0000000000000000e+00" cType="1" res="2.5015214458107948e-02" rms="2.1769139170646667e-01" purity="6.5350544452667236e-01" nType="-99"/>
          <Node pos="r" depth="2" NCoef="0" IVar="-1" Cut="0.0000000000000000e+00" cType="1" res="-3.2647047191858292e-02" rms="1.6103155910968781e-01" purity="1.2983787059783936e-01" nType="-99"/>
        </Node>
        <Node pos="r" depth="1" NCoef="0" IVar="0" Cut="2.0552408695220947e+00" cType="1" res="2.1892599761486053e-02" rms="1.9233916699886322e-01" purity="6.7941558361053467e-01" nType="0">
          <Node pos="l" depth="2" NCoef="0" IVar="-1" Cut="0.0000000000000000e+00" cType="1" res="2.3312155157327652e-02" rms="1.8204626441001892e-01" purity="7.7370172739028931e-01" nType="-99"/>
          <Node pos="r" depth="2" NCoef="0" IVar="-1" Cut="0.0000000000000000e+00" cType="1" res="-2.1506262943148613e-02" rms="2.3376026749610901e-01" purity="1.6391448676586151e-01" nType="-99"/>
        </Node>
      </Node>
    </BinaryTree>
    <BinaryTree type="DecisionTree" boostWeight="1.0000000000000000e+00" itree="51">
      <Node pos="s" depth="0" NCoef="0" IVar="13" Cut="5.7480644531250000e+03" cType="1" res="2.8092639986425638e-03" rms="1.8728010356426239e-01" purity="4.9572768807411194e-01" nType="0">
        <Node pos="l" depth="1" NCoef="0" IVar="5" Cut="2.4737238883972168e-01" cType="1" res="-2.1246103569865227e-02" rms="1.7245662212371826e-01" purity="3.2256099581718445e-01" nType="0">
          <Node pos="l" depth="2" NCoef="0" IVar="-1" Cut="0.0000000000000000e+00" cType="1" res="1.0954767465591431e-02" rms="1.6381442546844482e-01" purity="7.4828398227691650e-01" nType="-99"/>
          <Node pos="r" depth="2" NCoef="0" IVar="-1" Cut="0.0000000000000000e+00" cType="1" res="-2.9415475204586983e-02" rms="1.7385219037532806e-01" purity="1.5176568925380707e-01" nType="-99"/>
        </Node>
        <Node pos="r" depth="1" NCoef="0" IVar="14" Cut="1.1111420898437500e+03" cType="1" res="3.9807114750146866e-02" rms="2.0252558588981628e-01" purity="7.6206302642822266e-01" nType="0">
          <Node pos="l" depth="2" NCoef="0" IVar="-1" Cut="0.0000000000000000e+00" cType="1" res="1.6199493780732155e-02" rms="1.9780585169792175e-01" purity="6.8627154827117920e-01" nType="-99"/>
          <Node pos="r" depth="2" NCoef="0" IVar="-1" Cut="0.0000000000000000e+00" cType="1" res="4.5894533395767212e-02" rms="2.0722825825214386e-01" purity="8.9548474550247192e-01" nType="-99"/>
        </Node>
      </Node>
    </BinaryTree>
    <BinaryTree type="DecisionTree" boostWeight="1.0000000000000000e+00" itree="52">
      <Node pos="s" depth="0" NCoef="0" IVar="2" Cut="2.5954389572143555e+00" cType="1" res="2.2372859530150890e-03" rms="1.7796956002712250e-01" purity="5.0835084915161133e-01" nType="0">
        <Node pos="l" depth="1" NCoef="0" IVar="6" Cut="4.0206928253173828e+01" cType="1" res="-3.6774996668100357e-02" rms="1.3195273280143738e-01" purity="6.3834801316261292e-02" nType="0">
          <Node pos="l" depth="2" NCoef="0" IVar="-1" Cut="0.0000000000000000e+00" cType="1" res="-4.2821351438760757e-02" rms="1.1464496701955795e-01" purity="3.7303619086742401e-02" nType="-99"/>
          <Node pos="r" depth="2" NCoef="0" IVar="-1" Cut="0.0000000000000000e+00" cType="1" res="3.1061584013514221e-04" rms="2.1042475104331970e-01" purity="2.4082252383232117e-01" nType="-99"/>
        </Node>
        <Node pos="r" depth="1" NCoef="0" IVar="0" Cut="1.4357275962829590e+00" cType="1" res="1.6441214829683304e-02" rms="1.9002576172351837e-01" purity="6.7019408941268921e-01" nType="0">
          <Node pos="l" depth="2" NCoef="0" IVar="-1" Cut="0.0000000000000000e+00" cType="1" res="3.0719062313437462e-02" rms="1.7755842208862305e-01" purity="8.9179825782775879e-01" nType="-99"/>
          <Node pos="r" depth="2" NCoef="0" IVar="-1" Cut="0.0000000000000000e+00" cType="1" res="-1.8703825771808624e-02" rms="2.0316654443740845e-01" purity="2.7768877148628235e-01" nType="-99"/>
        </Node>
      </Node>
    </BinaryTree>
    <BinaryTree type="DecisionTree" boostWeight="1.0000000000000000e+00" itree="53">
      <Node pos="s" depth="0" NCoef="0" IVar="11" Cut="-2.8677822113037109e+01" cType="1" res="9.4214756973087788e-04" rms="1.7967076599597931e-01" purity="5.0056141614913940e-01" nType="0">
        <Node pos="l" depth="1" NCoef="0" IVar="5" Cut="1.0448157787322998e+00" cType="1" res="4.4088445603847504e-02" rms="1.7424842715263367e-01" purity="8.5135322809219360e-01" nType="0">
          <Node pos="l" depth="2" NCoef="0" IVar="-1" Cut="0.0000000000000000e+00" cType="1" res="3.5638004541397095e-02" rms="1.3586348295211792e-01" purity="9.2516839504241943e-01" nType="-99"/>
          <Node pos="r" depth="2" NCoef="0" IVar="-1" Cut="0.0000000000000000e+00" cType="1" res="3.2834291458129883e-02" rms="3.0308389663696289e-01" purity="4.5659098029136658e-01" nType="-99"/>
        </Node>
        <Node pos="r" depth="1" NCoef="0" IVar="4" Cut="8.6992460489273071e-01" cType="1" res="-1.1022998951375484e-02" rms="1.7931635677814484e-01" purity="4.0328130125999451e-01" nType="0">
          <Node pos="l" depth="2" NCoef="0" IVar="-1" Cut="0.0000000000000000e+00" cType="1" res="7.5958883389830589e-03" rms="1.8519140779972076e-01" purity="6.4197772741317749e-01" nType="-99"/>
          <Node pos="r" depth="2" NCoef="0" IVar="-1" Cut="0.0000000000000000e+00" cType="1" res="-2.8387559577822685e-02" rms="1.6878898441791534e-01" purity="1.1979909986257553e-01" nType="-99"/>
        </Node>
      </Node>
    </BinaryTree>
    <BinaryTree type="DecisionTree" boostWeight="1.0000000000000000e+00" itree="54">
      <Node pos="s" depth="0" NCoef="0" IVar="20" Cut="1.5248622894287109e+00" cType="1" res="4.7378395684063435e-03" rms="1.8665230274200439e-01" purity="5.1271861791610718e-01" nType="0">
        <Node pos="l" depth="1" NCoef="0" IVar="10" Cut="-3.0157796859741211e+01" cType="1" res="-2.3245753720402718e-02" rms="1.6584780812263489e-01" purity="2.1392242610454559e-01" nType="0">
          <Node pos="l" depth="2" NCoef="0" IVar="-1" Cut="0.0000000000000000e+00" cType="1" res="2.3579392582178116e-02" rms="2.3464690148830414e-01" purity="6.4678037166595459e-01" nType="-99"/>
          <Node pos="r" depth="2" NCoef="0" IVar="-1" Cut="0.0000000000000000e+00" cType="1" res="-2.8757350519299507e-02" rms="1.5177673101425171e-01" purity="1.5255089104175568e-01" nType="-99"/>
        </Node>
        <Node pos="r" depth="1" NCoef="0" IVar="0" Cut="2.5663435459136963e+00" cType="1" res="2.0707795396447182e-02" rms="1.9576095044612885e-01" purity="6.8323856592178345e-01" nType="0">
          <Node pos="l" depth="2" NCoef="0" IVar="-1" Cut="0.0000000000000000e+00" cType="1" res="2.0905017852783203e-02" rms="1.9713012874126434e-01" purity="7.3580235242843628e-01" nType="-99"/>
          <Node pos="r" depth="2" NCoef="0" IVar="-1" Cut="0.0000000000000000e+00" cType="1" res="-4.0282554924488068e-02" rms="1.6303183138370514e-01" purity="6.5546192228794098e-02" nType="-99"/>
        </Node>
      </Node>
    </BinaryTree>
    <BinaryTree type="DecisionTree" boostWeight="1.0000000000000000e+00" itree="55">
      <Node pos="s" depth="0" NCoef="0" IVar="9" Cut="7.8582630157470703e+00" cType="1" res="1.9744460587389767e-04" rms="1.8621812760829926e-01" purity="4.9403199553489685e-01" nType="0">
        <Node pos="l" depth="1" NCoef="0" IVar="20" Cut="2.7062981128692627e+00" cType="1" res="-3.5638246685266495e-02" rms="1.6202315688133240e-01" purity="9.1244660317897797e-02" nType="0">
          <Node pos="l" depth="2" NCoef="0" IVar="-1" Cut="0.0000000000000000e+00" cType="1" res="-3.0189266428351402e-02" rms="1.4757916331291199e-01" purity="7.3941074311733246e-02" nType="-99"/>
          <Node pos="r" depth="2" NCoef="0" IVar="-1" Cut="0.0000000000000000e+00" cType="1" res="-4.7810606658458710e-02" rms="2.1027261018753052e-01" purity="1.6591019928455353e-01" nType="-99"/>
        </Node>
        <Node pos="r" depth="1" NCoef="0" IVar="2" Cut="1.6071876287460327e+00" cType="1" res="1.1389857158064842e-02" rms="1.9178736209869385e-01" purity="6.1983293294906616e-01" nType="0">
          <Node pos="l" depth="2" NCoef="0" IVar="-1" Cut="0.0000000000000000e+00" cType="1" res="-5.0749279558658600e-02" rms="1.0233873128890991e-01" purity="1.1891284957528114e-02" nType="-99"/>
          <Node pos="r" depth="2" NCoef="0" IVar="-1" Cut="0.0000000000000000e+00" cType="1" res="1.4223732054233551e-02" rms="1.9775202870368958e-01" purity="6.8335372209548950e-01" nType="-99"/>
        </Node>
      </Node>
    </BinaryTree>
    <BinaryTree type="DecisionTree" boostWeight="1.0000000000000000e+00" itree="56">
      <Node pos="s" depth="0" NCoef="0" IVar="16" Cut="7.0550988769531250e+02" cType="1" res="2.7027686592191458e-03" rms="1.8493199348449707e-01" purity="5.0220739841461182e-01" nType="0">
        <Node pos="l" depth="1" NCoef="0" IVar="6" Cut="4.0205940246582031e+01" cType="1" res="-2.4435948580503464e-02" rms="1.4878198504447937e-01" purity="1.3352705538272858e-01" nType="0">
          <Node pos="l" depth="2" NCoef="0" IVar="-1" Cut="0.0000000000000000e+00" cType="1" res="-3.5549845546483994e-02" rms="1.3162446022033691e-01" purity="8.9554704725742340e-02" nType="-99"/>
          <Node pos="r" depth="2" NCoef="0" IVar="-1" Cut="0.0000000000000000e+00" cType="1" res="2.2909834980964661e-02" rms="2.3273074626922607e-01" purity="4.5923173427581787e-01" nType="-99"/>
        </Node>
        <Node pos="r" depth="1" NCoef="0" IVar="5" Cut="1.7333010435104370e+00" cType="1" res="1.5892118215560913e-02" rms="1.9882379472255707e-01" purity="6.8138515949249268e-01" nType="0">
          <Node pos="l" depth="2" NCoef="0" IVar="-1" Cut="0.0000000000000000e+00" cType="1" res="1.8677365034818649e-02" rms="1.9783602654933929e-01" purity="7.5184983015060425e-01" nType="-99"/>
          <Node pos="r" depth="2" NCoef="0" IVar="-1" Cut="0.0000000000000000e+00" cType="1" res="-3.2562792301177979e-02" rms="1.9419978559017181e-01" purity="7.3065981268882751e-02" nType="-99"/>
        </Node>
      </Node>
    </BinaryTree>
    <BinaryTree type="DecisionTree" boostWeight="1.0000000000000000e+00" itree="57">
      <Node pos="s" depth="0" NCoef="0" IVar="12" Cut="3.4364059448242188e+02" cType="1" res="7.5938832014799118e-04" rms="1.8062409758567810e-01" purity="4.9933138489723206e-01" nType="0">
        <Node pos="l" depth="1" NCoef="0" IVar="16" Cut="1.4643841552734375e+03" cType="1" res="-2.0204631611704826e-02" rms="1.5411035716533661e-01" purity="2.3358678817749023e-01" nType="0">
          <Node pos="l" depth="2" NCoef="0" IVar="-1" Cut="0.0000000000000000e+00" cType="1" res="-3.1552907079458237e-02" rms="1.3256335258483887e-01" purity="1.4219130575656891e-01" nType="-99"/>
          <Node pos="r" depth="2" NCoef="0" IVar="-1" Cut="0.0000000000000000e+00" cType="1" res="1.3499614782631397e-02" rms="2.1856100857257843e-01" purity="6.1957186460494995e-01" nType="-99"/>
        </Node>
        <Node pos="r" depth="1" NCoef="0" IVar="6" Cut="1.9945657730102539e+01" cType="1" res="1.8814161419868469e-02" rms="1.9890709221363068e-01" purity="7.2819775342941284e-01" nType="0">
          <Node pos="l" depth="2" NCoef="0" IVar="-1" Cut="0.0000000000000000e+00" cType="1" res="-9.2779686674475670e-03" rms="2.2315499186515808e-01" purity="4.4341093301773071e-01" nType="-99"/>
          <Node pos="r" depth="2" NCoef="0" IVar="-1" Cut="0.0000000000000000e+00" cType="1" res="2.4775037541985512e-02" rms="1.8861900269985199e-01" purity="8.2517248392105103e-01" nType="-99"/>
        </Node>
      </Node>
    </BinaryTree>
    <BinaryTree type="DecisionTree" boostWeight="1.0000000000000000e+00" itree="58">
      <Node pos="s" depth="0" NCoef="0" IVar="8" Cut="-1.8863943099975586e+01" cType="1" res="4.3557682074606419e-03" rms="1.8100622296333313e-01" purity="5.1173025369644165e-01" nType="0">
        <Node pos="l" depth="1" NCoef="0" IVar="1" Cut="2.0296949893236160e-02" cType="1" res="2.1704532206058502e-02" rms="1.8606278300285339e-01" purity="6.5599000453948975e-01" nType="0">
          <Node pos="l" depth="2" NCoef="0" IVar="-1" Cut="0.0000000000000000e+00" cType="1" res="2.4422762915492058e-02" rms="1.9848699867725372e-01" purity="7.8452414274215698e-01" nType="-99"/>
          <Node pos="r" depth="2" NCoef="0" IVar="-1" Cut="0.0000000000000000e+00" cType="1" res="-3.6282286047935486e-02" rms="9.1137409210205078e-02" purity="1.3364040292799473e-02" nType="-99"/>
        </Node>
        <Node pos="r" depth="1" NCoef="0" IVar="16" Cut="1.0278563232421875e+03" cType="1" res="-1.2603382579982281e-02" rms="1.7426127195358276e-01" purity="3.7071025371551514e-01" nType="0">
          <Node pos="l" depth="2" NCoef="0" IVar="-1" Cut="0.0000000000000000e+00" cType="1" res="-3.0481982976198196e-02" rms="1.4534232020378113e-01" purity="1.4252252876758575e-01" nType="-99"/>
          <Node pos="r" depth="2" NCoef="0" IVar="-1" Cut="0.0000000000000000e+00" cType="1" res="6.9715976715087891e-03" rms="2.0370590686798096e-01" purity="6.6743308305740356e-01" nType="-99"/>
        </Node>
      </Node>
    </BinaryTree>
    <BinaryTree type="DecisionTree" boostWeight="1.0000000000000000e+00" itree="59">
      <Node pos="s" depth="0" NCoef="0" IVar="4" Cut="9.5483529567718506e-01" cType="1" res="-1.7144873272627592e-03" rms="1.7480631172657013e-01" purity="5.0753813982009888e-01" nType="0">
        <Node pos="l" depth="1" NCoef="0" IVar="2" Cut="1.8493471145629883e+00" cType="1" res="1.1985959485173225e-02" rms="1.7192433774471283e-01" purity="7.1378475427627563e-01" nType="0">
          <Node pos="l" depth="2" NCoef="0" IVar="-1" Cut="0.0000000000000000e+00" cType="1" res="-5.1513019949197769e-02" rms="8.2504495978355408e-02" purity="9.5855668187141418e-03" nType="-99"/>
          <Node pos="r" depth="2" NCoef="0" IVar="-1" Cut="0.0000000000000000e+00" cType="1" res="1.8678428605198860e-02" rms="1.8076522648334503e-01" purity="8.2789540290832520e-01" nType="-99"/>
        </Node>
        <Node pos="r" depth="1" NCoef="0" IVar="7" Cut="4.4335166931152344e+01" cType="1" res="-2.4500846862792969e-02" rms="1.7716607451438904e-01" purity="1.6451212763786316e-01" nType="0">
          <Node pos="l" depth="2" NCoef="0" IVar="-1" Cut="0.0000000000000000e+00" cType="1" res="-2.7416879311203957e-02" rms="1.6702347993850708e-01" purity="1.3796763122081757e-01" nType="-99"/>
          <Node pos="r" depth="2" NCoef="0" IVar="-1" Cut="0.0000000000000000e+00" cType="1" res="3.6888740956783295e-02" rms="2.5547298789024353e-01" purity="4.8649749159812927e-01" nType="-99"/>
        </Node>
      </Node>
    </BinaryTree>
    <BinaryTree type="DecisionTree" boostWeight="1.0000000000000000e+00" itree="60">
