<?xml version="1.0"?>
<MethodSetup Method="MLP::MLP">
  <GeneralInfo>
    <Info name="TMVA Release" value="4.2.1 [262657]"/>
    <Info name="ROOT Release" value="6.26/08 [399880]"/>
    <Info name="Creator" value="pgaigne"/>
    <Info name="Date" value="Fri Mar 31 11:33:50 2023"/>
    <Info name="Host" value="Linux 28693209b56e 5.15.0-1022-azure #27~20.04.1-Ubuntu SMP Mon Oct 17 02:03:50 UTC 2022 x86_64 x86_64 x86_64 GNU/Linux"/>
    <Info name="Dir" value="/afs/cern.ch/user/p/pgaigne/xiccpp/Xicc/TMVA"/>
    <Info name="Training events" value="35321"/>
    <Info name="TrainingTime" value="2.55864617e+02"/>
    <Info name="AnalysisType" value="Classification"/>
  </GeneralInfo>
  <Options>
    <Option name="NCycles" modified="Yes">600</Option>
    <Option name="HiddenLayers" modified="Yes">N+5</Option>
    <Option name="NeuronType" modified="Yes">tanh</Option>
    <Option name="RandomSeed" modified="No">1</Option>
    <Option name="EstimatorType" modified="No">CE</Option>
    <Option name="NeuronInputType" modified="No">sum</Option>
    <Option name="V" modified="Yes">False</Option>
    <Option name="VerbosityLevel" modified="No">Default</Option>
    <Option name="VarTransform" modified="Yes">N</Option>
    <Option name="H" modified="Yes">True</Option>
    <Option name="CreateMVAPdfs" modified="No">False</Option>
    <Option name="IgnoreNegWeightsInTraining" modified="No">False</Option>
    <Option name="TrainingMethod" modified="No">BP</Option>
    <Option name="LearningRate" modified="No">2.000000e-02</Option>
    <Option name="DecayRate" modified="No">1.000000e-02</Option>
    <Option name="TestRate" modified="Yes">5</Option>
    <Option name="EpochMonitoring" modified="No">False</Option>
    <Option name="Sampling" modified="No">1.000000e+00</Option>
    <Option name="SamplingEpoch" modified="No">1.000000e+00</Option>
    <Option name="SamplingImportance" modified="No">1.000000e+00</Option>
    <Option name="SamplingTraining" modified="No">True</Option>
    <Option name="SamplingTesting" modified="No">False</Option>
    <Option name="ResetStep" modified="No">50</Option>
    <Option name="Tau" modified="No">3.000000e+00</Option>
    <Option name="BPMode" modified="No">sequential</Option>
    <Option name="BatchSize" modified="No">-1</Option>
    <Option name="ConvergenceImprove" modified="No">1.000000e-30</Option>
    <Option name="ConvergenceTests" modified="No">-1</Option>
    <Option name="UseRegulator" modified="Yes">False</Option>
    <Option name="UpdateLimit" modified="No">10000</Option>
    <Option name="CalculateErrors" modified="No">False</Option>
    <Option name="WeightRange" modified="No">1.000000e+00</Option>
  </Options>
  <Variables NVar="21">
    <Variable VarIndex="0" Expression="log(TMath::Max(10e-10,Xicc_IPCHI2_OWNPV))" Label="log(TMath::Max(10e-10,Xicc_IPCHI2_OWNPV))" Title="log_Xicc_IPCHI2_OWNPV" Unit="" Internal="log_TMath_Max_10e_M_10,Xicc_IPCHI2_OWNPV__" Type="F" Min="-7.68573332e+00" Max="3.21863008e+00"/>
    <Variable VarIndex="1" Expression="TMath::ACos(Xicc_DIRA_OWNPV)" Label="TMath::ACos(Xicc_DIRA_OWNPV)" Title="acos_Xicc_DIRA_OWNPV" Unit="" Internal="TMath_ACos_Xicc_DIRA_OWNPV_" Type="F" Min="3.97872427e-05" Max="1.41509056e-01"/>
    <Variable VarIndex="2" Expression="log(TMath::Max(10e-10,Xicc_FDCHI2_OWNPV))" Label="log(TMath::Max(10e-10,Xicc_FDCHI2_OWNPV))" Title="log_Xicc_FDCHI2_OWNPV" Unit="" Internal="log_TMath_Max_10e_M_10,Xicc_FDCHI2_OWNPV__" Type="F" Min="-4.99475241e+00" Max="9.51465034e+00"/>
    <Variable VarIndex="3" Expression="Lc_ENDVERTEX_CHI2/Lc_ENDVERTEX_NDOF" Label="Lc_ENDVERTEX_CHI2/Lc_ENDVERTEX_NDOF" Title="Lc_ENDVERTEX_CHI2_NDOF" Unit="" Internal="Lc_ENDVERTEX_CHI2_D_Lc_ENDVERTEX_NDOF" Type="F" Min="2.38985740e-04" Max="9.99493027e+00"/>
    <Variable VarIndex="4" Expression="log(TMath::Max(10e-10,Xicc_ENDVERTEX_CHI2/Xicc_ENDVERTEX_NDOF))" Label="log(TMath::Max(10e-10,Xicc_ENDVERTEX_CHI2/Xicc_ENDVERTEX_NDOF))" Title="log_Xicc_ENDVERTEX_CHI2_NDOF" Unit="" Internal="log_TMath_Max_10e_M_10,Xicc_ENDVERTEX_CHI2_D_Xicc_ENDVERTEX_NDOF__" Type="F" Min="-4.70480728e+00" Max="3.21878481e+00"/>
    <Variable VarIndex="5" Expression="log(TMath::Max(10e-10,Xicc_CHI2NDOF_DTF_PV))" Label="log(TMath::Max(10e-10,Xicc_CHI2NDOF_DTF_PV))" Title="log_Xicc_CHI2NDOF_DTF_PV" Unit="" Internal="log_TMath_Max_10e_M_10,Xicc_CHI2NDOF_DTF_PV__" Type="F" Min="-2.07232666e+01" Max="2.85008955e+00"/>
    <Variable VarIndex="6" Expression="LcP_PIDp" Label="LcP_PIDp" Title="LcP_PIDp" Unit="" Internal="LcP_PIDp" Type="F" Min="5.00036240e+00" Max="1.28169632e+02"/>
    <Variable VarIndex="7" Expression="LcK_PIDK" Label="LcK_PIDK" Title="LcK_PIDK" Unit="" Internal="LcK_PIDK" Type="F" Min="5.00230551e+00" Max="1.22970398e+02"/>
    <Variable VarIndex="8" Expression="LcPi_PIDK" Label="LcPi_PIDK" Title="LcPi_PIDK" Unit="" Internal="LcPi_PIDK" Type="F" Min="-1.62038010e+02" Max="4.99719238e+00"/>
    <Variable VarIndex="9" Expression="XiccK_PIDK" Label="XiccK_PIDK" Title="XiccK_PIDK" Unit="" Internal="XiccK_PIDK" Type="F" Min="-2.09609985e+01" Max="1.24393028e+02"/>
    <Variable VarIndex="10" Expression="XiccPi1_PIDK" Label="XiccPi1_PIDK" Title="XiccPi1_PIDK" Unit="" Internal="XiccPi1_PIDK" Type="F" Min="-1.00000000e+03" Max="2.09857693e+01"/>
    <Variable VarIndex="11" Expression="XiccPi2_PIDK" Label="XiccPi2_PIDK" Title="XiccPi2_PIDK" Unit="" Internal="XiccPi2_PIDK" Type="F" Min="-1.00000000e+03" Max="1.93641224e+01"/>
    <Variable VarIndex="12" Expression="TMath::Min(TMath::Min(XiccK_PT,Lc_PT),TMath::Min(XiccPi1_PT,XiccPi2_PT))" Label="TMath::Min(TMath::Min(XiccK_PT,Lc_PT),TMath::Min(XiccPi1_PT,XiccPi2_PT))" Title="min_Xicc_Daughters_PT" Unit="" Internal="TMath_Min_TMath_Min_XiccK_PT,Lc_PT_,TMath_Min_XiccPi1_PT,XiccPi2_PT__" Type="F" Min="2.00003235e+02" Max="4.26785254e+03"/>
    <Variable VarIndex="13" Expression="Lc_PT" Label="Lc_PT" Title="Lc_PT" Unit="" Internal="Lc_PT" Type="F" Min="2.52295264e+03" Max="2.72094023e+04"/>
    <Variable VarIndex="14" Expression="XiccPi1_PT" Label="XiccPi1_PT" Title="XiccPi1_PT" Unit="" Internal="XiccPi1_PT" Type="F" Min="2.00031891e+02" Max="6.57788477e+03"/>
    <Variable VarIndex="15" Expression="XiccPi2_PT" Label="XiccPi2_PT" Title="XiccPi2_PT" Unit="" Internal="XiccPi2_PT" Type="F" Min="2.00003235e+02" Max="8.94885156e+03"/>
    <Variable VarIndex="16" Expression="XiccK_PT" Label="XiccK_PT" Title="XiccK_PT" Unit="" Internal="XiccK_PT" Type="F" Min="2.50001678e+02" Max="1.08421836e+04"/>
    <Variable VarIndex="17" Expression="log(TMath::Max(10e-10,Lc_IPCHI2_OWNPV))" Label="log(TMath::Max(10e-10,Lc_IPCHI2_OWNPV))" Title="log_Lc_IPCHI2_OWNPV" Unit="" Internal="log_TMath_Max_10e_M_10,Lc_IPCHI2_OWNPV__" Type="F" Min="-7.54552364e+00" Max="5.38868189e+00"/>
    <Variable VarIndex="18" Expression="log(TMath::Max(10e-10,XiccK_IPCHI2_OWNPV))" Label="log(TMath::Max(10e-10,XiccK_IPCHI2_OWNPV))" Title="log_XiccK_IPCHI2_OWNPV" Unit="" Internal="log_TMath_Max_10e_M_10,XiccK_IPCHI2_OWNPV__" Type="F" Min="1.26385959e-04" Max="7.98201180e+00"/>
    <Variable VarIndex="19" Expression="log(TMath::Max(10e-10,XiccPi1_IPCHI2_OWNPV))" Label="log(TMath::Max(10e-10,XiccPi1_IPCHI2_OWNPV))" Title="log_XiccPi1_IPCHI2_OWNPV" Unit="" Internal="log_TMath_Max_10e_M_10,XiccPi1_IPCHI2_OWNPV__" Type="F" Min="3.96854943e-04" Max="7.31999969e+00"/>
    <Variable VarIndex="20" Expression="log(TMath::Max(10e-10,XiccPi2_IPCHI2_OWNPV))" Label="log(TMath::Max(10e-10,XiccPi2_IPCHI2_OWNPV))" Title="log_XiccPi2_IPCHI2_OWNPV" Unit="" Internal="log_TMath_Max_10e_M_10,XiccPi2_IPCHI2_OWNPV__" Type="F" Min="1.19670513e-04" Max="7.59709740e+00"/>
  </Variables>
  <Spectators NSpec="2">
    <Spectator SpecIndex="0" Expression="Xicc_M" Label="Xicc_M" Title="F" Unit="" Internal="Xicc_M" Type="F" Min="3.60600659e+03" Max="3.89999829e+03"/>
    <Spectator SpecIndex="1" Expression="Lc_M" Label="Lc_M" Title="F" Unit="" Internal="Lc_M" Type="F" Min="2.27000562e+03" Max="2.30599512e+03"/>
  </Spectators>
  <Classes NClass="2">
    <Class Name="Signal" Index="0"/>
    <Class Name="Background" Index="1"/>
  </Classes>
  <Transformations NTransformations="1">
    <Transform Name="Normalize">
      <Selection>
        <Input NInputs="21">
          <Input Type="Variable" Label="log(TMath::Max(10e-10,Xicc_IPCHI2_OWNPV))" Expression="log(TMath::Max(10e-10,Xicc_IPCHI2_OWNPV))"/>
          <Input Type="Variable" Label="TMath::ACos(Xicc_DIRA_OWNPV)" Expression="TMath::ACos(Xicc_DIRA_OWNPV)"/>
          <Input Type="Variable" Label="log(TMath::Max(10e-10,Xicc_FDCHI2_OWNPV))" Expression="log(TMath::Max(10e-10,Xicc_FDCHI2_OWNPV))"/>
          <Input Type="Variable" Label="Lc_ENDVERTEX_CHI2/Lc_ENDVERTEX_NDOF" Expression="Lc_ENDVERTEX_CHI2/Lc_ENDVERTEX_NDOF"/>
          <Input Type="Variable" Label="log(TMath::Max(10e-10,Xicc_ENDVERTEX_CHI2/Xicc_ENDVERTEX_NDOF))" Expression="log(TMath::Max(10e-10,Xicc_ENDVERTEX_CHI2/Xicc_ENDVERTEX_NDOF))"/>
          <Input Type="Variable" Label="log(TMath::Max(10e-10,Xicc_CHI2NDOF_DTF_PV))" Expression="log(TMath::Max(10e-10,Xicc_CHI2NDOF_DTF_PV))"/>
          <Input Type="Variable" Label="LcP_PIDp" Expression="LcP_PIDp"/>
          <Input Type="Variable" Label="LcK_PIDK" Expression="LcK_PIDK"/>
          <Input Type="Variable" Label="LcPi_PIDK" Expression="LcPi_PIDK"/>
          <Input Type="Variable" Label="XiccK_PIDK" Expression="XiccK_PIDK"/>
          <Input Type="Variable" Label="XiccPi1_PIDK" Expression="XiccPi1_PIDK"/>
          <Input Type="Variable" Label="XiccPi2_PIDK" Expression="XiccPi2_PIDK"/>
          <Input Type="Variable" Label="TMath::Min(TMath::Min(XiccK_PT,Lc_PT),TMath::Min(XiccPi1_PT,XiccPi2_PT))" Expression="TMath::Min(TMath::Min(XiccK_PT,Lc_PT),TMath::Min(XiccPi1_PT,XiccPi2_PT))"/>
          <Input Type="Variable" Label="Lc_PT" Expression="Lc_PT"/>
          <Input Type="Variable" Label="XiccPi1_PT" Expression="XiccPi1_PT"/>
          <Input Type="Variable" Label="XiccPi2_PT" Expression="XiccPi2_PT"/>
          <Input Type="Variable" Label="XiccK_PT" Expression="XiccK_PT"/>
          <Input Type="Variable" Label="log(TMath::Max(10e-10,Lc_IPCHI2_OWNPV))" Expression="log(TMath::Max(10e-10,Lc_IPCHI2_OWNPV))"/>
          <Input Type="Variable" Label="log(TMath::Max(10e-10,XiccK_IPCHI2_OWNPV))" Expression="log(TMath::Max(10e-10,XiccK_IPCHI2_OWNPV))"/>
          <Input Type="Variable" Label="log(TMath::Max(10e-10,XiccPi1_IPCHI2_OWNPV))" Expression="log(TMath::Max(10e-10,XiccPi1_IPCHI2_OWNPV))"/>
          <Input Type="Variable" Label="log(TMath::Max(10e-10,XiccPi2_IPCHI2_OWNPV))" Expression="log(TMath::Max(10e-10,XiccPi2_IPCHI2_OWNPV))"/>
        </Input>
        <Output NOutputs="21">
          <Output Type="Variable" Label="log(TMath::Max(10e-10,Xicc_IPCHI2_OWNPV))" Expression="log(TMath::Max(10e-10,Xicc_IPCHI2_OWNPV))"/>
          <Output Type="Variable" Label="TMath::ACos(Xicc_DIRA_OWNPV)" Expression="TMath::ACos(Xicc_DIRA_OWNPV)"/>
          <Output Type="Variable" Label="log(TMath::Max(10e-10,Xicc_FDCHI2_OWNPV))" Expression="log(TMath::Max(10e-10,Xicc_FDCHI2_OWNPV))"/>
          <Output Type="Variable" Label="Lc_ENDVERTEX_CHI2/Lc_ENDVERTEX_NDOF" Expression="Lc_ENDVERTEX_CHI2/Lc_ENDVERTEX_NDOF"/>
          <Output Type="Variable" Label="log(TMath::Max(10e-10,Xicc_ENDVERTEX_CHI2/Xicc_ENDVERTEX_NDOF))" Expression="log(TMath::Max(10e-10,Xicc_ENDVERTEX_CHI2/Xicc_ENDVERTEX_NDOF))"/>
          <Output Type="Variable" Label="log(TMath::Max(10e-10,Xicc_CHI2NDOF_DTF_PV))" Expression="log(TMath::Max(10e-10,Xicc_CHI2NDOF_DTF_PV))"/>
          <Output Type="Variable" Label="LcP_PIDp" Expression="LcP_PIDp"/>
          <Output Type="Variable" Label="LcK_PIDK" Expression="LcK_PIDK"/>
          <Output Type="Variable" Label="LcPi_PIDK" Expression="LcPi_PIDK"/>
          <Output Type="Variable" Label="XiccK_PIDK" Expression="XiccK_PIDK"/>
          <Output Type="Variable" Label="XiccPi1_PIDK" Expression="XiccPi1_PIDK"/>
          <Output Type="Variable" Label="XiccPi2_PIDK" Expression="XiccPi2_PIDK"/>
          <Output Type="Variable" Label="TMath::Min(TMath::Min(XiccK_PT,Lc_PT),TMath::Min(XiccPi1_PT,XiccPi2_PT))" Expression="TMath::Min(TMath::Min(XiccK_PT,Lc_PT),TMath::Min(XiccPi1_PT,XiccPi2_PT))"/>
          <Output Type="Variable" Label="Lc_PT" Expression="Lc_PT"/>
          <Output Type="Variable" Label="XiccPi1_PT" Expression="XiccPi1_PT"/>
          <Output Type="Variable" Label="XiccPi2_PT" Expression="XiccPi2_PT"/>
          <Output Type="Variable" Label="XiccK_PT" Expression="XiccK_PT"/>
          <Output Type="Variable" Label="log(TMath::Max(10e-10,Lc_IPCHI2_OWNPV))" Expression="log(TMath::Max(10e-10,Lc_IPCHI2_OWNPV))"/>
          <Output Type="Variable" Label="log(TMath::Max(10e-10,XiccK_IPCHI2_OWNPV))" Expression="log(TMath::Max(10e-10,XiccK_IPCHI2_OWNPV))"/>
          <Output Type="Variable" Label="log(TMath::Max(10e-10,XiccPi1_IPCHI2_OWNPV))" Expression="log(TMath::Max(10e-10,XiccPi1_IPCHI2_OWNPV))"/>
          <Output Type="Variable" Label="log(TMath::Max(10e-10,XiccPi2_IPCHI2_OWNPV))" Expression="log(TMath::Max(10e-10,XiccPi2_IPCHI2_OWNPV))"/>
        </Output>
      </Selection>
      <Class ClassIndex="0">
        <Ranges>
          <Range Index="0" Min="-7.0793409347534180e+00" Max="3.1755764484405518e+00"/>
          <Range Index="1" Min="3.9787242712918669e-05" Max="1.0033857077360153e-01"/>
          <Range Index="2" Min="8.7384951114654541e-01" Max="9.5146503448486328e+00"/>
          <Range Index="3" Min="2.1124042104929686e-03" Max="9.9727811813354492e+00"/>
          <Range Index="4" Min="-4.7048072814941406e+00" Max="3.2118411064147949e+00"/>
          <Range Index="5" Min="-2.0513300895690918e+00" Max="2.5122606754302979e+00"/>
          <Range Index="6" Min="5.4108996391296387e+00" Max="1.2816963195800781e+02"/>
          <Range Index="7" Min="5.0470566749572754e+00" Max="1.2297039794921875e+02"/>
          <Range Index="8" Min="-1.3657318115234375e+02" Max="4.9512915611267090e+00"/>
          <Range Index="9" Min="-7.0219702720642090e+00" Max="1.2439302825927734e+02"/>
          <Range Index="10" Min="-1.4737026977539062e+02" Max="1.1789598464965820e+01"/>
          <Range Index="11" Min="-1.0000000000000000e+03" Max="1.5248489379882812e+01"/>
          <Range Index="12" Min="2.0095034790039062e+02" Max="4.2678525390625000e+03"/>
          <Range Index="13" Min="2.6820371093750000e+03" Max="2.5098736328125000e+04"/>
          <Range Index="14" Min="2.0095034790039062e+02" Max="6.5778847656250000e+03"/>
          <Range Index="15" Min="2.0095326232910156e+02" Max="8.9488515625000000e+03"/>
          <Range Index="16" Min="2.5391673278808594e+02" Max="9.3235908203125000e+03"/>
          <Range Index="17" Min="-6.0215439796447754e+00" Max="5.3886818885803223e+00"/>
          <Range Index="18" Min="1.1425431817770004e-02" Max="7.9820117950439453e+00"/>
          <Range Index="19" Min="8.6451843380928040e-03" Max="7.2387871742248535e+00"/>
          <Range Index="20" Min="4.0804878808557987e-03" Max="7.5970973968505859e+00"/>
        </Ranges>
      </Class>
      <Class ClassIndex="1">
        <Ranges>
          <Range Index="0" Min="-7.6857333183288574e+00" Max="3.2186300754547119e+00"/>
          <Range Index="1" Min="7.7292323112487793e-05" Max="1.4150905609130859e-01"/>
          <Range Index="2" Min="-4.9947524070739746e+00" Max="8.6296863555908203e+00"/>
          <Range Index="3" Min="2.3898573999758810e-04" Max="9.9949302673339844e+00"/>
          <Range Index="4" Min="-2.8125743865966797e+00" Max="3.2187848091125488e+00"/>
          <Range Index="5" Min="-2.0723266601562500e+01" Max="2.8500895500183105e+00"/>
          <Range Index="6" Min="5.0003623962402344e+00" Max="1.1061709594726562e+02"/>
          <Range Index="7" Min="5.0023055076599121e+00" Max="1.1424943542480469e+02"/>
          <Range Index="8" Min="-1.6203800964355469e+02" Max="4.9971923828125000e+00"/>
          <Range Index="9" Min="-2.0960998535156250e+01" Max="9.7309150695800781e+01"/>
          <Range Index="10" Min="-1.0000000000000000e+03" Max="2.0985769271850586e+01"/>
          <Range Index="11" Min="-1.0000000000000000e+03" Max="1.9364122390747070e+01"/>
          <Range Index="12" Min="2.0000323486328125e+02" Max="2.6923969726562500e+03"/>
          <Range Index="13" Min="2.5229526367187500e+03" Max="2.7209402343750000e+04"/>
          <Range Index="14" Min="2.0003189086914062e+02" Max="4.9435175781250000e+03"/>
          <Range Index="15" Min="2.0000323486328125e+02" Max="6.2509267578125000e+03"/>
          <Range Index="16" Min="2.5000167846679688e+02" Max="1.0842183593750000e+04"/>
          <Range Index="17" Min="-7.5455236434936523e+00" Max="2.7080445289611816e+00"/>
          <Range Index="18" Min="1.2638595944736153e-04" Max="6.5969123840332031e+00"/>
          <Range Index="19" Min="3.9685494266450405e-04" Max="7.3199996948242188e+00"/>
          <Range Index="20" Min="1.1967051250394434e-04" Max="6.9304389953613281e+00"/>
        </Ranges>
      </Class>
      <Class ClassIndex="2">
        <Ranges>
          <Range Index="0" Min="-7.6857333183288574e+00" Max="3.2186300754547119e+00"/>
          <Range Index="1" Min="3.9787242712918669e-05" Max="1.4150905609130859e-01"/>
          <Range Index="2" Min="-4.9947524070739746e+00" Max="9.5146503448486328e+00"/>
          <Range Index="3" Min="2.3898573999758810e-04" Max="9.9949302673339844e+00"/>
          <Range Index="4" Min="-4.7048072814941406e+00" Max="3.2187848091125488e+00"/>
          <Range Index="5" Min="-2.0723266601562500e+01" Max="2.8500895500183105e+00"/>
          <Range Index="6" Min="5.0003623962402344e+00" Max="1.2816963195800781e+02"/>
          <Range Index="7" Min="5.0023055076599121e+00" Max="1.2297039794921875e+02"/>
          <Range Index="8" Min="-1.6203800964355469e+02" Max="4.9971923828125000e+00"/>
          <Range Index="9" Min="-2.0960998535156250e+01" Max="1.2439302825927734e+02"/>
          <Range Index="10" Min="-1.0000000000000000e+03" Max="2.0985769271850586e+01"/>
          <Range Index="11" Min="-1.0000000000000000e+03" Max="1.9364122390747070e+01"/>
          <Range Index="12" Min="2.0000323486328125e+02" Max="4.2678525390625000e+03"/>
          <Range Index="13" Min="2.5229526367187500e+03" Max="2.7209402343750000e+04"/>
          <Range Index="14" Min="2.0003189086914062e+02" Max="6.5778847656250000e+03"/>
          <Range Index="15" Min="2.0000323486328125e+02" Max="8.9488515625000000e+03"/>
          <Range Index="16" Min="2.5000167846679688e+02" Max="1.0842183593750000e+04"/>
          <Range Index="17" Min="-7.5455236434936523e+00" Max="5.3886818885803223e+00"/>
          <Range Index="18" Min="1.2638595944736153e-04" Max="7.9820117950439453e+00"/>
          <Range Index="19" Min="3.9685494266450405e-04" Max="7.3199996948242188e+00"/>
          <Range Index="20" Min="1.1967051250394434e-04" Max="7.5970973968505859e+00"/>
        </Ranges>
      </Class>
    </Transform>
  </Transformations>
  <MVAPdfs/>
  <Weights>
    <Layout NLayers="3">
      <Layer Index="0" NNeurons="22">
        <Neuron NSynapses="26">
          -3.3186428704894128e-01 2.1219916134325132e+00 8.4605857524945716e-01 2.3198512207872386e+00 -1.9585851620640098e+00 1.2756114237660663e+00 -9.4883859059465692e-01 2.1063578145891078e+00 -1.4927797275259080e+00 -1.4584226138682539e+00 -8.8384933989013426e-01 -1.5716664437957226e-01 1.2126463469036941e+00 -1.3843679065624181e+00 -6.1980981644868316e-01 1.4084468900543173e-01 -3.9749281343514298e-01 1.0560391365046966e+00 3.2195223566028430e-01 5.9160514047623824e-01 -3.1649260130284534e-01 -5.6749904553242425e-01 3.6025950047116928e+00 1.1912329688464846e-01 -1.3211888710073734e+00 -3.5269732676405019e-01 
        </Neuron>
        <Neuron NSynapses="26">
          1.5120071901661307e+00 -1.5749652993612744e+00 -1.1791616041173438e+00 4.2000858689383869e-01 5.8784775673814393e-01 5.7710134440573135e+00 -1.6092751371035596e-01 -5.8142692290950548e-01 4.8698504260877662e-01 4.3703814936976670e-01 -5.0269098331667177e+00 2.1397641561679319e+00 -1.5902222548125413e+00 1.2872525720520107e+00 1.2059971112139518e+00 -5.4323247990624157e-01 1.8515493411155535e+00 1.5783862975175929e+00 -8.9953148167390073e-01 -1.3877539927199001e+00 8.1339812137778267e-01 -2.9909234070381030e-01 4.2663279820335918e+00 5.5777564940137605e+00 2.0125252442890913e+00 4.1542614420268089e+00 
        </Neuron>
        <Neuron NSynapses="26">
          -1.6600277013073750e+00 1.5202243375062165e+00 -1.2602124770507472e+00 -1.4266163210919642e+00 -1.3369373839910890e+00 -2.1011105280349671e+00 1.3987002237460753e+00 6.7225133397595360e-01 -1.9130189451933932e+00 -1.3530846093414093e+00 4.0786178911252724e-01 2.8919789365863785e-01 1.5024478326141577e+00 -2.3933403244325739e+00 1.3096011324032383e-01 -2.5317215346889316e-02 7.7825433626214491e-01 -1.3950022224325371e+00 -6.6858540297678426e-01 -1.6301194983059049e+00 7.5480722738411432e-01 1.2920482067984407e+00 1.8872095302446612e+00 -9.3202154598642228e-01 -1.8515303608062967e+00 -7.4088645771361916e-01 
        </Neuron>
        <Neuron NSynapses="26">
          1.0008555272984669e+00 8.3616233237182133e-02 5.7814703429026126e-01 2.9026997124209675e-01 9.2139657912931838e-01 -8.5747812221295239e-01 -7.6901781019424320e-01 -1.7129831891430303e-01 8.5527050156937318e-02 -7.6187703753853274e-03 1.6314807070346691e+00 -2.5763696839708610e+00 -7.5561331378048224e-01 4.0520314207720159e-01 1.6365644250169251e+00 -7.1492098586441311e-01 -8.3066007056205104e-01 1.4522177362224855e+00 -8.0295650400741836e-01 -3.3374362938992426e+00 -1.4098956405693563e+00 -2.5362306260064194e-01 -4.7683781996229357e-01 -5.0429637975369523e-01 6.5770179844967325e-01 2.1224401134918853e+00 
        </Neuron>
        <Neuron NSynapses="26">
          -1.1532945571196063e+00 1.6880975450006594e+00 -3.8117085927162558e-01 2.8084339129259517e-01 -3.9887890154050243e-01 1.0474955454574753e+00 -1.8626898972531711e+00 7.2164545877017383e-01 -1.0807256647460841e+00 2.8888817753987117e-01 -2.5209264424659050e+00 2.7646779921499616e+00 -2.8673341264466190e+00 -1.3828363681736004e+00 7.9678461207863438e-01 2.8715263388106221e-01 -1.5697328294912134e+00 8.4444197276016542e-01 -1.8099730316978438e-01 1.9422756861332513e+00 7.6725137113810571e-01 6.2015004824675993e-02 9.6525886400922828e-02 3.4022747409846947e+00 -2.0212328563817077e+00 5.1464773165518043e+00 
        </Neuron>
        <Neuron NSynapses="26">
          1.4408887082678232e-01 -1.4518989791538592e+00 1.1268553437274687e+00 -1.1816950140219999e+00 1.0037698466822514e-01 2.8847502235990397e+00 1.6078219664440390e+00 -1.4146605134797845e+00 1.9930779420437061e-01 7.1345145540026322e-01 1.1249497543520874e+00 8.5388921702553899e-01 -1.6065248828081061e-01 -6.1244586565547258e-02 -1.4457251283980130e+00 1.1691469612081629e+00 1.2514890482522345e+00 -1.4028050304586670e-02 -2.3966699584341852e-01 -2.5929806661810297e-02 -1.3771866708704179e+00 8.9780146973763453e-01 1.8909837543090571e+00 6.6538863755513544e-01 -1.0883280867006677e+00 6.9147072144494059e-02 
        </Neuron>
        <Neuron NSynapses="26">
          1.0036109392965049e+00 3.5187969679260173e-01 5.6460061648690274e-01 -1.8155367961011690e+00 1.7572303315640563e+00 5.7462266465261114e-01 6.0580973752284928e-01 1.5614020438919177e-01 1.6205982379884902e+00 9.8587097231184184e-01 -8.4188221399169139e-01 -1.0613294005574321e+00 3.5636943805266691e-01 -2.0665912932304069e+00 1.5864042824804570e+00 2.4967397628392076e+00 -3.0523255936782134e-01 2.8036790636778752e+00 1.7706557809032710e+00 -4.8466304276786393e-01 6.4891914037536913e-01 -1.6834608057070405e-01 -1.2951427403187308e+00 -1.4351552978701387e+00 -1.0361801318891004e+00 3.2659592863923159e-01 
        </Neuron>
        <Neuron NSynapses="26">
          1.7978615454821207e+00 -1.7536757931265150e+00 4.1978932575285882e-01 9.9643039498708852e-01 4.3589494752165503e-02 1.5635933214157580e+00 -1.7978150856876995e-01 -1.0135235850405111e+00 -1.0929976971266790e+00 6.2023268565524059e-01 4.2576969107746256e+00 -1.3377282880372333e-02 -3.0711850493117565e-01 -7.7963305165863550e-01 -1.9853522727727992e+00 1.3972855250631668e+00 4.4827868974736473e-01 -2.5389406668663379e+00 -7.8853640354624566e-01 -4.5547181834052280e-01 8.3250766216954000e-02 -1.9980940803901310e+00 6.0148399334722125e-01 8.6936542441087139e-01 -9.9915347906941565e-02 -6.9874365395330762e-02 
        </Neuron>
        <Neuron NSynapses="26">
          1.6347123632162759e+00 1.2486180792610209e+00 -8.9047947056889967e-02 4.2402633660823424e-01 -2.8376333507055120e+00 -9.1232776878427430e-02 1.6325615213067477e+00 1.6484403647214041e+00 -2.5099199779952081e-01 2.6723399590947172e-01 2.7549666199014927e-01 -1.5237190219669841e+00 -1.2357305504902034e-01 -3.8852756488667362e-01 -1.4534752301106748e+00 8.1468661070368842e-01 1.7358061887540863e+00 -5.0069842133326947e-01 8.4228879432070813e-01 -9.2846778292012799e-01 -1.6733612080464817e+00 -8.9636564016543807e-01 8.5145974668385194e-01 1.3137074817688139e+00 5.6438596966358856e-01 1.0332171195058355e+00 
        </Neuron>
        <Neuron NSynapses="26">
          1.6924758404078324e+00 -1.8956857667346474e+00 3.8104519844184392e+00 -1.2971384236778052e+00 -1.3806241156358006e+00 -1.7633658373897784e-01 -1.7682737351068800e+00 -8.0076337247490847e-01 -1.1682626536762204e+00 -1.2576563924275908e+00 1.6795786566313609e+00 -8.1895630744110853e-02 -2.0687435949264836e+00 -3.5500977734575373e-01 1.4403836321720043e+00 -8.1331706707647888e-01 1.3971101430326904e-01 -2.6391224915016314e+00 1.0841532594914141e-01 4.0935523235247802e+00 1.3247728519846820e+00 -9.2138333984273890e-01 -2.8039992980886272e+00 -1.1150906223134922e+00 -5.3826713457077868e-01 -8.3158046125644391e-01 
        </Neuron>
        <Neuron NSynapses="26">
          3.4347284251807625e-01 7.2515973333261863e-01 1.0470810082032154e+00 -2.4144076984520049e-01 3.5258538160199160e-01 2.3851978691232216e+00 -2.0938452197645741e+00 1.7087698629052028e+00 1.3845938708948420e+00 2.0269935496962191e-01 -2.5187355776547178e+00 1.3014138685364141e+00 1.2030288684162298e+00 1.5132635756890600e+00 -4.5144645642816533e-01 -4.2097000903737158e-01 1.4752458787860998e+00 1.6504325422638775e+00 1.1515219492306854e+00 -5.3233192638811377e-01 1.7769273030655219e-01 3.6667994044248760e-02 -9.1300974950844938e-01 5.1789316332147650e-01 -2.1891604573093648e+00 -9.9401652993895118e-01 
        </Neuron>
        <Neuron NSynapses="26">
          -1.5140532120420633e+00 2.1191254331613516e+00 -1.4632135357065326e+00 1.7857916107259242e+00 -1.4868232919530706e+00 2.8064314494398266e+00 -1.2779748146889631e+00 9.2431413265198770e-01 1.1372981140809910e+00 -2.8519302614940556e+00 -1.1705051071919599e+00 1.2746829298122315e+00 -1.3069834209948041e+00 -1.0930658041019976e+00 -1.7150133815202115e+00 -1.3323678878092240e+00 1.8906921291814751e+00 5.1588967125426391e-02 4.2774701310769819e-01 -5.0537547556900853e-01 -1.2179290544278367e+00 -1.3631873280411912e+00 -5.6015058359231951e-01 -7.0194334600331518e-02 4.3675343911281000e-01 -7.8970048022026873e-01 
        </Neuron>
        <Neuron NSynapses="26">
          -1.2188341068674931e+00 1.3350888862818044e+00 2.6538225206223887e+00 5.6088013067161185e-02 1.3389992507435251e+00 -1.6923609424813357e+00 1.5951264081497827e+00 5.7113397652421483e-01 -1.4105360041792587e+00 -2.1095286758869505e+00 -2.8375760777278458e-01 -4.5568691839156134e-01 2.2660374460970014e+00 1.8646479852152014e+00 1.3126082842415876e+00 4.1802797785954132e-01 -1.3897753768209506e+00 1.1157822041970058e+00 -2.0448701386390460e+00 -7.7860528228233072e-01 -1.6708353226399442e+00 -2.0673944760633693e+00 -2.4198968903612390e+00 -8.1299120591290375e-01 9.2039088546157821e-01 4.3015239028056440e-01 
        </Neuron>
        <Neuron NSynapses="26">
          2.7489861193718523e-01 -5.1896479573408794e-01 -3.4190551773575431e+00 2.5873720811757039e-01 1.6533882964118047e+00 -8.6606533178271627e-01 4.1144294569951789e-01 -1.4530779320953726e+00 1.0589350371983173e+00 1.6971653987142307e-01 -5.0286001272390557e-01 -6.8347378424364147e-01 1.6281224603766981e-02 2.1905908657765862e+00 6.7517941693335970e-01 5.7665152096008043e+00 -9.3267770406843709e-01 -1.5969981738549810e+00 -1.8007288544880100e+00 9.1154885091469895e-01 -4.9705597558346559e-01 -1.3659460079908436e+00 -2.3424941970515274e+00 -1.9343012527657250e-01 -6.7731264811488201e-01 1.3943858770729671e+00 
        </Neuron>
        <Neuron NSynapses="26">
          1.0105021594060815e+00 -1.7122108087084769e+00 1.4613504884414319e-01 2.6779008341316085e-01 -1.4048308180331393e+00 -3.0078960989664688e-01 1.4027332540103599e+00 -1.7917249472246108e+00 -6.3180919176243355e-01 -6.8343849988613770e-01 -1.3457168016653864e+00 1.3701543713981240e-01 3.8158425687688058e+00 -2.8858452999804118e-01 1.6984343888595865e+00 -2.0276588533090765e+00 -9.5741689757699955e-01 -1.4912213733314925e+00 -1.7651023295178232e+00 -3.4151909040824845e-02 9.6578344632916291e-01 -1.0007669923991656e-01 1.3201808643061428e+00 5.0010661975632886e-01 2.0445922122509925e+00 -2.0251092756366029e+00 
        </Neuron>
        <Neuron NSynapses="26">
          1.7272949810653215e+00 3.0671225289573079e-01 -1.1935270694381799e+00 -1.2047800869445509e+00 -1.2430166152334463e+00 1.4364570561387977e+00 6.7770861072797395e-01 5.8310478292998269e-01 1.8016238434619585e+00 -1.9636061580643849e+00 2.1196774601612343e+00 1.5243674357157437e+00 -5.3859571208956708e-02 -2.3835158600445880e+00 1.6613316404078107e+00 -2.8747674232538878e+00 5.4624334749806791e-01 1.4322753771817331e+00 -4.4001915652436402e-01 -1.5446515256492535e+00 -9.1643495784360547e-03 -1.5140597238443103e+00 1.5910980431927877e+00 -1.0377865139392095e+00 7.1786084794627436e-01 -2.1666394813068153e+00 
        </Neuron>
        <Neuron NSynapses="26">
          1.7041867885161091e+00 8.2476821491272034e-01 2.2347502698046622e+00 -1.8413241507458758e-01 -4.9966667090936229e-01 1.6511901180188943e-01 1.7951941015083934e+00 -1.7115701239574446e+00 -1.9890662370861623e+00 -1.6697016699373965e+00 -1.0523456097821098e+00 7.6480431854315509e-02 -5.1033602351080321e-01 -1.1992463675697220e+00 2.1825163558569016e-02 -2.0697669742260203e+00 -1.8945361221519248e+00 -9.5562022038885575e-01 1.6207381478629059e+00 2.7257880096539204e+00 1.4046117084461067e+00 -9.3878227425015981e-01 6.0739454872891984e-03 -5.9002590899117402e-01 -8.2776391922656833e-01 -1.5850228620163904e+00 
        </Neuron>
        <Neuron NSynapses="26">
          -6.7181010716268019e-01 2.0617848842326000e-01 -2.8164495575801034e+00 -6.4083655682097687e-02 1.1217435384619183e+00 -2.6433348109713566e+00 -6.6056097230281496e-01 -7.1561887119279810e-01 1.0298470279257204e+00 4.0605149330612245e-01 2.4841713794881275e+00 1.7610822387181377e+00 9.7288896888232702e-03 6.2594455080839148e-02 1.3768031542631909e+00 1.9284556261939542e-01 1.6336908073699283e+00 1.0683621181046319e+00 -1.0808476394437552e-01 1.1227126726585954e-01 1.7287434740596083e-01 -3.9636219093547626e-01 5.3262880993172522e-02 9.1355575926359822e-01 -1.0014232445235225e+00 -5.7409961024735712e-03 
        </Neuron>
        <Neuron NSynapses="26">
          -3.9588853722308116e-02 1.5857591390628942e+00 -1.3068557375091814e+00 -2.5039710557597190e+00 -1.8999602210136810e+00 6.0926118730751033e-01 2.4765049358731081e-01 -1.2851242597349717e+00 -2.5005282977446512e+00 -6.7284075183629855e-01 7.3571930791696508e-02 8.3597323898040221e-01 -4.6963436111567058e-01 -1.1319320189301725e+00 1.5728641101775984e+00 4.7967090643933008e-01 3.1568464593940271e-01 -3.3723754055988903e-01 -1.2272419003320254e+00 -3.5764272956671456e-01 1.2379100024072101e+00 3.1310688680010190e-01 -9.1873807545496611e-01 -1.3914066516006611e+00 -1.3292994342939459e+00 -3.2186408437385876e+00 
        </Neuron>
        <Neuron NSynapses="26">
          -3.1953270297793035e-01 -1.8161216295800897e+00 1.6505354715449319e+00 -1.6239644591817159e+00 1.6666119743035328e+00 1.1794135051419923e+00 -1.8988550424771218e+00 1.0333415452274488e+00 5.3037520702765684e-01 1.8483656727988242e+00 6.3208727190367031e-01 3.3359484090577074e-03 2.8493552479161584e+00 -1.4801891155360103e+00 4.1804863414179605e-01 -6.9220615567356492e-01 1.2972533387419518e+00 -3.8429833113361295e-01 3.0652780359795218e-01 -6.0004011018261927e-01 5.0893004151852295e-01 -6.6427315403584031e-01 8.2446739563124760e-01 -1.1716771567205462e+00 6.9704772657727621e-01 -2.2319602368644315e-01 
        </Neuron>
        <Neuron NSynapses="26">
          9.9944576700587062e-01 -1.7841188335655467e+00 6.6352694931036271e-01 -2.1065278817135957e+00 4.8197421203129298e-01 1.3440218151901353e+00 7.4011075591833231e-01 1.3932161221778858e+00 1.6570485157862904e+00 -3.0495834522783012e+00 -9.8282670029634256e-01 -1.6661743937873075e+00 -4.6199548832925191e-01 -1.2504367062439232e+00 -1.9493731198221467e-01 2.1771998687775873e-01 -4.6585467143295889e-01 -1.4687494637350645e-01 -3.6631577928662523e-01 -1.9881379349370165e+00 -4.1368624307433127e-01 4.4341842259277314e-02 1.8609295055743041e-01 -1.6511189381648577e+00 8.8550080594318203e-01 6.1640698341996281e-01 
        </Neuron>
        <Neuron NSynapses="26">
          -2.7842256748204319e-01 -8.2635406571933767e-01 4.1588518451061427e+00 -4.7497578597580770e-01 8.5712291673177821e-01 3.9138491362423794e-01 -1.3967175285183404e+00 -4.2912338464074817e-01 6.4297281222151026e-01 -4.3790196868359148e+00 5.0715585605582858e-01 -7.7383774342891731e-01 4.1295404395892605e+00 -2.1650356479214148e+00 1.5168205019807381e+00 2.0267492040041040e+00 1.6383223608785158e+00 9.1241182480277883e-01 8.2046212147310715e-01 7.7870551331231974e-01 -9.7924898020084661e-01 -1.5570441220135423e+00 -4.1254096900331643e+00 -2.5242191790956676e+00 8.5642317719078176e-01 -1.7135139503724210e+00 
        </Neuron>
      </Layer>
      <Layer Index="1" NNeurons="27">
        <Neuron NSynapses="1">
          -1.2271532619073550e-01 
        </Neuron>
        <Neuron NSynapses="1">
          1.3504009200990748e+00 
        </Neuron>
        <Neuron NSynapses="1">
          1.7842609203418782e+00 
        </Neuron>
        <Neuron NSynapses="1">
          -2.4905085461766214e+00 
        </Neuron>
        <Neuron NSynapses="1">
          1.3260986905603851e+00 
        </Neuron>
        <Neuron NSynapses="1">
          -2.2625064945349873e+00 
        </Neuron>
        <Neuron NSynapses="1">
          5.9881363740191795e-01 
        </Neuron>
        <Neuron NSynapses="1">
          -1.2402781759709500e+00 
        </Neuron>
        <Neuron NSynapses="1">
          2.4261904185737788e+00 
        </Neuron>
        <Neuron NSynapses="1">
          -2.0172590894132716e+00 
        </Neuron>
        <Neuron NSynapses="1">
          1.4642588944928299e+00 
        </Neuron>
        <Neuron NSynapses="1">
          -1.5702111659570788e+00 
        </Neuron>
        <Neuron NSynapses="1">
          1.4488085312892343e+00 
        </Neuron>
        <Neuron NSynapses="1">
          -2.1376237038974888e+00 
        </Neuron>
        <Neuron NSynapses="1">
          -3.6288125823771306e-01 
        </Neuron>
        <Neuron NSynapses="1">
          2.9682981660034771e+00 
        </Neuron>
        <Neuron NSynapses="1">
          -3.6943206906183607e-01 
        </Neuron>
        <Neuron NSynapses="1">
          -2.5236948143952431e+00 
        </Neuron>
        <Neuron NSynapses="1">
          -1.4765242087962136e+00 
        </Neuron>
        <Neuron NSynapses="1">
          2.4009878768306518e+00 
        </Neuron>
        <Neuron NSynapses="1">
          -6.5789248965668612e-01 
        </Neuron>
        <Neuron NSynapses="1">
          -2.8391873732762302e-01 
        </Neuron>
        <Neuron NSynapses="1">
          -1.6666051075013426e+00 
        </Neuron>
        <Neuron NSynapses="1">
          -1.3923035023540120e+00 
        </Neuron>
        <Neuron NSynapses="1">
          1.2083424124165485e+00 
        </Neuron>
        <Neuron NSynapses="1">
          -1.2891164220263183e+00 
        </Neuron>
        <Neuron NSynapses="1">
          -1.0426897628449274e+00 
        </Neuron>
      </Layer>
      <Layer Index="2" NNeurons="1">
        <Neuron NSynapses="0"/>
      </Layer>
    </Layout>
  </Weights>
</MethodSetup>
