<?xml version="1.0"?>
<MethodSetup Method="MLP::MLP">
  <GeneralInfo>
    <Info name="TMVA Release" value="4.2.1 [262657]"/>
    <Info name="ROOT Release" value="6.26/08 [399880]"/>
    <Info name="Creator" value="pgaigne"/>
    <Info name="Date" value="Fri Apr  7 12:04:26 2023"/>
    <Info name="Host" value="Linux 28693209b56e 5.15.0-1022-azure #27~20.04.1-Ubuntu SMP Mon Oct 17 02:03:50 UTC 2022 x86_64 x86_64 x86_64 GNU/Linux"/>
    <Info name="Dir" value="/afs/cern.ch/user/p/pgaigne/xiccpp/Xicc/TMVA"/>
    <Info name="Training events" value="27914"/>
    <Info name="TrainingTime" value="1.93067522e+02"/>
    <Info name="AnalysisType" value="Classification"/>
  </GeneralInfo>
  <Options>
    <Option name="NCycles" modified="Yes">600</Option>
    <Option name="HiddenLayers" modified="Yes">N+5</Option>
    <Option name="NeuronType" modified="Yes">tanh</Option>
    <Option name="RandomSeed" modified="No">1</Option>
    <Option name="EstimatorType" modified="No">CE</Option>
    <Option name="NeuronInputType" modified="No">sum</Option>
    <Option name="V" modified="Yes">False</Option>
    <Option name="VerbosityLevel" modified="No">Default</Option>
    <Option name="VarTransform" modified="Yes">N</Option>
    <Option name="H" modified="Yes">True</Option>
    <Option name="CreateMVAPdfs" modified="No">False</Option>
    <Option name="IgnoreNegWeightsInTraining" modified="No">False</Option>
    <Option name="TrainingMethod" modified="No">BP</Option>
    <Option name="LearningRate" modified="No">2.000000e-02</Option>
    <Option name="DecayRate" modified="No">1.000000e-02</Option>
    <Option name="TestRate" modified="Yes">5</Option>
    <Option name="EpochMonitoring" modified="No">False</Option>
    <Option name="Sampling" modified="No">1.000000e+00</Option>
    <Option name="SamplingEpoch" modified="No">1.000000e+00</Option>
    <Option name="SamplingImportance" modified="No">1.000000e+00</Option>
    <Option name="SamplingTraining" modified="No">True</Option>
    <Option name="SamplingTesting" modified="No">False</Option>
    <Option name="ResetStep" modified="No">50</Option>
    <Option name="Tau" modified="No">3.000000e+00</Option>
    <Option name="BPMode" modified="No">sequential</Option>
    <Option name="BatchSize" modified="No">-1</Option>
    <Option name="ConvergenceImprove" modified="No">1.000000e-30</Option>
    <Option name="ConvergenceTests" modified="No">-1</Option>
    <Option name="UseRegulator" modified="Yes">False</Option>
    <Option name="UpdateLimit" modified="No">10000</Option>
    <Option name="CalculateErrors" modified="No">False</Option>
    <Option name="WeightRange" modified="No">1.000000e+00</Option>
  </Options>
  <Variables NVar="21">
    <Variable VarIndex="0" Expression="log(TMath::Max(10e-10,Xicc_IPCHI2_OWNPV))" Label="log(TMath::Max(10e-10,Xicc_IPCHI2_OWNPV))" Title="log_Xicc_IPCHI2_OWNPV" Unit="" Internal="log_TMath_Max_10e_M_10,Xicc_IPCHI2_OWNPV__" Type="F" Min="-9.66006374e+00" Max="3.21491361e+00"/>
    <Variable VarIndex="1" Expression="TMath::ACos(Xicc_DIRA_OWNPV)" Label="TMath::ACos(Xicc_DIRA_OWNPV)" Title="acos_Xicc_DIRA_OWNPV" Unit="" Internal="TMath_ACos_Xicc_DIRA_OWNPV_" Type="F" Min="6.09304625e-05" Max="1.41537085e-01"/>
    <Variable VarIndex="2" Expression="log(TMath::Max(10e-10,Xicc_FDCHI2_OWNPV))" Label="log(TMath::Max(10e-10,Xicc_FDCHI2_OWNPV))" Title="log_Xicc_FDCHI2_OWNPV" Unit="" Internal="log_TMath_Max_10e_M_10,Xicc_FDCHI2_OWNPV__" Type="F" Min="-5.50940466e+00" Max="7.93323755e+00"/>
    <Variable VarIndex="3" Expression="Lc_ENDVERTEX_CHI2/Lc_ENDVERTEX_NDOF" Label="Lc_ENDVERTEX_CHI2/Lc_ENDVERTEX_NDOF" Title="Lc_ENDVERTEX_CHI2_NDOF" Unit="" Internal="Lc_ENDVERTEX_CHI2_D_Lc_ENDVERTEX_NDOF" Type="F" Min="8.02922805e-05" Max="9.99726963e+00"/>
    <Variable VarIndex="4" Expression="log(TMath::Max(10e-10,Xicc_ENDVERTEX_CHI2/Xicc_ENDVERTEX_NDOF))" Label="log(TMath::Max(10e-10,Xicc_ENDVERTEX_CHI2/Xicc_ENDVERTEX_NDOF))" Title="log_Xicc_ENDVERTEX_CHI2_NDOF" Unit="" Internal="log_TMath_Max_10e_M_10,Xicc_ENDVERTEX_CHI2_D_Xicc_ENDVERTEX_NDOF__" Type="F" Min="-2.79497790e+00" Max="3.21280146e+00"/>
    <Variable VarIndex="5" Expression="log(TMath::Max(10e-10,Xicc_CHI2NDOF_DTF_PV))" Label="log(TMath::Max(10e-10,Xicc_CHI2NDOF_DTF_PV))" Title="log_Xicc_CHI2NDOF_DTF_PV" Unit="" Internal="log_TMath_Max_10e_M_10,Xicc_CHI2NDOF_DTF_PV__" Type="F" Min="-1.92877817e+00" Max="2.71355414e+00"/>
    <Variable VarIndex="6" Expression="LcP_PIDp" Label="LcP_PIDp" Title="LcP_PIDp" Unit="" Internal="LcP_PIDp" Type="F" Min="5.00081348e+00" Max="1.18745117e+02"/>
    <Variable VarIndex="7" Expression="LcK_PIDK" Label="LcK_PIDK" Title="LcK_PIDK" Unit="" Internal="LcK_PIDK" Type="F" Min="5.00061464e+00" Max="1.05716209e+02"/>
    <Variable VarIndex="8" Expression="LcPi_PIDK" Label="LcPi_PIDK" Title="LcPi_PIDK" Unit="" Internal="LcPi_PIDK" Type="F" Min="-1.28075714e+02" Max="4.99724245e+00"/>
    <Variable VarIndex="9" Expression="XiccK_PIDK" Label="XiccK_PIDK" Title="XiccK_PIDK" Unit="" Internal="XiccK_PIDK" Type="F" Min="-1.75238018e+01" Max="1.13760468e+02"/>
    <Variable VarIndex="10" Expression="XiccPi1_PIDK" Label="XiccPi1_PIDK" Title="XiccPi1_PIDK" Unit="" Internal="XiccPi1_PIDK" Type="F" Min="-1.00000000e+03" Max="1.90878830e+01"/>
    <Variable VarIndex="11" Expression="XiccPi2_PIDK" Label="XiccPi2_PIDK" Title="XiccPi2_PIDK" Unit="" Internal="XiccPi2_PIDK" Type="F" Min="-1.00000000e+03" Max="1.94876480e+01"/>
    <Variable VarIndex="12" Expression="TMath::Min(TMath::Min(XiccK_PT,Lc_PT),TMath::Min(XiccPi1_PT,XiccPi2_PT))" Label="TMath::Min(TMath::Min(XiccK_PT,Lc_PT),TMath::Min(XiccPi1_PT,XiccPi2_PT))" Title="min_Xicc_Daughters_PT" Unit="" Internal="TMath_Min_TMath_Min_XiccK_PT,Lc_PT_,TMath_Min_XiccPi1_PT,XiccPi2_PT__" Type="F" Min="2.00009705e+02" Max="4.24247705e+03"/>
    <Variable VarIndex="13" Expression="Lc_PT" Label="Lc_PT" Title="Lc_PT" Unit="" Internal="Lc_PT" Type="F" Min="2.50922852e+03" Max="2.16076289e+04"/>
    <Variable VarIndex="14" Expression="XiccPi1_PT" Label="XiccPi1_PT" Title="XiccPi1_PT" Unit="" Internal="XiccPi1_PT" Type="F" Min="2.00035187e+02" Max="9.51032520e+03"/>
    <Variable VarIndex="15" Expression="XiccPi2_PT" Label="XiccPi2_PT" Title="XiccPi2_PT" Unit="" Internal="XiccPi2_PT" Type="F" Min="2.00009705e+02" Max="7.94441064e+03"/>
    <Variable VarIndex="16" Expression="XiccK_PT" Label="XiccK_PT" Title="XiccK_PT" Unit="" Internal="XiccK_PT" Type="F" Min="2.50009811e+02" Max="1.15732051e+04"/>
    <Variable VarIndex="17" Expression="log(TMath::Max(10e-10,Lc_IPCHI2_OWNPV))" Label="log(TMath::Max(10e-10,Lc_IPCHI2_OWNPV))" Title="log_Lc_IPCHI2_OWNPV" Unit="" Internal="log_TMath_Max_10e_M_10,Lc_IPCHI2_OWNPV__" Type="F" Min="-9.52036667e+00" Max="2.70720434e+00"/>
    <Variable VarIndex="18" Expression="log(TMath::Max(10e-10,XiccK_IPCHI2_OWNPV))" Label="log(TMath::Max(10e-10,XiccK_IPCHI2_OWNPV))" Title="log_XiccK_IPCHI2_OWNPV" Unit="" Internal="log_TMath_Max_10e_M_10,XiccK_IPCHI2_OWNPV__" Type="F" Min="8.08078221e-06" Max="2.70766330e+00"/>
    <Variable VarIndex="19" Expression="log(TMath::Max(10e-10,XiccPi1_IPCHI2_OWNPV))" Label="log(TMath::Max(10e-10,XiccPi1_IPCHI2_OWNPV))" Title="log_XiccPi1_IPCHI2_OWNPV" Unit="" Internal="log_TMath_Max_10e_M_10,XiccPi1_IPCHI2_OWNPV__" Type="F" Min="2.77851432e-05" Max="2.70777369e+00"/>
    <Variable VarIndex="20" Expression="log(TMath::Max(10e-10,XiccPi2_IPCHI2_OWNPV))" Label="log(TMath::Max(10e-10,XiccPi2_IPCHI2_OWNPV))" Title="log_XiccPi2_IPCHI2_OWNPV" Unit="" Internal="log_TMath_Max_10e_M_10,XiccPi2_IPCHI2_OWNPV__" Type="F" Min="4.41369957e-06" Max="2.70763850e+00"/>
  </Variables>
  <Spectators NSpec="2">
    <Spectator SpecIndex="0" Expression="Xicc_M" Label="Xicc_M" Title="F" Unit="" Internal="Xicc_M" Type="F" Min="3.60612085e+03" Max="3.89999756e+03"/>
    <Spectator SpecIndex="1" Expression="Lc_M" Label="Lc_M" Title="F" Unit="" Internal="Lc_M" Type="F" Min="2.27000049e+03" Max="2.30599219e+03"/>
  </Spectators>
  <Classes NClass="2">
    <Class Name="Signal" Index="0"/>
    <Class Name="Background" Index="1"/>
  </Classes>
  <Transformations NTransformations="1">
    <Transform Name="Normalize">
      <Selection>
        <Input NInputs="21">
          <Input Type="Variable" Label="log(TMath::Max(10e-10,Xicc_IPCHI2_OWNPV))" Expression="log(TMath::Max(10e-10,Xicc_IPCHI2_OWNPV))"/>
          <Input Type="Variable" Label="TMath::ACos(Xicc_DIRA_OWNPV)" Expression="TMath::ACos(Xicc_DIRA_OWNPV)"/>
          <Input Type="Variable" Label="log(TMath::Max(10e-10,Xicc_FDCHI2_OWNPV))" Expression="log(TMath::Max(10e-10,Xicc_FDCHI2_OWNPV))"/>
          <Input Type="Variable" Label="Lc_ENDVERTEX_CHI2/Lc_ENDVERTEX_NDOF" Expression="Lc_ENDVERTEX_CHI2/Lc_ENDVERTEX_NDOF"/>
          <Input Type="Variable" Label="log(TMath::Max(10e-10,Xicc_ENDVERTEX_CHI2/Xicc_ENDVERTEX_NDOF))" Expression="log(TMath::Max(10e-10,Xicc_ENDVERTEX_CHI2/Xicc_ENDVERTEX_NDOF))"/>
          <Input Type="Variable" Label="log(TMath::Max(10e-10,Xicc_CHI2NDOF_DTF_PV))" Expression="log(TMath::Max(10e-10,Xicc_CHI2NDOF_DTF_PV))"/>
          <Input Type="Variable" Label="LcP_PIDp" Expression="LcP_PIDp"/>
          <Input Type="Variable" Label="LcK_PIDK" Expression="LcK_PIDK"/>
          <Input Type="Variable" Label="LcPi_PIDK" Expression="LcPi_PIDK"/>
          <Input Type="Variable" Label="XiccK_PIDK" Expression="XiccK_PIDK"/>
          <Input Type="Variable" Label="XiccPi1_PIDK" Expression="XiccPi1_PIDK"/>
          <Input Type="Variable" Label="XiccPi2_PIDK" Expression="XiccPi2_PIDK"/>
          <Input Type="Variable" Label="TMath::Min(TMath::Min(XiccK_PT,Lc_PT),TMath::Min(XiccPi1_PT,XiccPi2_PT))" Expression="TMath::Min(TMath::Min(XiccK_PT,Lc_PT),TMath::Min(XiccPi1_PT,XiccPi2_PT))"/>
          <Input Type="Variable" Label="Lc_PT" Expression="Lc_PT"/>
          <Input Type="Variable" Label="XiccPi1_PT" Expression="XiccPi1_PT"/>
          <Input Type="Variable" Label="XiccPi2_PT" Expression="XiccPi2_PT"/>
          <Input Type="Variable" Label="XiccK_PT" Expression="XiccK_PT"/>
          <Input Type="Variable" Label="log(TMath::Max(10e-10,Lc_IPCHI2_OWNPV))" Expression="log(TMath::Max(10e-10,Lc_IPCHI2_OWNPV))"/>
          <Input Type="Variable" Label="log(TMath::Max(10e-10,XiccK_IPCHI2_OWNPV))" Expression="log(TMath::Max(10e-10,XiccK_IPCHI2_OWNPV))"/>
          <Input Type="Variable" Label="log(TMath::Max(10e-10,XiccPi1_IPCHI2_OWNPV))" Expression="log(TMath::Max(10e-10,XiccPi1_IPCHI2_OWNPV))"/>
          <Input Type="Variable" Label="log(TMath::Max(10e-10,XiccPi2_IPCHI2_OWNPV))" Expression="log(TMath::Max(10e-10,XiccPi2_IPCHI2_OWNPV))"/>
        </Input>
        <Output NOutputs="21">
          <Output Type="Variable" Label="log(TMath::Max(10e-10,Xicc_IPCHI2_OWNPV))" Expression="log(TMath::Max(10e-10,Xicc_IPCHI2_OWNPV))"/>
          <Output Type="Variable" Label="TMath::ACos(Xicc_DIRA_OWNPV)" Expression="TMath::ACos(Xicc_DIRA_OWNPV)"/>
          <Output Type="Variable" Label="log(TMath::Max(10e-10,Xicc_FDCHI2_OWNPV))" Expression="log(TMath::Max(10e-10,Xicc_FDCHI2_OWNPV))"/>
          <Output Type="Variable" Label="Lc_ENDVERTEX_CHI2/Lc_ENDVERTEX_NDOF" Expression="Lc_ENDVERTEX_CHI2/Lc_ENDVERTEX_NDOF"/>
          <Output Type="Variable" Label="log(TMath::Max(10e-10,Xicc_ENDVERTEX_CHI2/Xicc_ENDVERTEX_NDOF))" Expression="log(TMath::Max(10e-10,Xicc_ENDVERTEX_CHI2/Xicc_ENDVERTEX_NDOF))"/>
          <Output Type="Variable" Label="log(TMath::Max(10e-10,Xicc_CHI2NDOF_DTF_PV))" Expression="log(TMath::Max(10e-10,Xicc_CHI2NDOF_DTF_PV))"/>
          <Output Type="Variable" Label="LcP_PIDp" Expression="LcP_PIDp"/>
          <Output Type="Variable" Label="LcK_PIDK" Expression="LcK_PIDK"/>
          <Output Type="Variable" Label="LcPi_PIDK" Expression="LcPi_PIDK"/>
          <Output Type="Variable" Label="XiccK_PIDK" Expression="XiccK_PIDK"/>
          <Output Type="Variable" Label="XiccPi1_PIDK" Expression="XiccPi1_PIDK"/>
          <Output Type="Variable" Label="XiccPi2_PIDK" Expression="XiccPi2_PIDK"/>
          <Output Type="Variable" Label="TMath::Min(TMath::Min(XiccK_PT,Lc_PT),TMath::Min(XiccPi1_PT,XiccPi2_PT))" Expression="TMath::Min(TMath::Min(XiccK_PT,Lc_PT),TMath::Min(XiccPi1_PT,XiccPi2_PT))"/>
          <Output Type="Variable" Label="Lc_PT" Expression="Lc_PT"/>
          <Output Type="Variable" Label="XiccPi1_PT" Expression="XiccPi1_PT"/>
          <Output Type="Variable" Label="XiccPi2_PT" Expression="XiccPi2_PT"/>
          <Output Type="Variable" Label="XiccK_PT" Expression="XiccK_PT"/>
          <Output Type="Variable" Label="log(TMath::Max(10e-10,Lc_IPCHI2_OWNPV))" Expression="log(TMath::Max(10e-10,Lc_IPCHI2_OWNPV))"/>
          <Output Type="Variable" Label="log(TMath::Max(10e-10,XiccK_IPCHI2_OWNPV))" Expression="log(TMath::Max(10e-10,XiccK_IPCHI2_OWNPV))"/>
          <Output Type="Variable" Label="log(TMath::Max(10e-10,XiccPi1_IPCHI2_OWNPV))" Expression="log(TMath::Max(10e-10,XiccPi1_IPCHI2_OWNPV))"/>
          <Output Type="Variable" Label="log(TMath::Max(10e-10,XiccPi2_IPCHI2_OWNPV))" Expression="log(TMath::Max(10e-10,XiccPi2_IPCHI2_OWNPV))"/>
        </Output>
      </Selection>
      <Class ClassIndex="0">
        <Ranges>
          <Range Index="0" Min="-5.3855814933776855e+00" Max="2.5809547901153564e+00"/>
          <Range Index="1" Min="1.0056422615889460e-04" Max="3.1742598861455917e-02"/>
          <Range Index="2" Min="1.0480782985687256e+00" Max="4.7080426216125488e+00"/>
          <Range Index="3" Min="4.5016803778707981e-03" Max="8.6061716079711914e+00"/>
          <Range Index="4" Min="-2.7949779033660889e+00" Max="1.8370864391326904e+00"/>
          <Range Index="5" Min="-1.9084533452987671e+00" Max="1.5743612051010132e+00"/>
          <Range Index="6" Min="5.3705353736877441e+00" Max="1.0811238098144531e+02"/>
          <Range Index="7" Min="5.0470566749572754e+00" Max="1.0069726562500000e+02"/>
          <Range Index="8" Min="-1.2035592651367188e+02" Max="4.9512915611267090e+00"/>
          <Range Index="9" Min="-2.5672607421875000e+00" Max="1.1376046752929688e+02"/>
          <Range Index="10" Min="-9.3701950073242188e+01" Max="1.1316862106323242e+01"/>
          <Range Index="11" Min="-1.2698110198974609e+02" Max="1.2783510208129883e+01"/>
          <Range Index="12" Min="2.0096174621582031e+02" Max="4.2424770507812500e+03"/>
          <Range Index="13" Min="2.8373142089843750e+03" Max="1.7902167968750000e+04"/>
          <Range Index="14" Min="2.0096174621582031e+02" Max="6.5778847656250000e+03"/>
          <Range Index="15" Min="2.0384524536132812e+02" Max="7.9444106445312500e+03"/>
          <Range Index="16" Min="3.2828607177734375e+02" Max="7.4206679687500000e+03"/>
          <Range Index="17" Min="-5.1186461448669434e+00" Max="2.7054371833801270e+00"/>
          <Range Index="18" Min="8.5227862000465393e-03" Max="2.6991455554962158e+00"/>
          <Range Index="19" Min="8.6451843380928040e-03" Max="2.7017071247100830e+00"/>
          <Range Index="20" Min="5.2601546049118042e-03" Max="2.7068312168121338e+00"/>
        </Ranges>
      </Class>
      <Class ClassIndex="1">
        <Ranges>
          <Range Index="0" Min="-9.6600637435913086e+00" Max="3.2149136066436768e+00"/>
          <Range Index="1" Min="6.0930462495889515e-05" Max="1.4153708517551422e-01"/>
          <Range Index="2" Min="-5.5094046592712402e+00" Max="7.9332375526428223e+00"/>
          <Range Index="3" Min="8.0292280472349375e-05" Max="9.9972696304321289e+00"/>
          <Range Index="4" Min="-2.7738604545593262e+00" Max="3.2128014564514160e+00"/>
          <Range Index="5" Min="-1.9287781715393066e+00" Max="2.7135541439056396e+00"/>
          <Range Index="6" Min="5.0008134841918945e+00" Max="1.1874511718750000e+02"/>
          <Range Index="7" Min="5.0006146430969238e+00" Max="1.0571620941162109e+02"/>
          <Range Index="8" Min="-1.2807571411132812e+02" Max="4.9972424507141113e+00"/>
          <Range Index="9" Min="-1.7523801803588867e+01" Max="9.3014274597167969e+01"/>
          <Range Index="10" Min="-1.0000000000000000e+03" Max="1.9087882995605469e+01"/>
          <Range Index="11" Min="-1.0000000000000000e+03" Max="1.9487648010253906e+01"/>
          <Range Index="12" Min="2.0000970458984375e+02" Max="2.8231916503906250e+03"/>
          <Range Index="13" Min="2.5092285156250000e+03" Max="2.1607628906250000e+04"/>
          <Range Index="14" Min="2.0003518676757812e+02" Max="9.5103251953125000e+03"/>
          <Range Index="15" Min="2.0000970458984375e+02" Max="5.4248945312500000e+03"/>
          <Range Index="16" Min="2.5000981140136719e+02" Max="1.1573205078125000e+04"/>
          <Range Index="17" Min="-9.5203666687011719e+00" Max="2.7072043418884277e+00"/>
          <Range Index="18" Min="8.0807822087081149e-06" Max="2.7076632976531982e+00"/>
          <Range Index="19" Min="2.7785143174696714e-05" Max="2.7077736854553223e+00"/>
          <Range Index="20" Min="4.4136995711596683e-06" Max="2.7076385021209717e+00"/>
        </Ranges>
      </Class>
      <Class ClassIndex="2">
        <Ranges>
          <Range Index="0" Min="-9.6600637435913086e+00" Max="3.2149136066436768e+00"/>
          <Range Index="1" Min="6.0930462495889515e-05" Max="1.4153708517551422e-01"/>
          <Range Index="2" Min="-5.5094046592712402e+00" Max="7.9332375526428223e+00"/>
          <Range Index="3" Min="8.0292280472349375e-05" Max="9.9972696304321289e+00"/>
          <Range Index="4" Min="-2.7949779033660889e+00" Max="3.2128014564514160e+00"/>
          <Range Index="5" Min="-1.9287781715393066e+00" Max="2.7135541439056396e+00"/>
          <Range Index="6" Min="5.0008134841918945e+00" Max="1.1874511718750000e+02"/>
          <Range Index="7" Min="5.0006146430969238e+00" Max="1.0571620941162109e+02"/>
          <Range Index="8" Min="-1.2807571411132812e+02" Max="4.9972424507141113e+00"/>
          <Range Index="9" Min="-1.7523801803588867e+01" Max="1.1376046752929688e+02"/>
          <Range Index="10" Min="-1.0000000000000000e+03" Max="1.9087882995605469e+01"/>
          <Range Index="11" Min="-1.0000000000000000e+03" Max="1.9487648010253906e+01"/>
          <Range Index="12" Min="2.0000970458984375e+02" Max="4.2424770507812500e+03"/>
          <Range Index="13" Min="2.5092285156250000e+03" Max="2.1607628906250000e+04"/>
          <Range Index="14" Min="2.0003518676757812e+02" Max="9.5103251953125000e+03"/>
          <Range Index="15" Min="2.0000970458984375e+02" Max="7.9444106445312500e+03"/>
          <Range Index="16" Min="2.5000981140136719e+02" Max="1.1573205078125000e+04"/>
          <Range Index="17" Min="-9.5203666687011719e+00" Max="2.7072043418884277e+00"/>
          <Range Index="18" Min="8.0807822087081149e-06" Max="2.7076632976531982e+00"/>
          <Range Index="19" Min="2.7785143174696714e-05" Max="2.7077736854553223e+00"/>
          <Range Index="20" Min="4.4136995711596683e-06" Max="2.7076385021209717e+00"/>
        </Ranges>
      </Class>
    </Transform>
  </Transformations>
  <MVAPdfs/>
  <Weights>
    <Layout NLayers="3">
      <Layer Index="0" NNeurons="22">
        <Neuron NSynapses="26">
          -3.3197816305058320e-01 2.3107655922544228e+00 1.4652376349120726e+00 6.8218462074801289e-01 -1.9479261206985197e+00 -1.4507202604497333e+00 -8.4097857476189475e-01 2.1732062791138520e+00 -1.0594352442365538e+00 -1.1079193618978036e+00 -6.6271744995903159e-01 -6.1045057421235693e-01 -2.2171814690251243e-01 -1.0712989516126878e+00 -6.0497149142997608e-01 9.4245887444219423e-01 -4.1292998746778808e-01 1.6742139066084949e+00 1.9984084113775208e-01 1.3866392661743623e+00 -1.7844040485085766e-01 2.5333554939612918e-01 2.4096194816187036e-01 1.2115083915492293e+00 -1.3995818602728205e+00 1.2228366357852151e-01 
        </Neuron>
        <Neuron NSynapses="26">
          1.5126346625130447e+00 -1.5296904209520268e+00 -1.8508665860829048e+00 4.3711527514577181e-01 5.5343352196608986e-01 2.2660055917178115e+00 -1.9654481856584477e-01 -5.6301969326459622e-01 6.8107727355350867e-01 -2.0192446495528305e-01 -3.6044204499372250e+00 2.3620488460953699e+00 -2.9849036563644380e+00 7.0231260244132143e-01 1.1928479749273342e+00 7.7469483450357290e-01 1.8714325827855796e+00 5.8294780353202280e-01 -8.4102760718456693e-01 -1.4360445859470832e+00 1.0559199978563074e+00 4.6044784409002715e-01 2.3824327210048115e+00 1.7706309979860797e+00 2.0641591311816052e+00 6.1579020274077569e+00 
        </Neuron>
        <Neuron NSynapses="26">
          -1.6598549502443913e+00 1.6492854845605389e+00 -1.7732639295521722e+00 -1.2844960114397859e+00 -1.2838691967165001e+00 -1.4228075880017035e+00 1.4797682860971113e+00 7.4317960432287500e-01 -1.3379140935188036e+00 3.1860067022832450e-01 1.2388092157351689e+00 -6.3006633448669580e-01 3.1208991965458659e+00 -1.2165728492893493e+00 1.3806716776470765e-01 -6.8737450712696346e-01 7.6769492424146479e-01 -4.8647314193829111e-01 -7.2583740244421113e-01 -1.2074160452706604e+00 6.2650398947683061e-01 1.3136749379301893e+00 8.4442791091490588e-01 -6.9716553731201447e-01 -1.8401846886053528e+00 -3.4124488141111358e+00 
        </Neuron>
        <Neuron NSynapses="26">
          1.0005865480751315e+00 1.0082473643729047e-01 1.7304603685323938e+00 1.1855650996772109e+00 9.2965946255649257e-01 -1.3496140655641100e+00 -7.5189338332228650e-01 -4.0789319374649585e-01 1.0037915870950638e+00 -1.0539317873077139e+00 -2.2996121023673148e+00 -9.6812040599914240e-01 1.9764524923143507e+00 -1.3708261161438159e-01 1.6053448302435926e+00 -1.2328962375982488e+00 -8.2618686989328982e-01 2.2590703530780250e+00 -9.2391440407342240e-01 -1.5602610514374966e+00 -1.4658741202759664e+00 -1.8055923265061583e-01 3.5440735682114394e-01 -6.4315695331417599e-01 9.6643172820955126e-01 6.3156115764711940e-01 
        </Neuron>
        <Neuron NSynapses="26">
          -1.1534447523495173e+00 1.2032540541887053e+00 -1.5988518502356945e+00 -9.7700628795289068e-01 -7.0683861633427367e-02 3.3712502047256632e-01 -1.7828803365974277e+00 3.5525178038683641e-01 -6.1308092419621618e-01 4.4952736946293437e-01 -2.4931995828154414e+00 3.2885474278596551e+00 1.2751968112741534e+00 -4.7284102843855497e-01 7.9625045356677571e-01 -1.9366241034060441e+00 -1.5908313595351451e+00 -5.3413348411589168e-01 -3.4052941628047756e-01 1.6710188176279408e+00 9.3203574040205539e-01 -8.7452186566354728e-01 -7.4091117026550724e-01 -1.0433497273103489e+00 -1.9358111251008197e+00 8.2325465998311054e-01 
        </Neuron>
        <Neuron NSynapses="26">
          1.4359028563470358e-01 -2.2356037057058891e+00 2.4190618980720968e-01 -1.4632366251836932e+00 2.5570041179082934e-02 2.3886037117103803e-01 1.8073140505686900e+00 -1.8083838473019787e+00 -3.5965234958552289e-01 1.5337689018646989e+00 1.2649232022707868e+00 1.7172279725319193e+00 -7.4498651241545588e-01 -6.0325212464162226e-01 -1.4525211703868599e+00 5.6550976631685423e-01 1.2293657182536781e+00 1.7804391258099850e-01 -4.3260168688155526e-01 -1.5108790487278062e-02 -1.1826916559136920e+00 4.1165467818535134e-01 1.8307496406303612e+00 4.6390663868168514e-01 -6.4878520133724338e-01 1.1925233310314032e+00 
        </Neuron>
        <Neuron NSynapses="26">
          1.0031241826874668e+00 7.0794249249417496e-01 1.9422645621054577e-01 -1.0528991296973760e+00 1.6219416051989251e+00 -1.6241377166947428e+00 6.2146880886676825e-01 3.7170813904019528e-01 6.0342090483396471e-01 -5.7391796729075784e-01 8.2092133192389660e-01 1.1038977210373835e+00 3.3924167319466153e-01 -1.3544248771699721e+00 1.6264213287704117e+00 3.0615956752644249e+00 -2.8937240367477901e-01 -2.3477223892754215e-01 1.7795699291900078e+00 -1.8303916817383636e+00 1.3623232405716210e+00 1.4887530144877925e+00 3.2637798326635864e-01 -2.6538336515009529e+00 -9.4847525145938349e-01 -9.6659861177043516e-01 
        </Neuron>
        <Neuron NSynapses="26">
          1.7978538791091669e+00 -1.7742115584502636e+00 3.1259349069383052e-01 -1.7133127920424318e+00 2.5105357356392877e-01 8.5260944967109509e-01 -2.7528999869531068e-01 -7.2546715768407299e-01 -2.2783203896793127e+00 1.0480219347478954e+00 -3.1986069371689135e-01 1.1438713539378922e+00 1.4740890542547422e+00 -8.1059673493528628e-01 -1.9961118192031608e+00 4.4085678393345773e-01 4.6766708190311390e-01 -5.3505945694821666e-01 -7.9750977383536059e-01 1.7008260929332270e-01 -4.1538670745093043e-02 -1.5648765678287839e+00 4.8919328618632085e-01 1.3725566229714619e+00 -5.3450327316036154e-02 -1.2379699006374829e+00 
        </Neuron>
        <Neuron NSynapses="26">
          1.6340169976268626e+00 7.8339821383697505e-01 8.4211654473808928e-01 -1.4355221760190562e-01 -2.0134167375825123e+00 -2.8878443320860003e-01 1.6327798001301703e+00 1.5302610921252484e+00 4.8407972646813247e-01 1.8559542294513520e-01 -7.3667102094877879e-01 -8.9856276789452116e-01 -2.0640482699369276e+00 5.2085426462032647e-01 -1.4569923516701879e+00 3.7077405153111598e-01 1.7315739622020681e+00 -1.2757538782065561e+00 8.5943814014889397e-01 -6.6077774570535541e-01 -1.4181480193955716e+00 -2.2068082278737484e+00 -6.3054067507384917e-02 5.2666721693154239e-01 5.5053658078070544e-01 -1.7662910513524846e-01 
        </Neuron>
        <Neuron NSynapses="26">
          1.6919678955531394e+00 -1.8200054820990001e+00 1.5661254348204723e+00 8.9975965586274256e-03 -1.5219592328626275e+00 -2.2751253762879413e+00 -1.8045926637769374e+00 -6.3235285836659705e-01 -2.3964252740521896e+00 -1.5506823090161861e+00 -1.0927887430517542e+00 -5.6084133855470863e-01 -2.0229480910482683e-01 -2.6375014607253919e+00 1.4749694796970110e+00 -7.4501883797309210e-01 1.5388613486513994e-01 -8.8363791789896717e-01 8.5530791743207379e-02 1.8792386295634871e+00 1.5302367777056733e+00 -2.0157090397575972e-01 -6.5939585817986268e+00 -7.6626832677208778e-01 -3.7736148561574634e-01 -1.7915853819266705e+00 
        </Neuron>
        <Neuron NSynapses="26">
          3.4285033122959063e-01 5.8850101385682529e-01 1.7221830629931156e+00 -1.1002460214039747e-01 3.4593775067350913e-01 -3.2837394177637780e-01 -2.0572292109371606e+00 1.6875623122610035e+00 1.2370282173494647e+00 -8.9371603092052920e-01 -1.2467265725400385e+00 1.7803442823989952e+00 4.2160617186203231e-01 1.1222116160979401e+00 -4.3152430661088859e-01 -5.2292597126964291e-01 1.4556997229973860e+00 1.1307611560503361e-01 1.0972953361472162e+00 -6.1459859339480649e-01 1.2168050701018919e-01 -8.1055476379165881e-02 4.9109479170725806e-01 1.3442673599931858e+00 -2.2696812846285668e+00 8.6396762298990626e-01 
        </Neuron>
        <Neuron NSynapses="26">
          -1.5147947769970691e+00 2.0519572274927596e+00 -1.9172927923323424e+00 1.6123237575915359e+00 -1.4645098078421213e+00 1.3733074296975005e+00 -1.2218619078003934e+00 8.9166541841458102e-01 5.8720855120104098e-01 -1.9189796929421299e+00 -1.0548698061640435e-01 9.5739325640541129e-01 -2.2953423631873311e+00 -9.1792196933534309e-01 -1.7006462015112571e+00 -9.2048788037848517e-01 1.8705606242579123e+00 -7.7779996443131683e-01 3.6796012136407669e-01 -1.2506518245588947e+00 -1.3554876989134628e+00 -1.6483131066658008e+00 -2.6753434386794200e-01 -7.8771650539256532e-01 3.5707308756813066e-01 -5.9779501954181047e-01 
        </Neuron>
        <Neuron NSynapses="26">
          -1.2181011187042570e+00 1.4806274980129257e+00 -3.4493520641945546e-01 -9.5155648083657318e-01 1.7475277346215963e+00 -1.2145834596665319e+00 1.3806566402241351e+00 6.2723486861386535e-01 -1.5444120823134584e+00 -7.4608183144033580e-01 9.5329087230974974e-01 -1.0745525981738602e+00 1.1967710393374655e+00 3.1301389451415229e+00 1.2938164514818082e+00 -6.8253486646934791e-01 -1.3736728254932229e+00 3.0750881770477951e+00 -1.8991929583994487e+00 5.7136925532931460e-01 -1.6101247942883046e+00 -2.5605326946044715e+00 -1.8349545681390997e+00 1.5982488341826926e+00 9.8157934740737862e-01 -3.2350825229302932e-01 
        </Neuron>
        <Neuron NSynapses="26">
          2.7542876234606684e-01 -3.6385094792813377e-01 -5.5453985647120362e-02 3.5769072936428455e-02 1.8522625971755793e+00 -1.9446995987836113e+00 3.3218043644272055e-01 -1.4753250099300659e+00 4.1632078081888402e-02 7.5477490746482273e-02 -1.5207574108646551e+00 -8.6532964266721621e-02 1.5903580508281969e+00 7.4368918489224212e-01 6.5682863031281680e-01 4.9910581980101620e-01 -9.3869662233181483e-01 -2.5041379755080357e+00 -1.7781895922270248e+00 1.6793966833408804e+00 -3.6114632407956693e-01 -8.0421684284413575e-01 2.3902647134468899e-01 1.4269649142381540e+00 -7.5982596029877303e-01 -9.6819974951420529e-01 
        </Neuron>
        <Neuron NSynapses="26">
          1.0112128643608036e+00 -1.5375133365766740e+00 -2.2062845785465113e+00 -6.3530379282248384e-01 -1.0753906068520247e+00 -1.7304335536983702e+00 1.2314930469843435e+00 -1.6674268552702887e+00 -1.3692195063429127e+00 1.7676796369041194e+00 1.5945812211976653e+00 3.5218933739028666e-02 -6.5325085624339896e-01 1.5804783890296927e+00 1.6759452035051434e+00 -4.6037762433378648e-02 -9.4781782859145214e-01 5.6007152183873088e-02 -1.6627561999937974e+00 9.8239795490093407e-01 1.0285110901688765e+00 -5.7423071874380271e-01 1.5495414973492234e+00 7.0297604644102141e-01 2.1302726732413770e+00 -3.4583747224108277e+00 
        </Neuron>
        <Neuron NSynapses="26">
          1.7279910289954992e+00 4.5052611659355474e-01 -1.4264066860252822e+00 -4.6964719102313524e-01 -1.1736453500653155e+00 3.0451963370988672e-01 5.2899344510222857e-01 6.4394791162968568e-01 1.5824245143720246e+00 -3.4870056197813981e-01 2.5546213653102661e+00 1.4960443217167887e+00 9.3351924506998041e-01 -1.8130974949901846e+00 1.6370615075162236e+00 -2.0545460388597840e+00 5.6506220658911011e-01 1.9512554758269982e+00 -4.8411889306253336e-01 -4.9578611996028854e-01 2.9115336040260509e-01 -1.1296146649999350e+00 8.6864585237335812e-01 -1.0016649404991194e+00 7.5780861463115345e-01 3.5331750190595346e-01 
        </Neuron>
        <Neuron NSynapses="26">
          1.7048617518405840e+00 9.0904282622823129e-01 1.3534148811948110e+00 -4.1774197562824594e-01 -5.0963677698529763e-01 8.4772207717834902e-01 1.8682601190279620e+00 -1.9592150615479800e+00 -1.1375521058034961e+00 -5.5891609744302906e-01 -1.5697530692250547e-01 -1.6521481603572998e+00 -2.1163459836051085e-01 4.4665108975994461e-01 1.1692840093047584e-03 -2.5544407701151308e+00 -1.9122332540091256e+00 -2.6272345849712480e+00 1.7793089481667432e+00 2.3228426331355880e+00 1.4137693214820006e+00 -9.9626355203655714e-01 -8.5063492601286672e-01 -4.3930390133564201e-01 -7.2602247709933221e-01 -2.8681868120284815e+00 
        </Neuron>
        <Neuron NSynapses="26">
          -6.7186933422670392e-01 2.2870022655150565e-01 -1.4011541736543296e+00 1.5768782929847438e+00 1.2829789751983403e+00 3.1480824300284038e-01 -6.9038214220811089e-01 -5.5770019431897233e-01 1.3217964623837912e+00 -6.8868495048277634e-01 2.0704706117429912e+00 2.0964712866379354e+00 6.6517463609973426e-01 -1.4541029082290164e+00 1.3892666885168057e+00 -1.7988131549205693e+00 1.6216944253497698e+00 1.9096112034252442e+00 -1.2730489822353752e-01 -4.9055492710134940e-01 3.7589837602689594e-02 -5.2903064647478448e-01 1.7027174503734077e-01 1.5596653272632610e+00 -1.1325968178103258e+00 -1.0177575708967306e+00 
        </Neuron>
        <Neuron NSynapses="26">
          -3.8865085371902940e-02 1.7732592352793544e+00 -2.1634095240942178e-01 -1.1382936546060818e+00 -1.9853750135556489e+00 2.7032801410178657e+00 3.5002210384942772e-01 -8.3046555357661578e-01 -9.9582780254681202e-01 -9.6062832934583575e-01 8.3947953373724604e-01 -4.2202559826357472e-01 -4.0370602595442961e-01 -1.6352878386075120e+00 1.5864186451975746e+00 4.4451932639646213e-01 3.1105919814847727e-01 1.1260700007298639e+00 -1.2637371798871646e+00 -1.1141481546395087e+00 1.2006635074108734e+00 1.2253632199121320e+00 8.4281491847511070e-01 -1.6148512742869656e+00 -1.3835113403033770e+00 -2.8857768234440813e-02 
        </Neuron>
        <Neuron NSynapses="26">
          -3.1913367669545017e-01 -1.4036834959673727e+00 1.2711309356291223e+00 -6.8954542600757518e-01 1.7043692848083007e+00 2.2281789777406460e+00 -1.9392151635272163e+00 1.2316254454870941e+00 2.6597184271840928e+00 1.0504401170688091e+00 4.6450119392966732e-01 -1.5939817917907155e+00 1.1222243453385983e+00 -1.9362752423710310e+00 3.9313362565213128e-01 -1.2743740391210443e+00 1.3141262402816787e+00 -1.3675829404209814e+00 2.9601223171983276e-01 2.6000381134191453e-01 -1.5851108168268711e-02 -4.3561317191531085e-01 -1.5143722123715547e-01 -7.2387137416903291e-01 5.7572142044516272e-01 -5.2532334320719665e-01 
        </Neuron>
        <Neuron NSynapses="26">
          1.0000316953446424e+00 -1.4352573483464472e+00 1.8130593594052340e+00 -2.0193680419972719e+00 1.0181326479319881e+00 1.1220353234852221e+00 7.2622600209838339e-01 1.2383199573117398e+00 6.4619688226482341e-01 -1.9251718171035044e+00 5.2473096981416678e-01 -7.3985133322699115e-01 1.2739554054711061e-01 -8.8139062562147885e-01 -1.8349839708943361e-01 -5.7959347087848412e-01 -4.7105537791151464e-01 -3.5257624511876051e-01 -3.2303370274316773e-01 -1.5016787812600938e+00 -1.6770271408773874e-01 6.9152244749209590e-01 2.6086517081405497e-01 -2.0261088597435588e+00 6.0574413629060164e-01 -3.8121406476980624e-01 
        </Neuron>
        <Neuron NSynapses="26">
          -2.7920686412359846e-01 -9.5690705646210539e-01 1.6733741690931780e+00 -4.6256381904106508e-01 8.3669988085415981e-01 7.4056081998617085e-01 -1.3419380299393349e+00 -4.4520335102215891e-01 -4.8430936591195406e-01 -2.0269523378355254e+00 3.0390288464871695e-01 -9.4139134623222187e-01 2.0431530563191291e+00 -1.2262323094768013e+00 1.5369380250955511e+00 1.8012217653705600e+00 1.6169737392511903e+00 8.8709486960052353e-01 7.5556345135843839e-01 -2.8131454961548263e-01 -1.0745962206277739e+00 -2.0365597287305275e+00 -1.9085537375277564e+00 -3.4973842880261191e-01 7.7802096157894585e-01 -5.0085178218370729e-01 
        </Neuron>
      </Layer>
      <Layer Index="1" NNeurons="27">
        <Neuron NSynapses="1">
          1.6855748835570036e-01 
        </Neuron>
        <Neuron NSynapses="1">
          1.0987909209440174e+00 
        </Neuron>
        <Neuron NSynapses="1">
          1.7290450886696929e+00 
        </Neuron>
        <Neuron NSynapses="1">
          -1.5662026340925801e+00 
        </Neuron>
        <Neuron NSynapses="1">
          -6.1415157758574901e-01 
        </Neuron>
        <Neuron NSynapses="1">
          -2.5430829875658554e+00 
        </Neuron>
        <Neuron NSynapses="1">
          8.4374082320517396e-01 
        </Neuron>
        <Neuron NSynapses="1">
          -1.5049220711241864e+00 
        </Neuron>
        <Neuron NSynapses="1">
          -1.9264763296874665e+00 
        </Neuron>
        <Neuron NSynapses="1">
          2.5716297511899022e-01 
        </Neuron>
        <Neuron NSynapses="1">
          3.0673910153802444e+00 
        </Neuron>
        <Neuron NSynapses="1">
          -1.5755512369974347e+00 
        </Neuron>
        <Neuron NSynapses="1">
          1.8994904484797377e+00 
        </Neuron>
        <Neuron NSynapses="1">
          -3.3800143241789544e+00 
        </Neuron>
        <Neuron NSynapses="1">
          -1.2774458896395496e-01 
        </Neuron>
        <Neuron NSynapses="1">
          2.4612480336717395e+00 
        </Neuron>
        <Neuron NSynapses="1">
          -6.8086480082099987e-01 
        </Neuron>
        <Neuron NSynapses="1">
          1.9383383698396346e+00 
        </Neuron>
        <Neuron NSynapses="1">
          -1.7500400869923092e+00 
        </Neuron>
        <Neuron NSynapses="1">
          1.1968568761444944e+00 
        </Neuron>
        <Neuron NSynapses="1">
          -1.3202897030491245e+00 
        </Neuron>
        <Neuron NSynapses="1">
          -1.4551367260388119e+00 
        </Neuron>
        <Neuron NSynapses="1">
          -2.8409947212021511e+00 
        </Neuron>
        <Neuron NSynapses="1">
          -1.5943884289773709e+00 
        </Neuron>
        <Neuron NSynapses="1">
          1.0031893986639862e+00 
        </Neuron>
        <Neuron NSynapses="1">
          -2.2329485684882959e+00 
        </Neuron>
        <Neuron NSynapses="1">
          -1.3269401786987973e+00 
        </Neuron>
      </Layer>
      <Layer Index="2" NNeurons="1">
        <Neuron NSynapses="0"/>
      </Layer>
    </Layout>
  </Weights>
</MethodSetup>
