<?xml version="1.0"?>
<MethodSetup Method="BDT::BDTG">
  <GeneralInfo>
    <Info name="TMVA Release" value="4.2.1 [262657]"/>
    <Info name="ROOT Release" value="6.24/08 [399368]"/>
    <Info name="Creator" value="pgaigne"/>
    <Info name="Date" value="Fri Mar 17 13:14:38 2023"/>
    <Info name="Host" value="Linux buildvm-x86-06.iad2.fedoraproject.org 5.18.17-200.fc36.x86_64 #1 SMP PREEMPT_DYNAMIC Thu Aug 11 14:36:06 UTC 2022 x86_64 x86_64 x86_64 GNU/Linux"/>
    <Info name="Dir" value="/afs/cern.ch/user/p/pgaigne/xiccpp/Xicc/TMVA"/>
    <Info name="Training events" value="55310"/>
    <Info name="TrainingTime" value="4.11750410e+01"/>
    <Info name="AnalysisType" value="Classification"/>
  </GeneralInfo>
  <Options>
    <Option name="V" modified="Yes">False</Option>
    <Option name="VerbosityLevel" modified="No">Default</Option>
    <Option name="VarTransform" modified="No">None</Option>
    <Option name="H" modified="Yes">False</Option>
    <Option name="CreateMVAPdfs" modified="No">False</Option>
    <Option name="IgnoreNegWeightsInTraining" modified="No">False</Option>
    <Option name="NTrees" modified="Yes">1000</Option>
    <Option name="MaxDepth" modified="Yes">2</Option>
    <Option name="MinNodeSize" modified="Yes">2.5%</Option>
    <Option name="nCuts" modified="Yes">20</Option>
    <Option name="BoostType" modified="Yes">Grad</Option>
    <Option name="AdaBoostR2Loss" modified="No">quadratic</Option>
    <Option name="UseBaggedBoost" modified="Yes">True</Option>
    <Option name="Shrinkage" modified="Yes">1.000000e-01</Option>
    <Option name="AdaBoostBeta" modified="No">5.000000e-01</Option>
    <Option name="UseRandomisedTrees" modified="No">False</Option>
    <Option name="UseNvars" modified="No">5</Option>
    <Option name="UsePoissonNvars" modified="No">True</Option>
    <Option name="BaggedSampleFraction" modified="Yes">5.000000e-01</Option>
    <Option name="UseYesNoLeaf" modified="No">True</Option>
    <Option name="NegWeightTreatment" modified="No">pray</Option>
    <Option name="Css" modified="No">1.000000e+00</Option>
    <Option name="Cts_sb" modified="No">1.000000e+00</Option>
    <Option name="Ctb_ss" modified="No">1.000000e+00</Option>
    <Option name="Cbb" modified="No">1.000000e+00</Option>
    <Option name="NodePurityLimit" modified="No">5.000000e-01</Option>
    <Option name="SeparationType" modified="No">giniindex</Option>
    <Option name="RegressionLossFunctionBDTG" modified="No">huber</Option>
    <Option name="HuberQuantile" modified="No">7.000000e-01</Option>
    <Option name="DoBoostMonitor" modified="No">False</Option>
    <Option name="UseFisherCuts" modified="No">False</Option>
    <Option name="MinLinCorrForFisher" modified="No">8.000000e-01</Option>
    <Option name="UseExclusiveVars" modified="No">False</Option>
    <Option name="DoPreselection" modified="No">False</Option>
    <Option name="SigToBkgFraction" modified="No">1.000000e+00</Option>
    <Option name="PruneMethod" modified="No">nopruning</Option>
    <Option name="PruneStrength" modified="No">0.000000e+00</Option>
    <Option name="PruningValFraction" modified="No">5.000000e-01</Option>
    <Option name="SkipNormalization" modified="No">False</Option>
    <Option name="nEventsMin" modified="No">0</Option>
    <Option name="UseBaggedGrad" modified="No">False</Option>
    <Option name="GradBaggingFraction" modified="No">5.000000e-01</Option>
    <Option name="UseNTrainEvents" modified="No">0</Option>
    <Option name="NNodesMax" modified="No">0</Option>
  </Options>
  <Variables NVar="21">
    <Variable VarIndex="0" Expression="log(TMath::Max(10e-10,Xicc_IPCHI2_OWNPV))" Label="log(TMath::Max(10e-10,Xicc_IPCHI2_OWNPV))" Title="log_Xicc_IPCHI2_OWNPV" Unit="" Internal="log_TMath_Max_10e_M_10,Xicc_IPCHI2_OWNPV__" Type="F" Min="-1.09880161e+01" Max="4.77267313e+00"/>
    <Variable VarIndex="1" Expression="TMath::ACos(Xicc_DIRA_OWNPV)" Label="TMath::ACos(Xicc_DIRA_OWNPV)" Title="acos_Xicc_DIRA_OWNPV" Unit="" Internal="TMath_ACos_Xicc_DIRA_OWNPV_" Type="F" Min="3.54814656e-05" Max="1.41500965e-01"/>
    <Variable VarIndex="2" Expression="log(TMath::Max(10e-10,Xicc_FDCHI2_OWNPV))" Label="log(TMath::Max(10e-10,Xicc_FDCHI2_OWNPV))" Title="log_Xicc_FDCHI2_OWNPV" Unit="" Internal="log_TMath_Max_10e_M_10,Xicc_FDCHI2_OWNPV__" Type="F" Min="-8.19707394e+00" Max="1.33982067e+01"/>
    <Variable VarIndex="3" Expression="Lc_ENDVERTEX_CHI2/Lc_ENDVERTEX_NDOF" Label="Lc_ENDVERTEX_CHI2/Lc_ENDVERTEX_NDOF" Title="Lc_ENDVERTEX_CHI2_NDOF" Unit="" Internal="Lc_ENDVERTEX_CHI2_D_Lc_ENDVERTEX_NDOF" Type="F" Min="2.38985740e-04" Max="9.99747753e+00"/>
    <Variable VarIndex="4" Expression="log(TMath::Max(10e-10,Xicc_ENDVERTEX_CHI2/Xicc_ENDVERTEX_NDOF))" Label="log(TMath::Max(10e-10,Xicc_ENDVERTEX_CHI2/Xicc_ENDVERTEX_NDOF))" Title="log_Xicc_ENDVERTEX_CHI2_NDOF" Unit="" Internal="log_TMath_Max_10e_M_10,Xicc_ENDVERTEX_CHI2_D_Xicc_ENDVERTEX_NDOF__" Type="F" Min="-4.70480728e+00" Max="3.21878600e+00"/>
    <Variable VarIndex="5" Expression="log(TMath::Max(10e-10,Xicc_CHI2NDOF_DTF_PV))" Label="log(TMath::Max(10e-10,Xicc_CHI2NDOF_DTF_PV))" Title="log_Xicc_CHI2NDOF_DTF_PV" Unit="" Internal="log_TMath_Max_10e_M_10,Xicc_CHI2NDOF_DTF_PV__" Type="F" Min="-2.07232666e+01" Max="4.34344006e+00"/>
    <Variable VarIndex="6" Expression="LcP_PIDp" Label="LcP_PIDp" Title="LcP_PIDp" Unit="" Internal="LcP_PIDp" Type="F" Min="5.00063515e+00" Max="1.21258682e+02"/>
    <Variable VarIndex="7" Expression="LcK_PIDK" Label="LcK_PIDK" Title="LcK_PIDK" Unit="" Internal="LcK_PIDK" Type="F" Min="5.00230551e+00" Max="1.41144348e+02"/>
    <Variable VarIndex="8" Expression="LcPi_PIDK" Label="LcPi_PIDK" Title="LcPi_PIDK" Unit="" Internal="LcPi_PIDK" Type="F" Min="-1.62038010e+02" Max="4.99719238e+00"/>
    <Variable VarIndex="9" Expression="XiccK_PIDK" Label="XiccK_PIDK" Title="XiccK_PIDK" Unit="" Internal="XiccK_PIDK" Type="F" Min="-1.00000000e+03" Max="1.24393028e+02"/>
    <Variable VarIndex="10" Expression="XiccPi1_PIDK" Label="XiccPi1_PIDK" Title="XiccPi1_PIDK" Unit="" Internal="XiccPi1_PIDK" Type="F" Min="-1.00000000e+03" Max="2.32274227e+01"/>
    <Variable VarIndex="11" Expression="XiccPi2_PIDK" Label="XiccPi2_PIDK" Title="XiccPi2_PIDK" Unit="" Internal="XiccPi2_PIDK" Type="F" Min="-1.00000000e+03" Max="2.70061588e+01"/>
    <Variable VarIndex="12" Expression="TMath::Min(TMath::Min(XiccK_PT,Lc_PT),TMath::Min(XiccPi1_PT,XiccPi2_PT))" Label="TMath::Min(TMath::Min(XiccK_PT,Lc_PT),TMath::Min(XiccPi1_PT,XiccPi2_PT))" Title="min_Xicc_Daughters_PT" Unit="" Internal="TMath_Min_TMath_Min_XiccK_PT,Lc_PT_,TMath_Min_XiccPi1_PT,XiccPi2_PT__" Type="F" Min="2.00002319e+02" Max="5.12833105e+03"/>
    <Variable VarIndex="13" Expression="Lc_PT" Label="Lc_PT" Title="Lc_PT" Unit="" Internal="Lc_PT" Type="F" Min="2.50914478e+03" Max="2.72094023e+04"/>
    <Variable VarIndex="14" Expression="XiccPi1_PT" Label="XiccPi1_PT" Title="XiccPi1_PT" Unit="" Internal="XiccPi1_PT" Type="F" Min="2.00009613e+02" Max="6.91272412e+03"/>
    <Variable VarIndex="15" Expression="XiccPi2_PT" Label="XiccPi2_PT" Title="XiccPi2_PT" Unit="" Internal="XiccPi2_PT" Type="F" Min="2.00002319e+02" Max="7.88958057e+03"/>
    <Variable VarIndex="16" Expression="XiccK_PT" Label="XiccK_PT" Title="XiccK_PT" Unit="" Internal="XiccK_PT" Type="F" Min="2.50001678e+02" Max="1.20218740e+04"/>
    <Variable VarIndex="17" Expression="log(TMath::Max(10e-10,Lc_IPCHI2_OWNPV))" Label="log(TMath::Max(10e-10,Lc_IPCHI2_OWNPV))" Title="log_Lc_IPCHI2_OWNPV" Unit="" Internal="log_TMath_Max_10e_M_10,Lc_IPCHI2_OWNPV__" Type="F" Min="-2.07232666e+01" Max="7.62562180e+00"/>
    <Variable VarIndex="18" Expression="log(TMath::Max(10e-10,XiccK_IPCHI2_OWNPV))" Label="log(TMath::Max(10e-10,XiccK_IPCHI2_OWNPV))" Title="log_XiccK_IPCHI2_OWNPV" Unit="" Internal="log_TMath_Max_10e_M_10,XiccK_IPCHI2_OWNPV__" Type="F" Min="3.04857185e-05" Max="9.39906502e+00"/>
    <Variable VarIndex="19" Expression="log(TMath::Max(10e-10,XiccPi1_IPCHI2_OWNPV))" Label="log(TMath::Max(10e-10,XiccPi1_IPCHI2_OWNPV))" Title="log_XiccPi1_IPCHI2_OWNPV" Unit="" Internal="log_TMath_Max_10e_M_10,XiccPi1_IPCHI2_OWNPV__" Type="F" Min="1.35115653e-04" Max="8.87504578e+00"/>
    <Variable VarIndex="20" Expression="log(TMath::Max(10e-10,XiccPi2_IPCHI2_OWNPV))" Label="log(TMath::Max(10e-10,XiccPi2_IPCHI2_OWNPV))" Title="log_XiccPi2_IPCHI2_OWNPV" Unit="" Internal="log_TMath_Max_10e_M_10,XiccPi2_IPCHI2_OWNPV__" Type="F" Min="3.72003124e-05" Max="1.02404003e+01"/>
  </Variables>
  <Spectators NSpec="2">
    <Spectator SpecIndex="0" Expression="Xicc_M" Label="Xicc_M" Title="F" Unit="" Internal="Xicc_M" Type="F" Min="3.60600659e+03" Max="3.89999878e+03"/>
    <Spectator SpecIndex="1" Expression="Lc_M" Label="Lc_M" Title="F" Unit="" Internal="Lc_M" Type="F" Min="2.27000317e+03" Max="2.30599951e+03"/>
  </Spectators>
  <Classes NClass="2">
    <Class Name="Signal" Index="0"/>
    <Class Name="Background" Index="1"/>
  </Classes>
  <Transformations NTransformations="0"/>
  <MVAPdfs/>
  <Weights NTrees="1000" AnalysisType="1">
    <BinaryTree type="DecisionTree" boostWeight="1.0000000000000000e+00" itree="0">
      <Node pos="s" depth="0" NCoef="0" IVar="1" Cut="6.7730392329394817e-03" cType="1" res="-1.1503537185490131e-02" rms="4.9986764788627625e-01" purity="4.8849645256996155e-01" nType="0">
        <Node pos="l" depth="1" NCoef="0" IVar="5" Cut="9.4754314422607422e-01" cType="1" res="2.7963024377822876e-01" rms="4.1449597477912903e-01" purity="7.7963024377822876e-01" nType="0">
          <Node pos="l" depth="2" NCoef="0" IVar="-1" Cut="0.0000000000000000e+00" cType="1" res="8.3212062716484070e-02" rms="2.7729737758636475e-01" purity="9.1606032848358154e-01" nType="-99"/>
          <Node pos="r" depth="2" NCoef="0" IVar="-1" Cut="0.0000000000000000e+00" cType="1" res="-4.2428761720657349e-02" rms="4.5276373624801636e-01" purity="2.8785622119903564e-01" nType="-99"/>
        </Node>
        <Node pos="r" depth="1" NCoef="0" IVar="1" Cut="1.3185882940888405e-02" cType="1" res="-3.8074249029159546e-01" rms="3.2409128546714783e-01" purity="1.1925750970840454e-01" nType="0">
          <Node pos="l" depth="2" NCoef="0" IVar="-1" Cut="0.0000000000000000e+00" cType="1" res="-3.4829534590244293e-02" rms="4.6869242191314697e-01" purity="3.2585233449935913e-01" nType="-99"/>
          <Node pos="r" depth="2" NCoef="0" IVar="-1" Cut="0.0000000000000000e+00" cType="1" res="-9.4684399664402008e-02" rms="1.6084656119346619e-01" purity="2.6578007265925407e-02" nType="-99"/>
        </Node>
      </Node>
    </BinaryTree>
    <BinaryTree type="DecisionTree" boostWeight="1.0000000000000000e+00" itree="1">
      <Node pos="s" depth="0" NCoef="0" IVar="1" Cut="6.7683332599699497e-03" cType="1" res="9.2644235119223595e-03" rms="4.6946603059768677e-01" purity="5.0974363088607788e-01" nType="0">
        <Node pos="l" depth="1" NCoef="0" IVar="5" Cut="9.4754314422607422e-01" cType="1" res="2.6971322298049927e-01" rms="3.8587084412574768e-01" purity="7.9861944913864136e-01" nType="0">
          <Node pos="l" depth="2" NCoef="0" IVar="-1" Cut="0.0000000000000000e+00" cType="1" res="7.7021978795528412e-02" rms="2.6505279541015625e-01" purity="9.2396587133407593e-01" nType="-99"/>
          <Node pos="r" depth="2" NCoef="0" IVar="-1" Cut="0.0000000000000000e+00" cType="1" res="-3.5764042288064957e-02" rms="4.5838823914527893e-01" purity="3.0029961466789246e-01" nType="-99"/>
        </Node>
        <Node pos="r" depth="1" NCoef="0" IVar="12" Cut="6.0155963134765625e+02" cType="1" res="-3.4312063455581665e-01" rms="3.1809830665588379e-01" purity="1.1889699846506119e-01" nType="0">
          <Node pos="l" depth="2" NCoef="0" IVar="-1" Cut="0.0000000000000000e+00" cType="1" res="-7.7568374574184418e-02" rms="2.6053294539451599e-01" purity="7.5908474624156952e-02" nType="-99"/>
          <Node pos="r" depth="2" NCoef="0" IVar="-1" Cut="0.0000000000000000e+00" cType="1" res="1.8991285935044289e-02" rms="4.8732534050941467e-01" purity="5.6582045555114746e-01" nType="-99"/>
        </Node>
      </Node>
    </BinaryTree>
    <BinaryTree type="DecisionTree" boostWeight="1.0000000000000000e+00" itree="2">
      <Node pos="s" depth="0" NCoef="0" IVar="1" Cut="6.7719328217208385e-03" cType="1" res="3.9622066542506218e-03" rms="4.4185557961463928e-01" purity="5.0527662038803101e-01" nType="0">
        <Node pos="l" depth="1" NCoef="0" IVar="5" Cut="1.1515265703201294e+00" cType="1" res="2.4370990693569183e-01" rms="3.7252956628799438e-01" purity="7.9921531677246094e-01" nType="0">
          <Node pos="l" depth="2" NCoef="0" IVar="-1" Cut="0.0000000000000000e+00" cType="1" res="6.8656012415885925e-02" rms="2.8244721889495850e-01" purity="9.0862452983856201e-01" nType="-99"/>
          <Node pos="r" depth="2" NCoef="0" IVar="-1" Cut="0.0000000000000000e+00" cType="1" res="-4.6382181346416473e-02" rms="4.2113354802131653e-01" purity="2.3047670722007751e-01" nType="-99"/>
        </Node>
        <Node pos="r" depth="1" NCoef="0" IVar="12" Cut="5.4695599365234375e+02" cType="1" res="-3.2322940230369568e-01" rms="2.9459932446479797e-01" purity="1.0412874072790146e-01" nType="0">
          <Node pos="l" depth="2" NCoef="0" IVar="-1" Cut="0.0000000000000000e+00" cType="1" res="-7.5111187994480133e-02" rms="2.2659070789813995e-01" purity="5.6108854711055756e-02" nType="-99"/>
          <Node pos="r" depth="2" NCoef="0" IVar="-1" Cut="0.0000000000000000e+00" cType="1" res="6.9709569215774536e-03" rms="4.8801994323730469e-01" purity="5.0355392694473267e-01" nType="-99"/>
        </Node>
      </Node>
    </BinaryTree>
    <BinaryTree type="DecisionTree" boostWeight="1.0000000000000000e+00" itree="3">
      <Node pos="s" depth="0" NCoef="0" IVar="1" Cut="6.7835133522748947e-03" cType="1" res="6.7639624467119575e-04" rms="4.1792723536491394e-01" purity="5.0167578458786011e-01" nType="0">
        <Node pos="l" depth="1" NCoef="0" IVar="5" Cut="1.0455280542373657e+00" cType="1" res="2.1789172291755676e-01" rms="3.6097618937492371e-01" purity="7.9889076948165894e-01" nType="0">
          <Node pos="l" depth="2" NCoef="0" IVar="-1" Cut="0.0000000000000000e+00" cType="1" res="6.4865306019783020e-02" rms="2.7180552482604980e-01" purity="9.1789090633392334e-01" nType="-99"/>
          <Node pos="r" depth="2" NCoef="0" IVar="-1" Cut="0.0000000000000000e+00" cType="1" res="-4.4444024562835693e-02" rms="4.1534575819969177e-01" purity="2.2382070124149323e-01" nType="-99"/>
        </Node>
        <Node pos="r" depth="1" NCoef="0" IVar="4" Cut="2.3810999095439911e-01" cType="1" res="-2.8688725829124451e-01" rms="2.9704019427299500e-01" purity="1.0820348560810089e-01" nType="0">
          <Node pos="l" depth="2" NCoef="0" IVar="-1" Cut="0.0000000000000000e+00" cType="1" res="-8.3502633497118950e-03" rms="4.5814406871795654e-01" purity="3.6652517318725586e-01" nType="-99"/>
          <Node pos="r" depth="2" NCoef="0" IVar="-1" Cut="0.0000000000000000e+00" cType="1" res="-7.2872079908847809e-02" rms="2.0153668522834778e-01" purity="4.5863907784223557e-02" nType="-99"/>
        </Node>
      </Node>
    </BinaryTree>
    <BinaryTree type="DecisionTree" boostWeight="1.0000000000000000e+00" itree="4">
      <Node pos="s" depth="0" NCoef="0" IVar="1" Cut="6.7689386196434498e-03" cType="1" res="3.8039865903556347e-03" rms="4.0071943402290344e-01" purity="5.0167983770370483e-01" nType="0">
        <Node pos="l" depth="1" NCoef="0" IVar="5" Cut="1.4089082479476929e+00" cType="1" res="1.9729074835777283e-01" rms="3.5544621944427490e-01" purity="7.9494971036911011e-01" nType="0">
          <Node pos="l" depth="2" NCoef="0" IVar="-1" Cut="0.0000000000000000e+00" cType="1" res="5.6192904710769653e-02" rms="3.0314946174621582e-01" purity="8.8425022363662720e-01" nType="-99"/>
          <Node pos="r" depth="2" NCoef="0" IVar="-1" Cut="0.0000000000000000e+00" cType="1" res="-4.6926487237215042e-02" rms="3.9089646935462952e-01" purity="1.8823093175888062e-01" nType="-99"/>
        </Node>
        <Node pos="r" depth="1" NCoef="0" IVar="1" Cut="1.3183618895709515e-02" cType="1" res="-2.4875678122043610e-01" rms="3.0431577563285828e-01" purity="1.1887095123529434e-01" nType="0">
          <Node pos="l" depth="2" NCoef="0" IVar="-1" Cut="0.0000000000000000e+00" cType="1" res="-1.5502372756600380e-02" rms="4.4662240147590637e-01" purity="3.2367560267448425e-01" nType="-99"/>
          <Node pos="r" depth="2" NCoef="0" IVar="-1" Cut="0.0000000000000000e+00" cType="1" res="-7.1733266115188599e-02" rms="1.5656526386737823e-01" purity="2.6667580008506775e-02" nType="-99"/>
        </Node>
      </Node>
    </BinaryTree>
    <BinaryTree type="DecisionTree" boostWeight="1.0000000000000000e+00" itree="5">
      <Node pos="s" depth="0" NCoef="0" IVar="1" Cut="6.7642326466739178e-03" cType="1" res="2.7308901771903038e-03" rms="3.8087803125381470e-01" purity="5.0459182262420654e-01" nType="0">
        <Node pos="l" depth="1" NCoef="0" IVar="9" Cut="1.3219333648681641e+01" cType="1" res="1.7718973755836487e-01" rms="3.4544646739959717e-01" purity="7.9660296440124512e-01" nType="0">
          <Node pos="l" depth="2" NCoef="0" IVar="-1" Cut="0.0000000000000000e+00" cType="1" res="-2.5167934596538544e-02" rms="4.2323824763298035e-01" purity="4.4716084003448486e-01" nType="-99"/>
          <Node pos="r" depth="2" NCoef="0" IVar="-1" Cut="0.0000000000000000e+00" cType="1" res="5.9969890862703323e-02" rms="2.5469380617141724e-01" purity="9.0686535835266113e-01" nType="-99"/>
        </Node>
        <Node pos="r" depth="1" NCoef="0" IVar="16" Cut="1.3104108886718750e+03" cType="1" res="-2.3331446945667267e-01" rms="2.8807988762855530e-01" purity="1.0949654132127762e-01" nType="0">
          <Node pos="l" depth="2" NCoef="0" IVar="-1" Cut="0.0000000000000000e+00" cType="1" res="-6.4900293946266174e-02" rms="1.9976240396499634e-01" purity="4.7943431884050369e-02" nType="-99"/>
          <Node pos="r" depth="2" NCoef="0" IVar="-1" Cut="0.0000000000000000e+00" cType="1" res="5.6329532526433468e-03" rms="4.5313468575477600e-01" purity="4.0067309141159058e-01" nType="-99"/>
        </Node>
      </Node>
    </BinaryTree>
    <BinaryTree type="DecisionTree" boostWeight="1.0000000000000000e+00" itree="6">
      <Node pos="s" depth="0" NCoef="0" IVar="5" Cut="7.2140789031982422e-01" cType="1" res="1.3154995394870639e-03" rms="3.6756440997123718e-01" purity="5.0149798393249512e-01" nType="0">
        <Node pos="l" depth="1" NCoef="0" IVar="2" Cut="2.5950276851654053e+00" cType="1" res="1.7030978202819824e-01" rms="3.1990557909011841e-01" purity="7.7084648609161377e-01" nType="0">
          <Node pos="l" depth="2" NCoef="0" IVar="-1" Cut="0.0000000000000000e+00" cType="1" res="-5.5718228220939636e-02" rms="2.9628250002861023e-01" purity="1.3228923082351685e-01" nType="-99"/>
          <Node pos="r" depth="2" NCoef="0" IVar="-1" Cut="0.0000000000000000e+00" cType="1" res="6.4765207469463348e-02" rms="2.2145605087280273e-01" purity="9.4223523139953613e-01" nType="-99"/>
        </Node>
        <Node pos="r" depth="1" NCoef="0" IVar="12" Cut="6.6936730957031250e+02" cType="1" res="-2.0162659883499146e-01" rms="3.1459137797355652e-01" purity="1.7804226279258728e-01" nType="0">
          <Node pos="l" depth="2" NCoef="0" IVar="-1" Cut="0.0000000000000000e+00" cType="1" res="-5.6849699467420578e-02" rms="2.6137000322341919e-01" purity="1.1198340356349945e-01" nType="-99"/>
          <Node pos="r" depth="2" NCoef="0" IVar="-1" Cut="0.0000000000000000e+00" cType="1" res="2.9971227049827576e-02" rms="4.3249535560607910e-01" purity="6.5494304895401001e-01" nType="-99"/>
        </Node>
      </Node>
    </BinaryTree>
    <BinaryTree type="DecisionTree" boostWeight="1.0000000000000000e+00" itree="7">
      <Node pos="s" depth="0" NCoef="0" IVar="5" Cut="9.2490804195404053e-01" cType="1" res="-8.7451962754130363e-03" rms="3.4968328475952148e-01" purity="4.8528352379798889e-01" nType="0">
        <Node pos="l" depth="1" NCoef="0" IVar="2" Cut="2.7812848091125488e+00" cType="1" res="1.2169154733419418e-01" rms="3.2477727532386780e-01" purity="7.1745812892913818e-01" nType="0">
          <Node pos="l" depth="2" NCoef="0" IVar="-1" Cut="0.0000000000000000e+00" cType="1" res="-5.2813827991485596e-02" rms="2.8240415453910828e-01" purity="1.3060724735260010e-01" nType="-99"/>
          <Node pos="r" depth="2" NCoef="0" IVar="-1" Cut="0.0000000000000000e+00" cType="1" res="5.8194376528263092e-02" rms="2.4315069615840912e-01" purity="9.2350393533706665e-01" nType="-99"/>
        </Node>
        <Node pos="r" depth="1" NCoef="0" IVar="9" Cut="3.2721965789794922e+01" cType="1" res="-2.1643956005573273e-01" rms="2.8071001172065735e-01" purity="1.1559189856052399e-01" nType="0">
          <Node pos="l" depth="2" NCoef="0" IVar="-1" Cut="0.0000000000000000e+00" cType="1" res="-5.9252336621284485e-02" rms="2.3005105555057526e-01" purity="7.1338132023811340e-02" nType="-99"/>
          <Node pos="r" depth="2" NCoef="0" IVar="-1" Cut="0.0000000000000000e+00" cType="1" res="3.7486936897039413e-02" rms="4.3759506940841675e-01" purity="5.9434509277343750e-01" nType="-99"/>
        </Node>
      </Node>
    </BinaryTree>
    <BinaryTree type="DecisionTree" boostWeight="1.0000000000000000e+00" itree="8">
      <Node pos="s" depth="0" NCoef="0" IVar="5" Cut="7.6248198747634888e-01" cType="1" res="1.3661144475918263e-04" rms="3.3573424816131592e-01" purity="4.9523642659187317e-01" nType="0">
        <Node pos="l" depth="1" NCoef="0" IVar="2" Cut="2.0928258895874023e+00" cType="1" res="1.3661150634288788e-01" rms="2.9913300275802612e-01" purity="7.5853419303894043e-01" nType="0">
          <Node pos="l" depth="2" NCoef="0" IVar="-1" Cut="0.0000000000000000e+00" cType="1" res="-6.5462753176689148e-02" rms="1.9635410606861115e-01" purity="4.4990655034780502e-02" nType="-99"/>
          <Node pos="r" depth="2" NCoef="0" IVar="-1" Cut="0.0000000000000000e+00" cType="1" res="5.4853532463312149e-02" rms="2.4633876979351044e-01" purity="9.0619212388992310e-01" nType="-99"/>
        </Node>
        <Node pos="r" depth="1" NCoef="0" IVar="13" Cut="7.1149716796875000e+03" cType="1" res="-1.7302216589450836e-01" rms="2.9763165116310120e-01" purity="1.6116538643836975e-01" nType="0">
          <Node pos="l" depth="2" NCoef="0" IVar="-1" Cut="0.0000000000000000e+00" cType="1" res="-5.5353794246912003e-02" rms="2.3650290071964264e-01" purity="8.5107013583183289e-02" nType="-99"/>
          <Node pos="r" depth="2" NCoef="0" IVar="-1" Cut="0.0000000000000000e+00" cType="1" res="2.1210469305515289e-02" rms="4.1124534606933594e-01" purity="5.4795295000076294e-01" nType="-99"/>
        </Node>
      </Node>
    </BinaryTree>
    <BinaryTree type="DecisionTree" boostWeight="1.0000000000000000e+00" itree="9">
      <Node pos="s" depth="0" NCoef="0" IVar="16" Cut="7.7295672607421875e+02" cType="1" res="1.7253715777769685e-03" rms="3.2437548041343689e-01" purity="4.9938845634460449e-01" nType="0">
        <Node pos="l" depth="1" NCoef="0" IVar="5" Cut="7.2140789031982422e-01" cType="1" res="-1.8311360478401184e-01" rms="2.5233519077301025e-01" purity="1.5575383603572845e-01" nType="0">
          <Node pos="l" depth="2" NCoef="0" IVar="-1" Cut="0.0000000000000000e+00" cType="1" res="-1.7833836376667023e-02" rms="3.5085263848304749e-01" purity="3.9990532398223877e-01" nType="-99"/>
          <Node pos="r" depth="2" NCoef="0" IVar="-1" Cut="0.0000000000000000e+00" cType="1" res="-6.5582200884819031e-02" rms="1.3447743654251099e-01" purity="1.6464281827211380e-02" nType="-99"/>
        </Node>
        <Node pos="r" depth="1" NCoef="0" IVar="1" Cut="1.3482050038874149e-02" cType="1" res="1.1337301135063171e-01" rms="3.1178927421569824e-01" purity="7.0695281028747559e-01" nType="0">
          <Node pos="l" depth="2" NCoef="0" IVar="-1" Cut="0.0000000000000000e+00" cType="1" res="4.3253671377897263e-02" rms="2.9262521862983704e-01" purity="8.2665050029754639e-01" nType="-99"/>
          <Node pos="r" depth="2" NCoef="0" IVar="-1" Cut="0.0000000000000000e+00" cType="1" res="-5.3879622370004654e-02" rms="2.0349967479705811e-01" purity="5.5374417454004288e-02" nType="-99"/>
        </Node>
      </Node>
    </BinaryTree>
    <BinaryTree type="DecisionTree" boostWeight="1.0000000000000000e+00" itree="10">
      <Node pos="s" depth="0" NCoef="0" IVar="1" Cut="1.3502395711839199e-02" cType="1" res="5.9468266554176807e-03" rms="3.1155064702033997e-01" purity="5.0860238075256348e-01" nType="0">
        <Node pos="l" depth="1" NCoef="0" IVar="9" Cut="8.2979373931884766e+00" cType="1" res="9.0311527252197266e-02" rms="3.2422104477882385e-01" purity="7.0690375566482544e-01" nType="0">
          <Node pos="l" depth="2" NCoef="0" IVar="-1" Cut="0.0000000000000000e+00" cType="1" res="-4.6798471361398697e-02" rms="3.1808501482009888e-01" purity="2.3717525601387024e-01" nType="-99"/>
          <Node pos="r" depth="2" NCoef="0" IVar="-1" Cut="0.0000000000000000e+00" cType="1" res="3.9062734693288803e-02" rms="2.9179322719573975e-01" purity="8.0710422992706299e-01" nType="-99"/>
        </Node>
        <Node pos="r" depth="1" NCoef="0" IVar="14" Cut="9.0411669921875000e+02" cType="1" res="-2.0217412710189819e-01" rms="1.2774655222892761e-01" purity="1.9408738240599632e-02" nType="0">
          <Node pos="l" depth="2" NCoef="0" IVar="-1" Cut="0.0000000000000000e+00" cType="1" res="-6.1565633863210678e-02" rms="9.0788409113883972e-02" purity="9.8075326532125473e-03" nType="-99"/>
          <Node pos="r" depth="2" NCoef="0" IVar="-1" Cut="0.0000000000000000e+00" cType="1" res="-3.9931956678628922e-02" rms="2.7961951494216919e-01" purity="9.7516231238842010e-02" nType="-99"/>
        </Node>
      </Node>
    </BinaryTree>
    <BinaryTree type="DecisionTree" boostWeight="1.0000000000000000e+00" itree="11">
      <Node pos="s" depth="0" NCoef="0" IVar="9" Cut="1.7307977676391602e+01" cType="1" res="2.2479870822280645e-03" rms="3.0212083458900452e-01" purity="5.0475531816482544e-01" nType="0">
        <Node pos="l" depth="1" NCoef="0" IVar="5" Cut="4.5496359467506409e-01" cType="1" res="-1.3146285712718964e-01" rms="2.6872360706329346e-01" purity="2.3458802700042725e-01" nType="0">
          <Node pos="l" depth="2" NCoef="0" IVar="-1" Cut="0.0000000000000000e+00" cType="1" res="3.7284709978848696e-03" rms="3.1617873907089233e-01" purity="5.6946790218353271e-01" nType="-99"/>
          <Node pos="r" depth="2" NCoef="0" IVar="-1" Cut="0.0000000000000000e+00" cType="1" res="-5.2664000540971756e-02" rms="2.2190751135349274e-01" purity="1.0038375109434128e-01" nType="-99"/>
        </Node>
        <Node pos="r" depth="1" NCoef="0" IVar="1" Cut="2.0248970016837120e-02" cType="1" res="1.3823604583740234e-01" rms="2.7201193571090698e-01" purity="7.7952384948730469e-01" nType="0">
          <Node pos="l" depth="2" NCoef="0" IVar="-1" Cut="0.0000000000000000e+00" cType="1" res="4.6911302953958511e-02" rms="2.5962519645690918e-01" purity="8.6017721891403198e-01" nType="-99"/>
          <Node pos="r" depth="2" NCoef="0" IVar="-1" Cut="0.0000000000000000e+00" cType="1" res="-5.8297842741012573e-02" rms="1.2817335128784180e-01" purity="1.7840618267655373e-02" nType="-99"/>
        </Node>
      </Node>
    </BinaryTree>
    <BinaryTree type="DecisionTree" boostWeight="1.0000000000000000e+00" itree="12">
      <Node pos="s" depth="0" NCoef="0" IVar="9" Cut="1.7307977676391602e+01" cType="1" res="4.4458368793129921e-03" rms="2.9573357105255127e-01" purity="5.0612747669219971e-01" nType="0">
        <Node pos="l" depth="1" NCoef="0" IVar="12" Cut="5.5049218750000000e+02" cType="1" res="-1.1682478338479996e-01" rms="2.6783204078674316e-01" purity="2.3653090000152588e-01" nType="0">
          <Node pos="l" depth="2" NCoef="0" IVar="-1" Cut="0.0000000000000000e+00" cType="1" res="-4.5438408851623535e-02" rms="2.2910305857658386e-01" purity="1.4933609962463379e-01" nType="-99"/>
          <Node pos="r" depth="2" NCoef="0" IVar="-1" Cut="0.0000000000000000e+00" cType="1" res="1.9386148080229759e-02" rms="3.4827050566673279e-01" purity="6.6550356149673462e-01" nType="-99"/>
        </Node>
        <Node pos="r" depth="1" NCoef="0" IVar="1" Cut="1.3507923111319542e-02" cType="1" res="1.2704096734523773e-01" rms="2.7103075385093689e-01" purity="7.7866858243942261e-01" nType="0">
          <Node pos="l" depth="2" NCoef="0" IVar="-1" Cut="0.0000000000000000e+00" cType="1" res="4.6826153993606567e-02" rms="2.5325059890747070e-01" purity="8.8885146379470825e-01" nType="-99"/>
          <Node pos="r" depth="2" NCoef="0" IVar="-1" Cut="0.0000000000000000e+00" cType="1" res="-4.1688635945320129e-02" rms="2.3395939171314240e-01" purity="7.0995122194290161e-02" nType="-99"/>
        </Node>
      </Node>
    </BinaryTree>
    <BinaryTree type="DecisionTree" boostWeight="1.0000000000000000e+00" itree="13">
      <Node pos="s" depth="0" NCoef="0" IVar="5" Cut="5.6475824117660522e-01" cType="1" res="2.8822794556617737e-03" rms="2.8309887647628784e-01" purity="5.1027619838714600e-01" nType="0">
        <Node pos="l" depth="1" NCoef="0" IVar="2" Cut="2.1825704574584961e+00" cType="1" res="1.1641222983598709e-01" rms="2.4519324302673340e-01" purity="8.0585306882858276e-01" nType="0">
          <Node pos="l" depth="2" NCoef="0" IVar="-1" Cut="0.0000000000000000e+00" cType="1" res="-5.9525925666093826e-02" rms="2.1084041893482208e-01" purity="5.2433036267757416e-02" nType="-99"/>
          <Node pos="r" depth="2" NCoef="0" IVar="-1" Cut="0.0000000000000000e+00" cType="1" res="5.1985364407300949e-02" rms="2.0467990636825562e-01" purity="9.3864154815673828e-01" nType="-99"/>
        </Node>
        <Node pos="r" depth="1" NCoef="0" IVar="12" Cut="4.3468505859375000e+02" cType="1" res="-1.1059601604938507e-01" rms="2.7276471257209778e-01" purity="2.1483378112316132e-01" nType="0">
          <Node pos="l" depth="2" NCoef="0" IVar="-1" Cut="0.0000000000000000e+00" cType="1" res="-4.9848992377519608e-02" rms="2.0871172845363617e-01" purity="9.6785925328731537e-02" nType="-99"/>
          <Node pos="r" depth="2" NCoef="0" IVar="-1" Cut="0.0000000000000000e+00" cType="1" res="6.4871408976614475e-03" rms="3.5698518157005310e-01" purity="5.1635211706161499e-01" nType="-99"/>
        </Node>
      </Node>
    </BinaryTree>
    <BinaryTree type="DecisionTree" boostWeight="1.0000000000000000e+00" itree="14">
      <Node pos="s" depth="0" NCoef="0" IVar="5" Cut="7.2140789031982422e-01" cType="1" res="3.1139117199927568e-03" rms="2.7828902006149292e-01" purity="5.0378799438476562e-01" nType="0">
        <Node pos="l" depth="1" NCoef="0" IVar="2" Cut="2.2531802654266357e+00" cType="1" res="9.4586044549942017e-02" rms="2.4858680367469788e-01" purity="7.7495127916336060e-01" nType="0">
          <Node pos="l" depth="2" NCoef="0" IVar="-1" Cut="0.0000000000000000e+00" cType="1" res="-5.1263850182294846e-02" rms="2.2518131136894226e-01" purity="7.0009447634220123e-02" nType="-99"/>
          <Node pos="r" depth="2" NCoef="0" IVar="-1" Cut="0.0000000000000000e+00" cType="1" res="4.7147594392299652e-02" rms="2.1650980412960052e-01" purity="9.2545378208160400e-01" nType="-99"/>
        </Node>
        <Node pos="r" depth="1" NCoef="0" IVar="6" Cut="3.4236747741699219e+01" cType="1" res="-1.0851750522851944e-01" rms="2.7179098129272461e-01" purity="1.7286384105682373e-01" nType="0">
          <Node pos="l" depth="2" NCoef="0" IVar="-1" Cut="0.0000000000000000e+00" cType="1" res="-4.5740451663732529e-02" rms="2.2783088684082031e-01" purity="1.0252461582422256e-01" nType="-99"/>
          <Node pos="r" depth="2" NCoef="0" IVar="-1" Cut="0.0000000000000000e+00" cType="1" res="1.4164241030812263e-02" rms="3.5505595803260803e-01" purity="4.4424930214881897e-01" nType="-99"/>
        </Node>
      </Node>
    </BinaryTree>
    <BinaryTree type="DecisionTree" boostWeight="1.0000000000000000e+00" itree="15">
      <Node pos="s" depth="0" NCoef="0" IVar="16" Cut="1.2959621582031250e+03" cType="1" res="-2.9878222267143428e-04" rms="2.6790365576744080e-01" purity="5.0093787908554077e-01" nType="0">
        <Node pos="l" depth="1" NCoef="0" IVar="9" Cut="2.0256580352783203e+01" cType="1" res="-8.0960340797901154e-02" rms="2.4523808062076569e-01" purity="2.9054155945777893e-01" nType="0">
          <Node pos="l" depth="2" NCoef="0" IVar="-1" Cut="0.0000000000000000e+00" cType="1" res="-4.2818251997232437e-02" rms="2.1517620980739594e-01" purity="1.5635202825069427e-01" nType="-99"/>
          <Node pos="r" depth="2" NCoef="0" IVar="-1" Cut="0.0000000000000000e+00" cType="1" res="1.8239611759781837e-02" rms="2.7100786566734314e-01" purity="6.7043387889862061e-01" nType="-99"/>
        </Node>
        <Node pos="r" depth="1" NCoef="0" IVar="5" Cut="1.4496839046478271e+00" cType="1" res="1.1663541197776794e-01" rms="2.5598338246345520e-01" purity="8.0594718456268311e-01" nType="0">
          <Node pos="l" depth="2" NCoef="0" IVar="-1" Cut="0.0000000000000000e+00" cType="1" res="4.5167490839958191e-02" rms="2.2779218852519989e-01" purity="8.7800037860870361e-01" nType="-99"/>
          <Node pos="r" depth="2" NCoef="0" IVar="-1" Cut="0.0000000000000000e+00" cType="1" res="-2.8297234326601028e-02" rms="3.5038530826568604e-01" purity="1.9316884875297546e-01" nType="-99"/>
        </Node>
      </Node>
    </BinaryTree>
    <BinaryTree type="DecisionTree" boostWeight="1.0000000000000000e+00" itree="16">
      <Node pos="s" depth="0" NCoef="0" IVar="2" Cut="3.3657259941101074e+00" cType="1" res="-1.9613141193985939e-03" rms="2.6408663392066956e-01" purity="4.9661004543304443e-01" nType="0">
        <Node pos="l" depth="1" NCoef="0" IVar="11" Cut="-3.1320938110351562e+01" cType="1" res="-1.1545640975236893e-01" rms="2.2174160182476044e-01" purity="1.3778336346149445e-01" nType="0">
          <Node pos="l" depth="2" NCoef="0" IVar="-1" Cut="0.0000000000000000e+00" cType="1" res="2.0510353147983551e-02" rms="3.0192101001739502e-01" purity="5.4482972621917725e-01" nType="-99"/>
          <Node pos="r" depth="2" NCoef="0" IVar="-1" Cut="0.0000000000000000e+00" cType="1" res="-4.5482259243726730e-02" rms="2.0499500632286072e-01" purity="1.0072664916515350e-01" nType="-99"/>
        </Node>
        <Node pos="r" depth="1" NCoef="0" IVar="5" Cut="1.3305439949035645e+00" cType="1" res="7.6433494687080383e-02" rms="2.6250451803207397e-01" purity="7.4446350336074829e-01" nType="0">
          <Node pos="l" depth="2" NCoef="0" IVar="-1" Cut="0.0000000000000000e+00" cType="1" res="4.3469730764627457e-02" rms="2.3240609467029572e-01" purity="9.0631473064422607e-01" nType="-99"/>
          <Node pos="r" depth="2" NCoef="0" IVar="-1" Cut="0.0000000000000000e+00" cType="1" res="-4.1115429252386093e-02" rms="2.5984776020050049e-01" purity="1.0521205514669418e-01" nType="-99"/>
        </Node>
      </Node>
    </BinaryTree>
    <BinaryTree type="DecisionTree" boostWeight="1.0000000000000000e+00" itree="17">
      <Node pos="s" depth="0" NCoef="0" IVar="5" Cut="6.8928569555282593e-01" cType="1" res="-7.6991170644760132e-03" rms="2.5815033912658691e-01" purity="4.8421898484230042e-01" nType="0">
        <Node pos="l" depth="1" NCoef="0" IVar="2" Cut="2.2276096343994141e+00" cType="1" res="7.1873486042022705e-02" rms="2.3865899443626404e-01" purity="7.6629549264907837e-01" nType="0">
          <Node pos="l" depth="2" NCoef="0" IVar="-1" Cut="0.0000000000000000e+00" cType="1" res="-4.4252566993236542e-02" rms="2.2925584018230438e-01" purity="7.9724632203578949e-02" nType="-99"/>
          <Node pos="r" depth="2" NCoef="0" IVar="-1" Cut="0.0000000000000000e+00" cType="1" res="4.1995137929916382e-02" rms="2.1618279814720154e-01" purity="9.2293751239776611e-01" nType="-99"/>
        </Node>
        <Node pos="r" depth="1" NCoef="0" IVar="12" Cut="4.3468505859375000e+02" cType="1" res="-9.7039878368377686e-02" rms="2.4984583258628845e-01" purity="1.6751545667648315e-01" nType="0">
          <Node pos="l" depth="2" NCoef="0" IVar="-1" Cut="0.0000000000000000e+00" cType="1" res="-5.1379214972257614e-02" rms="1.7327797412872314e-01" purity="5.4152593016624451e-02" nType="-99"/>
          <Node pos="r" depth="2" NCoef="0" IVar="-1" Cut="0.0000000000000000e+00" cType="1" res="6.4537785947322845e-03" rms="3.5883814096450806e-01" purity="4.7071030735969543e-01" nType="-99"/>
        </Node>
      </Node>
    </BinaryTree>
    <BinaryTree type="DecisionTree" boostWeight="1.0000000000000000e+00" itree="18">
      <Node pos="s" depth="0" NCoef="0" IVar="9" Cut="1.7307977676391602e+01" cType="1" res="1.6965342219918966e-03" rms="2.6042926311492920e-01" purity="4.9487811326980591e-01" nType="0">
        <Node pos="l" depth="1" NCoef="0" IVar="2" Cut="3.0116465091705322e+00" cType="1" res="-7.5681157410144806e-02" rms="2.4894843995571136e-01" purity="2.3582533001899719e-01" nType="0">
          <Node pos="l" depth="2" NCoef="0" IVar="-1" Cut="0.0000000000000000e+00" cType="1" res="-5.2751917392015457e-02" rms="1.5433882176876068e-01" purity="3.9324112236499786e-02" nType="-99"/>
          <Node pos="r" depth="2" NCoef="0" IVar="-1" Cut="0.0000000000000000e+00" cType="1" res="-7.5252661481499672e-03" rms="3.0230692028999329e-01" purity="4.1703471541404724e-01" nType="-99"/>
        </Node>
        <Node pos="r" depth="1" NCoef="0" IVar="5" Cut="1.2935800552368164e+00" cType="1" res="8.4627375006675720e-02" rms="2.4656976759433746e-01" purity="7.7252221107482910e-01" nType="0">
          <Node pos="l" depth="2" NCoef="0" IVar="-1" Cut="0.0000000000000000e+00" cType="1" res="4.1304171085357666e-02" rms="2.2143240272998810e-01" purity="8.5932320356369019e-01" nType="-99"/>
          <Node pos="r" depth="2" NCoef="0" IVar="-1" Cut="0.0000000000000000e+00" cType="1" res="-2.8169808909296989e-02" rms="3.1907337903976440e-01" purity="1.7378447949886322e-01" nType="-99"/>
        </Node>
      </Node>
    </BinaryTree>
    <BinaryTree type="DecisionTree" boostWeight="1.0000000000000000e+00" itree="19">
      <Node pos="s" depth="0" NCoef="0" IVar="16" Cut="8.1062011718750000e+02" cType="1" res="1.7384082311764359e-03" rms="2.5053849816322327e-01" purity="5.0207662582397461e-01" nType="0">
        <Node pos="l" depth="1" NCoef="0" IVar="5" Cut="1.4170837402343750e-01" cType="1" res="-9.5368593931198120e-02" rms="2.1427826583385468e-01" purity="1.5936490893363953e-01" nType="0">
          <Node pos="l" depth="2" NCoef="0" IVar="-1" Cut="0.0000000000000000e+00" cType="1" res="1.3100978918373585e-02" rms="2.6815429329872131e-01" purity="6.0172474384307861e-01" nType="-99"/>
          <Node pos="r" depth="2" NCoef="0" IVar="-1" Cut="0.0000000000000000e+00" cType="1" res="-4.9435384571552277e-02" rms="1.9040469825267792e-01" purity="6.9978892803192139e-02" nType="-99"/>
        </Node>
        <Node pos="r" depth="1" NCoef="0" IVar="1" Cut="1.3509745709598064e-02" cType="1" res="6.2922768294811249e-02" rms="2.5239661335945129e-01" purity="7.1800953149795532e-01" nType="0">
          <Node pos="l" depth="2" NCoef="0" IVar="-1" Cut="0.0000000000000000e+00" cType="1" res="3.1919259577989578e-02" rms="2.5282338261604309e-01" purity="8.3279627561569214e-01" nType="-99"/>
          <Node pos="r" depth="2" NCoef="0" IVar="-1" Cut="0.0000000000000000e+00" cType="1" res="-4.4897895306348801e-02" rms="1.6483943164348602e-01" purity="4.1109632700681686e-02" nType="-99"/>
        </Node>
      </Node>
    </BinaryTree>
    <BinaryTree type="DecisionTree" boostWeight="1.0000000000000000e+00" itree="20">
      <Node pos="s" depth="0" NCoef="0" IVar="12" Cut="3.6427694702148438e+02" cType="1" res="-1.7967734020203352e-03" rms="2.4741993844509125e-01" purity="4.9010136723518372e-01" nType="0">
        <Node pos="l" depth="1" NCoef="0" IVar="4" Cut="4.6129655838012695e-01" cType="1" res="-7.6508842408657074e-02" rms="2.1876536309719086e-01" purity="2.3612476885318756e-01" nType="0">
          <Node pos="l" depth="2" NCoef="0" IVar="-1" Cut="0.0000000000000000e+00" cType="1" res="5.6961714290082455e-04" rms="2.5797048211097717e-01" purity="5.4178357124328613e-01" nType="-99"/>
          <Node pos="r" depth="2" NCoef="0" IVar="-1" Cut="0.0000000000000000e+00" cType="1" res="-4.7362849116325378e-02" rms="1.8555019795894623e-01" purity="8.8062129914760590e-02" nType="-99"/>
        </Node>
        <Node pos="r" depth="1" NCoef="0" IVar="0" Cut="1.8387358188629150e+00" cType="1" res="7.0808224380016327e-02" rms="2.5199657678604126e-01" purity="7.3691511154174805e-01" nType="0">
          <Node pos="l" depth="2" NCoef="0" IVar="-1" Cut="0.0000000000000000e+00" cType="1" res="3.7825882434844971e-02" rms="2.2490854561328888e-01" purity="8.2814216613769531e-01" nType="-99"/>
          <Node pos="r" depth="2" NCoef="0" IVar="-1" Cut="0.0000000000000000e+00" cType="1" res="-2.5616174563765526e-02" rms="3.1645587086677551e-01" purity="2.7854585647583008e-01" nType="-99"/>
        </Node>
      </Node>
    </BinaryTree>
    <BinaryTree type="DecisionTree" boostWeight="1.0000000000000000e+00" itree="21">
      <Node pos="s" depth="0" NCoef="0" IVar="16" Cut="7.7301354980468750e+02" cType="1" res="-1.3864779612049460e-03" rms="2.4968566000461578e-01" purity="4.8666435480117798e-01" nType="0">
        <Node pos="l" depth="1" NCoef="0" IVar="10" Cut="-2.5497692108154297e+01" cType="1" res="-9.0528361499309540e-02" rms="2.0376574993133545e-01" purity="1.2711848318576813e-01" nType="0">
          <Node pos="l" depth="2" NCoef="0" IVar="-1" Cut="0.0000000000000000e+00" cType="1" res="1.1334422044456005e-02" rms="2.9404786229133606e-01" purity="4.3483150005340576e-01" nType="-99"/>
          <Node pos="r" depth="2" NCoef="0" IVar="-1" Cut="0.0000000000000000e+00" cType="1" res="-4.7801978886127472e-02" rms="1.8040294945240021e-01" purity="8.2628324627876282e-02" nType="-99"/>
        </Node>
        <Node pos="r" depth="1" NCoef="0" IVar="1" Cut="1.3501427136361599e-02" cType="1" res="5.0486873835325241e-02" rms="2.5912347435951233e-01" purity="6.9589102268218994e-01" nType="0">
          <Node pos="l" depth="2" NCoef="0" IVar="-1" Cut="0.0000000000000000e+00" cType="1" res="2.7739457786083221e-02" rms="2.6277241110801697e-01" purity="8.2157796621322632e-01" nType="-99"/>
          <Node pos="r" depth="2" NCoef="0" IVar="-1" Cut="0.0000000000000000e+00" cType="1" res="-3.7898976355791092e-02" rms="1.8712006509304047e-01" purity="5.3049266338348389e-02" nType="-99"/>
        </Node>
      </Node>
    </BinaryTree>
    <BinaryTree type="DecisionTree" boostWeight="1.0000000000000000e+00" itree="22">
      <Node pos="s" depth="0" NCoef="0" IVar="9" Cut="8.2979373931884766e+00" cType="1" res="2.4797103833407164e-03" rms="2.4295888841152191e-01" purity="4.9713018536567688e-01" nType="0">
        <Node pos="l" depth="1" NCoef="0" IVar="0" Cut="1.7506660521030426e-01" cType="1" res="-1.0689038783311844e-01" rms="1.9957484304904938e-01" purity="9.7606621682643890e-02" nType="0">
          <Node pos="l" depth="2" NCoef="0" IVar="-1" Cut="0.0000000000000000e+00" cType="1" res="-1.9690781831741333e-02" rms="2.6373776793479919e-01" purity="2.7649611234664917e-01" nType="-99"/>
          <Node pos="r" depth="2" NCoef="0" IVar="-1" Cut="0.0000000000000000e+00" cType="1" res="-5.4385285824537277e-02" rms="1.7505973577499390e-01" purity="4.7867480665445328e-02" nType="-99"/>
        </Node>
        <Node pos="r" depth="1" NCoef="0" IVar="1" Cut="2.0250072702765465e-02" cType="1" res="3.9501618593931198e-02" rms="2.4516966938972473e-01" purity="6.3236939907073975e-01" nType="0">
          <Node pos="l" depth="2" NCoef="0" IVar="-1" Cut="0.0000000000000000e+00" cType="1" res="2.5266215205192566e-02" rms="2.5663399696350098e-01" purity="7.6251852512359619e-01" nType="-99"/>
          <Node pos="r" depth="2" NCoef="0" IVar="-1" Cut="0.0000000000000000e+00" cType="1" res="-5.2019793540239334e-02" rms="1.0231766104698181e-01" purity="8.8984072208404541e-03" nType="-99"/>
        </Node>
      </Node>
    </BinaryTree>
    <BinaryTree type="DecisionTree" boostWeight="1.0000000000000000e+00" itree="23">
      <Node pos="s" depth="0" NCoef="0" IVar="12" Cut="4.0077593994140625e+02" cType="1" res="-6.0115284286439419e-03" rms="2.3305009305477142e-01" purity="4.8774281144142151e-01" nType="0">
        <Node pos="l" depth="1" NCoef="0" IVar="4" Cut="1.1667428910732269e-01" cType="1" res="-6.0029733926057816e-02" rms="2.0797550678253174e-01" purity="2.5717574357986450e-01" nType="0">
          <Node pos="l" depth="2" NCoef="0" IVar="-1" Cut="0.0000000000000000e+00" cType="1" res="1.5023361891508102e-02" rms="2.3512089252471924e-01" purity="6.6612344980239868e-01" nType="-99"/>
          <Node pos="r" depth="2" NCoef="0" IVar="-1" Cut="0.0000000000000000e+00" cType="1" res="-4.0100261569023132e-02" rms="1.9079375267028809e-01" purity="1.4103555679321289e-01" nType="-99"/>
        </Node>
        <Node pos="r" depth="1" NCoef="0" IVar="9" Cut="8.2979373931884766e+00" cType="1" res="5.9516072273254395e-02" rms="2.4473153054714203e-01" purity="7.6743566989898682e-01" nType="0">
          <Node pos="l" depth="2" NCoef="0" IVar="-1" Cut="0.0000000000000000e+00" cType="1" res="-2.9543990269303322e-02" rms="2.8237935900688171e-01" purity="2.8397241234779358e-01" nType="-99"/>
          <Node pos="r" depth="2" NCoef="0" IVar="-1" Cut="0.0000000000000000e+00" cType="1" res="3.2782677561044693e-02" rms="2.3114329576492310e-01" purity="8.3734124898910522e-01" nType="-99"/>
        </Node>
      </Node>
    </BinaryTree>
    <BinaryTree type="DecisionTree" boostWeight="1.0000000000000000e+00" itree="24">
      <Node pos="s" depth="0" NCoef="0" IVar="9" Cut="1.3219333648681641e+01" cType="1" res="4.8300053458660841e-04" rms="2.3402090370655060e-01" purity="4.9483945965766907e-01" nType="0">
        <Node pos="l" depth="1" NCoef="0" IVar="16" Cut="1.6043374023437500e+03" cType="1" res="-6.9483794271945953e-02" rms="2.1206855773925781e-01" purity="1.9077339768409729e-01" nType="0">
          <Node pos="l" depth="2" NCoef="0" IVar="-1" Cut="0.0000000000000000e+00" cType="1" res="-4.0777415037155151e-02" rms="1.8697653710842133e-01" purity="1.1006446182727814e-01" nType="-99"/>
          <Node pos="r" depth="2" NCoef="0" IVar="-1" Cut="0.0000000000000000e+00" cType="1" res="6.5405801869928837e-03" rms="2.9559370875358582e-01" purity="6.0913360118865967e-01" nType="-99"/>
        </Node>
        <Node pos="r" depth="1" NCoef="0" IVar="2" Cut="1.8127089738845825e+00" cType="1" res="4.9717172980308533e-02" rms="2.3619471490383148e-01" purity="7.0880442857742310e-01" nType="0">
          <Node pos="l" depth="2" NCoef="0" IVar="-1" Cut="0.0000000000000000e+00" cType="1" res="-6.3719436526298523e-02" rms="1.3918593525886536e-01" purity="1.6896991059184074e-02" nType="-99"/>
          <Node pos="r" depth="2" NCoef="0" IVar="-1" Cut="0.0000000000000000e+00" cType="1" res="2.7991943061351776e-02" rms="2.3508150875568390e-01" purity="7.7446305751800537e-01" nType="-99"/>
        </Node>
      </Node>
    </BinaryTree>
    <BinaryTree type="DecisionTree" boostWeight="1.0000000000000000e+00" itree="25">
      <Node pos="s" depth="0" NCoef="0" IVar="2" Cut="3.3597536087036133e+00" cType="1" res="-5.6234077783301473e-04" rms="2.3119731247425079e-01" purity="4.9564069509506226e-01" nType="0">
        <Node pos="l" depth="1" NCoef="0" IVar="11" Cut="-2.9824863433837891e+01" cType="1" res="-7.0183254778385162e-02" rms="1.9520664215087891e-01" purity="1.2926350533962250e-01" nType="0">
          <Node pos="l" depth="2" NCoef="0" IVar="-1" Cut="0.0000000000000000e+00" cType="1" res="2.0833326503634453e-02" rms="3.0393338203430176e-01" purity="4.9272742867469788e-01" nType="-99"/>
          <Node pos="r" depth="2" NCoef="0" IVar="-1" Cut="0.0000000000000000e+00" cType="1" res="-4.0471050888299942e-02" rms="1.7636254429817200e-01" purity="9.3806996941566467e-02" nType="-99"/>
        </Node>
        <Node pos="r" depth="1" NCoef="0" IVar="0" Cut="1.9936593770980835e+00" cType="1" res="4.6990681439638138e-02" rms="2.4158300459384918e-01" purity="7.4588650465011597e-01" nType="0">
          <Node pos="l" depth="2" NCoef="0" IVar="-1" Cut="0.0000000000000000e+00" cType="1" res="3.5924766212701797e-02" rms="2.1739456057548523e-01" purity="8.7995487451553345e-01" nType="-99"/>
          <Node pos="r" depth="2" NCoef="0" IVar="-1" Cut="0.0000000000000000e+00" cType="1" res="-4.0332309901714325e-02" rms="2.7092641592025757e-01" purity="1.8307122588157654e-01" nType="-99"/>
        </Node>
      </Node>
    </BinaryTree>
    <BinaryTree type="DecisionTree" boostWeight="1.0000000000000000e+00" itree="26">
      <Node pos="s" depth="0" NCoef="0" IVar="6" Cut="2.0631950378417969e+01" cType="1" res="1.3171182945370674e-03" rms="2.3298114538192749e-01" purity="4.9215480685234070e-01" nType="0">
        <Node pos="l" depth="1" NCoef="0" IVar="16" Cut="1.8188668212890625e+03" cType="1" res="-6.7749425768852234e-02" rms="2.2393471002578735e-01" purity="2.4594791233539581e-01" nType="0">
          <Node pos="l" depth="2" NCoef="0" IVar="-1" Cut="0.0000000000000000e+00" cType="1" res="-4.2293749749660492e-02" rms="2.0073199272155762e-01" purity="1.5922392904758453e-01" nType="-99"/>
          <Node pos="r" depth="2" NCoef="0" IVar="-1" Cut="0.0000000000000000e+00" cType="1" res="8.5166217759251595e-03" rms="2.9840499162673950e-01" purity="6.7349481582641602e-01" nType="-99"/>
        </Node>
        <Node pos="r" depth="1" NCoef="0" IVar="1" Cut="1.3516241684556007e-02" cType="1" res="4.1660953313112259e-02" rms="2.2864963114261627e-01" purity="6.3597160577774048e-01" nType="0">
          <Node pos="l" depth="2" NCoef="0" IVar="-1" Cut="0.0000000000000000e+00" cType="1" res="2.8710413724184036e-02" rms="2.3791216313838959e-01" purity="8.0731850862503052e-01" nType="-99"/>
          <Node pos="r" depth="2" NCoef="0" IVar="-1" Cut="0.0000000000000000e+00" cType="1" res="-3.6046769469976425e-02" rms="1.5481723845005035e-01" purity="3.7023395299911499e-02" nType="-99"/>
        </Node>
      </Node>
    </BinaryTree>
    <BinaryTree type="DecisionTree" boostWeight="1.0000000000000000e+00" itree="27">
      <Node pos="s" depth="0" NCoef="0" IVar="9" Cut="1.7307977676391602e+01" cType="1" res="-9.0732565149664879e-04" rms="2.2581113874912262e-01" purity="4.9333977699279785e-01" nType="0">
        <Node pos="l" depth="1" NCoef="0" IVar="12" Cut="6.0154876708984375e+02" cType="1" res="-5.4619431495666504e-02" rms="2.1267099678516388e-01" purity="2.1856045722961426e-01" nType="0">
          <Node pos="l" depth="2" NCoef="0" IVar="-1" Cut="0.0000000000000000e+00" cType="1" res="-3.4937527030706406e-02" rms="1.8237230181694031e-01" purity="1.4962671697139740e-01" nType="-99"/>
          <Node pos="r" depth="2" NCoef="0" IVar="-1" Cut="0.0000000000000000e+00" cType="1" res="1.2299042195081711e-02" rms="3.3544030785560608e-01" purity="6.6360342502593994e-01" nType="-99"/>
        </Node>
        <Node pos="r" depth="1" NCoef="0" IVar="0" Cut="2.1134104728698730e+00" cType="1" res="5.4292574524879456e-02" rms="2.2561039030551910e-01" purity="7.7573025226593018e-01" nType="0">
          <Node pos="l" depth="2" NCoef="0" IVar="-1" Cut="0.0000000000000000e+00" cType="1" res="3.3052761107683182e-02" rms="2.1226482093334198e-01" purity="8.3485078811645508e-01" nType="-99"/>
          <Node pos="r" depth="2" NCoef="0" IVar="-1" Cut="0.0000000000000000e+00" cType="1" res="-3.4549251198768616e-02" rms="2.7974545955657959e-01" purity="2.3071165382862091e-01" nType="-99"/>
        </Node>
      </Node>
    </BinaryTree>
    <BinaryTree type="DecisionTree" boostWeight="1.0000000000000000e+00" itree="28">
      <Node pos="s" depth="0" NCoef="0" IVar="5" Cut="5.0693339109420776e-01" cType="1" res="-4.5251874253153801e-03" rms="2.1554780006408691e-01" purity="4.9546048045158386e-01" nType="0">
        <Node pos="l" depth="1" NCoef="0" IVar="2" Cut="2.2531802654266357e+00" cType="1" res="5.3694702684879303e-02" rms="1.9064851105213165e-01" purity="8.0953228473663330e-01" nType="0">
          <Node pos="l" depth="2" NCoef="0" IVar="-1" Cut="0.0000000000000000e+00" cType="1" res="-4.0095262229442596e-02" rms="2.0075458288192749e-01" purity="6.6005527973175049e-02" nType="-99"/>
          <Node pos="r" depth="2" NCoef="0" IVar="-1" Cut="0.0000000000000000e+00" cType="1" res="4.0443643927574158e-02" rms="1.7736260592937469e-01" purity="9.4925642013549805e-01" nType="-99"/>
        </Node>
        <Node pos="r" depth="1" NCoef="0" IVar="8" Cut="-4.6081516265869141e+01" cType="1" res="-5.6001171469688416e-02" rms="2.2306184470653534e-01" purity="2.1776919066905975e-01" nType="0">
          <Node pos="l" depth="2" NCoef="0" IVar="-1" Cut="0.0000000000000000e+00" cType="1" res="3.5940010100603104e-02" rms="2.9525282979011536e-01" purity="6.2077212333679199e-01" nType="-99"/>
          <Node pos="r" depth="2" NCoef="0" IVar="-1" Cut="0.0000000000000000e+00" cType="1" res="-3.2453320920467377e-02" rms="2.1078927814960480e-01" purity="1.8415662646293640e-01" nType="-99"/>
        </Node>
      </Node>
    </BinaryTree>
    <BinaryTree type="DecisionTree" boostWeight="1.0000000000000000e+00" itree="29">
      <Node pos="s" depth="0" NCoef="0" IVar="6" Cut="2.5118055343627930e+01" cType="1" res="-1.4143873704597354e-03" rms="2.1750265359878540e-01" purity="4.9730154871940613e-01" nType="0">
        <Node pos="l" depth="1" NCoef="0" IVar="5" Cut="3.6531805992126465e-01" cType="1" res="-5.4980684071779251e-02" rms="2.0606543123722076e-01" purity="2.8425493836402893e-01" nType="0">
          <Node pos="l" depth="2" NCoef="0" IVar="-1" Cut="0.0000000000000000e+00" cType="1" res="4.2053540237247944e-03" rms="2.2095353901386261e-01" purity="6.9267362356185913e-01" nType="-99"/>
          <Node pos="r" depth="2" NCoef="0" IVar="-1" Cut="0.0000000000000000e+00" cType="1" res="-3.9061680436134338e-02" rms="1.9564194977283478e-01" purity="1.3888628780841827e-01" nType="-99"/>
        </Node>
        <Node pos="r" depth="1" NCoef="0" IVar="2" Cut="2.2764661312103271e+00" cType="1" res="4.5268867164850235e-02" rms="2.1644715964794159e-01" purity="6.8297260999679565e-01" nType="0">
          <Node pos="l" depth="2" NCoef="0" IVar="-1" Cut="0.0000000000000000e+00" cType="1" res="-2.9318163171410561e-02" rms="2.0326825976371765e-01" purity="9.0762011706829071e-02" nType="-99"/>
          <Node pos="r" depth="2" NCoef="0" IVar="-1" Cut="0.0000000000000000e+00" cType="1" res="3.0370201915502548e-02" rms="2.1346054971218109e-01" purity="7.9826062917709351e-01" nType="-99"/>
        </Node>
      </Node>
    </BinaryTree>
    <BinaryTree type="DecisionTree" boostWeight="1.0000000000000000e+00" itree="30">
      <Node pos="s" depth="0" NCoef="0" IVar="6" Cut="2.9906053543090820e+01" cType="1" res="7.7578672207891941e-03" rms="2.2577932476997375e-01" purity="5.0379210710525513e-01" nType="0">
        <Node pos="l" depth="1" NCoef="0" IVar="10" Cut="-2.8517097473144531e+01" cType="1" res="-3.5428572446107864e-02" rms="2.1715967357158661e-01" purity="3.2835268974304199e-01" nType="0">
          <Node pos="l" depth="2" NCoef="0" IVar="-1" Cut="0.0000000000000000e+00" cType="1" res="2.6644524186849594e-02" rms="2.3756182193756104e-01" purity="7.4313950538635254e-01" nType="-99"/>
          <Node pos="r" depth="2" NCoef="0" IVar="-1" Cut="0.0000000000000000e+00" cType="1" res="-2.6806568726897240e-02" rms="2.0900276303291321e-01" purity="2.5388953089714050e-01" nType="-99"/>
        </Node>
        <Node pos="r" depth="1" NCoef="0" IVar="5" Cut="1.6012830734252930e+00" cType="1" res="6.3891410827636719e-02" rms="2.2441862523555756e-01" purity="7.3182743787765503e-01" nType="0">
          <Node pos="l" depth="2" NCoef="0" IVar="-1" Cut="0.0000000000000000e+00" cType="1" res="3.8584701716899872e-02" rms="2.2034524381160736e-01" purity="7.8924280405044556e-01" nType="-99"/>
          <Node pos="r" depth="2" NCoef="0" IVar="-1" Cut="0.0000000000000000e+00" cType="1" res="-4.4334083795547485e-02" rms="1.9742538034915924e-01" purity="7.2738394141197205e-02" nType="-99"/>
        </Node>
      </Node>
    </BinaryTree>
    <BinaryTree type="DecisionTree" boostWeight="1.0000000000000000e+00" itree="31">
      <Node pos="s" depth="0" NCoef="0" IVar="6" Cut="2.5118055343627930e+01" cType="1" res="7.5762462802231312e-04" rms="2.1659870445728302e-01" purity="4.9800390005111694e-01" nType="0">
        <Node pos="l" depth="1" NCoef="0" IVar="4" Cut="4.0602751076221466e-02" cType="1" res="-4.8743851482868195e-02" rms="2.0201241970062256e-01" purity="2.7250823378562927e-01" nType="0">
          <Node pos="l" depth="2" NCoef="0" IVar="-1" Cut="0.0000000000000000e+00" cType="1" res="1.2462805956602097e-02" rms="2.3953950405120850e-01" purity="7.2602438926696777e-01" nType="-99"/>
          <Node pos="r" depth="2" NCoef="0" IVar="-1" Cut="0.0000000000000000e+00" cType="1" res="-3.7380114197731018e-02" rms="1.8604296445846558e-01" purity="1.5384994447231293e-01" nType="-99"/>
        </Node>
        <Node pos="r" depth="1" NCoef="0" IVar="9" Cut="1.3219333648681641e+01" cType="1" res="4.2529039084911346e-02" rms="2.1966995298862457e-01" purity="6.8828654289245605e-01" nType="0">
          <Node pos="l" depth="2" NCoef="0" IVar="-1" Cut="0.0000000000000000e+00" cType="1" res="-1.4885680750012398e-02" rms="2.0983566343784332e-01" purity="3.2130104303359985e-01" nType="-99"/>
          <Node pos="r" depth="2" NCoef="0" IVar="-1" Cut="0.0000000000000000e+00" cType="1" res="3.5247381776571274e-02" rms="2.1684980392456055e-01" purity="8.2829040288925171e-01" nType="-99"/>
        </Node>
      </Node>
    </BinaryTree>
    <BinaryTree type="DecisionTree" boostWeight="1.0000000000000000e+00" itree="32">
      <Node pos="s" depth="0" NCoef="0" IVar="11" Cut="-2.9177026748657227e+01" cType="1" res="-2.2180404048413038e-03" rms="2.1371623873710632e-01" purity="4.9178817868232727e-01" nType="0">
        <Node pos="l" depth="1" NCoef="0" IVar="19" Cut="1.3870947360992432e+00" cType="1" res="7.3750622570514679e-02" rms="2.0396429300308228e-01" purity="8.3886003494262695e-01" nType="0">
          <Node pos="l" depth="2" NCoef="0" IVar="-1" Cut="0.0000000000000000e+00" cType="1" res="3.7325844168663025e-03" rms="2.5985446572303772e-01" purity="5.4461270570755005e-01" nType="-99"/>
          <Node pos="r" depth="2" NCoef="0" IVar="-1" Cut="0.0000000000000000e+00" cType="1" res="4.5679368078708649e-02" rms="1.8629330396652222e-01" purity="9.0391725301742554e-01" nType="-99"/>
        </Node>
        <Node pos="r" depth="1" NCoef="0" IVar="19" Cut="1.8336428403854370e+00" cType="1" res="-2.2936377674341202e-02" rms="2.1161825954914093e-01" purity="3.9713400602340698e-01" nType="0">
          <Node pos="l" depth="2" NCoef="0" IVar="-1" Cut="0.0000000000000000e+00" cType="1" res="-3.3950861543416977e-02" rms="1.7738255858421326e-01" purity="1.7574462294578552e-01" nType="-99"/>
          <Node pos="r" depth="2" NCoef="0" IVar="-1" Cut="0.0000000000000000e+00" cType="1" res="5.8909445069730282e-03" rms="2.3387020826339722e-01" purity="6.0324448347091675e-01" nType="-99"/>
        </Node>
      </Node>
    </BinaryTree>
    <BinaryTree type="DecisionTree" boostWeight="1.0000000000000000e+00" itree="33">
      <Node pos="s" depth="0" NCoef="0" IVar="0" Cut="1.7706370353698730e+00" cType="1" res="5.5089173838496208e-03" rms="2.1631725132465363e-01" purity="5.0634920597076416e-01" nType="0">
        <Node pos="l" depth="1" NCoef="0" IVar="2" Cut="2.3966846466064453e+00" cType="1" res="2.8610298410058022e-02" rms="2.1521249413490295e-01" purity="6.3315123319625854e-01" nType="0">
          <Node pos="l" depth="2" NCoef="0" IVar="-1" Cut="0.0000000000000000e+00" cType="1" res="-3.9532028138637543e-02" rms="1.7038296163082123e-01" purity="5.3349528461694717e-02" nType="-99"/>
          <Node pos="r" depth="2" NCoef="0" IVar="-1" Cut="0.0000000000000000e+00" cType="1" res="3.0468106269836426e-02" rms="2.2003388404846191e-01" purity="8.4134733676910400e-01" nType="-99"/>
        </Node>
        <Node pos="r" depth="1" NCoef="0" IVar="12" Cut="5.6994512939453125e+02" cType="1" res="-5.8480091392993927e-02" rms="2.0625430345535278e-01" purity="1.5511764585971832e-01" nType="0">
          <Node pos="l" depth="2" NCoef="0" IVar="-1" Cut="0.0000000000000000e+00" cType="1" res="-4.7702997922897339e-02" rms="1.5365168452262878e-01" purity="6.0312218964099884e-02" nType="-99"/>
          <Node pos="r" depth="2" NCoef="0" IVar="-1" Cut="0.0000000000000000e+00" cType="1" res="8.7649812921881676e-03" rms="3.4801724553108215e-01" purity="5.9386116266250610e-01" nType="-99"/>
        </Node>
      </Node>
    </BinaryTree>
    <BinaryTree type="DecisionTree" boostWeight="1.0000000000000000e+00" itree="34">
      <Node pos="s" depth="0" NCoef="0" IVar="19" Cut="1.5700430870056152e+00" cType="1" res="4.6759881079196930e-03" rms="2.1531626582145691e-01" purity="5.0473183393478394e-01" nType="0">
        <Node pos="l" depth="1" NCoef="0" IVar="4" Cut="-2.3722232878208160e-01" cType="1" res="-4.3520428240299225e-02" rms="1.9311371445655823e-01" purity="2.1861605346202850e-01" nType="0">
          <Node pos="l" depth="2" NCoef="0" IVar="-1" Cut="0.0000000000000000e+00" cType="1" res="2.1217755973339081e-02" rms="2.2306856513023376e-01" purity="6.7275452613830566e-01" nType="-99"/>
          <Node pos="r" depth="2" NCoef="0" IVar="-1" Cut="0.0000000000000000e+00" cType="1" res="-3.5462245345115662e-02" rms="1.8303006887435913e-01" purity="1.3767263293266296e-01" nType="-99"/>
        </Node>
        <Node pos="r" depth="1" NCoef="0" IVar="0" Cut="2.1930396556854248e+00" cType="1" res="3.3553484827280045e-02" rms="2.2264033555984497e-01" purity="6.7616176605224609e-01" nType="0">
          <Node pos="l" depth="2" NCoef="0" IVar="-1" Cut="0.0000000000000000e+00" cType="1" res="2.6523126289248466e-02" rms="2.1535597741603851e-01" purity="7.6412928104400635e-01" nType="-99"/>
          <Node pos="r" depth="2" NCoef="0" IVar="-1" Cut="0.0000000000000000e+00" cType="1" res="-2.7908043935894966e-02" rms="2.4054217338562012e-01" purity="1.7300547659397125e-01" nType="-99"/>
        </Node>
      </Node>
    </BinaryTree>
    <BinaryTree type="DecisionTree" boostWeight="1.0000000000000000e+00" itree="35">
      <Node pos="s" depth="0" NCoef="0" IVar="12" Cut="4.3468551635742188e+02" cType="1" res="-6.5371044911444187e-04" rms="2.0915843546390533e-01" purity="5.0225812196731567e-01" nType="0">
        <Node pos="l" depth="1" NCoef="0" IVar="6" Cut="4.3753318786621094e+01" cType="1" res="-3.0415980145335197e-02" rms="1.9430986046791077e-01" purity="2.9388082027435303e-01" nType="0">
          <Node pos="l" depth="2" NCoef="0" IVar="-1" Cut="0.0000000000000000e+00" cType="1" res="-2.6105249300599098e-02" rms="1.9025604426860809e-01" purity="2.2338892519474030e-01" nType="-99"/>
          <Node pos="r" depth="2" NCoef="0" IVar="-1" Cut="0.0000000000000000e+00" cType="1" res="2.3566538468003273e-02" rms="2.0097261667251587e-01" purity="7.1136313676834106e-01" nType="-99"/>
        </Node>
        <Node pos="r" depth="1" NCoef="0" IVar="2" Cut="2.2210087776184082e+00" cType="1" res="4.1581131517887115e-02" rms="2.2182881832122803e-01" purity="7.9796075820922852e-01" nType="0">
          <Node pos="l" depth="2" NCoef="0" IVar="-1" Cut="0.0000000000000000e+00" cType="1" res="-3.1121449545025826e-02" rms="2.3926275968551636e-01" purity="9.6238978207111359e-02" nType="-99"/>
          <Node pos="r" depth="2" NCoef="0" IVar="-1" Cut="0.0000000000000000e+00" cType="1" res="2.5825889781117439e-02" rms="2.1860066056251526e-01" purity="8.4572231769561768e-01" nType="-99"/>
        </Node>
      </Node>
    </BinaryTree>
    <BinaryTree type="DecisionTree" boostWeight="1.0000000000000000e+00" itree="36">
      <Node pos="s" depth="0" NCoef="0" IVar="6" Cut="2.4924970626831055e+01" cType="1" res="-2.5790203362703323e-03" rms="2.0978972315788269e-01" purity="4.9010261893272400e-01" nType="0">
        <Node pos="l" depth="1" NCoef="0" IVar="7" Cut="2.2155479431152344e+01" cType="1" res="-4.3557759374380112e-02" rms="1.9080916047096252e-01" purity="2.7297571301460266e-01" nType="0">
          <Node pos="l" depth="2" NCoef="0" IVar="-1" Cut="0.0000000000000000e+00" cType="1" res="-4.2328801006078720e-02" rms="1.8504071235656738e-01" purity="1.7359110713005066e-01" nType="-99"/>
          <Node pos="r" depth="2" NCoef="0" IVar="-1" Cut="0.0000000000000000e+00" cType="1" res="-2.0648150239139795e-03" rms="1.9326788187026978e-01" purity="4.3484619259834290e-01" nType="-99"/>
        </Node>
        <Node pos="r" depth="1" NCoef="0" IVar="9" Cut="1.3219333648681641e+01" cType="1" res="3.2479338347911835e-02" rms="2.1874883770942688e-01" purity="6.7586028575897217e-01" nType="0">
          <Node pos="l" depth="2" NCoef="0" IVar="-1" Cut="0.0000000000000000e+00" cType="1" res="-1.5570635907351971e-02" rms="2.0801183581352234e-01" purity="2.7442464232444763e-01" nType="-99"/>
          <Node pos="r" depth="2" NCoef="0" IVar="-1" Cut="0.0000000000000000e+00" cType="1" res="3.0935395509004593e-02" rms="2.1818472445011139e-01" purity="8.2331115007400513e-01" nType="-99"/>
        </Node>
      </Node>
    </BinaryTree>
    <BinaryTree type="DecisionTree" boostWeight="1.0000000000000000e+00" itree="37">
      <Node pos="s" depth="0" NCoef="0" IVar="9" Cut="1.3219333648681641e+01" cType="1" res="-8.5030699847266078e-04" rms="2.0892143249511719e-01" purity="4.9157488346099854e-01" nType="0">
        <Node pos="l" depth="1" NCoef="0" IVar="5" Cut="3.7690353393554688e-01" cType="1" res="-4.1451450437307358e-02" rms="1.9024123251438141e-01" purity="1.6538494825363159e-01" nType="0">
          <Node pos="l" depth="2" NCoef="0" IVar="-1" Cut="0.0000000000000000e+00" cType="1" res="3.4334468655288219e-03" rms="2.3429720103740692e-01" purity="5.2070963382720947e-01" nType="-99"/>
          <Node pos="r" depth="2" NCoef="0" IVar="-1" Cut="0.0000000000000000e+00" cType="1" res="-3.9866600185632706e-02" rms="1.7180927097797394e-01" purity="5.6776411831378937e-02" nType="-99"/>
        </Node>
        <Node pos="r" depth="1" NCoef="0" IVar="7" Cut="2.1354864120483398e+01" cType="1" res="2.6215504854917526e-02" rms="2.1630388498306274e-01" purity="7.0902186632156372e-01" nType="0">
          <Node pos="l" depth="2" NCoef="0" IVar="-1" Cut="0.0000000000000000e+00" cType="1" res="-8.6804591119289398e-03" rms="2.3723612725734711e-01" purity="5.4888182878494263e-01" nType="-99"/>
          <Node pos="r" depth="2" NCoef="0" IVar="-1" Cut="0.0000000000000000e+00" cType="1" res="3.0335472896695137e-02" rms="1.9797036051750183e-01" purity="8.0648660659790039e-01" nType="-99"/>
        </Node>
      </Node>
    </BinaryTree>
    <BinaryTree type="DecisionTree" boostWeight="1.0000000000000000e+00" itree="38">
      <Node pos="s" depth="0" NCoef="0" IVar="0" Cut="1.8844732046127319e+00" cType="1" res="2.6630636966729071e-06" rms="2.0580790936946869e-01" purity="4.9411827325820923e-01" nType="0">
        <Node pos="l" depth="1" NCoef="0" IVar="2" Cut="1.8107159137725830e+00" cType="1" res="1.9439302384853363e-02" rms="2.0971857011318207e-01" purity="6.1528009176254272e-01" nType="0">
          <Node pos="l" depth="2" NCoef="0" IVar="-1" Cut="0.0000000000000000e+00" cType="1" res="-4.9083385616540909e-02" rms="1.2181255966424942e-01" purity="1.4190718531608582e-02" nType="-99"/>
          <Node pos="r" depth="2" NCoef="0" IVar="-1" Cut="0.0000000000000000e+00" cType="1" res="2.0639467984437943e-02" rms="2.2096975147724152e-01" purity="7.5301873683929443e-01" nType="-99"/>
        </Node>
        <Node pos="r" depth="1" NCoef="0" IVar="1" Cut="7.0733032189309597e-03" cType="1" res="-6.3433289527893066e-02" rms="1.7831514775753021e-01" purity="9.8678551614284515e-02" nType="0">
          <Node pos="l" depth="2" NCoef="0" IVar="-1" Cut="0.0000000000000000e+00" cType="1" res="-4.9229670315980911e-02" rms="2.7536177635192871e-01" purity="2.4466536939144135e-01" nType="-99"/>
          <Node pos="r" depth="2" NCoef="0" IVar="-1" Cut="0.0000000000000000e+00" cType="1" res="-3.5049621015787125e-02" rms="1.2497279047966003e-01" purity="5.0783075392246246e-02" nType="-99"/>
        </Node>
      </Node>
    </BinaryTree>
    <BinaryTree type="DecisionTree" boostWeight="1.0000000000000000e+00" itree="39">
      <Node pos="s" depth="0" NCoef="0" IVar="10" Cut="-2.7632600784301758e+01" cType="1" res="5.8289985172450542e-03" rms="2.1123789250850677e-01" purity="5.0225871801376343e-01" nType="0">
        <Node pos="l" depth="1" NCoef="0" IVar="3" Cut="2.3746163845062256e+00" cType="1" res="6.7778885364532471e-02" rms="2.1472665667533875e-01" purity="8.3968788385391235e-01" nType="0">
          <Node pos="l" depth="2" NCoef="0" IVar="-1" Cut="0.0000000000000000e+00" cType="1" res="3.5629443824291229e-02" rms="1.9064688682556152e-01" purity="8.6247140169143677e-01" nType="-99"/>
          <Node pos="r" depth="2" NCoef="0" IVar="-1" Cut="0.0000000000000000e+00" cType="1" res="5.3411200642585754e-02" rms="2.9724422097206116e-01" purity="7.3513382673263550e-01" nType="-99"/>
        </Node>
        <Node pos="r" depth="1" NCoef="0" IVar="20" Cut="1.4630531072616577e+00" cType="1" res="-1.3590539805591106e-02" rms="2.0633816719055176e-01" purity="3.9648425579071045e-01" nType="0">
          <Node pos="l" depth="2" NCoef="0" IVar="-1" Cut="0.0000000000000000e+00" cType="1" res="-3.4273006021976471e-02" rms="1.6690665483474731e-01" purity="1.5734161436557770e-01" nType="-99"/>
          <Node pos="r" depth="2" NCoef="0" IVar="-1" Cut="0.0000000000000000e+00" cType="1" res="6.1472970992326736e-03" rms="2.2558724880218506e-01" purity="5.5597555637359619e-01" nType="-99"/>
        </Node>
      </Node>
    </BinaryTree>
    <BinaryTree type="DecisionTree" boostWeight="1.0000000000000000e+00" itree="40">
      <Node pos="s" depth="0" NCoef="0" IVar="4" Cut="9.5490223169326782e-01" cType="1" res="3.1356138642877340e-03" rms="2.0720610022544861e-01" purity="5.0825685262680054e-01" nType="0">
        <Node pos="l" depth="1" NCoef="0" IVar="2" Cut="2.5362789630889893e+00" cType="1" res="2.7285767719149590e-02" rms="2.0330734550952911e-01" purity="7.1823775768280029e-01" nType="0">
          <Node pos="l" depth="2" NCoef="0" IVar="-1" Cut="0.0000000000000000e+00" cType="1" res="-2.1188251674175262e-02" rms="1.9736768305301666e-01" purity="1.1064418405294418e-01" nType="-99"/>
          <Node pos="r" depth="2" NCoef="0" IVar="-1" Cut="0.0000000000000000e+00" cType="1" res="2.6661254465579987e-02" rms="2.0196735858917236e-01" purity="8.7346655130386353e-01" nType="-99"/>
        </Node>
        <Node pos="r" depth="1" NCoef="0" IVar="11" Cut="-2.9376960754394531e+01" cType="1" res="-3.6123801022768021e-02" rms="2.0747715234756470e-01" purity="1.6690380871295929e-01" nType="0">
          <Node pos="l" depth="2" NCoef="0" IVar="-1" Cut="0.0000000000000000e+00" cType="1" res="1.6601946204900742e-02" rms="2.7546417713165283e-01" purity="5.4091936349868774e-01" nType="-99"/>
          <Node pos="r" depth="2" NCoef="0" IVar="-1" Cut="0.0000000000000000e+00" cType="1" res="-2.9668545350432396e-02" rms="1.9384889304637909e-01" purity="1.1568666249513626e-01" nType="-99"/>
        </Node>
      </Node>
    </BinaryTree>
    <BinaryTree type="DecisionTree" boostWeight="1.0000000000000000e+00" itree="41">
      <Node pos="s" depth="0" NCoef="0" IVar="16" Cut="1.3711864013671875e+03" cType="1" res="-8.5736386245116591e-04" rms="1.9914232194423676e-01" purity="5.0335806608200073e-01" nType="0">
        <Node pos="l" depth="1" NCoef="0" IVar="5" Cut="1.5759257972240448e-01" cType="1" res="-2.3002289235591888e-02" rms="1.9157059490680695e-01" purity="3.1754353642463684e-01" nType="0">
          <Node pos="l" depth="2" NCoef="0" IVar="-1" Cut="0.0000000000000000e+00" cType="1" res="1.9902657717466354e-02" rms="1.8079389631748199e-01" purity="7.6923042535781860e-01" nType="-99"/>
          <Node pos="r" depth="2" NCoef="0" IVar="-1" Cut="0.0000000000000000e+00" cType="1" res="-2.8590753674507141e-02" rms="1.9175472855567932e-01" purity="1.5842719376087189e-01" nType="-99"/>
        </Node>
        <Node pos="r" depth="1" NCoef="0" IVar="5" Cut="1.3641363382339478e+00" cType="1" res="3.5910665988922119e-02" rms="2.0592097938060760e-01" purity="8.1187278032302856e-01" nType="0">
          <Node pos="l" depth="2" NCoef="0" IVar="-1" Cut="0.0000000000000000e+00" cType="1" res="2.9879542067646980e-02" rms="1.9006121158599854e-01" purity="8.9232015609741211e-01" nType="-99"/>
          <Node pos="r" depth="2" NCoef="0" IVar="-1" Cut="0.0000000000000000e+00" cType="1" res="-2.0814903080463409e-02" rms="2.8275367617607117e-01" purity="2.0028215646743774e-01" nType="-99"/>
        </Node>
      </Node>
    </BinaryTree>
    <BinaryTree type="DecisionTree" boostWeight="1.0000000000000000e+00" itree="42">
      <Node pos="s" depth="0" NCoef="0" IVar="9" Cut="1.3219333648681641e+01" cType="1" res="2.5557524058967829e-03" rms="2.0718081295490265e-01" purity="4.9391907453536987e-01" nType="0">
        <Node pos="l" depth="1" NCoef="0" IVar="7" Cut="3.0595088958740234e+01" cType="1" res="-3.3376190811395645e-02" rms="1.8923644721508026e-01" purity="1.6927187144756317e-01" nType="0">
          <Node pos="l" depth="2" NCoef="0" IVar="-1" Cut="0.0000000000000000e+00" cType="1" res="-3.2424487173557281e-02" rms="1.8048097193241119e-01" purity="1.3141232728958130e-01" nType="-99"/>
          <Node pos="r" depth="2" NCoef="0" IVar="-1" Cut="0.0000000000000000e+00" cType="1" res="5.5866101756691933e-03" rms="2.1558953821659088e-01" purity="3.2096090912818909e-01" nType="-99"/>
        </Node>
        <Node pos="r" depth="1" NCoef="0" IVar="0" Cut="2.1789424419403076e+00" cType="1" res="2.6446936652064323e-02" rms="2.1499857306480408e-01" purity="7.0977729558944702e-01" nType="0">
          <Node pos="l" depth="2" NCoef="0" IVar="-1" Cut="0.0000000000000000e+00" cType="1" res="2.3143686354160309e-02" rms="2.1001581847667694e-01" purity="7.7554142475128174e-01" nType="-99"/>
          <Node pos="r" depth="2" NCoef="0" IVar="-1" Cut="0.0000000000000000e+00" cType="1" res="-3.0140461400151253e-02" rms="2.3389716446399689e-01" purity="1.7495317757129669e-01" nType="-99"/>
        </Node>
      </Node>
    </BinaryTree>
    <BinaryTree type="DecisionTree" boostWeight="1.0000000000000000e+00" itree="43">
      <Node pos="s" depth="0" NCoef="0" IVar="6" Cut="2.9664051055908203e+01" cType="1" res="1.6293902881443501e-03" rms="2.0100978016853333e-01" purity="5.0101846456527710e-01" nType="0">
        <Node pos="l" depth="1" NCoef="0" IVar="20" Cut="1.5596432685852051e+00" cType="1" res="-2.2962702438235283e-02" rms="1.9559061527252197e-01" purity="3.2299703359603882e-01" nType="0">
          <Node pos="l" depth="2" NCoef="0" IVar="-1" Cut="0.0000000000000000e+00" cType="1" res="-4.0542811155319214e-02" rms="1.5166892111301422e-01" purity="1.1091838777065277e-01" nType="-99"/>
          <Node pos="r" depth="2" NCoef="0" IVar="-1" Cut="0.0000000000000000e+00" cType="1" res="-4.6716287033632398e-04" rms="2.2174283862113953e-01" purity="4.9026528000831604e-01" nType="-99"/>
        </Node>
        <Node pos="r" depth="1" NCoef="0" IVar="1" Cut="2.0248666405677795e-02" cType="1" res="3.2612811774015427e-02" rms="2.0344734191894531e-01" purity="7.2530657052993774e-01" nType="0">
          <Node pos="l" depth="2" NCoef="0" IVar="-1" Cut="0.0000000000000000e+00" cType="1" res="2.7520995587110519e-02" rms="2.1216322481632233e-01" purity="8.3108735084533691e-01" nType="-99"/>
          <Node pos="r" depth="2" NCoef="0" IVar="-1" Cut="0.0000000000000000e+00" cType="1" res="-4.6123467385768890e-02" rms="9.5296904444694519e-02" purity="9.9649289622902870e-03" nType="-99"/>
        </Node>
      </Node>
    </BinaryTree>
    <BinaryTree type="DecisionTree" boostWeight="1.0000000000000000e+00" itree="44">
      <Node pos="s" depth="0" NCoef="0" IVar="12" Cut="3.9250112915039062e+02" cType="1" res="8.4010316058993340e-03" rms="2.0591726899147034e-01" purity="5.0971132516860962e-01" nType="0">
        <Node pos="l" depth="1" NCoef="0" IVar="4" Cut="-2.2800466418266296e-01" cType="1" res="-1.7223794013261795e-02" rms="1.8708744645118713e-01" purity="2.8710865974426270e-01" nType="0">
          <Node pos="l" depth="2" NCoef="0" IVar="-1" Cut="0.0000000000000000e+00" cType="1" res="2.7184272184967995e-02" rms="2.2094538807868958e-01" purity="7.6786780357360840e-01" nType="-99"/>
          <Node pos="r" depth="2" NCoef="0" IVar="-1" Cut="0.0000000000000000e+00" cType="1" res="-2.1162139251828194e-02" rms="1.7798854410648346e-01" purity="2.0076344907283783e-01" nType="-99"/>
        </Node>
        <Node pos="r" depth="1" NCoef="0" IVar="6" Cut="1.4866001129150391e+01" cType="1" res="3.8433685898780823e-02" rms="2.2226902842521667e-01" purity="7.7060472965240479e-01" nType="0">
          <Node pos="l" depth="2" NCoef="0" IVar="-1" Cut="0.0000000000000000e+00" cType="1" res="-1.7021838575601578e-02" rms="2.5490954518318176e-01" purity="4.4153177738189697e-01" nType="-99"/>
          <Node pos="r" depth="2" NCoef="0" IVar="-1" Cut="0.0000000000000000e+00" cType="1" res="3.0439056456089020e-02" rms="2.1352472901344299e-01" purity="8.2852870225906372e-01" nType="-99"/>
        </Node>
      </Node>
    </BinaryTree>
    <BinaryTree type="DecisionTree" boostWeight="1.0000000000000000e+00" itree="45">
      <Node pos="s" depth="0" NCoef="0" IVar="20" Cut="1.6037129163742065e+00" cType="1" res="4.3727285228669643e-03" rms="2.0401702821254730e-01" purity="5.0176680088043213e-01" nType="0">
        <Node pos="l" depth="1" NCoef="0" IVar="10" Cut="-2.7632600784301758e+01" cType="1" res="-2.6402033865451813e-02" rms="1.9050735235214233e-01" purity="2.3082526028156281e-01" nType="0">
          <Node pos="l" depth="2" NCoef="0" IVar="-1" Cut="0.0000000000000000e+00" cType="1" res="2.3418718948960304e-02" rms="2.5087097287178040e-01" purity="6.4901959896087646e-01" nType="-99"/>
          <Node pos="r" depth="2" NCoef="0" IVar="-1" Cut="0.0000000000000000e+00" cType="1" res="-2.8665160760283470e-02" rms="1.7544884979724884e-01" purity="1.5866091847419739e-01" nType="-99"/>
        </Node>
        <Node pos="r" depth="1" NCoef="0" IVar="17" Cut="3.5757806301116943e+00" cType="1" res="2.3780927062034607e-02" rms="2.0978631079196930e-01" purity="6.7263692617416382e-01" nType="0">
          <Node pos="l" depth="2" NCoef="0" IVar="-1" Cut="0.0000000000000000e+00" cType="1" res="2.1199287846684456e-02" rms="2.0033590495586395e-01" purity="6.8421441316604614e-01" nType="-99"/>
          <Node pos="r" depth="2" NCoef="0" IVar="-1" Cut="0.0000000000000000e+00" cType="1" res="-4.6020355075597763e-02" rms="2.7586004137992859e-01" purity="5.4118973016738892e-01" nType="-99"/>
        </Node>
      </Node>
    </BinaryTree>
    <BinaryTree type="DecisionTree" boostWeight="1.0000000000000000e+00" itree="46">
      <Node pos="s" depth="0" NCoef="0" IVar="2" Cut="3.2538390159606934e+00" cType="1" res="1.7387076513841748e-03" rms="1.9680316746234894e-01" purity="5.0695878267288208e-01" nType="0">
        <Node pos="l" depth="1" NCoef="0" IVar="7" Cut="4.1418933868408203e+01" cType="1" res="-3.0954424291849136e-02" rms="1.6863535344600677e-01" purity="1.2664546072483063e-01" nType="0">
          <Node pos="l" depth="2" NCoef="0" IVar="-1" Cut="0.0000000000000000e+00" cType="1" res="-3.1665541231632233e-02" rms="1.5794134140014648e-01" purity="9.4523064792156219e-02" nType="-99"/>
          <Node pos="r" depth="2" NCoef="0" IVar="-1" Cut="0.0000000000000000e+00" cType="1" res="1.8289510160684586e-02" rms="2.2938735783100128e-01" purity="3.9536347985267639e-01" nType="-99"/>
        </Node>
        <Node pos="r" depth="1" NCoef="0" IVar="0" Cut="1.2519484758377075e+00" cType="1" res="2.1693158894777298e-02" rms="2.0967522263526917e-01" purity="7.3908525705337524e-01" nType="0">
          <Node pos="l" depth="2" NCoef="0" IVar="-1" Cut="0.0000000000000000e+00" cType="1" res="3.4472618252038956e-02" rms="1.7737628519535065e-01" purity="9.2297273874282837e-01" nType="-99"/>
          <Node pos="r" depth="2" NCoef="0" IVar="-1" Cut="0.0000000000000000e+00" cType="1" res="-1.3484640046954155e-02" rms="2.5012809038162231e-01" purity="4.1476607322692871e-01" nType="-99"/>
        </Node>
      </Node>
    </BinaryTree>
    <BinaryTree type="DecisionTree" boostWeight="1.0000000000000000e+00" itree="47">
      <Node pos="s" depth="0" NCoef="0" IVar="7" Cut="2.1267620086669922e+01" cType="1" res="1.7629247158765793e-03" rms="1.9844457507133484e-01" purity="5.0335323810577393e-01" nType="0">
        <Node pos="l" depth="1" NCoef="0" IVar="4" Cut="4.6129655838012695e-01" cType="1" res="-2.7185471728444099e-02" rms="1.9932845234870911e-01" purity="3.3569741249084473e-01" nType="0">
          <Node pos="l" depth="2" NCoef="0" IVar="-1" Cut="0.0000000000000000e+00" cType="1" res="6.4036541152745485e-04" rms="2.0805704593658447e-01" purity="6.7962390184402466e-01" nType="-99"/>
          <Node pos="r" depth="2" NCoef="0" IVar="-1" Cut="0.0000000000000000e+00" cType="1" res="-3.2101009041070938e-02" rms="1.9207932054996490e-01" purity="1.3292050361633301e-01" nType="-99"/>
        </Node>
        <Node pos="r" depth="1" NCoef="0" IVar="1" Cut="2.0248970016837120e-02" cType="1" res="2.6805283501744270e-02" rms="1.9422681629657745e-01" purity="6.4838713407516479e-01" nType="0">
          <Node pos="l" depth="2" NCoef="0" IVar="-1" Cut="0.0000000000000000e+00" cType="1" res="2.4411890655755997e-02" rms="2.0610034465789795e-01" purity="7.7633875608444214e-01" nType="-99"/>
          <Node pos="r" depth="2" NCoef="0" IVar="-1" Cut="0.0000000000000000e+00" cType="1" res="-3.8799297064542770e-02" rms="1.0028919577598572e-01" purity="1.2606411240994930e-02" nType="-99"/>
        </Node>
      </Node>
    </BinaryTree>
    <BinaryTree type="DecisionTree" boostWeight="1.0000000000000000e+00" itree="48">
      <Node pos="s" depth="0" NCoef="0" IVar="8" Cut="-4.2197242736816406e+01" cType="1" res="2.5113895535469055e-03" rms="2.0044232904911041e-01" purity="5.0299358367919922e-01" nType="0">
        <Node pos="l" depth="1" NCoef="0" IVar="2" Cut="3.2038021087646484e+00" cType="1" res="5.6277409195899963e-02" rms="1.8620741367340088e-01" purity="8.2790917158126831e-01" nType="0">
          <Node pos="l" depth="2" NCoef="0" IVar="-1" Cut="0.0000000000000000e+00" cType="1" res="1.3241880573332310e-02" rms="2.2043108940124512e-01" purity="3.8506171107292175e-01" nType="-99"/>
          <Node pos="r" depth="2" NCoef="0" IVar="-1" Cut="0.0000000000000000e+00" cType="1" res="4.7836504876613617e-02" rms="1.7589710652828217e-01" purity="9.3654251098632812e-01" nType="-99"/>
        </Node>
        <Node pos="r" depth="1" NCoef="0" IVar="17" Cut="3.2677204608917236e+00" cType="1" res="-8.9636566117405891e-03" rms="2.0150224864482880e-01" purity="4.3364825844764709e-01" nType="0">
          <Node pos="l" depth="2" NCoef="0" IVar="-1" Cut="0.0000000000000000e+00" cType="1" res="-3.1549672712571919e-04" rms="1.9503623247146606e-01" purity="4.4360193610191345e-01" nType="-99"/>
          <Node pos="r" depth="2" NCoef="0" IVar="-1" Cut="0.0000000000000000e+00" cType="1" res="-4.7302171587944031e-02" rms="2.3507472872734070e-01" purity="3.5864841938018799e-01" nType="-99"/>
        </Node>
      </Node>
    </BinaryTree>
    <BinaryTree type="DecisionTree" boostWeight="1.0000000000000000e+00" itree="49">
      <Node pos="s" depth="0" NCoef="0" IVar="8" Cut="-2.4467765808105469e+01" cType="1" res="4.7842408530414104e-03" rms="1.9985783100128174e-01" purity="5.0918900966644287e-01" nType="0">
        <Node pos="l" depth="1" NCoef="0" IVar="9" Cut="8.2979373931884766e+00" cType="1" res="3.3594105392694473e-02" rms="2.0042170584201813e-01" purity="6.9958484172821045e-01" nType="0">
          <Node pos="l" depth="2" NCoef="0" IVar="-1" Cut="0.0000000000000000e+00" cType="1" res="-2.1391315385699272e-02" rms="2.0149020850658417e-01" purity="1.6274648904800415e-01" nType="-99"/>
          <Node pos="r" depth="2" NCoef="0" IVar="-1" Cut="0.0000000000000000e+00" cType="1" res="3.1280424445867538e-02" rms="1.9823212921619415e-01" purity="7.9590392112731934e-01" nType="-99"/>
        </Node>
        <Node pos="r" depth="1" NCoef="0" IVar="16" Cut="1.1286422119140625e+03" cType="1" res="-1.3963869772851467e-02" rms="1.9724261760711670e-01" purity="3.8528832793235779e-01" nType="0">
          <Node pos="l" depth="2" NCoef="0" IVar="-1" Cut="0.0000000000000000e+00" cType="1" res="-2.6872187852859497e-02" rms="1.6793102025985718e-01" purity="1.8494945764541626e-01" nType="-99"/>
          <Node pos="r" depth="2" NCoef="0" IVar="-1" Cut="0.0000000000000000e+00" cType="1" res="9.4584599137306213e-03" rms="2.3310221731662750e-01" purity="7.0164525508880615e-01" nType="-99"/>
        </Node>
      </Node>
    </BinaryTree>
    <BinaryTree type="DecisionTree" boostWeight="1.0000000000000000e+00" itree="50">
      <Node pos="s" depth="0" NCoef="0" IVar="12" Cut="4.3468463134765625e+02" cType="1" res="6.3768466934561729e-03" rms="2.0338889956474304e-01" purity="5.0754827260971069e-01" nType="0">
        <Node pos="l" depth="1" NCoef="0" IVar="4" Cut="5.7457005977630615e-01" cType="1" res="-1.1514785699546337e-02" rms="1.8782474100589752e-01" purity="3.1018570065498352e-01" nType="0">
          <Node pos="l" depth="2" NCoef="0" IVar="-1" Cut="0.0000000000000000e+00" cType="1" res="1.3027662411332130e-02" rms="2.0125645399093628e-01" purity="6.1115908622741699e-01" nType="-99"/>
          <Node pos="r" depth="2" NCoef="0" IVar="-1" Cut="0.0000000000000000e+00" cType="1" res="-2.8439281508326530e-02" rms="1.7467759549617767e-01" purity="1.0019164532423019e-01" nType="-99"/>
        </Node>
        <Node pos="r" depth="1" NCoef="0" IVar="13" Cut="4.4546435546875000e+03" cType="1" res="3.2440353184938431e-02" rms="2.2156578302383423e-01" purity="7.9505479335784912e-01" nType="0">
          <Node pos="l" depth="2" NCoef="0" IVar="-1" Cut="0.0000000000000000e+00" cType="1" res="-1.0472279973328114e-02" rms="2.4239948391914368e-01" purity="5.6098884344100952e-01" nType="-99"/>
          <Node pos="r" depth="2" NCoef="0" IVar="-1" Cut="0.0000000000000000e+00" cType="1" res="2.9092246666550636e-02" rms="2.1476277709007263e-01" purity="8.4953230619430542e-01" nType="-99"/>
        </Node>
      </Node>
    </BinaryTree>
    <BinaryTree type="DecisionTree" boostWeight="1.0000000000000000e+00" itree="51">
      <Node pos="s" depth="0" NCoef="0" IVar="6" Cut="1.9943885803222656e+01" cType="1" res="4.3272795155644417e-03" rms="2.0338876545429230e-01" purity="4.9881973862648010e-01" nType="0">
        <Node pos="l" depth="1" NCoef="0" IVar="7" Cut="3.5434310913085938e+01" cType="1" res="-2.4363227188587189e-02" rms="1.9107134640216827e-01" purity="2.4114903807640076e-01" nType="0">
          <Node pos="l" depth="2" NCoef="0" IVar="-1" Cut="0.0000000000000000e+00" cType="1" res="-2.6546820998191833e-02" rms="1.8385075032711029e-01" purity="2.0732332766056061e-01" nType="-99"/>
          <Node pos="r" depth="2" NCoef="0" IVar="-1" Cut="0.0000000000000000e+00" cType="1" res="2.4032220244407654e-02" rms="2.2784623503684998e-01" purity="4.8998796939849854e-01" nType="-99"/>
        </Node>
        <Node pos="r" depth="1" NCoef="0" IVar="14" Cut="5.0372079467773438e+02" cType="1" res="1.9541775807738304e-02" rms="2.0802780985832214e-01" purity="6.3546174764633179e-01" nType="0">
          <Node pos="l" depth="2" NCoef="0" IVar="-1" Cut="0.0000000000000000e+00" cType="1" res="-7.1918172761797905e-03" rms="2.0474785566329956e-01" purity="4.0198436379432678e-01" nType="-99"/>
          <Node pos="r" depth="2" NCoef="0" IVar="-1" Cut="0.0000000000000000e+00" cType="1" res="2.6759544387459755e-02" rms="2.0789386332035065e-01" purity="7.8681391477584839e-01" nType="-99"/>
        </Node>
      </Node>
    </BinaryTree>
    <BinaryTree type="DecisionTree" boostWeight="1.0000000000000000e+00" itree="52">
      <Node pos="s" depth="0" NCoef="0" IVar="0" Cut="1.8277586698532104e+00" cType="1" res="3.0370631720870733e-03" rms="2.0389552414417267e-01" purity="4.9488765001296997e-01" nType="0">
        <Node pos="l" depth="1" NCoef="0" IVar="2" Cut="1.8755021095275879e+00" cType="1" res="1.4804588630795479e-02" rms="2.0226742327213287e-01" purity="6.2061381340026855e-01" nType="0">
          <Node pos="l" depth="2" NCoef="0" IVar="-1" Cut="0.0000000000000000e+00" cType="1" res="-3.5990070551633835e-02" rms="1.3315090537071228e-01" purity="2.6485621929168701e-02" nType="-99"/>
          <Node pos="r" depth="2" NCoef="0" IVar="-1" Cut="0.0000000000000000e+00" cType="1" res="1.8132204189896584e-02" rms="2.1456806361675262e-01" purity="7.7170753479003906e-01" nType="-99"/>
        </Node>
        <Node pos="r" depth="1" NCoef="0" IVar="2" Cut="5.6992373466491699e+00" cType="1" res="-3.1407982110977173e-02" rms="2.0473699271678925e-01" purity="1.2687118351459503e-01" nType="0">
          <Node pos="l" depth="2" NCoef="0" IVar="-1" Cut="0.0000000000000000e+00" cType="1" res="-1.5495188534259796e-02" rms="1.8153534829616547e-01" purity="1.1841899901628494e-01" nType="-99"/>
          <Node pos="r" depth="2" NCoef="0" IVar="-1" Cut="0.0000000000000000e+00" cType="1" res="-5.6053582578897476e-02" rms="3.2691326737403870e-01" purity="2.0354852080345154e-01" nType="-99"/>
        </Node>
      </Node>
    </BinaryTree>
    <BinaryTree type="DecisionTree" boostWeight="1.0000000000000000e+00" itree="53">
      <Node pos="s" depth="0" NCoef="0" IVar="10" Cut="-2.8517097473144531e+01" cType="1" res="-2.1299389190971851e-03" rms="1.9369670748710632e-01" purity="4.9466550350189209e-01" nType="0">
        <Node pos="l" depth="1" NCoef="0" IVar="1" Cut="6.8475767038762569e-03" cType="1" res="4.2232844978570938e-02" rms="2.0686355233192444e-01" purity="8.5093468427658081e-01" nType="0">
          <Node pos="l" depth="2" NCoef="0" IVar="-1" Cut="0.0000000000000000e+00" cType="1" res="2.3509848862886429e-02" rms="1.5600833296775818e-01" purity="9.3993330001831055e-01" nType="-99"/>
          <Node pos="r" depth="2" NCoef="0" IVar="-1" Cut="0.0000000000000000e+00" cType="1" res="5.3167778998613358e-02" rms="3.3676367998123169e-01" purity="4.7874644398689270e-01" nType="-99"/>
        </Node>
        <Node pos="r" depth="1" NCoef="0" IVar="4" Cut="-2.2800403833389282e-01" cType="1" res="-1.5836276113986969e-02" rms="1.8733128905296326e-01" purity="3.8459247350692749e-01" nType="0">
          <Node pos="l" depth="2" NCoef="0" IVar="-1" Cut="0.0000000000000000e+00" cType="1" res="2.3121213540434837e-02" rms="1.8823094666004181e-01" purity="8.4248101711273193e-01" nType="-99"/>
          <Node pos="r" depth="2" NCoef="0" IVar="-1" Cut="0.0000000000000000e+00" cType="1" res="-2.0032204687595367e-02" rms="1.8547905981540680e-01" purity="2.8157004714012146e-01" nType="-99"/>
        </Node>
      </Node>
    </BinaryTree>
    <BinaryTree type="DecisionTree" boostWeight="1.0000000000000000e+00" itree="54">
      <Node pos="s" depth="0" NCoef="0" IVar="7" Cut="4.3900032043457031e+01" cType="1" res="3.3336633350700140e-03" rms="1.9832438230514526e-01" purity="5.0706803798675537e-01" nType="0">
        <Node pos="l" depth="1" NCoef="0" IVar="19" Cut="1.5327453613281250e+00" cType="1" res="-4.8107407055795193e-03" rms="1.9985121488571167e-01" purity="4.5457765460014343e-01" nType="0">
          <Node pos="l" depth="2" NCoef="0" IVar="-1" Cut="0.0000000000000000e+00" cType="1" res="-2.4439198896288872e-02" rms="1.7300541698932648e-01" purity="1.7967219650745392e-01" nType="-99"/>
          <Node pos="r" depth="2" NCoef="0" IVar="-1" Cut="0.0000000000000000e+00" cType="1" res="7.0968787185847759e-03" rms="2.1338340640068054e-01" purity="6.2406146526336670e-01" nType="-99"/>
        </Node>
        <Node pos="r" depth="1" NCoef="0" IVar="4" Cut="6.8098020553588867e-01" cType="1" res="5.1621664315462112e-02" rms="1.8166740238666534e-01" purity="8.1828224658966064e-01" nType="0">
          <Node pos="l" depth="2" NCoef="0" IVar="-1" Cut="0.0000000000000000e+00" cType="1" res="3.5504367202520370e-02" rms="1.3255152106285095e-01" purity="9.0557360649108887e-01" nType="-99"/>
          <Node pos="r" depth="2" NCoef="0" IVar="-1" Cut="0.0000000000000000e+00" cType="1" res="4.3033502995967865e-02" rms="2.5439929962158203e-01" purity="6.2885308265686035e-01" nType="-99"/>
        </Node>
      </Node>
    </BinaryTree>
    <BinaryTree type="DecisionTree" boostWeight="1.0000000000000000e+00" itree="55">
      <Node pos="s" depth="0" NCoef="0" IVar="7" Cut="3.7417076110839844e+01" cType="1" res="-1.8326497229281813e-04" rms="1.9641231000423431e-01" purity="4.9811628460884094e-01" nType="0">
        <Node pos="l" depth="1" NCoef="0" IVar="0" Cut="9.5734250545501709e-01" cType="1" res="-1.1413278058171272e-02" rms="1.9994515180587769e-01" purity="4.0897691249847412e-01" nType="0">
          <Node pos="l" depth="2" NCoef="0" IVar="-1" Cut="0.0000000000000000e+00" cType="1" res="7.2936005890369415e-03" rms="2.0203080773353577e-01" purity="6.1135113239288330e-01" nType="-99"/>
          <Node pos="r" depth="2" NCoef="0" IVar="-1" Cut="0.0000000000000000e+00" cType="1" res="-2.4052331224083900e-02" rms="1.9592833518981934e-01" purity="2.1944454312324524e-01" nType="-99"/>
        </Node>
        <Node pos="r" depth="1" NCoef="0" IVar="2" Cut="2.6133327484130859e+00" cType="1" res="3.7097737193107605e-02" rms="1.7922241985797882e-01" purity="7.9403811693191528e-01" nType="0">
          <Node pos="l" depth="2" NCoef="0" IVar="-1" Cut="0.0000000000000000e+00" cType="1" res="-1.4943816699087620e-02" rms="1.8705378472805023e-01" purity="1.7586682736873627e-01" nType="-99"/>
          <Node pos="r" depth="2" NCoef="0" IVar="-1" Cut="0.0000000000000000e+00" cType="1" res="4.2023498564958572e-02" rms="1.7555457353591919e-01" purity="9.0595036745071411e-01" nType="-99"/>
        </Node>
      </Node>
    </BinaryTree>
    <BinaryTree type="DecisionTree" boostWeight="1.0000000000000000e+00" itree="56">
      <Node pos="s" depth="0" NCoef="0" IVar="16" Cut="1.2959621582031250e+03" cType="1" res="-7.7397469431161880e-04" rms="1.9006201624870300e-01" purity="4.8986390233039856e-01" nType="0">
        <Node pos="l" depth="1" NCoef="0" IVar="2" Cut="6.0416903495788574e+00" cType="1" res="-1.6962101683020592e-02" rms="1.8336465954780579e-01" purity="2.7399575710296631e-01" nType="0">
          <Node pos="l" depth="2" NCoef="0" IVar="-1" Cut="0.0000000000000000e+00" cType="1" res="-1.0845564305782318e-02" rms="1.7616452276706696e-01" purity="2.5993850827217102e-01" nType="-99"/>
          <Node pos="r" depth="2" NCoef="0" IVar="-1" Cut="0.0000000000000000e+00" cType="1" res="-6.0450416058301926e-02" rms="2.7293968200683594e-01" purity="5.3683561086654663e-01" nType="-99"/>
        </Node>
        <Node pos="r" depth="1" NCoef="0" IVar="5" Cut="1.6289455890655518e+00" cType="1" res="2.3032860830426216e-02" rms="1.9710259139537811e-01" purity="8.0732721090316772e-01" nType="0">
          <Node pos="l" depth="2" NCoef="0" IVar="-1" Cut="0.0000000000000000e+00" cType="1" res="2.3364251479506493e-02" rms="1.8835704028606415e-01" purity="8.6850410699844360e-01" nType="-99"/>
          <Node pos="r" depth="2" NCoef="0" IVar="-1" Cut="0.0000000000000000e+00" cType="1" res="-2.0540837198495865e-02" rms="2.6119899749755859e-01" purity="1.7129214107990265e-01" nType="-99"/>
        </Node>
      </Node>
    </BinaryTree>
    <BinaryTree type="DecisionTree" boostWeight="1.0000000000000000e+00" itree="57">
      <Node pos="s" depth="0" NCoef="0" IVar="4" Cut="1.2316690683364868e+00" cType="1" res="-2.4079144932329655e-03" rms="1.8491342663764954e-01" purity="5.0623351335525513e-01" nType="0">
        <Node pos="l" depth="1" NCoef="0" IVar="2" Cut="1.8107159137725830e+00" cType="1" res="1.0984671302139759e-02" rms="1.8678359687328339e-01" purity="6.7760688066482544e-01" nType="0">
          <Node pos="l" depth="2" NCoef="0" IVar="-1" Cut="0.0000000000000000e+00" cType="1" res="-4.8840116709470749e-02" rms="1.0615129768848419e-01" purity="1.7417702823877335e-02" nType="-99"/>
          <Node pos="r" depth="2" NCoef="0" IVar="-1" Cut="0.0000000000000000e+00" cType="1" res="1.5474847517907619e-02" rms="1.9502989947795868e-01" purity="7.8325861692428589e-01" nType="-99"/>
        </Node>
        <Node pos="r" depth="1" NCoef="0" IVar="4" Cut="2.3671739101409912e+00" cType="1" res="-3.2805737107992172e-02" rms="1.7687298357486725e-01" purity="1.1725873500108719e-01" nType="0">
          <Node pos="l" depth="2" NCoef="0" IVar="-1" Cut="0.0000000000000000e+00" cType="1" res="-1.4346930198371410e-02" rms="1.9514523446559906e-01" purity="1.6565068066120148e-01" nType="-99"/>
          <Node pos="r" depth="2" NCoef="0" IVar="-1" Cut="0.0000000000000000e+00" cType="1" res="-4.7178138047456741e-02" rms="1.3392409682273865e-01" purity="2.8365949168801308e-02" nType="-99"/>
        </Node>
      </Node>
    </BinaryTree>
    <BinaryTree type="DecisionTree" boostWeight="1.0000000000000000e+00" itree="58">
      <Node pos="s" depth="0" NCoef="0" IVar="0" Cut="1.6280498504638672e+00" cType="1" res="-6.9697055732831359e-04" rms="1.8923458456993103e-01" purity="5.0006228685379028e-01" nType="0">
        <Node pos="l" depth="1" NCoef="0" IVar="2" Cut="2.3966846466064453e+00" cType="1" res="1.1151075363159180e-02" rms="1.8884924054145813e-01" purity="6.3991183042526245e-01" nType="0">
          <Node pos="l" depth="2" NCoef="0" IVar="-1" Cut="0.0000000000000000e+00" cType="1" res="-2.0700542256236076e-02" rms="1.6929231584072113e-01" purity="6.6292390227317810e-02" nType="-99"/>
          <Node pos="r" depth="2" NCoef="0" IVar="-1" Cut="0.0000000000000000e+00" cType="1" res="1.7640527337789536e-02" rms="1.9409690797328949e-01" purity="8.5149812698364258e-01" nType="-99"/>
        </Node>
        <Node pos="r" depth="1" NCoef="0" IVar="18" Cut="4.4757614135742188e+00" cType="1" res="-2.9382726177573204e-02" rms="1.8708212673664093e-01" purity="1.6146707534790039e-01" nType="0">
          <Node pos="l" depth="2" NCoef="0" IVar="-1" Cut="0.0000000000000000e+00" cType="1" res="-1.9469663500785828e-02" rms="1.7381745576858521e-01" purity="1.4580032229423523e-01" nType="-99"/>
          <Node pos="r" depth="2" NCoef="0" IVar="-1" Cut="0.0000000000000000e+00" cType="1" res="-4.5721493661403656e-02" rms="2.7215993404388428e-01" purity="3.0748304724693298e-01" nType="-99"/>
        </Node>
      </Node>
    </BinaryTree>
    <BinaryTree type="DecisionTree" boostWeight="1.0000000000000000e+00" itree="59">
      <Node pos="s" depth="0" NCoef="0" IVar="13" Cut="5.7397514648437500e+03" cType="1" res="-1.2542648473754525e-03" rms="1.8761171400547028e-01" purity="5.0525581836700439e-01" nType="0">
        <Node pos="l" depth="1" NCoef="0" IVar="5" Cut="2.3147685825824738e-01" cType="1" res="-1.5817807987332344e-02" rms="1.8638809025287628e-01" purity="3.3197215199470520e-01" nType="0">
          <Node pos="l" depth="2" NCoef="0" IVar="-1" Cut="0.0000000000000000e+00" cType="1" res="1.4077285304665565e-02" rms="1.8458618223667145e-01" purity="7.6141160726547241e-01" nType="-99"/>
          <Node pos="r" depth="2" NCoef="0" IVar="-1" Cut="0.0000000000000000e+00" cType="1" res="-2.5146393105387688e-02" rms="1.8553781509399414e-01" purity="1.6336002945899963e-01" nType="-99"/>
        </Node>
        <Node pos="r" depth="1" NCoef="0" IVar="2" Cut="2.2124440670013428e+00" cType="1" res="2.0780082792043686e-02" rms="1.8730761110782623e-01" purity="7.6743054389953613e-01" nType="0">
          <Node pos="l" depth="2" NCoef="0" IVar="-1" Cut="0.0000000000000000e+00" cType="1" res="-2.0132414996623993e-02" rms="2.0187544822692871e-01" purity="8.2868665456771851e-02" nType="-99"/>
          <Node pos="r" depth="2" NCoef="0" IVar="-1" Cut="0.0000000000000000e+00" cType="1" res="1.9551213830709457e-02" rms="1.8502114713191986e-01" purity="8.3771920204162598e-01" nType="-99"/>
        </Node>
      </Node>
    </BinaryTree>
    <BinaryTree type="DecisionTree" boostWeight="1.0000000000000000e+00" itree="60">
