<?xml version="1.0"?>
<MethodSetup Method="MLP::MLP">
  <GeneralInfo>
    <Info name="TMVA Release" value="4.2.1 [262657]"/>
    <Info name="ROOT Release" value="6.26/08 [399880]"/>
    <Info name="Creator" value="pgaigne"/>
    <Info name="Date" value="Tue May  2 10:54:38 2023"/>
    <Info name="Host" value="Linux 28693209b56e 5.15.0-1022-azure #27~20.04.1-Ubuntu SMP Mon Oct 17 02:03:50 UTC 2022 x86_64 x86_64 x86_64 GNU/Linux"/>
    <Info name="Dir" value="/afs/cern.ch/user/p/pgaigne/excitedBaryons/TMVA"/>
    <Info name="Training events" value="55191"/>
    <Info name="TrainingTime" value="4.85765794e+02"/>
    <Info name="AnalysisType" value="Classification"/>
  </GeneralInfo>
  <Options>
    <Option name="NCycles" modified="Yes">600</Option>
    <Option name="HiddenLayers" modified="Yes">N+5</Option>
    <Option name="NeuronType" modified="Yes">tanh</Option>
    <Option name="RandomSeed" modified="No">1</Option>
    <Option name="EstimatorType" modified="No">CE</Option>
    <Option name="NeuronInputType" modified="No">sum</Option>
    <Option name="V" modified="Yes">False</Option>
    <Option name="VerbosityLevel" modified="No">Default</Option>
    <Option name="VarTransform" modified="Yes">N</Option>
    <Option name="H" modified="Yes">True</Option>
    <Option name="CreateMVAPdfs" modified="No">False</Option>
    <Option name="IgnoreNegWeightsInTraining" modified="No">False</Option>
    <Option name="TrainingMethod" modified="No">BP</Option>
    <Option name="LearningRate" modified="No">2.000000e-02</Option>
    <Option name="DecayRate" modified="No">1.000000e-02</Option>
    <Option name="TestRate" modified="Yes">5</Option>
    <Option name="EpochMonitoring" modified="No">False</Option>
    <Option name="Sampling" modified="No">1.000000e+00</Option>
    <Option name="SamplingEpoch" modified="No">1.000000e+00</Option>
    <Option name="SamplingImportance" modified="No">1.000000e+00</Option>
    <Option name="SamplingTraining" modified="No">True</Option>
    <Option name="SamplingTesting" modified="No">False</Option>
    <Option name="ResetStep" modified="No">50</Option>
    <Option name="Tau" modified="No">3.000000e+00</Option>
    <Option name="BPMode" modified="No">sequential</Option>
    <Option name="BatchSize" modified="No">-1</Option>
    <Option name="ConvergenceImprove" modified="No">1.000000e-30</Option>
    <Option name="ConvergenceTests" modified="No">-1</Option>
    <Option name="UseRegulator" modified="Yes">False</Option>
    <Option name="UpdateLimit" modified="No">10000</Option>
    <Option name="CalculateErrors" modified="No">False</Option>
    <Option name="WeightRange" modified="No">1.000000e+00</Option>
  </Options>
  <Variables NVar="21">
    <Variable VarIndex="0" Expression="log(TMath::Max(10e-10,Xicc_IPCHI2_OWNPV))" Label="log(TMath::Max(10e-10,Xicc_IPCHI2_OWNPV))" Title="log_Xicc_IPCHI2_OWNPV" Unit="" Internal="log_TMath_Max_10e_M_10,Xicc_IPCHI2_OWNPV__" Type="F" Min="-8.72431469e+00" Max="4.82757521e+00"/>
    <Variable VarIndex="1" Expression="TMath::ACos(Xicc_DIRA_OWNPV)" Label="TMath::ACos(Xicc_DIRA_OWNPV)" Title="acos_Xicc_DIRA_OWNPV" Unit="" Internal="TMath_ACos_Xicc_DIRA_OWNPV_" Type="F" Min="3.12799530e-05" Max="1.41496211e-01"/>
    <Variable VarIndex="2" Expression="log(TMath::Max(10e-10,Xicc_FDCHI2_OWNPV))" Label="log(TMath::Max(10e-10,Xicc_FDCHI2_OWNPV))" Title="log_Xicc_FDCHI2_OWNPV" Unit="" Internal="log_TMath_Max_10e_M_10,Xicc_FDCHI2_OWNPV__" Type="F" Min="-4.59966516e+00" Max="1.16601973e+01"/>
    <Variable VarIndex="3" Expression="Lc_ENDVERTEX_CHI2/Lc_ENDVERTEX_NDOF" Label="Lc_ENDVERTEX_CHI2/Lc_ENDVERTEX_NDOF" Title="Lc_ENDVERTEX_CHI2_NDOF" Unit="" Internal="Lc_ENDVERTEX_CHI2_D_Lc_ENDVERTEX_NDOF" Type="F" Min="1.10579285e-05" Max="9.99967098e+00"/>
    <Variable VarIndex="4" Expression="log(TMath::Max(10e-10,Xicc_ENDVERTEX_CHI2/Xicc_ENDVERTEX_NDOF))" Label="log(TMath::Max(10e-10,Xicc_ENDVERTEX_CHI2/Xicc_ENDVERTEX_NDOF))" Title="log_Xicc_ENDVERTEX_CHI2_NDOF" Unit="" Internal="log_TMath_Max_10e_M_10,Xicc_ENDVERTEX_CHI2_D_Xicc_ENDVERTEX_NDOF__" Type="F" Min="-4.70480728e+00" Max="3.21869230e+00"/>
    <Variable VarIndex="5" Expression="log(TMath::Max(10e-10,Xicc_CHI2NDOF_DTF_PV))" Label="log(TMath::Max(10e-10,Xicc_CHI2NDOF_DTF_PV))" Title="log_Xicc_CHI2NDOF_DTF_PV" Unit="" Internal="log_TMath_Max_10e_M_10,Xicc_CHI2NDOF_DTF_PV__" Type="F" Min="-2.07232666e+01" Max="3.98276353e+00"/>
    <Variable VarIndex="6" Expression="LcP_PIDp" Label="LcP_PIDp" Title="LcP_PIDp" Unit="" Internal="LcP_PIDp" Type="F" Min="5.00036240e+00" Max="1.28169632e+02"/>
    <Variable VarIndex="7" Expression="LcK_PIDK" Label="LcK_PIDK" Title="LcK_PIDK" Unit="" Internal="LcK_PIDK" Type="F" Min="5.00042725e+00" Max="1.22970398e+02"/>
    <Variable VarIndex="8" Expression="LcPi_PIDK" Label="LcPi_PIDK" Title="LcPi_PIDK" Unit="" Internal="LcPi_PIDK" Type="F" Min="-1.62038010e+02" Max="4.99840069e+00"/>
    <Variable VarIndex="9" Expression="XiccK_PIDK" Label="XiccK_PIDK" Title="XiccK_PIDK" Unit="" Internal="XiccK_PIDK" Type="F" Min="-1.95616817e+01" Max="1.24393028e+02"/>
    <Variable VarIndex="10" Expression="XiccPi1_PIDK+XiccPi2_PIDK" Label="XiccPi1_PIDK+XiccPi2_PIDK" Title="XiccPi_PIDK_sum" Unit="" Internal="XiccPi1_PIDK_P_XiccPi2_PIDK" Type="F" Min="-1.03650464e+03" Max="3.29398651e+01"/>
    <Variable VarIndex="11" Expression="abs(XiccPi1_PIDK-XiccPi2_PIDK)" Label="abs(XiccPi1_PIDK-XiccPi2_PIDK)" Title="XiccPi_PIDK_diff" Unit="" Internal="abs_XiccPi1_PIDK_M_XiccPi2_PIDK_" Type="F" Min="0.00000000e+00" Max="1.01332043e+03"/>
    <Variable VarIndex="12" Expression="TMath::Min(TMath::Min(XiccK_PT,Lc_PT),TMath::Min(XiccPi1_PT,XiccPi2_PT))" Label="TMath::Min(TMath::Min(XiccK_PT,Lc_PT),TMath::Min(XiccPi1_PT,XiccPi2_PT))" Title="min_Xicc_Daughters_PT" Unit="" Internal="TMath_Min_TMath_Min_XiccK_PT,Lc_PT_,TMath_Min_XiccPi1_PT,XiccPi2_PT__" Type="F" Min="2.00000031e+02" Max="4.26785254e+03"/>
    <Variable VarIndex="13" Expression="Lc_PT" Label="Lc_PT" Title="Lc_PT" Unit="" Internal="Lc_PT" Type="F" Min="2.50914478e+03" Max="2.51158535e+04"/>
    <Variable VarIndex="14" Expression="XiccPi1_PT+XiccPi2_PT" Label="XiccPi1_PT+XiccPi2_PT" Title="XiccPi_PT_sum" Unit="" Internal="XiccPi1_PT_P_XiccPi2_PT" Type="F" Min="4.02286224e+02" Max="1.19234717e+04"/>
    <Variable VarIndex="15" Expression="abs(XiccPi1_PT-XiccPi2_PT)" Label="abs(XiccPi1_PT-XiccPi2_PT)" Title="XiccPi_PT_diff" Unit="" Internal="abs_XiccPi1_PT_M_XiccPi2_PT_" Type="F" Min="8.73144199e-06" Max="8.04723486e+03"/>
    <Variable VarIndex="16" Expression="XiccK_PT" Label="XiccK_PT" Title="XiccK_PT" Unit="" Internal="XiccK_PT" Type="F" Min="2.50001678e+02" Max="1.30009697e+04"/>
    <Variable VarIndex="17" Expression="log(TMath::Max(10e-10,Lc_IPCHI2_OWNPV))" Label="log(TMath::Max(10e-10,Lc_IPCHI2_OWNPV))" Title="log_Lc_IPCHI2_OWNPV" Unit="" Internal="log_TMath_Max_10e_M_10,Lc_IPCHI2_OWNPV__" Type="F" Min="-2.07232666e+01" Max="7.30529547e+00"/>
    <Variable VarIndex="18" Expression="log(TMath::Max(10e-10,XiccK_IPCHI2_OWNPV))" Label="log(TMath::Max(10e-10,XiccK_IPCHI2_OWNPV))" Title="log_XiccK_IPCHI2_OWNPV" Unit="" Internal="log_TMath_Max_10e_M_10,XiccK_IPCHI2_OWNPV__" Type="F" Min="4.88185942e-05" Max="8.90814686e+00"/>
    <Variable VarIndex="19" Expression="log(XiccPi1_IPCHI2_OWNPV+XiccPi2_IPCHI2_OWNPV)" Label="log(XiccPi1_IPCHI2_OWNPV+XiccPi2_IPCHI2_OWNPV)" Title="log_XiccPi_IPCHI2_OWNPV_sum" Unit="" Internal="log_XiccPi1_IPCHI2_OWNPV_P_XiccPi2_IPCHI2_OWNPV_" Type="F" Min="7.01465070e-01" Max="8.67216206e+00"/>
    <Variable VarIndex="20" Expression="log(abs(XiccPi1_IPCHI2_OWNPV-XiccPi2_IPCHI2_OWNPV))" Label="log(abs(XiccPi1_IPCHI2_OWNPV-XiccPi2_IPCHI2_OWNPV))" Title="log_XiccPi_IPCHI2_OWNPV_diff" Unit="" Internal="log_abs_XiccPi1_IPCHI2_OWNPV_M_XiccPi2_IPCHI2_OWNPV__" Type="F" Min="-2.04517612e+01" Max="8.67175198e+00"/>
  </Variables>
  <Spectators NSpec="2">
    <Spectator SpecIndex="0" Expression="Xicc_M" Label="Xicc_M" Title="F" Unit="" Internal="Xicc_M" Type="F" Min="3.60600659e+03" Max="3.89999976e+03"/>
    <Spectator SpecIndex="1" Expression="Lc_M" Label="Lc_M" Title="F" Unit="" Internal="Lc_M" Type="F" Min="2.27000122e+03" Max="2.30599585e+03"/>
  </Spectators>
  <Classes NClass="2">
    <Class Name="Signal" Index="0"/>
    <Class Name="Background" Index="1"/>
  </Classes>
  <Transformations NTransformations="1">
    <Transform Name="Normalize">
      <Selection>
        <Input NInputs="21">
          <Input Type="Variable" Label="log(TMath::Max(10e-10,Xicc_IPCHI2_OWNPV))" Expression="log(TMath::Max(10e-10,Xicc_IPCHI2_OWNPV))"/>
          <Input Type="Variable" Label="TMath::ACos(Xicc_DIRA_OWNPV)" Expression="TMath::ACos(Xicc_DIRA_OWNPV)"/>
          <Input Type="Variable" Label="log(TMath::Max(10e-10,Xicc_FDCHI2_OWNPV))" Expression="log(TMath::Max(10e-10,Xicc_FDCHI2_OWNPV))"/>
          <Input Type="Variable" Label="Lc_ENDVERTEX_CHI2/Lc_ENDVERTEX_NDOF" Expression="Lc_ENDVERTEX_CHI2/Lc_ENDVERTEX_NDOF"/>
          <Input Type="Variable" Label="log(TMath::Max(10e-10,Xicc_ENDVERTEX_CHI2/Xicc_ENDVERTEX_NDOF))" Expression="log(TMath::Max(10e-10,Xicc_ENDVERTEX_CHI2/Xicc_ENDVERTEX_NDOF))"/>
          <Input Type="Variable" Label="log(TMath::Max(10e-10,Xicc_CHI2NDOF_DTF_PV))" Expression="log(TMath::Max(10e-10,Xicc_CHI2NDOF_DTF_PV))"/>
          <Input Type="Variable" Label="LcP_PIDp" Expression="LcP_PIDp"/>
          <Input Type="Variable" Label="LcK_PIDK" Expression="LcK_PIDK"/>
          <Input Type="Variable" Label="LcPi_PIDK" Expression="LcPi_PIDK"/>
          <Input Type="Variable" Label="XiccK_PIDK" Expression="XiccK_PIDK"/>
          <Input Type="Variable" Label="XiccPi1_PIDK+XiccPi2_PIDK" Expression="XiccPi1_PIDK+XiccPi2_PIDK"/>
          <Input Type="Variable" Label="abs(XiccPi1_PIDK-XiccPi2_PIDK)" Expression="abs(XiccPi1_PIDK-XiccPi2_PIDK)"/>
          <Input Type="Variable" Label="TMath::Min(TMath::Min(XiccK_PT,Lc_PT),TMath::Min(XiccPi1_PT,XiccPi2_PT))" Expression="TMath::Min(TMath::Min(XiccK_PT,Lc_PT),TMath::Min(XiccPi1_PT,XiccPi2_PT))"/>
          <Input Type="Variable" Label="Lc_PT" Expression="Lc_PT"/>
          <Input Type="Variable" Label="XiccPi1_PT+XiccPi2_PT" Expression="XiccPi1_PT+XiccPi2_PT"/>
          <Input Type="Variable" Label="abs(XiccPi1_PT-XiccPi2_PT)" Expression="abs(XiccPi1_PT-XiccPi2_PT)"/>
          <Input Type="Variable" Label="XiccK_PT" Expression="XiccK_PT"/>
          <Input Type="Variable" Label="log(TMath::Max(10e-10,Lc_IPCHI2_OWNPV))" Expression="log(TMath::Max(10e-10,Lc_IPCHI2_OWNPV))"/>
          <Input Type="Variable" Label="log(TMath::Max(10e-10,XiccK_IPCHI2_OWNPV))" Expression="log(TMath::Max(10e-10,XiccK_IPCHI2_OWNPV))"/>
          <Input Type="Variable" Label="log(XiccPi1_IPCHI2_OWNPV+XiccPi2_IPCHI2_OWNPV)" Expression="log(XiccPi1_IPCHI2_OWNPV+XiccPi2_IPCHI2_OWNPV)"/>
          <Input Type="Variable" Label="log(abs(XiccPi1_IPCHI2_OWNPV-XiccPi2_IPCHI2_OWNPV))" Expression="log(abs(XiccPi1_IPCHI2_OWNPV-XiccPi2_IPCHI2_OWNPV))"/>
        </Input>
        <Output NOutputs="21">
          <Output Type="Variable" Label="log(TMath::Max(10e-10,Xicc_IPCHI2_OWNPV))" Expression="log(TMath::Max(10e-10,Xicc_IPCHI2_OWNPV))"/>
          <Output Type="Variable" Label="TMath::ACos(Xicc_DIRA_OWNPV)" Expression="TMath::ACos(Xicc_DIRA_OWNPV)"/>
          <Output Type="Variable" Label="log(TMath::Max(10e-10,Xicc_FDCHI2_OWNPV))" Expression="log(TMath::Max(10e-10,Xicc_FDCHI2_OWNPV))"/>
          <Output Type="Variable" Label="Lc_ENDVERTEX_CHI2/Lc_ENDVERTEX_NDOF" Expression="Lc_ENDVERTEX_CHI2/Lc_ENDVERTEX_NDOF"/>
          <Output Type="Variable" Label="log(TMath::Max(10e-10,Xicc_ENDVERTEX_CHI2/Xicc_ENDVERTEX_NDOF))" Expression="log(TMath::Max(10e-10,Xicc_ENDVERTEX_CHI2/Xicc_ENDVERTEX_NDOF))"/>
          <Output Type="Variable" Label="log(TMath::Max(10e-10,Xicc_CHI2NDOF_DTF_PV))" Expression="log(TMath::Max(10e-10,Xicc_CHI2NDOF_DTF_PV))"/>
          <Output Type="Variable" Label="LcP_PIDp" Expression="LcP_PIDp"/>
          <Output Type="Variable" Label="LcK_PIDK" Expression="LcK_PIDK"/>
          <Output Type="Variable" Label="LcPi_PIDK" Expression="LcPi_PIDK"/>
          <Output Type="Variable" Label="XiccK_PIDK" Expression="XiccK_PIDK"/>
          <Output Type="Variable" Label="XiccPi1_PIDK+XiccPi2_PIDK" Expression="XiccPi1_PIDK+XiccPi2_PIDK"/>
          <Output Type="Variable" Label="abs(XiccPi1_PIDK-XiccPi2_PIDK)" Expression="abs(XiccPi1_PIDK-XiccPi2_PIDK)"/>
          <Output Type="Variable" Label="TMath::Min(TMath::Min(XiccK_PT,Lc_PT),TMath::Min(XiccPi1_PT,XiccPi2_PT))" Expression="TMath::Min(TMath::Min(XiccK_PT,Lc_PT),TMath::Min(XiccPi1_PT,XiccPi2_PT))"/>
          <Output Type="Variable" Label="Lc_PT" Expression="Lc_PT"/>
          <Output Type="Variable" Label="XiccPi1_PT+XiccPi2_PT" Expression="XiccPi1_PT+XiccPi2_PT"/>
          <Output Type="Variable" Label="abs(XiccPi1_PT-XiccPi2_PT)" Expression="abs(XiccPi1_PT-XiccPi2_PT)"/>
          <Output Type="Variable" Label="XiccK_PT" Expression="XiccK_PT"/>
          <Output Type="Variable" Label="log(TMath::Max(10e-10,Lc_IPCHI2_OWNPV))" Expression="log(TMath::Max(10e-10,Lc_IPCHI2_OWNPV))"/>
          <Output Type="Variable" Label="log(TMath::Max(10e-10,XiccK_IPCHI2_OWNPV))" Expression="log(TMath::Max(10e-10,XiccK_IPCHI2_OWNPV))"/>
          <Output Type="Variable" Label="log(XiccPi1_IPCHI2_OWNPV+XiccPi2_IPCHI2_OWNPV)" Expression="log(XiccPi1_IPCHI2_OWNPV+XiccPi2_IPCHI2_OWNPV)"/>
          <Output Type="Variable" Label="log(abs(XiccPi1_IPCHI2_OWNPV-XiccPi2_IPCHI2_OWNPV))" Expression="log(abs(XiccPi1_IPCHI2_OWNPV-XiccPi2_IPCHI2_OWNPV))"/>
        </Output>
      </Selection>
      <Class ClassIndex="0">
        <Ranges>
          <Range Index="0" Min="-7.0793409347534180e+00" Max="3.1755764484405518e+00"/>
          <Range Index="1" Min="3.9787242712918669e-05" Max="1.0033857077360153e-01"/>
          <Range Index="2" Min="8.7384951114654541e-01" Max="9.5146503448486328e+00"/>
          <Range Index="3" Min="2.1124042104929686e-03" Max="9.9727811813354492e+00"/>
          <Range Index="4" Min="-4.7048072814941406e+00" Max="3.2118411064147949e+00"/>
          <Range Index="5" Min="-2.0513300895690918e+00" Max="2.5122606754302979e+00"/>
          <Range Index="6" Min="5.4108996391296387e+00" Max="1.2816963195800781e+02"/>
          <Range Index="7" Min="5.0470566749572754e+00" Max="1.2297039794921875e+02"/>
          <Range Index="8" Min="-1.3657318115234375e+02" Max="4.9512915611267090e+00"/>
          <Range Index="9" Min="-7.0219702720642090e+00" Max="1.2439302825927734e+02"/>
          <Range Index="10" Min="-1.0350399169921875e+03" Max="1.7038652420043945e+01"/>
          <Range Index="11" Min="0.0000000000000000e+00" Max="9.8142724609375000e+02"/>
          <Range Index="12" Min="2.0095034790039062e+02" Max="4.2678525390625000e+03"/>
          <Range Index="13" Min="2.6820371093750000e+03" Max="2.5098736328125000e+04"/>
          <Range Index="14" Min="4.0723812866210938e+02" Max="1.1182774414062500e+04"/>
          <Range Index="15" Min="8.7314419943140820e-06" Max="7.1181635742187500e+03"/>
          <Range Index="16" Min="2.5391673278808594e+02" Max="9.3235908203125000e+03"/>
          <Range Index="17" Min="-6.0215439796447754e+00" Max="5.3886818885803223e+00"/>
          <Range Index="18" Min="1.1425431817770004e-02" Max="7.9820117950439453e+00"/>
          <Range Index="19" Min="8.0754941701889038e-01" Max="7.6154184341430664e+00"/>
          <Range Index="20" Min="-2.0451761245727539e+01" Max="7.5784339904785156e+00"/>
        </Ranges>
      </Class>
      <Class ClassIndex="1">
        <Ranges>
          <Range Index="0" Min="-8.7243146896362305e+00" Max="4.8275752067565918e+00"/>
          <Range Index="1" Min="3.1279952963814139e-05" Max="1.4149621129035950e-01"/>
          <Range Index="2" Min="-4.5996651649475098e+00" Max="1.1660197257995605e+01"/>
          <Range Index="3" Min="1.1057928531954531e-05" Max="9.9996709823608398e+00"/>
          <Range Index="4" Min="-2.9465563297271729e+00" Max="3.2186923027038574e+00"/>
          <Range Index="5" Min="-2.0723266601562500e+01" Max="3.9827635288238525e+00"/>
          <Range Index="6" Min="5.0003623962402344e+00" Max="1.1061709594726562e+02"/>
          <Range Index="7" Min="5.0004272460937500e+00" Max="9.6735504150390625e+01"/>
          <Range Index="8" Min="-1.6203800964355469e+02" Max="4.9984006881713867e+00"/>
          <Range Index="9" Min="-1.9561681747436523e+01" Max="8.4358062744140625e+01"/>
          <Range Index="10" Min="-1.0365046386718750e+03" Max="3.2939865112304688e+01"/>
          <Range Index="11" Min="0.0000000000000000e+00" Max="1.0133204345703125e+03"/>
          <Range Index="12" Min="2.0000003051757812e+02" Max="3.5886313476562500e+03"/>
          <Range Index="13" Min="2.5091447753906250e+03" Max="2.5115853515625000e+04"/>
          <Range Index="14" Min="4.0228622436523438e+02" Max="1.1923471679687500e+04"/>
          <Range Index="15" Min="5.5131260305643082e-03" Max="8.0472348632812500e+03"/>
          <Range Index="16" Min="2.5000167846679688e+02" Max="1.3000969726562500e+04"/>
          <Range Index="17" Min="-2.0723266601562500e+01" Max="7.3052954673767090e+00"/>
          <Range Index="18" Min="4.8818594223121181e-05" Max="8.9081468582153320e+00"/>
          <Range Index="19" Min="7.0146507024765015e-01" Max="8.6721620559692383e+00"/>
          <Range Index="20" Min="-9.0648002624511719e+00" Max="8.6717519760131836e+00"/>
        </Ranges>
      </Class>
      <Class ClassIndex="2">
        <Ranges>
          <Range Index="0" Min="-8.7243146896362305e+00" Max="4.8275752067565918e+00"/>
          <Range Index="1" Min="3.1279952963814139e-05" Max="1.4149621129035950e-01"/>
          <Range Index="2" Min="-4.5996651649475098e+00" Max="1.1660197257995605e+01"/>
          <Range Index="3" Min="1.1057928531954531e-05" Max="9.9996709823608398e+00"/>
          <Range Index="4" Min="-4.7048072814941406e+00" Max="3.2186923027038574e+00"/>
          <Range Index="5" Min="-2.0723266601562500e+01" Max="3.9827635288238525e+00"/>
          <Range Index="6" Min="5.0003623962402344e+00" Max="1.2816963195800781e+02"/>
          <Range Index="7" Min="5.0004272460937500e+00" Max="1.2297039794921875e+02"/>
          <Range Index="8" Min="-1.6203800964355469e+02" Max="4.9984006881713867e+00"/>
          <Range Index="9" Min="-1.9561681747436523e+01" Max="1.2439302825927734e+02"/>
          <Range Index="10" Min="-1.0365046386718750e+03" Max="3.2939865112304688e+01"/>
          <Range Index="11" Min="0.0000000000000000e+00" Max="1.0133204345703125e+03"/>
          <Range Index="12" Min="2.0000003051757812e+02" Max="4.2678525390625000e+03"/>
          <Range Index="13" Min="2.5091447753906250e+03" Max="2.5115853515625000e+04"/>
          <Range Index="14" Min="4.0228622436523438e+02" Max="1.1923471679687500e+04"/>
          <Range Index="15" Min="8.7314419943140820e-06" Max="8.0472348632812500e+03"/>
          <Range Index="16" Min="2.5000167846679688e+02" Max="1.3000969726562500e+04"/>
          <Range Index="17" Min="-2.0723266601562500e+01" Max="7.3052954673767090e+00"/>
          <Range Index="18" Min="4.8818594223121181e-05" Max="8.9081468582153320e+00"/>
          <Range Index="19" Min="7.0146507024765015e-01" Max="8.6721620559692383e+00"/>
          <Range Index="20" Min="-2.0451761245727539e+01" Max="8.6717519760131836e+00"/>
        </Ranges>
      </Class>
    </Transform>
  </Transformations>
  <MVAPdfs/>
  <Weights>
    <Layout NLayers="3">
      <Layer Index="0" NNeurons="22">
        <Neuron NSynapses="26">
          -3.6082128578416711e-01 1.3342686074571297e+00 9.3286497520357325e-01 1.3675532327524202e+00 -5.1587180135788682e+00 -1.0623303685518042e+00 -9.0541926026428510e-01 2.1167861956923270e-01 -7.2573240142582496e-01 -1.5559210965654735e+00 -3.5139057019997044e+00 7.7414695336246242e-01 -1.1655471981196162e+00 7.0006618831922274e-02 -1.0054196830433002e+00 8.9647991039599784e-01 -3.2858289437250804e-01 3.5461658097017529e-01 3.5824294397777706e-01 -1.1031710924236200e+00 -4.0080215006803233e-01 -1.0904319748166074e+00 3.4386212202652660e+00 8.7656633056437760e-01 -1.3345173650298061e+00 -1.8661680885146470e+00 
        </Neuron>
        <Neuron NSynapses="26">
          1.5622669853055273e+00 -1.1854442261405798e+00 -1.9566956412838834e+00 3.6556706299014392e+00 4.8560633978458234e-01 5.6436005410406755e+00 -2.5855054695372920e-01 3.9315901517075585e-01 9.5718795990635741e-01 -7.8748503456288133e-01 -5.0282944856748815e+00 1.8956818081069158e+00 -1.0786989779115026e+00 1.8835393542558756e+00 9.2791192700598479e-01 5.4395668029416332e-02 1.7636721557589254e+00 3.1750086392947177e+00 -8.9396403527309320e-01 -9.3913344071216875e-01 1.9946234202497908e+00 3.3206585032237440e-01 1.2470189636002424e+00 3.7010263726424286e+00 2.0297995386635486e+00 3.9676346896673147e+00 
        </Neuron>
        <Neuron NSynapses="26">
          -1.6552010273481164e+00 1.5224377176649748e+00 -1.6740472409083000e+00 -2.3436984732688755e+00 -2.3833623687253547e+00 -2.1054871222421330e+00 1.3701974230597995e+00 -1.1700683086422083e+00 -1.8219788836880828e+00 -2.0368345725752138e-01 -5.4367258197578337e-02 1.1578476379512841e+00 1.8914521776955739e+00 -2.9667739452917399e+00 4.2864858438335894e-02 -1.5602611856715152e+00 7.2481325351156345e-01 -2.0466420248070536e+00 -8.0113769311151761e-01 -2.2034633881677270e+00 1.4723417606929901e-01 1.5445720841271964e+00 4.2447775699511583e+00 -1.7300222853228933e+00 -1.6440948675378395e+00 -1.1204422021822733e+00 
        </Neuron>
        <Neuron NSynapses="26">
          1.0407882251067049e+00 -1.0172210657631045e-01 1.9698042926181856e+00 4.8785191796808530e-01 1.0006469425060685e-01 5.1991332963826065e-01 -8.3227168338210833e-01 1.1685147433024093e-01 1.0235414670591332e+00 4.1010096220945652e-01 -4.7305552612930374e-01 -5.2402962644557982e-01 -1.9820164576139018e-01 -4.8455360003275233e-01 1.1684104636318307e+00 -1.8647582774418733e-01 -7.8682855230771198e-01 6.5431652266619025e-02 -6.4740278897698933e-01 -5.1143569678906642e-01 -1.7167256488019713e+00 -9.5171555296213184e-01 -7.4422835192737291e-01 -1.2059506456659574e+00 6.8988503066080908e-01 6.5421667668118910e-01 
        </Neuron>
        <Neuron NSynapses="26">
          -1.2103354843033352e+00 1.4051066922457169e+00 -9.3846389924625939e-01 6.4689469910709430e-01 8.8870836274130158e-02 5.6180385179615540e+00 -2.7168597594891519e+00 1.4123131243981268e+00 1.0574232049274639e+00 9.0388657934437333e-01 -1.4379365825544159e+00 2.9615921254588349e+00 4.2347912633292151e-01 -6.9037254309694285e-01 8.1713841227029183e-01 -1.8331731895198982e+00 -1.4865632629093684e+00 1.5137505609986477e+00 -1.9589831425224599e-01 3.4012241848400895e+00 6.4276908423121781e-01 -2.2014334580100492e-01 -4.4949710117974545e-01 8.2174998590391413e-01 -1.9420334861934427e+00 2.6080144104087659e+00 
        </Neuron>
        <Neuron NSynapses="26">
          9.1299409393324732e-02 -2.1219969781492818e+00 6.8544459057195994e-01 -2.0673964560291624e+00 -1.3610919563919011e-01 9.1727310502992973e-02 1.3603242609804238e+00 -1.4274797741815701e+00 7.1230747735883027e-01 2.2888610946077248e-01 1.2965792870521782e+00 -8.1199588903462538e-01 -1.3997668179456078e+00 3.2765845767765756e-02 -1.3196040009275132e+00 9.8604249809655609e-01 1.3422432957797887e+00 -1.8474215978238054e-01 -2.4273906987681074e-01 8.8881790255168625e-01 -1.5025337257927518e+00 1.3991054051535392e-02 -1.5846261179143031e-01 -1.3368573287920832e-01 -1.0357348527184518e+00 -2.1172460206364798e+00 
        </Neuron>
        <Neuron NSynapses="26">
          1.0697711050538370e+00 6.3892224451135182e-01 8.9494524566767941e-01 -1.5613295650107126e+00 1.1185631044830968e+00 2.4191127107708005e-01 8.8527128297502355e-01 8.1199978946098386e-02 -5.3402249423921722e-01 -3.8854860117771800e-01 -1.0831489859747390e+00 9.9554685321456393e-02 -8.2383106486124869e-01 -4.4087467960904902e-01 1.8053061882592201e+00 -1.3089201490312166e-01 -4.4599922164605471e-01 7.5680778451532260e-01 1.5440701889604944e+00 6.2480863738217995e-01 3.7894196761291193e-01 -3.3081214351333427e-01 2.9127141140820878e-01 -8.7028654723475496e-01 -1.0234424737563135e+00 -1.5269687866840589e+00 
        </Neuron>
        <Neuron NSynapses="26">
          1.8388815270553114e+00 -1.8115842908454671e+00 -2.9560339185518769e-01 -1.2274360210473774e+00 1.1143762124270427e-01 1.0148061435873958e+00 -1.4273920513510017e+00 -1.5314306403747511e+00 -2.1003087008337027e+00 -1.1159458164519731e-01 1.7685972665719032e+00 1.1881036323506693e+00 2.3822179484196715e-01 2.3997390279731806e-01 -2.1569930026575466e+00 3.6114910658633095e+00 4.0627081053381831e-01 -1.4309513295940428e+00 -8.1242275363182936e-01 8.2768774783852617e-01 -2.6637980240460429e-01 -1.6450508508648769e+00 1.0506389467015076e+00 -2.6148515333035266e-01 -2.1763133574909946e-01 2.8130189773163000e-01 
        </Neuron>
        <Neuron NSynapses="26">
          1.5733876537665319e+00 1.1972663444785672e+00 4.6465519610302708e-01 7.7956323857981225e-01 -1.3940276918871630e+00 -1.7997768581169829e-01 1.7277392952339850e+00 2.9002741610361960e+00 -1.3060038484862602e+00 3.8785930716014544e-01 1.5735478479210792e+00 8.1075979700758449e-01 -1.2381547237177668e+00 -4.3256523338992359e-01 -1.0109458753737257e+00 1.1993620070404831e+00 1.7793796753949132e+00 -2.2716803894264741e+00 9.3115186996321875e-01 -3.0234371957094586e-01 -1.7867678587252220e+00 -8.3028446512970844e-01 4.9715053124684544e-01 1.3238741049338589e+00 5.1690449691151319e-01 -1.2511405165930439e-01 
        </Neuron>
        <Neuron NSynapses="26">
          1.7104538083446281e+00 -1.8260104088688467e+00 9.0299152548194206e-01 5.0871329191383785e-01 -1.0037292026294447e+00 -5.2885430527961763e-01 -1.0628554369258816e+00 2.3493572911497212e-01 -1.3900164947800686e+00 -2.9847638009753172e+00 -2.2278932661292590e+00 1.2493446866652778e-01 -8.9133374823685507e-01 3.2778795817322848e-01 1.8124738362671080e+00 2.5113537037380573e+00 -2.8420631158851670e-02 -3.5346788437382268e+00 -5.0862062453244566e-02 4.2092943110245979e+00 1.4654570765680928e+00 -4.5539284769089761e-01 -3.3661615165922201e+00 -5.5163045613980644e-01 -4.5849948150442776e-01 6.7546497849775766e-01 
        </Neuron>
        <Neuron NSynapses="26">
          2.8062112441968767e-01 4.5933303984624912e-01 1.9573788705018633e+00 1.9189844878393636e+00 -8.1533704886222642e-03 5.3826136633519861e-01 -2.0269992690346048e+00 1.7417622259807231e+00 2.0868337896716165e+00 1.9509860607159149e-01 -4.3824336191350053e+00 -9.1303160847925580e-01 1.4576331718887032e+00 1.8349280572517577e+00 -1.7826872262652502e-01 -1.7493857583358401e+00 1.5808115069964777e+00 1.5509281213517547e+00 1.1730262559315252e+00 -7.9113680466695568e-01 -1.2075731249833031e-01 -7.9298847467017897e-01 1.3809756895384295e-01 1.6074526284417519e+00 -2.1233353708506417e+00 1.2907357726432636e+00 
        </Neuron>
        <Neuron NSynapses="26">
          -1.4444898487614566e+00 1.6637244512314073e+00 -1.9386593667593413e+00 1.5375956827620842e+00 -2.1815926356619539e+00 -5.1955176337632836e-01 -1.1918799357564220e+00 7.1854802231052395e-01 5.9662618132932255e-01 -2.2253928887179137e+00 2.0714692073781209e+00 1.5805538221896052e+00 -2.2174144229002097e+00 -2.1105917722349048e+00 -1.9475798924380288e+00 -2.6948302626381099e-01 1.7436839098780799e+00 3.1789264858612298e-01 1.0772443247129507e-01 -9.8161394807318669e-01 -9.8002195156483085e-01 -1.5564864996085590e+00 1.0764927407281205e-01 -2.5141940294475495e+00 1.3152678768886570e+00 -2.0844433962898816e+00 
        </Neuron>
        <Neuron NSynapses="26">
          -1.1593354870650643e+00 2.2275086029695483e+00 3.7654548900028650e-01 -2.5010598783194404e+00 -2.4342043060871940e-01 -5.1068437111759444e+00 1.9885956476280289e+00 2.0636733972453345e+00 -8.6445206964874699e-01 -3.5911564115040068e-02 -6.7721469843362991e-01 -2.7316959241914356e+00 5.1305369264568712e-01 4.8841493923061668e-01 1.4440406994651280e+00 1.4355959544190180e-01 -1.5513526945794403e+00 -5.1215166349300556e-01 -2.1238221288295667e+00 2.3186582627394432e+00 -1.9637157831522627e+00 -2.6359242366953159e+00 -4.6570578050986167e-01 1.4446351876504731e+00 9.2807226315484637e-01 -2.2267104119453154e+00 
        </Neuron>
        <Neuron NSynapses="26">
          3.0817327718078769e-01 1.8565874322041362e-01 -7.4322916461219235e-01 -3.0831025708376636e-01 3.7490396403555932e+00 -1.0596908520556096e+00 1.7252038586689362e+00 -2.3071205289535621e+00 -4.8155808276657754e-02 -1.7941779518399874e+00 1.5775924551165257e+00 1.5928180996144776e+00 9.0852261210575447e-01 1.6402531968217415e+00 1.1992104873847891e+00 -1.6202911780913019e-02 -1.0209418934520462e+00 -2.0273336872179786e+00 -1.9005079205237472e+00 7.4438015851985232e-03 -1.1389447859558173e+00 -1.8199707841713118e+00 2.2378593841518422e+00 -1.1455670857332607e+00 -7.9747931297985042e-01 2.2632660092695369e+00 
        </Neuron>
        <Neuron NSynapses="26">
          1.0265383615409824e+00 -1.6842287688152193e+00 -1.6113488330836230e+00 -2.7761194307471957e+00 -2.5918204374819798e+00 -3.0582405150814607e+00 1.4950915458388367e+00 -1.2179767939231911e+00 -1.0525554683691647e+00 3.1604759554216670e+00 -1.0850970430249123e+00 -3.1708172672010138e+00 9.9597718437043958e-02 5.9024589588787181e-02 1.5655431044854138e+00 -9.9583512037547961e-01 -1.1308062746872598e+00 -1.0154249344768591e+00 -1.9068724028383075e+00 -1.1500818452181316e+00 4.9158138898778508e-01 -2.5437581632657147e-01 1.8689731119767977e-01 1.0584591800282317e+00 1.9677270759976542e+00 -1.1403776989985857e+00 
        </Neuron>
        <Neuron NSynapses="26">
          1.7288656596245184e+00 5.8281736375477816e-02 -1.8455085350870712e+00 -1.5406220239950665e+00 9.1534311467547014e-01 2.6629928990745588e+00 1.8983227240946238e-01 2.4918235421062172e-02 2.5536214101997454e+00 -1.7229853231379404e+00 1.6270710990797694e+00 -3.7279924753106358e-01 1.7154040858423950e-01 -9.3970648065995910e-01 1.2569140937719516e+00 -1.5102135839662287e-01 4.0500626210790802e-01 1.3474488664454580e+00 -6.2418053242119975e-01 -4.2956387907901954e+00 -4.9495443002363093e-01 -5.2559312014921555e-01 -9.2604051258820208e-01 -1.8466320817876809e+00 4.9606254698384133e-01 1.5104573506710133e+00 
        </Neuron>
        <Neuron NSynapses="26">
          1.7336248187371694e+00 6.5632577587924390e-01 1.6842131524889254e+00 8.5665615651923166e-01 -3.4601518563249725e+00 7.6040398112793117e-02 2.1198209301587827e+00 1.3391111694380545e-01 -2.2027867098566914e-01 -9.7432613869672458e-01 -2.4781775889684110e+00 -6.9230531674845031e-01 -1.5046440059796466e+00 -2.2707080544444824e-01 5.8061433010104779e-01 -3.6637698095919471e+00 -1.9067756922378285e+00 -1.1845786190619001e+00 1.5136743729397355e+00 1.8802671964583118e+00 7.0138733304359979e-01 -7.8530032184352005e-01 -2.5814918547035366e+00 -9.3503022305551825e-02 -8.8990374059556299e-01 -4.7754288975357122e+00 
        </Neuron>
        <Neuron NSynapses="26">
          -7.0102381520314994e-01 2.0304391123167703e-01 -1.4071113896092520e+00 2.9632437467017723e+00 4.1298840747986965e-01 -5.7357962575276078e-01 -6.7756292649935446e-01 -1.6716085817993964e+00 1.1795575523553428e+00 -1.1077013887287110e+00 -2.2545479010420702e-01 -5.8033040906507483e-01 1.5638782411062311e+00 -2.3746511996315784e+00 1.4958564411123663e+00 -3.2571665401000591e+00 1.6806069847126917e+00 1.9206423863976234e+00 -6.0117420634790968e-02 -2.3471072556065220e+00 1.5215374573510931e-01 -5.4486132313205604e-01 6.5879377796829020e-01 -1.2457641186842999e-01 -1.1315395389378751e+00 -7.1902509399559855e-01 
        </Neuron>
        <Neuron NSynapses="26">
          -1.8384348269252202e-02 1.9397667121723585e+00 5.1412525091909611e-01 1.4463305712139609e+00 -4.3431102253052106e-01 1.6193849932127422e-01 -1.0748264668281713e+00 1.7009126678951847e+00 -2.4909079552646868e-01 -1.2088008985852546e-01 2.0272226084129308e+00 3.1306957068894099e+00 -5.7952085517383856e-01 -2.1549232337715276e+00 1.8363113144998466e+00 -2.0720109629904075e+00 2.0414346813748566e-01 7.8396603249453156e-01 -1.3189381715729755e+00 -1.2324473322873544e+00 7.8986677928101767e-01 2.2717535232032779e-01 -3.3598089061153286e-01 -1.3813089144967841e+00 -1.2953513028454933e+00 -1.5934484607244690e+00 
        </Neuron>
        <Neuron NSynapses="26">
          -3.0398180300111111e-01 -8.7442023202226704e-01 9.9339829257948342e-01 -1.0747023883332185e+00 -8.2853822621772755e-01 -2.6636081138142971e+00 -1.3163902731314248e+00 -1.1899086903754372e+00 1.3958613488022884e+00 -6.7376397707082503e-01 -4.6483431185708529e-01 -3.3756764478988792e+00 2.0054728927002485e+00 -2.5977769937803838e+00 -5.9799395641681886e-02 -2.0547451722985892e+00 1.1941492287142526e+00 -9.1036652428486153e-01 4.0352922905124607e-02 -4.0088488930591720e-01 -1.0746351477114249e-01 4.1335974355301858e-01 -2.4332681641483118e+00 4.9598012119876955e-01 1.0590073042624557e+00 1.2597080923659911e+00 
        </Neuron>
        <Neuron NSynapses="26">
          9.5457405823099417e-01 -3.2021533318482267e+00 1.5720499328190980e+00 -1.2308539305342805e+00 -2.7171884821907299e-01 2.6461065345650776e+00 8.0380482468732894e-01 3.4922446236385349e+00 3.1901354695846358e+00 -2.8160696669937804e+00 -3.9473934712749639e+00 -1.3404988702011095e-01 7.5288694896870956e-01 -9.9207674110214039e-01 -2.3564850753476033e-01 -1.6498839421614866e+00 -3.9479376237336883e-01 1.2470316991591177e+00 -3.1785587989381781e-01 -1.1692277379816554e+00 -8.1122250299569099e-01 -4.5165915494100156e-01 1.9592523887251645e+00 -1.5064337589565804e+00 3.4589985596435907e-01 3.1378600359337980e+00 
        </Neuron>
        <Neuron NSynapses="26">
          -3.4469456494887035e-01 -1.4793413747600277e+00 1.9452128525994903e+00 -3.9265196305421206e+00 2.3125540809230816e+00 -3.7730342756803008e+00 -1.3881098474137141e+00 -8.8106778670268526e-01 -6.6338824840098520e-01 -4.6545903667261586e+00 2.5063243907871948e+00 -3.5181446409128747e+00 1.2373784407288286e+00 -3.9612949582189350e+00 1.7732970208587413e+00 3.1977756164857252e+00 1.7514518061356412e+00 -2.5462166828592853e-01 8.2892444766601436e-01 2.5979263451882888e+00 -9.2313875776040044e-01 -2.4571373996990076e+00 -7.2013970936895246e+00 -2.7309615989332028e+00 8.6449580348493194e-01 -4.4882988141741382e+00 
        </Neuron>
      </Layer>
      <Layer Index="1" NNeurons="27">
        <Neuron NSynapses="1">
          3.0488541276200720e-01 
        </Neuron>
        <Neuron NSynapses="1">
          1.6398144757341961e+00 
        </Neuron>
        <Neuron NSynapses="1">
          1.4190378656983249e+00 
        </Neuron>
        <Neuron NSynapses="1">
          -1.0950875769844182e+00 
        </Neuron>
        <Neuron NSynapses="1">
          2.4365606622339775e+00 
        </Neuron>
        <Neuron NSynapses="1">
          -1.6116106911250416e+00 
        </Neuron>
        <Neuron NSynapses="1">
          1.8459576531690114e+00 
        </Neuron>
        <Neuron NSynapses="1">
          -3.0188216796210319e+00 
        </Neuron>
        <Neuron NSynapses="1">
          -2.2434889381937908e+00 
        </Neuron>
        <Neuron NSynapses="1">
          -2.4632350874536653e+00 
        </Neuron>
        <Neuron NSynapses="1">
          1.3495862578519313e+00 
        </Neuron>
        <Neuron NSynapses="1">
          -2.4783785691016482e+00 
        </Neuron>
        <Neuron NSynapses="1">
          1.5952407677926326e+00 
        </Neuron>
        <Neuron NSynapses="1">
          -2.7697087771685531e+00 
        </Neuron>
        <Neuron NSynapses="1">
          1.2831142638608459e+00 
        </Neuron>
        <Neuron NSynapses="1">
          1.3454955500325643e+00 
        </Neuron>
        <Neuron NSynapses="1">
          -8.3463982045761109e-01 
        </Neuron>
        <Neuron NSynapses="1">
          -2.4595071704212876e+00 
        </Neuron>
        <Neuron NSynapses="1">
          -1.9360717827105294e+00 
        </Neuron>
        <Neuron NSynapses="1">
          1.5392291133608518e+00 
        </Neuron>
        <Neuron NSynapses="1">
          1.5372297949292097e+00 
        </Neuron>
        <Neuron NSynapses="1">
          2.2005786280334187e+00 
        </Neuron>
        <Neuron NSynapses="1">
          -2.4797737754386211e+00 
        </Neuron>
        <Neuron NSynapses="1">
          -5.8310322773621670e-01 
        </Neuron>
        <Neuron NSynapses="1">
          1.0545464341848596e+00 
        </Neuron>
        <Neuron NSynapses="1">
          -1.8957545186809455e+00 
        </Neuron>
        <Neuron NSynapses="1">
          -1.5871176253599129e+00 
        </Neuron>
      </Layer>
      <Layer Index="2" NNeurons="1">
        <Neuron NSynapses="0"/>
      </Layer>
    </Layout>
  </Weights>
</MethodSetup>
