<?xml version="1.0"?>
<MethodSetup Method="MLP::MLP">
  <GeneralInfo>
    <Info name="TMVA Release" value="4.2.1 [262657]"/>
    <Info name="ROOT Release" value="6.24/08 [399368]"/>
    <Info name="Creator" value="pgaigne"/>
    <Info name="Date" value="Tue Mar 14 13:15:03 2023"/>
    <Info name="Host" value="Linux buildvm-x86-06.iad2.fedoraproject.org 5.18.17-200.fc36.x86_64 #1 SMP PREEMPT_DYNAMIC Thu Aug 11 14:36:06 UTC 2022 x86_64 x86_64 x86_64 GNU/Linux"/>
    <Info name="Dir" value="/afs/cern.ch/user/p/pgaigne/xiccpp/Xicc/TMVA"/>
    <Info name="Training events" value="24714"/>
    <Info name="TrainingTime" value="1.86202530e+02"/>
    <Info name="AnalysisType" value="Classification"/>
  </GeneralInfo>
  <Options>
    <Option name="NCycles" modified="Yes">600</Option>
    <Option name="HiddenLayers" modified="Yes">N+5</Option>
    <Option name="NeuronType" modified="Yes">tanh</Option>
    <Option name="RandomSeed" modified="No">1</Option>
    <Option name="EstimatorType" modified="No">CE</Option>
    <Option name="NeuronInputType" modified="No">sum</Option>
    <Option name="V" modified="Yes">False</Option>
    <Option name="VerbosityLevel" modified="No">Default</Option>
    <Option name="VarTransform" modified="Yes">N</Option>
    <Option name="H" modified="Yes">True</Option>
    <Option name="CreateMVAPdfs" modified="No">False</Option>
    <Option name="IgnoreNegWeightsInTraining" modified="No">False</Option>
    <Option name="TrainingMethod" modified="No">BP</Option>
    <Option name="LearningRate" modified="No">2.000000e-02</Option>
    <Option name="DecayRate" modified="No">1.000000e-02</Option>
    <Option name="TestRate" modified="Yes">5</Option>
    <Option name="EpochMonitoring" modified="No">False</Option>
    <Option name="Sampling" modified="No">1.000000e+00</Option>
    <Option name="SamplingEpoch" modified="No">1.000000e+00</Option>
    <Option name="SamplingImportance" modified="No">1.000000e+00</Option>
    <Option name="SamplingTraining" modified="No">True</Option>
    <Option name="SamplingTesting" modified="No">False</Option>
    <Option name="ResetStep" modified="No">50</Option>
    <Option name="Tau" modified="No">3.000000e+00</Option>
    <Option name="BPMode" modified="No">sequential</Option>
    <Option name="BatchSize" modified="No">-1</Option>
    <Option name="ConvergenceImprove" modified="No">1.000000e-30</Option>
    <Option name="ConvergenceTests" modified="No">-1</Option>
    <Option name="UseRegulator" modified="Yes">False</Option>
    <Option name="UpdateLimit" modified="No">10000</Option>
    <Option name="CalculateErrors" modified="No">False</Option>
    <Option name="WeightRange" modified="No">1.000000e+00</Option>
  </Options>
  <Variables NVar="21">
    <Variable VarIndex="0" Expression="log(TMath::Max(10e-10,Xicc_IPCHI2_OWNPV))" Label="log(TMath::Max(10e-10,Xicc_IPCHI2_OWNPV))" Title="log_Xicc_IPCHI2_OWNPV" Unit="" Internal="log_TMath_Max_10e_M_10,Xicc_IPCHI2_OWNPV__" Type="F" Min="-7.88258600e+00" Max="4.83108902e+00"/>
    <Variable VarIndex="1" Expression="TMath::ACos(Xicc_DIRA_OWNPV)" Label="TMath::ACos(Xicc_DIRA_OWNPV)" Title="acos_Xicc_DIRA_OWNPV" Unit="" Internal="TMath_ACos_Xicc_DIRA_OWNPV_" Type="F" Min="3.97872427e-05" Max="1.41533509e-01"/>
    <Variable VarIndex="2" Expression="log(TMath::Max(10e-10,Xicc_FDCHI2_OWNPV))" Label="log(TMath::Max(10e-10,Xicc_FDCHI2_OWNPV))" Title="log_Xicc_FDCHI2_OWNPV" Unit="" Internal="log_TMath_Max_10e_M_10,Xicc_FDCHI2_OWNPV__" Type="F" Min="-4.58016109e+00" Max="1.22206154e+01"/>
    <Variable VarIndex="3" Expression="Lc_ENDVERTEX_CHI2/Lc_ENDVERTEX_NDOF" Label="Lc_ENDVERTEX_CHI2/Lc_ENDVERTEX_NDOF" Title="Lc_ENDVERTEX_CHI2_NDOF" Unit="" Internal="Lc_ENDVERTEX_CHI2_D_Lc_ENDVERTEX_NDOF" Type="F" Min="1.82923395e-04" Max="9.98650265e+00"/>
    <Variable VarIndex="4" Expression="log(TMath::Max(10e-10,Xicc_ENDVERTEX_CHI2/Xicc_ENDVERTEX_NDOF))" Label="log(TMath::Max(10e-10,Xicc_ENDVERTEX_CHI2/Xicc_ENDVERTEX_NDOF))" Title="log_Xicc_ENDVERTEX_CHI2_NDOF" Unit="" Internal="log_TMath_Max_10e_M_10,Xicc_ENDVERTEX_CHI2_D_Xicc_ENDVERTEX_NDOF__" Type="F" Min="-4.70480728e+00" Max="3.21853542e+00"/>
    <Variable VarIndex="5" Expression="log(TMath::Max(10e-10,Xicc_CHI2NDOF_DTF_PV))" Label="log(TMath::Max(10e-10,Xicc_CHI2NDOF_DTF_PV))" Title="log_Xicc_CHI2NDOF_DTF_PV" Unit="" Internal="log_TMath_Max_10e_M_10,Xicc_CHI2NDOF_DTF_PV__" Type="F" Min="-2.07232666e+01" Max="4.58553886e+00"/>
    <Variable VarIndex="6" Expression="LcP_PIDp" Label="LcP_PIDp" Title="LcP_PIDp" Unit="" Internal="LcP_PIDp" Type="F" Min="5.00063515e+00" Max="1.14419838e+02"/>
    <Variable VarIndex="7" Expression="LcK_PIDK" Label="LcK_PIDK" Title="LcK_PIDK" Unit="" Internal="LcK_PIDK" Type="F" Min="5.00095081e+00" Max="1.41144348e+02"/>
    <Variable VarIndex="8" Expression="LcPi_PIDK" Label="LcPi_PIDK" Title="LcPi_PIDK" Unit="" Internal="LcPi_PIDK" Type="F" Min="-1.42272232e+02" Max="4.99053001e+00"/>
    <Variable VarIndex="9" Expression="XiccK_PIDK" Label="XiccK_PIDK" Title="XiccK_PIDK" Unit="" Internal="XiccK_PIDK" Type="F" Min="-1.00000000e+03" Max="1.24393028e+02"/>
    <Variable VarIndex="10" Expression="XiccPi1_PIDK" Label="XiccPi1_PIDK" Title="XiccPi1_PIDK" Unit="" Internal="XiccPi1_PIDK" Type="F" Min="-1.00000000e+03" Max="1.83306923e+01"/>
    <Variable VarIndex="11" Expression="XiccPi2_PIDK" Label="XiccPi2_PIDK" Title="XiccPi2_PIDK" Unit="" Internal="XiccPi2_PIDK" Type="F" Min="-1.00000000e+03" Max="2.06217823e+01"/>
    <Variable VarIndex="12" Expression="TMath::Min(TMath::Min(XiccK_PT,Lc_PT),TMath::Min(XiccPi1_PT,XiccPi2_PT))" Label="TMath::Min(TMath::Min(XiccK_PT,Lc_PT),TMath::Min(XiccPi1_PT,XiccPi2_PT))" Title="min_Xicc_Daughters_PT" Unit="" Internal="TMath_Min_TMath_Min_XiccK_PT,Lc_PT_,TMath_Min_XiccPi1_PT,XiccPi2_PT__" Type="F" Min="2.00002319e+02" Max="4.77435693e+03"/>
    <Variable VarIndex="13" Expression="Lc_PT" Label="Lc_PT" Title="Lc_PT" Unit="" Internal="Lc_PT" Type="F" Min="2.52297803e+03" Max="2.50987363e+04"/>
    <Variable VarIndex="14" Expression="XiccPi1_PT" Label="XiccPi1_PT" Title="XiccPi1_PT" Unit="" Internal="XiccPi1_PT" Type="F" Min="2.00020569e+02" Max="6.57788477e+03"/>
    <Variable VarIndex="15" Expression="XiccPi2_PT" Label="XiccPi2_PT" Title="XiccPi2_PT" Unit="" Internal="XiccPi2_PT" Type="F" Min="2.00002319e+02" Max="6.45177539e+03"/>
    <Variable VarIndex="16" Expression="XiccK_PT" Label="XiccK_PT" Title="XiccK_PT" Unit="" Internal="XiccK_PT" Type="F" Min="2.50001678e+02" Max="1.30596084e+04"/>
    <Variable VarIndex="17" Expression="log(TMath::Max(10e-10,Lc_IPCHI2_OWNPV))" Label="log(TMath::Max(10e-10,Lc_IPCHI2_OWNPV))" Title="log_Lc_IPCHI2_OWNPV" Unit="" Internal="log_TMath_Max_10e_M_10,Lc_IPCHI2_OWNPV__" Type="F" Min="-2.07232666e+01" Max="7.69694948e+00"/>
    <Variable VarIndex="18" Expression="log(TMath::Max(10e-10,XiccK_IPCHI2_OWNPV))" Label="log(TMath::Max(10e-10,XiccK_IPCHI2_OWNPV))" Title="log_XiccK_IPCHI2_OWNPV" Unit="" Internal="log_TMath_Max_10e_M_10,XiccK_IPCHI2_OWNPV__" Type="F" Min="1.37198484e-04" Max="9.62694359e+00"/>
    <Variable VarIndex="19" Expression="log(TMath::Max(10e-10,XiccPi1_IPCHI2_OWNPV))" Label="log(TMath::Max(10e-10,XiccPi1_IPCHI2_OWNPV))" Title="log_XiccPi1_IPCHI2_OWNPV" Unit="" Internal="log_TMath_Max_10e_M_10,XiccPi1_IPCHI2_OWNPV__" Type="F" Min="8.41846340e-05" Max="8.51907730e+00"/>
    <Variable VarIndex="20" Expression="log(TMath::Max(10e-10,XiccPi2_IPCHI2_OWNPV))" Label="log(TMath::Max(10e-10,XiccPi2_IPCHI2_OWNPV))" Title="log_XiccPi2_IPCHI2_OWNPV" Unit="" Internal="log_TMath_Max_10e_M_10,XiccPi2_IPCHI2_OWNPV__" Type="F" Min="2.77886429e-04" Max="8.73290253e+00"/>
  </Variables>
  <Spectators NSpec="2">
    <Spectator SpecIndex="0" Expression="Xicc_M" Label="Xicc_M" Title="F" Unit="" Internal="Xicc_M" Type="F" Min="3.60600659e+03" Max="3.79999194e+03"/>
    <Spectator SpecIndex="1" Expression="Lc_M" Label="Lc_M" Title="F" Unit="" Internal="Lc_M" Type="F" Min="2.27000635e+03" Max="2.30599805e+03"/>
  </Spectators>
  <Classes NClass="2">
    <Class Name="Signal" Index="0"/>
    <Class Name="Background" Index="1"/>
  </Classes>
  <Transformations NTransformations="1">
    <Transform Name="Normalize">
      <Selection>
        <Input NInputs="21">
          <Input Type="Variable" Label="log(TMath::Max(10e-10,Xicc_IPCHI2_OWNPV))" Expression="log(TMath::Max(10e-10,Xicc_IPCHI2_OWNPV))"/>
          <Input Type="Variable" Label="TMath::ACos(Xicc_DIRA_OWNPV)" Expression="TMath::ACos(Xicc_DIRA_OWNPV)"/>
          <Input Type="Variable" Label="log(TMath::Max(10e-10,Xicc_FDCHI2_OWNPV))" Expression="log(TMath::Max(10e-10,Xicc_FDCHI2_OWNPV))"/>
          <Input Type="Variable" Label="Lc_ENDVERTEX_CHI2/Lc_ENDVERTEX_NDOF" Expression="Lc_ENDVERTEX_CHI2/Lc_ENDVERTEX_NDOF"/>
          <Input Type="Variable" Label="log(TMath::Max(10e-10,Xicc_ENDVERTEX_CHI2/Xicc_ENDVERTEX_NDOF))" Expression="log(TMath::Max(10e-10,Xicc_ENDVERTEX_CHI2/Xicc_ENDVERTEX_NDOF))"/>
          <Input Type="Variable" Label="log(TMath::Max(10e-10,Xicc_CHI2NDOF_DTF_PV))" Expression="log(TMath::Max(10e-10,Xicc_CHI2NDOF_DTF_PV))"/>
          <Input Type="Variable" Label="LcP_PIDp" Expression="LcP_PIDp"/>
          <Input Type="Variable" Label="LcK_PIDK" Expression="LcK_PIDK"/>
          <Input Type="Variable" Label="LcPi_PIDK" Expression="LcPi_PIDK"/>
          <Input Type="Variable" Label="XiccK_PIDK" Expression="XiccK_PIDK"/>
          <Input Type="Variable" Label="XiccPi1_PIDK" Expression="XiccPi1_PIDK"/>
          <Input Type="Variable" Label="XiccPi2_PIDK" Expression="XiccPi2_PIDK"/>
          <Input Type="Variable" Label="TMath::Min(TMath::Min(XiccK_PT,Lc_PT),TMath::Min(XiccPi1_PT,XiccPi2_PT))" Expression="TMath::Min(TMath::Min(XiccK_PT,Lc_PT),TMath::Min(XiccPi1_PT,XiccPi2_PT))"/>
          <Input Type="Variable" Label="Lc_PT" Expression="Lc_PT"/>
          <Input Type="Variable" Label="XiccPi1_PT" Expression="XiccPi1_PT"/>
          <Input Type="Variable" Label="XiccPi2_PT" Expression="XiccPi2_PT"/>
          <Input Type="Variable" Label="XiccK_PT" Expression="XiccK_PT"/>
          <Input Type="Variable" Label="log(TMath::Max(10e-10,Lc_IPCHI2_OWNPV))" Expression="log(TMath::Max(10e-10,Lc_IPCHI2_OWNPV))"/>
          <Input Type="Variable" Label="log(TMath::Max(10e-10,XiccK_IPCHI2_OWNPV))" Expression="log(TMath::Max(10e-10,XiccK_IPCHI2_OWNPV))"/>
          <Input Type="Variable" Label="log(TMath::Max(10e-10,XiccPi1_IPCHI2_OWNPV))" Expression="log(TMath::Max(10e-10,XiccPi1_IPCHI2_OWNPV))"/>
          <Input Type="Variable" Label="log(TMath::Max(10e-10,XiccPi2_IPCHI2_OWNPV))" Expression="log(TMath::Max(10e-10,XiccPi2_IPCHI2_OWNPV))"/>
        </Input>
        <Output NOutputs="21">
          <Output Type="Variable" Label="log(TMath::Max(10e-10,Xicc_IPCHI2_OWNPV))" Expression="log(TMath::Max(10e-10,Xicc_IPCHI2_OWNPV))"/>
          <Output Type="Variable" Label="TMath::ACos(Xicc_DIRA_OWNPV)" Expression="TMath::ACos(Xicc_DIRA_OWNPV)"/>
          <Output Type="Variable" Label="log(TMath::Max(10e-10,Xicc_FDCHI2_OWNPV))" Expression="log(TMath::Max(10e-10,Xicc_FDCHI2_OWNPV))"/>
          <Output Type="Variable" Label="Lc_ENDVERTEX_CHI2/Lc_ENDVERTEX_NDOF" Expression="Lc_ENDVERTEX_CHI2/Lc_ENDVERTEX_NDOF"/>
          <Output Type="Variable" Label="log(TMath::Max(10e-10,Xicc_ENDVERTEX_CHI2/Xicc_ENDVERTEX_NDOF))" Expression="log(TMath::Max(10e-10,Xicc_ENDVERTEX_CHI2/Xicc_ENDVERTEX_NDOF))"/>
          <Output Type="Variable" Label="log(TMath::Max(10e-10,Xicc_CHI2NDOF_DTF_PV))" Expression="log(TMath::Max(10e-10,Xicc_CHI2NDOF_DTF_PV))"/>
          <Output Type="Variable" Label="LcP_PIDp" Expression="LcP_PIDp"/>
          <Output Type="Variable" Label="LcK_PIDK" Expression="LcK_PIDK"/>
          <Output Type="Variable" Label="LcPi_PIDK" Expression="LcPi_PIDK"/>
          <Output Type="Variable" Label="XiccK_PIDK" Expression="XiccK_PIDK"/>
          <Output Type="Variable" Label="XiccPi1_PIDK" Expression="XiccPi1_PIDK"/>
          <Output Type="Variable" Label="XiccPi2_PIDK" Expression="XiccPi2_PIDK"/>
          <Output Type="Variable" Label="TMath::Min(TMath::Min(XiccK_PT,Lc_PT),TMath::Min(XiccPi1_PT,XiccPi2_PT))" Expression="TMath::Min(TMath::Min(XiccK_PT,Lc_PT),TMath::Min(XiccPi1_PT,XiccPi2_PT))"/>
          <Output Type="Variable" Label="Lc_PT" Expression="Lc_PT"/>
          <Output Type="Variable" Label="XiccPi1_PT" Expression="XiccPi1_PT"/>
          <Output Type="Variable" Label="XiccPi2_PT" Expression="XiccPi2_PT"/>
          <Output Type="Variable" Label="XiccK_PT" Expression="XiccK_PT"/>
          <Output Type="Variable" Label="log(TMath::Max(10e-10,Lc_IPCHI2_OWNPV))" Expression="log(TMath::Max(10e-10,Lc_IPCHI2_OWNPV))"/>
          <Output Type="Variable" Label="log(TMath::Max(10e-10,XiccK_IPCHI2_OWNPV))" Expression="log(TMath::Max(10e-10,XiccK_IPCHI2_OWNPV))"/>
          <Output Type="Variable" Label="log(TMath::Max(10e-10,XiccPi1_IPCHI2_OWNPV))" Expression="log(TMath::Max(10e-10,XiccPi1_IPCHI2_OWNPV))"/>
          <Output Type="Variable" Label="log(TMath::Max(10e-10,XiccPi2_IPCHI2_OWNPV))" Expression="log(TMath::Max(10e-10,XiccPi2_IPCHI2_OWNPV))"/>
        </Output>
      </Selection>
      <Class ClassIndex="0">
        <Ranges>
          <Range Index="0" Min="-7.0438914299011230e+00" Max="3.0612475872039795e+00"/>
          <Range Index="1" Min="3.9787242712918669e-05" Max="6.0189515352249146e-02"/>
          <Range Index="2" Min="8.7384951114654541e-01" Max="9.5194101333618164e+00"/>
          <Range Index="3" Min="4.5016803778707981e-03" Max="9.9727811813354492e+00"/>
          <Range Index="4" Min="-4.7048072814941406e+00" Max="3.1330993175506592e+00"/>
          <Range Index="5" Min="-2.0513300895690918e+00" Max="2.4857664108276367e+00"/>
          <Range Index="6" Min="5.0331234931945801e+00" Max="1.1441983795166016e+02"/>
          <Range Index="7" Min="5.0470566749572754e+00" Max="1.4114434814453125e+02"/>
          <Range Index="8" Min="-1.4227223205566406e+02" Max="4.9512915611267090e+00"/>
          <Range Index="9" Min="-1.0000000000000000e+03" Max="1.2439302825927734e+02"/>
          <Range Index="10" Min="-1.0000000000000000e+03" Max="1.1789598464965820e+01"/>
          <Range Index="11" Min="-1.0000000000000000e+03" Max="1.5248489379882812e+01"/>
          <Range Index="12" Min="2.0095326232910156e+02" Max="4.2424770507812500e+03"/>
          <Range Index="13" Min="2.6820371093750000e+03" Max="2.5098736328125000e+04"/>
          <Range Index="14" Min="2.0096174621582031e+02" Max="6.5778847656250000e+03"/>
          <Range Index="15" Min="2.0095326232910156e+02" Max="6.4517753906250000e+03"/>
          <Range Index="16" Min="2.5375491333007812e+02" Max="1.1232057617187500e+04"/>
          <Range Index="17" Min="-6.0215439796447754e+00" Max="5.3886818885803223e+00"/>
          <Range Index="18" Min="4.3372111395001411e-04" Max="7.9820117950439453e+00"/>
          <Range Index="19" Min="1.1645834892988205e-02" Max="7.2387871742248535e+00"/>
          <Range Index="20" Min="4.0804878808557987e-03" Max="7.5970973968505859e+00"/>
        </Ranges>
      </Class>
      <Class ClassIndex="1">
        <Ranges>
          <Range Index="0" Min="-7.8825860023498535e+00" Max="4.8310890197753906e+00"/>
          <Range Index="1" Min="8.2055223174393177e-05" Max="1.4153350889682770e-01"/>
          <Range Index="2" Min="-4.5801610946655273e+00" Max="1.2220615386962891e+01"/>
          <Range Index="3" Min="1.8292339518666267e-04" Max="9.9865026473999023e+00"/>
          <Range Index="4" Min="-2.8157970905303955e+00" Max="3.2185354232788086e+00"/>
          <Range Index="5" Min="-2.0723266601562500e+01" Max="4.5855388641357422e+00"/>
          <Range Index="6" Min="5.0006351470947266e+00" Max="1.1422950744628906e+02"/>
          <Range Index="7" Min="5.0009508132934570e+00" Max="9.6944046020507812e+01"/>
          <Range Index="8" Min="-1.0707660675048828e+02" Max="4.9905300140380859e+00"/>
          <Range Index="9" Min="-1.0000000000000000e+03" Max="7.4348548889160156e+01"/>
          <Range Index="10" Min="-1.0000000000000000e+03" Max="1.8330692291259766e+01"/>
          <Range Index="11" Min="-1.0000000000000000e+03" Max="2.0621782302856445e+01"/>
          <Range Index="12" Min="2.0000231933593750e+02" Max="4.7743569335937500e+03"/>
          <Range Index="13" Min="2.5229780273437500e+03" Max="2.3788195312500000e+04"/>
          <Range Index="14" Min="2.0002056884765625e+02" Max="6.2691459960937500e+03"/>
          <Range Index="15" Min="2.0000231933593750e+02" Max="6.1399785156250000e+03"/>
          <Range Index="16" Min="2.5000167846679688e+02" Max="1.3059608398437500e+04"/>
          <Range Index="17" Min="-2.0723266601562500e+01" Max="7.6969494819641113e+00"/>
          <Range Index="18" Min="1.3719848357141018e-04" Max="9.6269435882568359e+00"/>
          <Range Index="19" Min="8.4184634033590555e-05" Max="8.5190773010253906e+00"/>
          <Range Index="20" Min="2.7788642910309136e-04" Max="8.7329025268554688e+00"/>
        </Ranges>
      </Class>
      <Class ClassIndex="2">
        <Ranges>
          <Range Index="0" Min="-7.8825860023498535e+00" Max="4.8310890197753906e+00"/>
          <Range Index="1" Min="3.9787242712918669e-05" Max="1.4153350889682770e-01"/>
          <Range Index="2" Min="-4.5801610946655273e+00" Max="1.2220615386962891e+01"/>
          <Range Index="3" Min="1.8292339518666267e-04" Max="9.9865026473999023e+00"/>
          <Range Index="4" Min="-4.7048072814941406e+00" Max="3.2185354232788086e+00"/>
          <Range Index="5" Min="-2.0723266601562500e+01" Max="4.5855388641357422e+00"/>
          <Range Index="6" Min="5.0006351470947266e+00" Max="1.1441983795166016e+02"/>
          <Range Index="7" Min="5.0009508132934570e+00" Max="1.4114434814453125e+02"/>
          <Range Index="8" Min="-1.4227223205566406e+02" Max="4.9905300140380859e+00"/>
          <Range Index="9" Min="-1.0000000000000000e+03" Max="1.2439302825927734e+02"/>
          <Range Index="10" Min="-1.0000000000000000e+03" Max="1.8330692291259766e+01"/>
          <Range Index="11" Min="-1.0000000000000000e+03" Max="2.0621782302856445e+01"/>
          <Range Index="12" Min="2.0000231933593750e+02" Max="4.7743569335937500e+03"/>
          <Range Index="13" Min="2.5229780273437500e+03" Max="2.5098736328125000e+04"/>
          <Range Index="14" Min="2.0002056884765625e+02" Max="6.5778847656250000e+03"/>
          <Range Index="15" Min="2.0000231933593750e+02" Max="6.4517753906250000e+03"/>
          <Range Index="16" Min="2.5000167846679688e+02" Max="1.3059608398437500e+04"/>
          <Range Index="17" Min="-2.0723266601562500e+01" Max="7.6969494819641113e+00"/>
          <Range Index="18" Min="1.3719848357141018e-04" Max="9.6269435882568359e+00"/>
          <Range Index="19" Min="8.4184634033590555e-05" Max="8.5190773010253906e+00"/>
          <Range Index="20" Min="2.7788642910309136e-04" Max="8.7329025268554688e+00"/>
        </Ranges>
      </Class>
    </Transform>
  </Transformations>
  <MVAPdfs/>
  <Weights>
    <Layout NLayers="3">
      <Layer Index="0" NNeurons="22">
        <Neuron NSynapses="26">
          -3.4817803304512984e-01 2.1027917293041281e+00 -6.3725888595142244e-01 2.3791582767931483e+00 -2.0530209686751903e+00 -1.6731412405522836e+00 -8.4256853124197228e-01 1.7417589976003228e-01 -3.8999393088721651e-01 -2.6194030101987309e+00 -2.2937166232200972e+00 1.3387111619976009e+00 5.2889590127465169e-01 -3.7167595522647101e-01 -2.4018674226583195e-01 -1.2541478466476597e+00 -3.7446413172920900e-01 -4.0679390878665739e-01 1.6774261135014601e-01 2.6686443855195399e+00 1.5235908935148064e+00 -1.1920122825753536e+00 5.7211794955637369e+00 1.5265637206443330e-01 -1.3325228227396866e+00 4.1317179238871682e-03 
        </Neuron>
        <Neuron NSynapses="26">
          1.5651849051774196e+00 -1.7203819240494986e+00 -2.7955528452350689e+00 8.8036146532987658e-01 7.1409179125215183e-01 1.9358018855262880e+00 -1.9561211612946200e-01 4.5252834547295445e-01 7.9887765812823097e-01 -1.2956496805259758e+00 -3.2251913593723027e+00 4.2532900337730695e+00 -1.5235930643391493e+00 1.0037934329922882e+00 1.1713317626056285e+00 -5.1305876669396296e-02 1.7691254765941724e+00 4.2850639884859598e-01 -7.8353453235492587e-01 -1.4272433720321116e+00 1.1023856203365152e+00 1.9167533376635965e-01 -3.6327481029471670e-01 2.6128911186952131e+00 1.9847237396228368e+00 5.3372294453425362e-01 
        </Neuron>
        <Neuron NSynapses="26">
          -1.6722961600793602e+00 1.4144025176046411e+00 -1.8508267662809958e+00 -1.1221346788464819e+00 -1.3002715821559163e+00 -1.8389711254076266e+00 1.5360688595067513e+00 -6.6003376403745240e-01 -1.2449765082712894e+00 4.1108276213385608e-01 5.5175158419343484e-01 -5.9639857778653060e-01 2.7160192279560493e+00 -3.2553949439393975e-01 3.7033894695376601e-01 -1.6530695433133604e+00 7.5421701527970830e-01 -1.1020820381924825e+00 -6.1844624394939329e-01 -2.4125249284146433e+00 1.1018126685773681e+00 1.4149960397495061e+00 5.0691885837815081e+00 -1.7788003700497930e+00 -1.6761488212813891e+00 -2.1307014310315799e+00 
        </Neuron>
        <Neuron NSynapses="26">
          9.6091892404736379e-01 -1.6949817924193398e-02 2.4759795159354048e+00 8.5531697946185981e-02 9.2624616270470450e-01 -7.0033255090394875e-01 -7.5488670154605786e-01 -7.5523937464359883e-02 2.0341448745652708e+00 -2.0876905273654343e+00 -3.4747012145673422e+00 -1.6084642432921137e-01 -2.5169762311813219e-02 1.7460680123625325e-01 2.6353974537960512e+00 -1.7935704237025129e-02 -8.8345797416811267e-01 1.9196954306559839e+00 -8.9223507348710629e-01 -2.2720511291307943e+00 -1.2985477948768447e+00 -5.5679740283166534e-01 3.5743325460119219e-01 4.2515423390060780e-01 6.0146887702163376e-01 4.6784057248915024e-02 
        </Neuron>
        <Neuron NSynapses="26">
          -1.1961775288265106e+00 1.7048787905249470e+00 1.2132088686140268e+00 -1.9587642597633906e-01 -1.1586152788342326e-01 5.3447742507638185e-01 -1.8879023474085836e+00 5.9801844050013997e-01 -1.3684668137569747e+00 3.3322031662285267e-01 -2.3025607028837753e+00 3.7633565891978580e+00 -5.3005389674225645e-01 -7.8781038821405369e-01 7.1803487538372868e-01 -4.0851784339523894e-01 -1.5128223389067073e+00 3.0801111102960521e-01 -2.5801303009222964e-01 2.7553336901066663e+00 1.3087512888337345e+00 -5.4410943230404618e-01 -4.9147379258357426e-01 1.4461601958601875e+00 -1.8990143066388052e+00 2.5298235128418249e+00 
        </Neuron>
        <Neuron NSynapses="26">
          1.0039625341047073e-01 -1.4232664192658606e+00 6.4600865026090537e-01 -1.1340625410359848e+00 1.4908932819481493e-02 1.0664729780184743e+00 1.6683591562410465e+00 -1.5843991477476762e+00 1.0502695621314131e+00 1.9307624921096889e+00 8.3120676888095035e-01 1.4209484503739467e+00 -2.0226711802036808e+00 -9.7963532274950374e-02 -1.3311037736425331e+00 1.3752477565281398e+00 1.3142624298213230e+00 -6.5546509924518737e-01 -3.7775804480913644e-01 2.6345891528114219e-02 -7.9879972367650687e-01 2.6741004610079155e-01 2.4724167630265157e+00 -4.3724348357120510e-02 -1.0163474815197424e+00 -9.2855137033907603e-02 
        </Neuron>
        <Neuron NSynapses="26">
          1.0445172715915723e+00 3.8969949713025048e-01 2.8371438552240891e+00 -2.6869499327975381e+00 1.4536172903617104e+00 6.5863091912232463e-01 6.0525083219361531e-01 -4.8029040338135354e-01 1.3081732739430372e+00 -2.5523930008615997e-01 1.6422184100423058e+00 -8.5126328953288599e-01 8.4469827292149011e-02 -7.8531537330800949e-01 2.1728301883080903e+00 2.2780624380067174e+00 -3.7039810124043632e-01 4.3640232681140798e+00 1.7398891352295764e+00 -1.6753240653631372e+00 8.9775641882322288e-01 2.8206534052120752e-01 2.0470805662157440e-01 -5.7831683116837851e-01 -1.0489431948437364e+00 -5.2582231481921993e-01 
        </Neuron>
        <Neuron NSynapses="26">
          1.8269935261712433e+00 -1.9715092073558549e+00 1.3850350215653908e+00 -1.6094424658563162e+00 3.5631047053062825e-01 1.6429095608515796e+00 -2.4463699983707515e-01 -1.8432908120032250e+00 -1.3003883660771305e+00 1.0890511562102625e+00 2.4026513213222289e+00 -6.0894001066062375e-01 8.9995840347897524e-02 -1.0162252745984379e+00 -1.9252687226437275e+00 2.5629616090782381e-01 3.7579525676448322e-01 -2.8235057585986162e-01 -7.9302180076200479e-01 8.1217742758505052e-01 9.7634386672603302e-01 -1.9641864681594978e+00 -2.6357042546249598e-01 2.5970743755804454e-01 -7.7701590143748389e-02 7.9563658212645105e-01 
        </Neuron>
        <Neuron NSynapses="26">
          1.6004755482468280e+00 1.2188788552687655e+00 -1.5387636693789172e-01 1.4146412947236862e+00 -1.9997432928020711e+00 -8.9738934240276891e-01 1.6210343156530216e+00 3.2288545809074209e+00 2.3317721697456309e-01 2.7783018963425493e-01 1.3869136189770670e+00 -4.9548425031314314e-01 -6.3174057192122657e-01 6.2463818899959681e-03 -1.0262134039639326e+00 -1.1092929193912039e-01 1.8064474433574618e+00 -1.4776872128789658e+00 8.2032785382210349e-01 3.3052876254917285e-01 3.5317164176216748e-01 -1.2805255279937728e+00 -2.8991201247388032e-01 -3.0453882511442143e-01 4.6192961842823282e-01 3.5555717795724778e-01 
        </Neuron>
        <Neuron NSynapses="26">
          1.6497142388568595e+00 -1.2624160962347555e+00 5.4575325513698847e-01 -1.5247722490445799e+00 -1.5348542892008827e+00 -1.2775792520207940e+00 -2.0351863292642070e+00 -6.8552201914785849e-01 -7.7151183529978926e+00 -1.9058180651550785e+00 1.7432871723506032e+00 -6.2864781481845995e+00 5.3016452634014746e+00 -1.5144715392059751e+00 1.4847919384401114e+00 6.1636017228938944e-01 2.4236420726319255e-01 -3.4841135217118080e-01 2.2540564091120577e-01 1.4242541110782030e+00 -2.5299546700835540e-01 -1.6149661747393111e+00 -1.0314538070749141e+01 -5.0439135849735983e+00 -1.2963622367027212e+00 -7.2217517819381989e+00 
        </Neuron>
        <Neuron NSynapses="26">
          2.9421171772300136e-01 8.5055081212835060e-01 2.4401061112374114e+00 -1.3903027862370079e-01 2.0839049891097500e-01 -7.3953716838736139e-01 -2.0649256804621841e+00 1.6929201629760968e+00 3.5575899916515499e+00 -1.7941160937770748e-01 -1.6605345296989775e+00 3.9465027565674560e+00 3.1594079559496385e-01 5.6115312239127990e-01 -3.8073923461456677e-01 -1.0830702978620230e+00 1.5587622008242024e+00 5.2027579549392455e-01 1.0188641024311418e+00 -1.2582643079277263e+00 5.3409233462766725e-01 -4.4088447798842761e-01 2.3046876942052066e+00 1.9183656649991039e+00 -2.2006030798429550e+00 -2.8723898034640388e-01 
        </Neuron>
        <Neuron NSynapses="26">
          -1.5647402619678119e+00 2.2179986993305980e+00 -2.1844275429973892e+00 9.7427002816797292e-01 -1.6142481629635990e+00 9.1398161464752170e-01 -1.2319319100788861e+00 6.5236100464675695e-01 2.5939138806233690e+00 -8.0163632280845043e-01 -2.8077153374301467e-01 3.0031690607927595e+00 -3.1228447065144724e+00 -1.3895463384488098e+00 -1.7981135323163686e+00 -1.0365031299843266e+00 1.9719216927205441e+00 -8.2422958907515431e-01 3.0579725140751174e-01 -1.0503983619395958e+00 -1.8380617112059974e+00 -9.4167319327670163e-01 -6.2145199325932765e-01 -4.2382599722974579e-01 4.0123988676269190e-01 -1.0548897044687238e+00 
        </Neuron>
        <Neuron NSynapses="26">
          -1.2025592635492515e+00 1.2273365418799154e+00 -2.0420575692058449e-01 2.7410551574850968e+00 1.9174151529873606e+00 -1.5057361728202037e+00 1.2501009481966940e+00 1.3909515877078131e+00 -1.5605409232023895e+00 -7.4194459711630489e-01 9.6129462822885925e-01 1.4905925708432419e-01 3.2766200942218040e+00 1.8778010914900871e+00 6.2068779577371225e-01 -1.2241048837711102e+00 -1.2739639268154852e+00 1.2695287612112223e+00 -2.0999041182170535e+00 -6.3238129431644516e-02 -8.6269587223011324e-01 -1.7551102405869712e+00 -1.8529135671867412e+00 2.5949094191826855e-01 1.0021423050268243e+00 1.1726134417428236e+00 
        </Neuron>
        <Neuron NSynapses="26">
          2.5256240066304153e-01 -5.6431823375091639e-01 1.6255825355382512e+00 -2.7502865767619102e+00 1.9927823487568925e+00 -1.3811980988409420e+00 2.3532667567618049e-01 -2.0431013567257121e+00 -2.7934533157131869e-01 1.5788188528533684e-01 3.4245953412169261e-01 5.4576468073331463e-01 -1.6734978700622427e+00 1.8106990139829220e+00 3.2996987596718247e-01 4.4007825791252086e+00 -8.6675789357749611e-01 -1.2902264984602441e+00 -1.8525857714590421e+00 9.0394965863052501e-01 -2.1498793308750259e+00 -9.3983905783029509e-01 1.7421671070511710e-01 3.2060423131234028e-01 -6.4101174112710702e-01 -1.2931044646439974e-01 
        </Neuron>
        <Neuron NSynapses="26">
          1.0370698881006299e+00 -1.8306972829121231e+00 -2.3220778423465056e+00 3.2290907061780993e-01 -9.2850298916734664e-01 -1.4040794606470788e+00 1.0996438239580228e+00 -1.4592578267188139e+00 -7.7976411869886908e-01 2.2202411422216275e+00 1.0988520986273888e-03 -1.2241758681759741e-02 2.5364613791796913e+00 1.4651967235956325e+00 7.4580758999059571e-01 -5.7581914556536562e-01 -8.7226279823386743e-01 -8.0756814263587695e-01 -1.7887227524682374e+00 5.7502820046276015e-01 -5.4887731002397877e-01 4.9134636542323151e-01 4.2671880129632023e-01 6.7302024061285892e-01 2.0978710165431314e+00 -1.1026476470591300e+00 
        </Neuron>
        <Neuron NSynapses="26">
          1.6854490992755997e+00 2.7630359503147933e-01 -2.4294699779260553e+00 -9.2232580020816235e-01 -1.0106022536659705e+00 1.3272172543238800e+00 4.0517636697367898e-01 1.1649379378712070e+00 -6.5581882129604985e-01 -4.1456633117320857e-01 8.3846649042186006e-01 5.8751891045800275e-01 1.1933228847856185e+00 -1.1659475614308843e+00 1.5715351968266345e+00 -1.4184754971603288e+00 6.1831665540130609e-01 1.0267614060923738e+00 -5.2204945032608752e-01 -7.9568135113212357e-01 -1.5412681559304906e+00 -1.3142469455214385e+00 1.1393896361270348e-01 -4.1149041421111789e+00 7.1092123696674658e-01 6.2155457848684535e-03 
        </Neuron>
        <Neuron NSynapses="26">
          1.6879693435507044e+00 7.4042270297100199e-01 2.2148063187403282e+00 -1.2791996341835288e-01 -3.6680563132012078e-01 6.7997656122620953e-01 1.7073279653217768e+00 -2.1865516179399629e+00 -2.6619319374395389e-01 -1.0081632052416001e+00 -9.6251255549986842e-02 -1.3878566794510234e+00 -1.2115971211802357e+00 1.3351138416006911e+00 -2.8765802288626829e-01 -4.0467756724697423e+00 -1.8020196854718364e+00 -5.4591769935810774e-01 1.7635257651591214e+00 4.6760566354517757e-01 3.2713437388301196e+00 -3.0484133142597081e-01 -2.8093473159647768e+00 -1.6768001564052387e-01 -7.6395017665533971e-01 -3.6800186843696601e+00 
        </Neuron>
        <Neuron NSynapses="26">
          -7.1030626798412788e-01 3.8738695436118697e-01 -1.0702454636659307e+00 1.6325101833906441e+00 1.2276036170371221e+00 3.7717298834605846e-02 -6.8500298898565437e-01 -1.2461013862921766e+00 2.1173303520840903e+00 -1.4858582658604638e-01 4.4821439250251294e-01 -1.1663787824549861e-01 1.7481121412248375e+00 -9.6719872529541562e-01 1.3806231608523427e+00 7.1491024577798967e-01 1.6733241462344270e+00 1.3269442817540194e+00 -1.3496292379845681e-01 -1.2082494752113078e+00 7.5169510613587298e-01 -6.6881361496363656e-01 6.3007634029597492e-01 -1.5264496968811765e+00 -1.1532073548093322e+00 -1.8104216348945368e-01 
        </Neuron>
        <Neuron NSynapses="26">
          -2.5159780999773531e-02 1.4806810027586250e+00 -8.6478598826122688e-01 -1.4880488673635890e+00 -1.8507092080631806e+00 1.9852002869462300e+00 5.0467291815180959e-01 -1.1957671402364343e+00 1.7698239893365841e+00 -1.4401117792219083e+00 2.2286870897521749e+00 -1.4616168071361874e-01 -1.7044163309632461e+00 -1.1967737826837448e+00 1.4892227600036794e+00 1.6138952460006952e+00 2.0988118927071475e-01 8.1736628001199929e-01 -1.1058113286265088e+00 -2.5474283952517260e+00 2.4202697064834480e+00 8.8591311189475641e-01 -5.1143874896078045e-01 -3.9332559599759159e-01 -1.2314814948217776e+00 -4.7934971572221290e+00 
        </Neuron>
        <Neuron NSynapses="26">
          -3.2176863182968957e-01 -1.8884329930571440e+00 9.6102654757254724e-01 -1.6713287733313864e+00 1.6692575904595115e+00 2.6823772748294272e-01 -1.9582558437355542e+00 5.1100145535034547e-01 -1.4637150688790188e-01 1.0168481084146048e+00 2.3657816134681733e+00 1.8538400184665843e-01 2.4436306183777172e+00 -1.5767613928683748e+00 1.0463092489654082e+00 -3.6437864552729557e-02 1.2914663514284899e+00 -1.5125097693802934e+00 5.0230415245887117e-01 -1.8164573110468080e-01 4.9867411872169737e-01 2.1486102081044797e-01 -5.1182141462110697e-01 7.5086418021850587e-01 9.0414455193724319e-01 -6.1159007405831878e-01 
        </Neuron>
        <Neuron NSynapses="26">
          1.0159226212877066e+00 -1.8879092223266398e+00 9.1556740745285869e-01 -1.7774730593989816e+00 1.0317506363420628e+00 1.1290923455070003e+00 8.6369931231866215e-01 1.0399231929189952e+00 1.5520116214514783e+00 -1.5502813536529239e+00 -1.1231131494717414e-01 2.3766571070438761e-01 -5.0280678042395865e-01 -1.5338146139542838e-01 -2.0636128469926718e-01 -2.2954255780823876e-01 -5.2692779300959025e-01 4.7019675779476001e-02 -1.3916773086713136e-01 -1.2295183212888943e+00 -6.8430238962159062e-01 -2.4245439147327141e-01 -4.9998818780541776e-01 -4.7601224389697538e+00 1.0768435657928010e+00 -4.7724455726191112e-01 
        </Neuron>
        <Neuron NSynapses="26">
          -3.3323493646294977e-01 -6.8928818330288344e-01 2.7356318598106109e+00 -8.2739621686780407e-01 6.6835629534040963e-01 4.4830428399428279e-01 -1.3520087189854704e+00 -8.4461348503531664e-01 -4.2756988901856016e-02 -1.1586138186075186e+00 3.2386647534164764e-01 -1.0178958446840802e+00 2.5708480806234881e+00 -1.7598019471348467e+00 1.6233493234197358e+00 2.4302237382072387e+00 1.7269405351612537e+00 1.0770738379128308e+00 6.7482024655995587e-01 2.1176282234099199e-02 -1.4196029471528870e+00 -2.0537281040006814e+00 -3.4817377850870028e+00 -7.3380065380317971e-01 8.2481071896743030e-01 -6.7935727905455900e-01 
        </Neuron>
      </Layer>
      <Layer Index="1" NNeurons="27">
        <Neuron NSynapses="1">
          6.5615890133225052e-01 
        </Neuron>
        <Neuron NSynapses="1">
          4.6999611753745313e-02 
        </Neuron>
        <Neuron NSynapses="1">
          2.1353490029639222e+00 
        </Neuron>
        <Neuron NSynapses="1">
          -3.7316247484360474e+00 
        </Neuron>
        <Neuron NSynapses="1">
          9.1005597701717578e-01 
        </Neuron>
        <Neuron NSynapses="1">
          -8.2318183642007159e-01 
        </Neuron>
        <Neuron NSynapses="1">
          1.4458537597116534e+00 
        </Neuron>
        <Neuron NSynapses="1">
          -3.2381330787397418e+00 
        </Neuron>
        <Neuron NSynapses="1">
          -2.1648944892090052e+00 
        </Neuron>
        <Neuron NSynapses="1">
          -1.3148978555242103e+00 
        </Neuron>
        <Neuron NSynapses="1">
          4.6499674343744957e-01 
        </Neuron>
        <Neuron NSynapses="1">
          -2.2805044548342375e+00 
        </Neuron>
        <Neuron NSynapses="1">
          1.9047741349527367e+00 
        </Neuron>
        <Neuron NSynapses="1">
          -1.7409693278047196e+00 
        </Neuron>
        <Neuron NSynapses="1">
          -2.2836955785106956e+00 
        </Neuron>
        <Neuron NSynapses="1">
          2.7940676514577705e+00 
        </Neuron>
        <Neuron NSynapses="1">
          -1.1654076390315251e+00 
        </Neuron>
        <Neuron NSynapses="1">
          1.4816474295028326e+00 
        </Neuron>
        <Neuron NSynapses="1">
          -2.3555811850872024e+00 
        </Neuron>
        <Neuron NSynapses="1">
          2.3966465807104465e+00 
        </Neuron>
        <Neuron NSynapses="1">
          -2.8210632012800847e+00 
        </Neuron>
        <Neuron NSynapses="1">
          1.8402614834172353e+00 
        </Neuron>
        <Neuron NSynapses="1">
          -3.4898545375703653e+00 
        </Neuron>
        <Neuron NSynapses="1">
          -1.7555494082349132e+00 
        </Neuron>
        <Neuron NSynapses="1">
          2.1496091378270523e+00 
        </Neuron>
        <Neuron NSynapses="1">
          -1.8255396878108117e+00 
        </Neuron>
        <Neuron NSynapses="1">
          -1.9048951879197549e+00 
        </Neuron>
      </Layer>
      <Layer Index="2" NNeurons="1">
        <Neuron NSynapses="0"/>
      </Layer>
    </Layout>
  </Weights>
</MethodSetup>
