<?xml version="1.0"?>
<MethodSetup Method="BDT::BDTG">
  <GeneralInfo>
    <Info name="TMVA Release" value="4.2.1 [262657]"/>
    <Info name="ROOT Release" value="6.24/08 [399368]"/>
    <Info name="Creator" value="pgaigne"/>
    <Info name="Date" value="Tue Mar 14 13:11:56 2023"/>
    <Info name="Host" value="Linux buildvm-x86-06.iad2.fedoraproject.org 5.18.17-200.fc36.x86_64 #1 SMP PREEMPT_DYNAMIC Thu Aug 11 14:36:06 UTC 2022 x86_64 x86_64 x86_64 GNU/Linux"/>
    <Info name="Dir" value="/afs/cern.ch/user/p/pgaigne/xiccpp/Xicc/TMVA"/>
    <Info name="Training events" value="24714"/>
    <Info name="TrainingTime" value="1.30633230e+01"/>
    <Info name="AnalysisType" value="Classification"/>
  </GeneralInfo>
  <Options>
    <Option name="V" modified="Yes">False</Option>
    <Option name="VerbosityLevel" modified="No">Default</Option>
    <Option name="VarTransform" modified="No">None</Option>
    <Option name="H" modified="Yes">False</Option>
    <Option name="CreateMVAPdfs" modified="No">False</Option>
    <Option name="IgnoreNegWeightsInTraining" modified="No">False</Option>
    <Option name="NTrees" modified="Yes">1000</Option>
    <Option name="MaxDepth" modified="Yes">2</Option>
    <Option name="MinNodeSize" modified="Yes">2.5%</Option>
    <Option name="nCuts" modified="Yes">20</Option>
    <Option name="BoostType" modified="Yes">Grad</Option>
    <Option name="AdaBoostR2Loss" modified="No">quadratic</Option>
    <Option name="UseBaggedBoost" modified="Yes">True</Option>
    <Option name="Shrinkage" modified="Yes">1.000000e-01</Option>
    <Option name="AdaBoostBeta" modified="No">5.000000e-01</Option>
    <Option name="UseRandomisedTrees" modified="No">False</Option>
    <Option name="UseNvars" modified="No">5</Option>
    <Option name="UsePoissonNvars" modified="No">True</Option>
    <Option name="BaggedSampleFraction" modified="Yes">5.000000e-01</Option>
    <Option name="UseYesNoLeaf" modified="No">True</Option>
    <Option name="NegWeightTreatment" modified="No">pray</Option>
    <Option name="Css" modified="No">1.000000e+00</Option>
    <Option name="Cts_sb" modified="No">1.000000e+00</Option>
    <Option name="Ctb_ss" modified="No">1.000000e+00</Option>
    <Option name="Cbb" modified="No">1.000000e+00</Option>
    <Option name="NodePurityLimit" modified="No">5.000000e-01</Option>
    <Option name="SeparationType" modified="No">giniindex</Option>
    <Option name="RegressionLossFunctionBDTG" modified="No">huber</Option>
    <Option name="HuberQuantile" modified="No">7.000000e-01</Option>
    <Option name="DoBoostMonitor" modified="No">False</Option>
    <Option name="UseFisherCuts" modified="No">False</Option>
    <Option name="MinLinCorrForFisher" modified="No">8.000000e-01</Option>
    <Option name="UseExclusiveVars" modified="No">False</Option>
    <Option name="DoPreselection" modified="No">False</Option>
    <Option name="SigToBkgFraction" modified="No">1.000000e+00</Option>
    <Option name="PruneMethod" modified="No">nopruning</Option>
    <Option name="PruneStrength" modified="No">0.000000e+00</Option>
    <Option name="PruningValFraction" modified="No">5.000000e-01</Option>
    <Option name="SkipNormalization" modified="No">False</Option>
    <Option name="nEventsMin" modified="No">0</Option>
    <Option name="UseBaggedGrad" modified="No">False</Option>
    <Option name="GradBaggingFraction" modified="No">5.000000e-01</Option>
    <Option name="UseNTrainEvents" modified="No">0</Option>
    <Option name="NNodesMax" modified="No">0</Option>
  </Options>
  <Variables NVar="21">
    <Variable VarIndex="0" Expression="log(TMath::Max(10e-10,Xicc_IPCHI2_OWNPV))" Label="log(TMath::Max(10e-10,Xicc_IPCHI2_OWNPV))" Title="log_Xicc_IPCHI2_OWNPV" Unit="" Internal="log_TMath_Max_10e_M_10,Xicc_IPCHI2_OWNPV__" Type="F" Min="-7.88258600e+00" Max="4.83108902e+00"/>
    <Variable VarIndex="1" Expression="TMath::ACos(Xicc_DIRA_OWNPV)" Label="TMath::ACos(Xicc_DIRA_OWNPV)" Title="acos_Xicc_DIRA_OWNPV" Unit="" Internal="TMath_ACos_Xicc_DIRA_OWNPV_" Type="F" Min="3.97872427e-05" Max="1.41533509e-01"/>
    <Variable VarIndex="2" Expression="log(TMath::Max(10e-10,Xicc_FDCHI2_OWNPV))" Label="log(TMath::Max(10e-10,Xicc_FDCHI2_OWNPV))" Title="log_Xicc_FDCHI2_OWNPV" Unit="" Internal="log_TMath_Max_10e_M_10,Xicc_FDCHI2_OWNPV__" Type="F" Min="-4.58016109e+00" Max="1.22206154e+01"/>
    <Variable VarIndex="3" Expression="Lc_ENDVERTEX_CHI2/Lc_ENDVERTEX_NDOF" Label="Lc_ENDVERTEX_CHI2/Lc_ENDVERTEX_NDOF" Title="Lc_ENDVERTEX_CHI2_NDOF" Unit="" Internal="Lc_ENDVERTEX_CHI2_D_Lc_ENDVERTEX_NDOF" Type="F" Min="1.82923395e-04" Max="9.98650265e+00"/>
    <Variable VarIndex="4" Expression="log(TMath::Max(10e-10,Xicc_ENDVERTEX_CHI2/Xicc_ENDVERTEX_NDOF))" Label="log(TMath::Max(10e-10,Xicc_ENDVERTEX_CHI2/Xicc_ENDVERTEX_NDOF))" Title="log_Xicc_ENDVERTEX_CHI2_NDOF" Unit="" Internal="log_TMath_Max_10e_M_10,Xicc_ENDVERTEX_CHI2_D_Xicc_ENDVERTEX_NDOF__" Type="F" Min="-4.70480728e+00" Max="3.21853542e+00"/>
    <Variable VarIndex="5" Expression="log(TMath::Max(10e-10,Xicc_CHI2NDOF_DTF_PV))" Label="log(TMath::Max(10e-10,Xicc_CHI2NDOF_DTF_PV))" Title="log_Xicc_CHI2NDOF_DTF_PV" Unit="" Internal="log_TMath_Max_10e_M_10,Xicc_CHI2NDOF_DTF_PV__" Type="F" Min="-2.07232666e+01" Max="4.58553886e+00"/>
    <Variable VarIndex="6" Expression="LcP_PIDp" Label="LcP_PIDp" Title="LcP_PIDp" Unit="" Internal="LcP_PIDp" Type="F" Min="5.00063515e+00" Max="1.14419838e+02"/>
    <Variable VarIndex="7" Expression="LcK_PIDK" Label="LcK_PIDK" Title="LcK_PIDK" Unit="" Internal="LcK_PIDK" Type="F" Min="5.00095081e+00" Max="1.41144348e+02"/>
    <Variable VarIndex="8" Expression="LcPi_PIDK" Label="LcPi_PIDK" Title="LcPi_PIDK" Unit="" Internal="LcPi_PIDK" Type="F" Min="-1.42272232e+02" Max="4.99053001e+00"/>
    <Variable VarIndex="9" Expression="XiccK_PIDK" Label="XiccK_PIDK" Title="XiccK_PIDK" Unit="" Internal="XiccK_PIDK" Type="F" Min="-1.00000000e+03" Max="1.24393028e+02"/>
    <Variable VarIndex="10" Expression="XiccPi1_PIDK" Label="XiccPi1_PIDK" Title="XiccPi1_PIDK" Unit="" Internal="XiccPi1_PIDK" Type="F" Min="-1.00000000e+03" Max="1.83306923e+01"/>
    <Variable VarIndex="11" Expression="XiccPi2_PIDK" Label="XiccPi2_PIDK" Title="XiccPi2_PIDK" Unit="" Internal="XiccPi2_PIDK" Type="F" Min="-1.00000000e+03" Max="2.06217823e+01"/>
    <Variable VarIndex="12" Expression="TMath::Min(TMath::Min(XiccK_PT,Lc_PT),TMath::Min(XiccPi1_PT,XiccPi2_PT))" Label="TMath::Min(TMath::Min(XiccK_PT,Lc_PT),TMath::Min(XiccPi1_PT,XiccPi2_PT))" Title="min_Xicc_Daughters_PT" Unit="" Internal="TMath_Min_TMath_Min_XiccK_PT,Lc_PT_,TMath_Min_XiccPi1_PT,XiccPi2_PT__" Type="F" Min="2.00002319e+02" Max="4.77435693e+03"/>
    <Variable VarIndex="13" Expression="Lc_PT" Label="Lc_PT" Title="Lc_PT" Unit="" Internal="Lc_PT" Type="F" Min="2.52297803e+03" Max="2.50987363e+04"/>
    <Variable VarIndex="14" Expression="XiccPi1_PT" Label="XiccPi1_PT" Title="XiccPi1_PT" Unit="" Internal="XiccPi1_PT" Type="F" Min="2.00020569e+02" Max="6.57788477e+03"/>
    <Variable VarIndex="15" Expression="XiccPi2_PT" Label="XiccPi2_PT" Title="XiccPi2_PT" Unit="" Internal="XiccPi2_PT" Type="F" Min="2.00002319e+02" Max="6.45177539e+03"/>
    <Variable VarIndex="16" Expression="XiccK_PT" Label="XiccK_PT" Title="XiccK_PT" Unit="" Internal="XiccK_PT" Type="F" Min="2.50001678e+02" Max="1.30596084e+04"/>
    <Variable VarIndex="17" Expression="log(TMath::Max(10e-10,Lc_IPCHI2_OWNPV))" Label="log(TMath::Max(10e-10,Lc_IPCHI2_OWNPV))" Title="log_Lc_IPCHI2_OWNPV" Unit="" Internal="log_TMath_Max_10e_M_10,Lc_IPCHI2_OWNPV__" Type="F" Min="-2.07232666e+01" Max="7.69694948e+00"/>
    <Variable VarIndex="18" Expression="log(TMath::Max(10e-10,XiccK_IPCHI2_OWNPV))" Label="log(TMath::Max(10e-10,XiccK_IPCHI2_OWNPV))" Title="log_XiccK_IPCHI2_OWNPV" Unit="" Internal="log_TMath_Max_10e_M_10,XiccK_IPCHI2_OWNPV__" Type="F" Min="1.37198484e-04" Max="9.62694359e+00"/>
    <Variable VarIndex="19" Expression="log(TMath::Max(10e-10,XiccPi1_IPCHI2_OWNPV))" Label="log(TMath::Max(10e-10,XiccPi1_IPCHI2_OWNPV))" Title="log_XiccPi1_IPCHI2_OWNPV" Unit="" Internal="log_TMath_Max_10e_M_10,XiccPi1_IPCHI2_OWNPV__" Type="F" Min="8.41846340e-05" Max="8.51907730e+00"/>
    <Variable VarIndex="20" Expression="log(TMath::Max(10e-10,XiccPi2_IPCHI2_OWNPV))" Label="log(TMath::Max(10e-10,XiccPi2_IPCHI2_OWNPV))" Title="log_XiccPi2_IPCHI2_OWNPV" Unit="" Internal="log_TMath_Max_10e_M_10,XiccPi2_IPCHI2_OWNPV__" Type="F" Min="2.77886429e-04" Max="8.73290253e+00"/>
  </Variables>
  <Spectators NSpec="2">
    <Spectator SpecIndex="0" Expression="Xicc_M" Label="Xicc_M" Title="F" Unit="" Internal="Xicc_M" Type="F" Min="3.60600659e+03" Max="3.79999194e+03"/>
    <Spectator SpecIndex="1" Expression="Lc_M" Label="Lc_M" Title="F" Unit="" Internal="Lc_M" Type="F" Min="2.27000635e+03" Max="2.30599805e+03"/>
  </Spectators>
  <Classes NClass="2">
    <Class Name="Signal" Index="0"/>
    <Class Name="Background" Index="1"/>
  </Classes>
  <Transformations NTransformations="0"/>
  <MVAPdfs/>
  <Weights NTrees="1000" AnalysisType="1">
    <BinaryTree type="DecisionTree" boostWeight="1.0000000000000000e+00" itree="0">
      <Node pos="s" depth="0" NCoef="0" IVar="1" Cut="6.7730592563748360e-03" cType="1" res="3.6985108163207769e-03" rms="4.9998632073402405e-01" purity="5.0369852781295776e-01" nType="0">
        <Node pos="l" depth="1" NCoef="0" IVar="5" Cut="1.1443912982940674e+00" cType="1" res="2.8598582744598389e-01" rms="4.1013669967651367e-01" purity="7.8598582744598389e-01" nType="0">
          <Node pos="l" depth="2" NCoef="0" IVar="-1" Cut="0.0000000000000000e+00" cType="1" res="8.1101961433887482e-02" rms="2.9250949621200562e-01" purity="9.0550976991653442e-01" nType="-99"/>
          <Node pos="r" depth="2" NCoef="0" IVar="-1" Cut="0.0000000000000000e+00" cType="1" res="-6.1127480119466782e-02" rms="3.9570921659469604e-01" purity="1.9436259567737579e-01" nType="-99"/>
        </Node>
        <Node pos="r" depth="1" NCoef="0" IVar="1" Cut="1.3187458738684654e-02" cType="1" res="-3.6634325981140137e-01" rms="3.4028312563896179e-01" purity="1.3365672528743744e-01" nType="0">
          <Node pos="l" depth="2" NCoef="0" IVar="-1" Cut="0.0000000000000000e+00" cType="1" res="-3.2313786447048187e-02" rms="4.7317594289779663e-01" purity="3.3843109011650085e-01" nType="-99"/>
          <Node pos="r" depth="2" NCoef="0" IVar="-1" Cut="0.0000000000000000e+00" cType="1" res="-9.3243174254894257e-02" rms="1.8067312240600586e-01" purity="3.3784143626689911e-02" nType="-99"/>
        </Node>
      </Node>
    </BinaryTree>
    <BinaryTree type="DecisionTree" boostWeight="1.0000000000000000e+00" itree="1">
      <Node pos="s" depth="0" NCoef="0" IVar="1" Cut="6.7730592563748360e-03" cType="1" res="-5.1721855998039246e-03" rms="4.6905979514122009e-01" purity="4.9528104066848755e-01" nType="0">
        <Node pos="l" depth="1" NCoef="0" IVar="5" Cut="9.1483455896377563e-01" cType="1" res="2.5746276974678040e-01" rms="3.9383113384246826e-01" purity="7.8521788120269775e-01" nType="0">
          <Node pos="l" depth="2" NCoef="0" IVar="-1" Cut="0.0000000000000000e+00" cType="1" res="7.7993631362915039e-02" rms="2.5869202613830566e-01" purity="9.2787665128707886e-01" nType="-99"/>
          <Node pos="r" depth="2" NCoef="0" IVar="-1" Cut="0.0000000000000000e+00" cType="1" res="-3.6808077245950699e-02" rms="4.5017895102500916e-01" purity="3.0141791701316833e-01" nType="-99"/>
        </Node>
        <Node pos="r" depth="1" NCoef="0" IVar="12" Cut="5.5492547607421875e+02" cType="1" res="-3.6744293570518494e-01" rms="2.8839668631553650e-01" purity="9.5350928604602814e-02" nType="0">
          <Node pos="l" depth="2" NCoef="0" IVar="-1" Cut="0.0000000000000000e+00" cType="1" res="-8.2049496471881866e-02" rms="2.2307246923446655e-01" purity="5.4373271763324738e-02" nType="-99"/>
          <Node pos="r" depth="2" NCoef="0" IVar="-1" Cut="0.0000000000000000e+00" cType="1" res="-2.8299156838329509e-05" rms="4.8925706744194031e-01" purity="4.7046193480491638e-01" nType="-99"/>
        </Node>
      </Node>
    </BinaryTree>
    <BinaryTree type="DecisionTree" boostWeight="1.0000000000000000e+00" itree="2">
      <Node pos="s" depth="0" NCoef="0" IVar="1" Cut="6.7730592563748360e-03" cType="1" res="-7.2798384353518486e-03" rms="4.4248533248901367e-01" purity="4.9087429046630859e-01" nType="0">
        <Node pos="l" depth="1" NCoef="0" IVar="5" Cut="1.1214835643768311e+00" cType="1" res="2.2780126333236694e-01" rms="3.8271266222000122e-01" purity="7.8080654144287109e-01" nType="0">
          <Node pos="l" depth="2" NCoef="0" IVar="-1" Cut="0.0000000000000000e+00" cType="1" res="6.8433292210102081e-02" rms="2.8409215807914734e-01" purity="9.0992784500122070e-01" nType="-99"/>
          <Node pos="r" depth="2" NCoef="0" IVar="-1" Cut="0.0000000000000000e+00" cType="1" res="-4.7690387815237045e-02" rms="4.1108125448226929e-01" purity="2.1697548031806946e-01" nType="-99"/>
        </Node>
        <Node pos="r" depth="1" NCoef="0" IVar="6" Cut="4.5096565246582031e+01" cType="1" res="-3.1225723028182983e-01" rms="3.0834633111953735e-01" purity="1.1473685503005981e-01" nType="0">
          <Node pos="l" depth="2" NCoef="0" IVar="-1" Cut="0.0000000000000000e+00" cType="1" res="-7.3603808879852295e-02" rms="2.4086651206016541e-01" purity="6.5907105803489685e-02" nType="-99"/>
          <Node pos="r" depth="2" NCoef="0" IVar="-1" Cut="0.0000000000000000e+00" cType="1" res="1.8211625516414642e-02" rms="4.8130631446838379e-01" purity="5.3234499692916870e-01" nType="-99"/>
        </Node>
      </Node>
    </BinaryTree>
    <BinaryTree type="DecisionTree" boostWeight="1.0000000000000000e+00" itree="3">
      <Node pos="s" depth="0" NCoef="0" IVar="1" Cut="6.7730592563748360e-03" cType="1" res="-2.4580466561019421e-03" rms="4.1927543282508850e-01" purity="4.9544122815132141e-01" nType="0">
        <Node pos="l" depth="1" NCoef="0" IVar="5" Cut="1.1214835643768311e+00" cType="1" res="2.0239165425300598e-01" rms="3.7017327547073364e-01" purity="7.7795004844665527e-01" nType="0">
          <Node pos="l" depth="2" NCoef="0" IVar="-1" Cut="0.0000000000000000e+00" cType="1" res="6.3768014311790466e-02" rms="2.7994248270988464e-01" purity="9.1249740123748779e-01" nType="-99"/>
          <Node pos="r" depth="2" NCoef="0" IVar="-1" Cut="0.0000000000000000e+00" cType="1" res="-4.9168400466442108e-02" rms="3.9107999205589294e-01" purity="1.8816716969013214e-01" nType="-99"/>
        </Node>
        <Node pos="r" depth="1" NCoef="0" IVar="12" Cut="6.4365173339843750e+02" cType="1" res="-2.7210679650306702e-01" rms="3.1443524360656738e-01" purity="1.2356775999069214e-01" nType="0">
          <Node pos="l" depth="2" NCoef="0" IVar="-1" Cut="0.0000000000000000e+00" cType="1" res="-6.5840981900691986e-02" rms="2.6075252890586853e-01" purity="7.7865019440650940e-02" nType="-99"/>
          <Node pos="r" depth="2" NCoef="0" IVar="-1" Cut="0.0000000000000000e+00" cType="1" res="4.0251102298498154e-02" rms="4.6204653382301331e-01" purity="6.4980977773666382e-01" nType="-99"/>
        </Node>
      </Node>
    </BinaryTree>
    <BinaryTree type="DecisionTree" boostWeight="1.0000000000000000e+00" itree="4">
      <Node pos="s" depth="0" NCoef="0" IVar="1" Cut="6.7766564898192883e-03" cType="1" res="-3.7402969319373369e-03" rms="3.9858320355415344e-01" purity="4.9557849764823914e-01" nType="0">
        <Node pos="l" depth="1" NCoef="0" IVar="5" Cut="9.1483455896377563e-01" cType="1" res="1.8205183744430542e-01" rms="3.6035892367362976e-01" purity="7.7855062484741211e-01" nType="0">
          <Node pos="l" depth="2" NCoef="0" IVar="-1" Cut="0.0000000000000000e+00" cType="1" res="6.1572555452585220e-02" rms="2.6369252800941467e-01" purity="9.2481321096420288e-01" nType="-99"/>
          <Node pos="r" depth="2" NCoef="0" IVar="-1" Cut="0.0000000000000000e+00" cType="1" res="-3.5042621195316315e-02" rms="4.2496666312217712e-01" purity="2.7061855792999268e-01" nType="-99"/>
        </Node>
        <Node pos="r" depth="1" NCoef="0" IVar="1" Cut="1.3191991485655308e-02" cType="1" res="-2.5636109709739685e-01" rms="2.9590734839439392e-01" purity="1.1082242429256439e-01" nType="0">
          <Node pos="l" depth="2" NCoef="0" IVar="-1" Cut="0.0000000000000000e+00" cType="1" res="-1.9319050014019012e-02" rms="4.3986922502517700e-01" purity="3.0392777919769287e-01" nType="-99"/>
          <Node pos="r" depth="2" NCoef="0" IVar="-1" Cut="0.0000000000000000e+00" cType="1" res="-7.2564408183097839e-02" rms="1.4592905342578888e-01" purity="2.2768093273043633e-02" nType="-99"/>
        </Node>
      </Node>
    </BinaryTree>
    <BinaryTree type="DecisionTree" boostWeight="1.0000000000000000e+00" itree="5">
      <Node pos="s" depth="0" NCoef="0" IVar="1" Cut="6.7610098049044609e-03" cType="1" res="3.8317777216434479e-03" rms="3.8349908590316772e-01" purity="5.0333029031753540e-01" nType="0">
        <Node pos="l" depth="1" NCoef="0" IVar="4" Cut="1.1719969511032104e+00" cType="1" res="1.7250372469425201e-01" rms="3.4985548257827759e-01" purity="7.8621309995651245e-01" nType="0">
          <Node pos="l" depth="2" NCoef="0" IVar="-1" Cut="0.0000000000000000e+00" cType="1" res="5.6496884673833847e-02" rms="2.7448692917823792e-01" purity="9.1117727756500244e-01" nType="-99"/>
          <Node pos="r" depth="2" NCoef="0" IVar="-1" Cut="0.0000000000000000e+00" cType="1" res="-2.5607669726014137e-02" rms="4.3380248546600342e-01" purity="3.2169774174690247e-01" nType="-99"/>
        </Node>
        <Node pos="r" depth="1" NCoef="0" IVar="4" Cut="2.3776872456073761e-01" cType="1" res="-2.2678767144680023e-01" rms="2.9786124825477600e-01" purity="1.1655418574810028e-01" nType="0">
          <Node pos="l" depth="2" NCoef="0" IVar="-1" Cut="0.0000000000000000e+00" cType="1" res="4.9875183030962944e-03" rms="4.4950312376022339e-01" purity="3.8808453083038330e-01" nType="-99"/>
          <Node pos="r" depth="2" NCoef="0" IVar="-1" Cut="0.0000000000000000e+00" cType="1" res="-6.3396483659744263e-02" rms="2.1584255993366241e-01" purity="5.6174691766500473e-02" nType="-99"/>
        </Node>
      </Node>
    </BinaryTree>
    <BinaryTree type="DecisionTree" boostWeight="1.0000000000000000e+00" itree="6">
      <Node pos="s" depth="0" NCoef="0" IVar="9" Cut="1.7307977676391602e+01" cType="1" res="-4.6043372713029385e-03" rms="3.6749216914176941e-01" purity="4.9321606755256653e-01" nType="0">
        <Node pos="l" depth="1" NCoef="0" IVar="5" Cut="1.8502964079380035e-01" cType="1" res="-1.9047357141971588e-01" rms="3.1288892030715942e-01" purity="2.2809392213821411e-01" nType="0">
          <Node pos="l" depth="2" NCoef="0" IVar="-1" Cut="0.0000000000000000e+00" cType="1" res="1.8806157633662224e-02" rms="3.5931751132011414e-01" purity="6.6320747137069702e-01" nType="-99"/>
          <Node pos="r" depth="2" NCoef="0" IVar="-1" Cut="0.0000000000000000e+00" cType="1" res="-5.8643747121095657e-02" rms="2.6231023669242859e-01" purity="1.2462198734283447e-01" nType="-99"/>
        </Node>
        <Node pos="r" depth="1" NCoef="0" IVar="1" Cut="1.3510092161595821e-02" cType="1" res="1.8682718276977539e-01" rms="3.1794026494026184e-01" purity="7.6627218723297119e-01" nType="0">
          <Node pos="l" depth="2" NCoef="0" IVar="-1" Cut="0.0000000000000000e+00" cType="1" res="5.7883467525243759e-02" rms="2.7461996674537659e-01" purity="8.7608414888381958e-01" nType="-99"/>
          <Node pos="r" depth="2" NCoef="0" IVar="-1" Cut="0.0000000000000000e+00" cType="1" res="-5.4823245853185654e-02" rms="2.4689255654811859e-01" purity="7.2847999632358551e-02" nType="-99"/>
        </Node>
      </Node>
    </BinaryTree>
    <BinaryTree type="DecisionTree" boostWeight="1.0000000000000000e+00" itree="7">
      <Node pos="s" depth="0" NCoef="0" IVar="9" Cut="1.3219333648681641e+01" cType="1" res="1.3463812647387385e-03" rms="3.5177984833717346e-01" purity="4.9973833560943604e-01" nType="0">
        <Node pos="l" depth="1" NCoef="0" IVar="11" Cut="-2.8800384521484375e+01" cType="1" res="-2.1666735410690308e-01" rms="2.6650145649909973e-01" purity="1.6364724934101105e-01" nType="0">
          <Node pos="l" depth="2" NCoef="0" IVar="-1" Cut="0.0000000000000000e+00" cType="1" res="1.6312219202518463e-02" rms="3.4673714637756348e-01" purity="6.1913788318634033e-01" nType="-99"/>
          <Node pos="r" depth="2" NCoef="0" IVar="-1" Cut="0.0000000000000000e+00" cType="1" res="-6.0042545199394226e-02" rms="2.3124878108501434e-01" purity="1.0721840709447861e-01" nType="-99"/>
        </Node>
        <Node pos="r" depth="1" NCoef="0" IVar="1" Cut="1.3515380211174488e-02" cType="1" res="1.3932289183139801e-01" rms="3.2863357663154602e-01" purity="7.1244359016418457e-01" nType="0">
          <Node pos="l" depth="2" NCoef="0" IVar="-1" Cut="0.0000000000000000e+00" cType="1" res="4.9676015973091125e-02" rms="2.9794818162918091e-01" purity="8.4261745214462280e-01" nType="-99"/>
          <Node pos="r" depth="2" NCoef="0" IVar="-1" Cut="0.0000000000000000e+00" cType="1" res="-5.9059116989374161e-02" rms="1.9348041713237762e-01" purity="4.2803708463907242e-02" nType="-99"/>
        </Node>
      </Node>
    </BinaryTree>
    <BinaryTree type="DecisionTree" boostWeight="1.0000000000000000e+00" itree="8">
      <Node pos="s" depth="0" NCoef="0" IVar="5" Cut="8.5708254575729370e-01" cType="1" res="5.3442358039319515e-03" rms="3.3803218603134155e-01" purity="5.0722110271453857e-01" nType="0">
        <Node pos="l" depth="1" NCoef="0" IVar="2" Cut="2.4399657249450684e+00" cType="1" res="1.4009332656860352e-01" rms="3.0145162343978882e-01" purity="7.5643402338027954e-01" nType="0">
          <Node pos="l" depth="2" NCoef="0" IVar="-1" Cut="0.0000000000000000e+00" cType="1" res="-5.8811426162719727e-02" rms="2.6360163092613220e-01" purity="1.0004420578479767e-01" nType="-99"/>
          <Node pos="r" depth="2" NCoef="0" IVar="-1" Cut="0.0000000000000000e+00" cType="1" res="5.8533880859613419e-02" rms="2.2470471262931824e-01" purity="9.2488861083984375e-01" nType="-99"/>
        </Node>
        <Node pos="r" depth="1" NCoef="0" IVar="9" Cut="2.7086305618286133e+01" cType="1" res="-2.0205479860305786e-01" rms="2.8161931037902832e-01" purity="1.2364510446786880e-01" nType="0">
          <Node pos="l" depth="2" NCoef="0" IVar="-1" Cut="0.0000000000000000e+00" cType="1" res="-6.0311183333396912e-02" rms="2.1876369416713715e-01" purity="6.0181185603141785e-02" nType="-99"/>
          <Node pos="r" depth="2" NCoef="0" IVar="-1" Cut="0.0000000000000000e+00" cType="1" res="1.3964917510747910e-02" rms="4.2717641592025757e-01" purity="4.9808022379875183e-01" nType="-99"/>
        </Node>
      </Node>
    </BinaryTree>
    <BinaryTree type="DecisionTree" boostWeight="1.0000000000000000e+00" itree="9">
      <Node pos="s" depth="0" NCoef="0" IVar="5" Cut="5.6337344646453857e-01" cType="1" res="1.2430503265932202e-03" rms="3.2511326670646667e-01" purity="4.9666729569435120e-01" nType="0">
        <Node pos="l" depth="1" NCoef="0" IVar="2" Cut="2.6199369430541992e+00" cType="1" res="1.5245565772056580e-01" rms="2.7368670701980591e-01" purity="8.0058151483535767e-01" nType="0">
          <Node pos="l" depth="2" NCoef="0" IVar="-1" Cut="0.0000000000000000e+00" cType="1" res="-4.9487903714179993e-02" rms="2.9500055313110352e-01" purity="1.5578681230545044e-01" nType="-99"/>
          <Node pos="r" depth="2" NCoef="0" IVar="-1" Cut="0.0000000000000000e+00" cType="1" res="6.2137935310602188e-02" rms="1.8473960459232330e-01" purity="9.6116459369659424e-01" nType="-99"/>
        </Node>
        <Node pos="r" depth="1" NCoef="0" IVar="12" Cut="4.1785211181640625e+02" cType="1" res="-1.3918016850948334e-01" rms="3.0552113056182861e-01" purity="2.1443811058998108e-01" nType="0">
          <Node pos="l" depth="2" NCoef="0" IVar="-1" Cut="0.0000000000000000e+00" cType="1" res="-5.7414472103118896e-02" rms="2.0973561704158783e-01" purity="8.4214136004447937e-02" nType="-99"/>
          <Node pos="r" depth="2" NCoef="0" IVar="-1" Cut="0.0000000000000000e+00" cType="1" res="1.3029759749770164e-02" rms="3.9144745469093323e-01" purity="5.1539427042007446e-01" nType="-99"/>
        </Node>
      </Node>
    </BinaryTree>
    <BinaryTree type="DecisionTree" boostWeight="1.0000000000000000e+00" itree="10">
      <Node pos="s" depth="0" NCoef="0" IVar="16" Cut="9.4902532958984375e+02" cType="1" res="3.8265185430645943e-03" rms="3.1548008322715759e-01" purity="4.9779185652732849e-01" nType="0">
        <Node pos="l" depth="1" NCoef="0" IVar="4" Cut="-3.5802703350782394e-02" cType="1" res="-1.5256541967391968e-01" rms="2.6034927368164062e-01" purity="2.0123472809791565e-01" nType="0">
          <Node pos="l" depth="2" NCoef="0" IVar="-1" Cut="0.0000000000000000e+00" cType="1" res="2.0359767600893974e-02" rms="3.2545313239097595e-01" purity="6.7370623350143433e-01" nType="-99"/>
          <Node pos="r" depth="2" NCoef="0" IVar="-1" Cut="0.0000000000000000e+00" cType="1" res="-5.3606424480676651e-02" rms="2.1855247020721436e-01" purity="1.0803081840276718e-01" nType="-99"/>
        </Node>
        <Node pos="r" depth="1" NCoef="0" IVar="1" Cut="1.3515380211174488e-02" cType="1" res="1.2618255615234375e-01" rms="3.0042999982833862e-01" purity="7.2980862855911255e-01" nType="0">
          <Node pos="l" depth="2" NCoef="0" IVar="-1" Cut="0.0000000000000000e+00" cType="1" res="4.4408585876226425e-02" rms="2.8444644808769226e-01" purity="8.3410596847534180e-01" nType="-99"/>
          <Node pos="r" depth="2" NCoef="0" IVar="-1" Cut="0.0000000000000000e+00" cType="1" res="-5.1508598029613495e-02" rms="2.0502285659313202e-01" purity="4.9657728523015976e-02" nType="-99"/>
        </Node>
      </Node>
    </BinaryTree>
    <BinaryTree type="DecisionTree" boostWeight="1.0000000000000000e+00" itree="11">
      <Node pos="s" depth="0" NCoef="0" IVar="9" Cut="1.7307977676391602e+01" cType="1" res="1.8908797064796090e-03" rms="3.0636227130889893e-01" purity="4.9606677889823914e-01" nType="0">
        <Node pos="l" depth="1" NCoef="0" IVar="5" Cut="4.5760312676429749e-01" cType="1" res="-1.2768410146236420e-01" rms="2.6868131756782532e-01" purity="2.3226587474346161e-01" nType="0">
          <Node pos="l" depth="2" NCoef="0" IVar="-1" Cut="0.0000000000000000e+00" cType="1" res="4.5784087851643562e-03" rms="3.1547045707702637e-01" purity="5.8448952436447144e-01" nType="-99"/>
          <Node pos="r" depth="2" NCoef="0" IVar="-1" Cut="0.0000000000000000e+00" cType="1" res="-5.0639394670724869e-02" rms="2.2535488009452820e-01" purity="9.8489500582218170e-02" nType="-99"/>
        </Node>
        <Node pos="r" depth="1" NCoef="0" IVar="1" Cut="2.0241148769855499e-02" cType="1" res="1.3548314571380615e-01" rms="2.8467652201652527e-01" purity="7.6804649829864502e-01" nType="0">
          <Node pos="l" depth="2" NCoef="0" IVar="-1" Cut="0.0000000000000000e+00" cType="1" res="4.5916233211755753e-02" rms="2.7423647046089172e-01" purity="8.5047638416290283e-01" nType="-99"/>
          <Node pos="r" depth="2" NCoef="0" IVar="-1" Cut="0.0000000000000000e+00" cType="1" res="-5.8197412639856339e-02" rms="1.2593740224838257e-01" purity="1.7702125012874603e-02" nType="-99"/>
        </Node>
      </Node>
    </BinaryTree>
    <BinaryTree type="DecisionTree" boostWeight="1.0000000000000000e+00" itree="12">
      <Node pos="s" depth="0" NCoef="0" IVar="2" Cut="3.1004312038421631e+00" cType="1" res="5.1731956191360950e-03" rms="2.9728680849075317e-01" purity="5.0513947010040283e-01" nType="0">
        <Node pos="l" depth="1" NCoef="0" IVar="16" Cut="1.8390321044921875e+03" cType="1" res="-1.5871456265449524e-01" rms="2.4751053750514984e-01" purity="1.2386423349380493e-01" nType="0">
          <Node pos="l" depth="2" NCoef="0" IVar="-1" Cut="0.0000000000000000e+00" cType="1" res="-5.1901426166296005e-02" rms="2.2356209158897400e-01" purity="9.1475255787372589e-02" nType="-99"/>
          <Node pos="r" depth="2" NCoef="0" IVar="-1" Cut="0.0000000000000000e+00" cType="1" res="7.9882573336362839e-03" rms="3.7732669711112976e-01" purity="4.7002488374710083e-01" nType="-99"/>
        </Node>
        <Node pos="r" depth="1" NCoef="0" IVar="0" Cut="2.0139198303222656e+00" cType="1" res="9.4214029610157013e-02" rms="2.8388690948486328e-01" purity="7.1228778362274170e-01" nType="0">
          <Node pos="l" depth="2" NCoef="0" IVar="-1" Cut="0.0000000000000000e+00" cType="1" res="4.6964306384325027e-02" rms="2.4020139873027802e-01" purity="8.6692994832992554e-01" nType="-99"/>
          <Node pos="r" depth="2" NCoef="0" IVar="-1" Cut="0.0000000000000000e+00" cType="1" res="-4.8394486308097839e-02" rms="2.6371830701828003e-01" purity="1.4656351506710052e-01" nType="-99"/>
        </Node>
      </Node>
    </BinaryTree>
    <BinaryTree type="DecisionTree" boostWeight="1.0000000000000000e+00" itree="13">
      <Node pos="s" depth="0" NCoef="0" IVar="5" Cut="7.2377115488052368e-01" cType="1" res="-2.2313629742711782e-03" rms="2.8341338038444519e-01" purity="4.9782973527908325e-01" nType="0">
        <Node pos="l" depth="1" NCoef="0" IVar="2" Cut="2.4399657249450684e+00" cType="1" res="1.0283271968364716e-01" rms="2.5376567244529724e-01" purity="7.7440583705902100e-01" nType="0">
          <Node pos="l" depth="2" NCoef="0" IVar="-1" Cut="0.0000000000000000e+00" cType="1" res="-5.3682647645473480e-02" rms="2.4292562901973724e-01" purity="8.5541121661663055e-02" nType="-99"/>
          <Node pos="r" depth="2" NCoef="0" IVar="-1" Cut="0.0000000000000000e+00" cType="1" res="5.2319314330816269e-02" rms="2.0224791765213013e-01" purity="9.4066542387008667e-01" nType="-99"/>
        </Node>
        <Node pos="r" depth="1" NCoef="0" IVar="12" Cut="6.3565515136718750e+02" cType="1" res="-1.3073311746120453e-01" rms="2.6417508721351624e-01" purity="1.5955515205860138e-01" nType="0">
          <Node pos="l" depth="2" NCoef="0" IVar="-1" Cut="0.0000000000000000e+00" cType="1" res="-5.0721235573291779e-02" rms="2.1170181035995483e-01" purity="8.6664900183677673e-02" nType="-99"/>
          <Node pos="r" depth="2" NCoef="0" IVar="-1" Cut="0.0000000000000000e+00" cType="1" res="3.5700038075447083e-02" rms="3.8563144207000732e-01" purity="6.5993833541870117e-01" nType="-99"/>
        </Node>
      </Node>
    </BinaryTree>
    <BinaryTree type="DecisionTree" boostWeight="1.0000000000000000e+00" itree="14">
      <Node pos="s" depth="0" NCoef="0" IVar="12" Cut="3.6552731323242188e+02" cType="1" res="1.8528670771047473e-03" rms="2.7919420599937439e-01" purity="5.0080293416976929e-01" nType="0">
        <Node pos="l" depth="1" NCoef="0" IVar="5" Cut="2.6076632738113403e-01" cType="1" res="-1.0440527647733688e-01" rms="2.5036281347274780e-01" purity="2.4374490976333618e-01" nType="0">
          <Node pos="l" depth="2" NCoef="0" IVar="-1" Cut="0.0000000000000000e+00" cType="1" res="1.3653515838086605e-02" rms="2.8906115889549255e-01" purity="6.5508157014846802e-01" nType="-99"/>
          <Node pos="r" depth="2" NCoef="0" IVar="-1" Cut="0.0000000000000000e+00" cType="1" res="-4.7778490930795670e-02" rms="2.1779651939868927e-01" purity="1.1833084374666214e-01" nType="-99"/>
        </Node>
        <Node pos="r" depth="1" NCoef="0" IVar="1" Cut="1.3438034802675247e-02" cType="1" res="1.0434018075466156e-01" rms="2.6698628067970276e-01" purity="7.4873870611190796e-01" nType="0">
          <Node pos="l" depth="2" NCoef="0" IVar="-1" Cut="0.0000000000000000e+00" cType="1" res="4.0220867842435837e-02" rms="2.5490328669548035e-01" purity="8.4820336103439331e-01" nType="-99"/>
          <Node pos="r" depth="2" NCoef="0" IVar="-1" Cut="0.0000000000000000e+00" cType="1" res="-3.9240632206201553e-02" rms="2.3813822865486145e-01" purity="7.3741376399993896e-02" nType="-99"/>
        </Node>
      </Node>
    </BinaryTree>
    <BinaryTree type="DecisionTree" boostWeight="1.0000000000000000e+00" itree="15">
      <Node pos="s" depth="0" NCoef="0" IVar="5" Cut="7.9304230213165283e-01" cType="1" res="6.1036641709506512e-03" rms="2.7326998114585876e-01" purity="5.0609987974166870e-01" nType="0">
        <Node pos="l" depth="1" NCoef="0" IVar="2" Cut="1.8999271392822266e+00" cType="1" res="8.9529506862163544e-02" rms="2.4861326813697815e-01" purity="7.6525884866714478e-01" nType="0">
          <Node pos="l" depth="2" NCoef="0" IVar="-1" Cut="0.0000000000000000e+00" cType="1" res="-6.0187645256519318e-02" rms="1.8882429599761963e-01" purity="3.9686702191829681e-02" nType="-99"/>
          <Node pos="r" depth="2" NCoef="0" IVar="-1" Cut="0.0000000000000000e+00" cType="1" res="4.5366328209638596e-02" rms="2.2368563711643219e-01" purity="8.9514350891113281e-01" nType="-99"/>
        </Node>
        <Node pos="r" depth="1" NCoef="0" IVar="12" Cut="5.5630578613281250e+02" cType="1" res="-1.0584255307912827e-01" rms="2.6471179723739624e-01" purity="1.5834343433380127e-01" nType="0">
          <Node pos="l" depth="2" NCoef="0" IVar="-1" Cut="0.0000000000000000e+00" cType="1" res="-4.7549821436405182e-02" rms="2.0868101716041565e-01" purity="7.2658717632293701e-02" nType="-99"/>
          <Node pos="r" depth="2" NCoef="0" IVar="-1" Cut="0.0000000000000000e+00" cType="1" res="2.3824058473110199e-02" rms="3.9062777161598206e-01" purity="5.9075617790222168e-01" nType="-99"/>
        </Node>
      </Node>
    </BinaryTree>
    <BinaryTree type="DecisionTree" boostWeight="1.0000000000000000e+00" itree="16">
      <Node pos="s" depth="0" NCoef="0" IVar="9" Cut="1.3219333648681641e+01" cType="1" res="3.1321228016167879e-03" rms="2.6181986927986145e-01" purity="5.0771045684814453e-01" nType="0">
        <Node pos="l" depth="1" NCoef="0" IVar="15" Cut="7.6571435546875000e+02" cType="1" res="-1.1311824619770050e-01" rms="2.2811119258403778e-01" purity="1.9100022315979004e-01" nType="0">
          <Node pos="l" depth="2" NCoef="0" IVar="-1" Cut="0.0000000000000000e+00" cType="1" res="-4.9643639475107193e-02" rms="1.8825875222682953e-01" purity="1.1146236211061478e-01" nType="-99"/>
          <Node pos="r" depth="2" NCoef="0" IVar="-1" Cut="0.0000000000000000e+00" cType="1" res="-6.3606933690607548e-03" rms="3.0547058582305908e-01" purity="4.4218245148658752e-01" nType="-99"/>
        </Node>
        <Node pos="r" depth="1" NCoef="0" IVar="1" Cut="1.3515380211174488e-02" cType="1" res="7.9662062227725983e-02" rms="2.5429958105087280e-01" purity="7.1620720624923706e-01" nType="0">
          <Node pos="l" depth="2" NCoef="0" IVar="-1" Cut="0.0000000000000000e+00" cType="1" res="3.7278052419424057e-02" rms="2.5021266937255859e-01" purity="8.4891963005065918e-01" nType="-99"/>
          <Node pos="r" depth="2" NCoef="0" IVar="-1" Cut="0.0000000000000000e+00" cType="1" res="-4.4341936707496643e-02" rms="1.7411628365516663e-01" purity="4.2006321251392365e-02" nType="-99"/>
        </Node>
      </Node>
    </BinaryTree>
    <BinaryTree type="DecisionTree" boostWeight="1.0000000000000000e+00" itree="17">
      <Node pos="s" depth="0" NCoef="0" IVar="2" Cut="3.4202086925506592e+00" cType="1" res="4.1222842410206795e-03" rms="2.5542265176773071e-01" purity="5.0837486982345581e-01" nType="0">
        <Node pos="l" depth="1" NCoef="0" IVar="6" Cut="3.9372024536132812e+01" cType="1" res="-1.0109386593103409e-01" rms="2.2525781393051147e-01" purity="1.5928475558757782e-01" nType="0">
          <Node pos="l" depth="2" NCoef="0" IVar="-1" Cut="0.0000000000000000e+00" cType="1" res="-4.4771876186132431e-02" rms="1.9789358973503113e-01" purity="1.1097621172666550e-01" nType="-99"/>
          <Node pos="r" depth="2" NCoef="0" IVar="-1" Cut="0.0000000000000000e+00" cType="1" res="1.0819280520081520e-02" rms="3.1483203172683716e-01" purity="4.5006462931632996e-01" nType="-99"/>
        </Node>
        <Node pos="r" depth="1" NCoef="0" IVar="0" Cut="2.0007302761077881e+00" cType="1" res="7.8342564404010773e-02" rms="2.4930119514465332e-01" purity="7.5462579727172852e-01" nType="0">
          <Node pos="l" depth="2" NCoef="0" IVar="-1" Cut="0.0000000000000000e+00" cType="1" res="4.2819730937480927e-02" rms="2.1202915906906128e-01" purity="8.8890886306762695e-01" nType="-99"/>
          <Node pos="r" depth="2" NCoef="0" IVar="-1" Cut="0.0000000000000000e+00" cType="1" res="-3.9921615272760391e-02" rms="2.8881007432937622e-01" purity="1.6440089046955109e-01" nType="-99"/>
        </Node>
      </Node>
    </BinaryTree>
    <BinaryTree type="DecisionTree" boostWeight="1.0000000000000000e+00" itree="18">
      <Node pos="s" depth="0" NCoef="0" IVar="9" Cut="1.3219333648681641e+01" cType="1" res="-2.4748814757913351e-03" rms="2.5910043716430664e-01" purity="4.9415573477745056e-01" nType="0">
        <Node pos="l" depth="1" NCoef="0" IVar="10" Cut="-3.0161245346069336e+01" cType="1" res="-1.0644859075546265e-01" rms="2.1900674700737000e-01" purity="1.7196352779865265e-01" nType="0">
          <Node pos="l" depth="2" NCoef="0" IVar="-1" Cut="0.0000000000000000e+00" cType="1" res="1.3100171461701393e-02" rms="2.8708696365356445e-01" purity="5.6849437952041626e-01" nType="-99"/>
          <Node pos="r" depth="2" NCoef="0" IVar="-1" Cut="0.0000000000000000e+00" cType="1" res="-4.4911824166774750e-02" rms="2.0371934771537781e-01" purity="1.2853007018566132e-01" nType="-99"/>
        </Node>
        <Node pos="r" depth="1" NCoef="0" IVar="5" Cut="1.3710070848464966e+00" cType="1" res="6.7109808325767517e-02" rms="2.6054748892784119e-01" purity="7.0978373289108276e-01" nType="0">
          <Node pos="l" depth="2" NCoef="0" IVar="-1" Cut="0.0000000000000000e+00" cType="1" res="3.6006145179271698e-02" rms="2.3974925279617310e-01" purity="8.1271237134933472e-01" nType="-99"/>
          <Node pos="r" depth="2" NCoef="0" IVar="-1" Cut="0.0000000000000000e+00" cType="1" res="-3.3933039754629135e-02" rms="2.9059600830078125e-01" purity="1.4903572201728821e-01" nType="-99"/>
        </Node>
      </Node>
    </BinaryTree>
    <BinaryTree type="DecisionTree" boostWeight="1.0000000000000000e+00" itree="19">
      <Node pos="s" depth="0" NCoef="0" IVar="2" Cut="2.9376723766326904e+00" cType="1" res="-1.1934082722291350e-03" rms="2.4880284070968628e-01" purity="4.9671953916549683e-01" nType="0">
        <Node pos="l" depth="1" NCoef="0" IVar="11" Cut="-2.8800384521484375e+01" cType="1" res="-1.0760109126567841e-01" rms="2.0061521232128143e-01" purity="1.0738210380077362e-01" nType="0">
          <Node pos="l" depth="2" NCoef="0" IVar="-1" Cut="0.0000000000000000e+00" cType="1" res="1.1385412886738777e-02" rms="3.2073000073432922e-01" purity="4.5108750462532043e-01" nType="-99"/>
          <Node pos="r" depth="2" NCoef="0" IVar="-1" Cut="0.0000000000000000e+00" cType="1" res="-4.6961408108472824e-02" rms="1.8132518231868744e-01" purity="7.7758222818374634e-02" nType="-99"/>
        </Node>
        <Node pos="r" depth="1" NCoef="0" IVar="0" Cut="1.7515801191329956e+00" cType="1" res="5.0462070852518082e-02" rms="2.5347799062728882e-01" purity="6.8572294712066650e-01" nType="0">
          <Node pos="l" depth="2" NCoef="0" IVar="-1" Cut="0.0000000000000000e+00" cType="1" res="3.9429660886526108e-02" rms="2.2431936860084534e-01" purity="8.7599444389343262e-01" nType="-99"/>
          <Node pos="r" depth="2" NCoef="0" IVar="-1" Cut="0.0000000000000000e+00" cType="1" res="-3.5472929477691650e-02" rms="2.5896990299224854e-01" purity="1.9197186827659607e-01" nType="-99"/>
        </Node>
      </Node>
    </BinaryTree>
    <BinaryTree type="DecisionTree" boostWeight="1.0000000000000000e+00" itree="20">
      <Node pos="s" depth="0" NCoef="0" IVar="2" Cut="3.4141075611114502e+00" cType="1" res="-1.8030595965683460e-03" rms="2.3942083120346069e-01" purity="4.9280720949172974e-01" nType="0">
        <Node pos="l" depth="1" NCoef="0" IVar="10" Cut="-3.0161245346069336e+01" cType="1" res="-9.1769024729728699e-02" rms="2.1006043255329132e-01" purity="1.2895448505878448e-01" nType="0">
          <Node pos="l" depth="2" NCoef="0" IVar="-1" Cut="0.0000000000000000e+00" cType="1" res="3.4454692155122757e-02" rms="3.2594314217567444e-01" purity="5.4114878177642822e-01" nType="-99"/>
          <Node pos="r" depth="2" NCoef="0" IVar="-1" Cut="0.0000000000000000e+00" cType="1" res="-4.5923147350549698e-02" rms="1.8287198245525360e-01" purity="8.7462730705738068e-02" nType="-99"/>
        </Node>
        <Node pos="r" depth="1" NCoef="0" IVar="5" Cut="1.3878725767135620e+00" cType="1" res="6.0128960758447647e-02" rms="2.3874607682228088e-01" purity="7.4328118562698364e-01" nType="0">
          <Node pos="l" depth="2" NCoef="0" IVar="-1" Cut="0.0000000000000000e+00" cType="1" res="3.9836142212152481e-02" rms="2.1437941491603851e-01" purity="8.9915192127227783e-01" nType="-99"/>
          <Node pos="r" depth="2" NCoef="0" IVar="-1" Cut="0.0000000000000000e+00" cType="1" res="-3.9289195090532303e-02" rms="2.4373538792133331e-01" purity="1.0726387798786163e-01" nType="-99"/>
        </Node>
      </Node>
    </BinaryTree>
    <BinaryTree type="DecisionTree" boostWeight="1.0000000000000000e+00" itree="21">
      <Node pos="s" depth="0" NCoef="0" IVar="9" Cut="1.7307977676391602e+01" cType="1" res="1.8670448334887624e-03" rms="2.3885147273540497e-01" purity="5.0077885389328003e-01" nType="0">
        <Node pos="l" depth="1" NCoef="0" IVar="6" Cut="4.1411140441894531e+01" cType="1" res="-6.7785382270812988e-02" rms="2.2699226438999176e-01" purity="2.2540050745010376e-01" nType="0">
          <Node pos="l" depth="2" NCoef="0" IVar="-1" Cut="0.0000000000000000e+00" cType="1" res="-3.5662192851305008e-02" rms="2.1293477714061737e-01" purity="1.6998891532421112e-01" nType="-99"/>
          <Node pos="r" depth="2" NCoef="0" IVar="-1" Cut="0.0000000000000000e+00" cType="1" res="2.7672877535223961e-02" rms="2.6494303345680237e-01" purity="6.0953992605209351e-01" nType="-99"/>
        </Node>
        <Node pos="r" depth="1" NCoef="0" IVar="5" Cut="1.6874592304229736e+00" cType="1" res="7.0706456899642944e-02" rms="2.3016597330570221e-01" purity="7.7294278144836426e-01" nType="0">
          <Node pos="l" depth="2" NCoef="0" IVar="-1" Cut="0.0000000000000000e+00" cType="1" res="3.4720849245786667e-02" rms="2.1647602319717407e-01" purity="8.2665890455245972e-01" nType="-99"/>
          <Node pos="r" depth="2" NCoef="0" IVar="-1" Cut="0.0000000000000000e+00" cType="1" res="-3.8194943219423294e-02" rms="2.9058894515037537e-01" purity="1.2493176758289337e-01" nType="-99"/>
        </Node>
      </Node>
    </BinaryTree>
    <BinaryTree type="DecisionTree" boostWeight="1.0000000000000000e+00" itree="22">
      <Node pos="s" depth="0" NCoef="0" IVar="6" Cut="2.5842723846435547e+01" cType="1" res="4.5768748968839645e-03" rms="2.3852439224720001e-01" purity="4.9790230393409729e-01" nType="0">
        <Node pos="l" depth="1" NCoef="0" IVar="5" Cut="3.4234467148780823e-01" cType="1" res="-6.1512704938650131e-02" rms="2.3163259029388428e-01" purity="2.9369026422500610e-01" nType="0">
          <Node pos="l" depth="2" NCoef="0" IVar="-1" Cut="0.0000000000000000e+00" cType="1" res="1.2596047483384609e-02" rms="2.3781129717826843e-01" purity="7.2480726242065430e-01" nType="-99"/>
          <Node pos="r" depth="2" NCoef="0" IVar="-1" Cut="0.0000000000000000e+00" cType="1" res="-3.7875503301620483e-02" rms="2.2064414620399475e-01" purity="1.4441956579685211e-01" nType="-99"/>
        </Node>
        <Node pos="r" depth="1" NCoef="0" IVar="2" Cut="1.8071763515472412e+00" cType="1" res="6.7462213337421417e-02" rms="2.2774191200733185e-01" purity="6.9221347570419312e-01" nType="0">
          <Node pos="l" depth="2" NCoef="0" IVar="-1" Cut="0.0000000000000000e+00" cType="1" res="-5.2903335541486740e-02" rms="1.4543060958385468e-01" purity="3.5880725830793381e-02" nType="-99"/>
          <Node pos="r" depth="2" NCoef="0" IVar="-1" Cut="0.0000000000000000e+00" cType="1" res="3.5118512809276581e-02" rms="2.2481337189674377e-01" purity="7.7235603332519531e-01" nType="-99"/>
        </Node>
      </Node>
    </BinaryTree>
    <BinaryTree type="DecisionTree" boostWeight="1.0000000000000000e+00" itree="23">
      <Node pos="s" depth="0" NCoef="0" IVar="12" Cut="4.1784579467773438e+02" cType="1" res="3.5047319252043962e-03" rms="2.3075279593467712e-01" purity="5.0743585824966431e-01" nType="0">
        <Node pos="l" depth="1" NCoef="0" IVar="5" Cut="7.2377115488052368e-01" cType="1" res="-4.9754645675420761e-02" rms="2.1752156317234039e-01" purity="3.0337733030319214e-01" nType="0">
          <Node pos="l" depth="2" NCoef="0" IVar="-1" Cut="0.0000000000000000e+00" cType="1" res="4.1767205111682415e-03" rms="2.4682137370109558e-01" purity="5.9749460220336914e-01" nType="-99"/>
          <Node pos="r" depth="2" NCoef="0" IVar="-1" Cut="0.0000000000000000e+00" cType="1" res="-4.3730754405260086e-02" rms="1.7625500261783600e-01" purity="6.6307686269283295e-02" nType="-99"/>
        </Node>
        <Node pos="r" depth="1" NCoef="0" IVar="6" Cut="1.9810478210449219e+01" cType="1" res="7.6768957078456879e-02" rms="2.2833366692066193e-01" purity="7.8814125061035156e-01" nType="0">
          <Node pos="l" depth="2" NCoef="0" IVar="-1" Cut="0.0000000000000000e+00" cType="1" res="-4.9581807106733322e-03" rms="2.7853769063949585e-01" purity="5.4028284549713135e-01" nType="-99"/>
          <Node pos="r" depth="2" NCoef="0" IVar="-1" Cut="0.0000000000000000e+00" cType="1" res="4.2254202067852020e-02" rms="2.0299381017684937e-01" purity="8.6321121454238892e-01" nType="-99"/>
        </Node>
      </Node>
    </BinaryTree>
    <BinaryTree type="DecisionTree" boostWeight="1.0000000000000000e+00" itree="24">
      <Node pos="s" depth="0" NCoef="0" IVar="12" Cut="3.2432717895507812e+02" cType="1" res="2.1493297535926104e-03" rms="2.3129466176033020e-01" purity="4.9928528070449829e-01" nType="0">
        <Node pos="l" depth="1" NCoef="0" IVar="5" Cut="1.7122969031333923e-01" cType="1" res="-7.2014302015304565e-02" rms="2.0891556143760681e-01" purity="2.0216141641139984e-01" nType="0">
          <Node pos="l" depth="2" NCoef="0" IVar="-1" Cut="0.0000000000000000e+00" cType="1" res="8.6376471444964409e-03" rms="2.3885403573513031e-01" purity="6.4882540702819824e-01" nType="-99"/>
          <Node pos="r" depth="2" NCoef="0" IVar="-1" Cut="0.0000000000000000e+00" cType="1" res="-4.2354222387075424e-02" rms="1.9588413834571838e-01" purity="1.0427390784025192e-01" nType="-99"/>
        </Node>
        <Node pos="r" depth="1" NCoef="0" IVar="5" Cut="1.2774955034255981e+00" cType="1" res="5.2295111119747162e-02" rms="2.3221699893474579e-01" purity="7.0018577575683594e-01" nType="0">
          <Node pos="l" depth="2" NCoef="0" IVar="-1" Cut="0.0000000000000000e+00" cType="1" res="3.3578783273696899e-02" rms="2.1270786225795746e-01" purity="8.2593053579330444e-01" nType="-99"/>
          <Node pos="r" depth="2" NCoef="0" IVar="-1" Cut="0.0000000000000000e+00" cType="1" res="-2.1816194057464600e-02" rms="2.7393317222595215e-01" purity="1.5751557052135468e-01" nType="-99"/>
        </Node>
      </Node>
    </BinaryTree>
    <BinaryTree type="DecisionTree" boostWeight="1.0000000000000000e+00" itree="25">
      <Node pos="s" depth="0" NCoef="0" IVar="5" Cut="8.5708254575729370e-01" cType="1" res="-8.5973757086321712e-04" rms="2.2616602480411530e-01" purity="4.9987524747848511e-01" nType="0">
        <Node pos="l" depth="1" NCoef="0" IVar="2" Cut="2.2766189575195312e+00" cType="1" res="4.8031039535999298e-02" rms="2.1663235127925873e-01" purity="7.5818747282028198e-01" nType="0">
          <Node pos="l" depth="2" NCoef="0" IVar="-1" Cut="0.0000000000000000e+00" cType="1" res="-4.5751173049211502e-02" rms="2.1655590832233429e-01" purity="6.5038993954658508e-02" nType="-99"/>
          <Node pos="r" depth="2" NCoef="0" IVar="-1" Cut="0.0000000000000000e+00" cType="1" res="3.8193237036466599e-02" rms="1.9975142180919647e-01" purity="9.1483587026596069e-01" nType="-99"/>
        </Node>
        <Node pos="r" depth="1" NCoef="0" IVar="9" Cut="2.7546712875366211e+01" cType="1" res="-7.3491781949996948e-02" rms="2.2044517099857330e-01" purity="1.1612711846828461e-01" nType="0">
          <Node pos="l" depth="2" NCoef="0" IVar="-1" Cut="0.0000000000000000e+00" cType="1" res="-4.3105561286211014e-02" rms="1.8510168790817261e-01" purity="5.7408437132835388e-02" nType="-99"/>
          <Node pos="r" depth="2" NCoef="0" IVar="-1" Cut="0.0000000000000000e+00" cType="1" res="1.7130695283412933e-02" rms="3.4917619824409485e-01" purity="5.0460827350616455e-01" nType="-99"/>
        </Node>
      </Node>
    </BinaryTree>
    <BinaryTree type="DecisionTree" boostWeight="1.0000000000000000e+00" itree="26">
      <Node pos="s" depth="0" NCoef="0" IVar="9" Cut="1.7307977676391602e+01" cType="1" res="1.6287890030071139e-03" rms="2.2507286071777344e-01" purity="4.9674963951110840e-01" nType="0">
        <Node pos="l" depth="1" NCoef="0" IVar="12" Cut="7.4203967285156250e+02" cType="1" res="-5.3789928555488586e-02" rms="2.1111345291137695e-01" purity="2.2127144038677216e-01" nType="0">
          <Node pos="l" depth="2" NCoef="0" IVar="-1" Cut="0.0000000000000000e+00" cType="1" res="-3.1336098909378052e-02" rms="1.9624781608581543e-01" purity="1.7341792583465576e-01" nType="-99"/>
          <Node pos="r" depth="2" NCoef="0" IVar="-1" Cut="0.0000000000000000e+00" cType="1" res="2.6337115094065666e-02" rms="3.0626422166824341e-01" purity="7.5997853279113770e-01" nType="-99"/>
        </Node>
        <Node pos="r" depth="1" NCoef="0" IVar="2" Cut="2.0040967464447021e+00" cType="1" res="5.7212561368942261e-02" rms="2.2493307292461395e-01" purity="7.7304834127426147e-01" nType="0">
          <Node pos="l" depth="2" NCoef="0" IVar="-1" Cut="0.0000000000000000e+00" cType="1" res="-5.0688039511442184e-02" rms="2.0702219009399414e-01" purity="4.5722104609012604e-02" nType="-99"/>
          <Node pos="r" depth="2" NCoef="0" IVar="-1" Cut="0.0000000000000000e+00" cType="1" res="3.2053221017122269e-02" rms="2.2028972208499908e-01" purity="8.3190798759460449e-01" nType="-99"/>
        </Node>
      </Node>
    </BinaryTree>
    <BinaryTree type="DecisionTree" boostWeight="1.0000000000000000e+00" itree="27">
      <Node pos="s" depth="0" NCoef="0" IVar="12" Cut="4.1786135864257812e+02" cType="1" res="4.0916306897997856e-03" rms="2.1833875775337219e-01" purity="5.0849306583404541e-01" nType="0">
        <Node pos="l" depth="1" NCoef="0" IVar="8" Cut="-4.2530239105224609e+01" cType="1" res="-4.2362429201602936e-02" rms="2.0736828446388245e-01" purity="2.8855231404304504e-01" nType="0">
          <Node pos="l" depth="2" NCoef="0" IVar="-1" Cut="0.0000000000000000e+00" cType="1" res="3.3255472779273987e-02" rms="2.2677007317543030e-01" purity="6.9292420148849487e-01" nType="-99"/>
          <Node pos="r" depth="2" NCoef="0" IVar="-1" Cut="0.0000000000000000e+00" cType="1" res="-2.9450479894876480e-02" rms="1.9883967936038971e-01" purity="2.3176072537899017e-01" nType="-99"/>
        </Node>
        <Node pos="r" depth="1" NCoef="0" IVar="1" Cut="1.3428084552288055e-02" cType="1" res="6.5956301987171173e-02" rms="2.1723306179046631e-01" purity="8.0139660835266113e-01" nType="0">
          <Node pos="l" depth="2" NCoef="0" IVar="-1" Cut="0.0000000000000000e+00" cType="1" res="3.6264132708311081e-02" rms="2.1224711835384369e-01" purity="8.8736552000045776e-01" nType="-99"/>
          <Node pos="r" depth="2" NCoef="0" IVar="-1" Cut="0.0000000000000000e+00" cType="1" res="-2.9062148183584213e-02" rms="2.1543739736080170e-01" purity="7.4529923498630524e-02" nType="-99"/>
        </Node>
      </Node>
    </BinaryTree>
    <BinaryTree type="DecisionTree" boostWeight="1.0000000000000000e+00" itree="28">
      <Node pos="s" depth="0" NCoef="0" IVar="16" Cut="1.2959317626953125e+03" cType="1" res="5.4816371994093060e-04" rms="2.2269141674041748e-01" purity="5.0276231765747070e-01" nType="0">
        <Node pos="l" depth="1" NCoef="0" IVar="10" Cut="-3.2387981414794922e+01" cType="1" res="-4.0720354765653610e-02" rms="2.1441373229026794e-01" purity="3.0324459075927734e-01" nType="0">
          <Node pos="l" depth="2" NCoef="0" IVar="-1" Cut="0.0000000000000000e+00" cType="1" res="4.2040027678012848e-02" rms="2.2356148064136505e-01" purity="8.0521911382675171e-01" nType="-99"/>
          <Node pos="r" depth="2" NCoef="0" IVar="-1" Cut="0.0000000000000000e+00" cType="1" res="-3.1154986470937729e-02" rms="2.0523062348365784e-01" purity="2.2207643091678619e-01" nType="-99"/>
        </Node>
        <Node pos="r" depth="1" NCoef="0" IVar="5" Cut="1.6393615007400513e+00" cType="1" res="6.0124509036540985e-02" rms="2.2092272341251373e-01" purity="7.9079151153564453e-01" nType="0">
          <Node pos="l" depth="2" NCoef="0" IVar="-1" Cut="0.0000000000000000e+00" cType="1" res="3.3744744956493378e-02" rms="2.0736891031265259e-01" purity="8.5674661397933960e-01" nType="-99"/>
          <Node pos="r" depth="2" NCoef="0" IVar="-1" Cut="0.0000000000000000e+00" cType="1" res="-2.0226791501045227e-02" rms="2.9710987210273743e-01" purity="1.6225837171077728e-01" nType="-99"/>
        </Node>
      </Node>
    </BinaryTree>
    <BinaryTree type="DecisionTree" boostWeight="1.0000000000000000e+00" itree="29">
      <Node pos="s" depth="0" NCoef="0" IVar="19" Cut="1.6232819557189941e+00" cType="1" res="-3.6307622212916613e-04" rms="2.1868877112865448e-01" purity="4.9514991044998169e-01" nType="0">
        <Node pos="l" depth="1" NCoef="0" IVar="11" Cut="-3.0941987991333008e+01" cType="1" res="-5.8186464011669159e-02" rms="2.0127563178539276e-01" purity="2.2331809997558594e-01" nType="0">
          <Node pos="l" depth="2" NCoef="0" IVar="-1" Cut="0.0000000000000000e+00" cType="1" res="2.4244043976068497e-02" rms="2.3964138329029083e-01" purity="6.7162042856216431e-01" nType="-99"/>
          <Node pos="r" depth="2" NCoef="0" IVar="-1" Cut="0.0000000000000000e+00" cType="1" res="-3.6404523998498917e-02" rms="1.9145490229129791e-01" purity="1.6945585608482361e-01" nType="-99"/>
        </Node>
        <Node pos="r" depth="1" NCoef="0" IVar="5" Cut="1.3942518234252930e+00" cType="1" res="3.6245763301849365e-02" rms="2.2135406732559204e-01" purity="6.6725063323974609e-01" nType="0">
          <Node pos="l" depth="2" NCoef="0" IVar="-1" Cut="0.0000000000000000e+00" cType="1" res="3.0089423060417175e-02" rms="2.1253590285778046e-01" purity="8.1077504158020020e-01" nType="-99"/>
          <Node pos="r" depth="2" NCoef="0" IVar="-1" Cut="0.0000000000000000e+00" cType="1" res="-2.9548374935984612e-02" rms="2.2645702958106995e-01" purity="9.1435126960277557e-02" nType="-99"/>
        </Node>
      </Node>
    </BinaryTree>
    <BinaryTree type="DecisionTree" boostWeight="1.0000000000000000e+00" itree="30">
      <Node pos="s" depth="0" NCoef="0" IVar="0" Cut="1.4382374286651611e+00" cType="1" res="-6.6570257768034935e-03" rms="2.0820432901382446e-01" purity="4.8475533723831177e-01" nType="0">
        <Node pos="l" depth="1" NCoef="0" IVar="2" Cut="2.6909902095794678e+00" cType="1" res="2.5225844234228134e-02" rms="2.0028932392597198e-01" purity="6.4711743593215942e-01" nType="0">
          <Node pos="l" depth="2" NCoef="0" IVar="-1" Cut="0.0000000000000000e+00" cType="1" res="-3.1343899667263031e-02" rms="2.0218726992607117e-01" purity="1.0114839673042297e-01" nType="-99"/>
          <Node pos="r" depth="2" NCoef="0" IVar="-1" Cut="0.0000000000000000e+00" cType="1" res="3.3030617982149124e-02" rms="1.8695533275604248e-01" purity="8.8656049966812134e-01" nType="-99"/>
        </Node>
        <Node pos="r" depth="1" NCoef="0" IVar="10" Cut="-2.6244010925292969e+01" cType="1" res="-6.5844066441059113e-02" rms="2.0966881513595581e-01" purity="1.8334794044494629e-01" nType="0">
          <Node pos="l" depth="2" NCoef="0" IVar="-1" Cut="0.0000000000000000e+00" cType="1" res="7.8363902866840363e-03" rms="2.7704864740371704e-01" purity="5.2324831485748291e-01" nType="-99"/>
          <Node pos="r" depth="2" NCoef="0" IVar="-1" Cut="0.0000000000000000e+00" cType="1" res="-4.3108701705932617e-02" rms="1.9153726100921631e-01" purity="1.2381649762392044e-01" nType="-99"/>
        </Node>
      </Node>
    </BinaryTree>
    <BinaryTree type="DecisionTree" boostWeight="1.0000000000000000e+00" itree="31">
      <Node pos="s" depth="0" NCoef="0" IVar="6" Cut="2.5842723846435547e+01" cType="1" res="-2.5569172576069832e-03" rms="2.0870822668075562e-01" purity="4.9971511960029602e-01" nType="0">
        <Node pos="l" depth="1" NCoef="0" IVar="7" Cut="2.6167854309082031e+01" cType="1" res="-4.7875512391328812e-02" rms="2.0463117957115173e-01" purity="2.9428815841674805e-01" nType="0">
          <Node pos="l" depth="2" NCoef="0" IVar="-1" Cut="0.0000000000000000e+00" cType="1" res="-3.7670809775590897e-02" rms="1.9556418061256409e-01" purity="2.1462236344814301e-01" nType="-99"/>
          <Node pos="r" depth="2" NCoef="0" IVar="-1" Cut="0.0000000000000000e+00" cType="1" res="3.1019428279250860e-03" rms="2.1580943465232849e-01" purity="4.8816838860511780e-01" nType="-99"/>
        </Node>
        <Node pos="r" depth="1" NCoef="0" IVar="12" Cut="3.1325585937500000e+02" cType="1" res="4.0266592055559158e-02" rms="2.0341335237026215e-01" purity="6.9383203983306885e-01" nType="0">
          <Node pos="l" depth="2" NCoef="0" IVar="-1" Cut="0.0000000000000000e+00" cType="1" res="-1.4570043422281742e-02" rms="2.0941194891929626e-01" purity="3.6104100942611694e-01" nType="-99"/>
          <Node pos="r" depth="2" NCoef="0" IVar="-1" Cut="0.0000000000000000e+00" cType="1" res="3.4968074411153793e-02" rms="1.9416077435016632e-01" purity="8.2736277580261230e-01" nType="-99"/>
        </Node>
      </Node>
    </BinaryTree>
    <BinaryTree type="DecisionTree" boostWeight="1.0000000000000000e+00" itree="32">
      <Node pos="s" depth="0" NCoef="0" IVar="4" Cut="5.8736956119537354e-01" cType="1" res="-7.6793316111434251e-05" rms="2.1288561820983887e-01" purity="5.0169813632965088e-01" nType="0">
        <Node pos="l" depth="1" NCoef="0" IVar="2" Cut="1.8309674263000488e+00" cType="1" res="4.4795632362365723e-02" rms="1.9888722896575928e-01" purity="7.7908313274383545e-01" nType="0">
          <Node pos="l" depth="2" NCoef="0" IVar="-1" Cut="0.0000000000000000e+00" cType="1" res="-5.1275227218866348e-02" rms="1.6416919231414795e-01" purity="2.7914060279726982e-02" nType="-99"/>
          <Node pos="r" depth="2" NCoef="0" IVar="-1" Cut="0.0000000000000000e+00" cType="1" res="3.2900329679250717e-02" rms="1.9610433280467987e-01" purity="8.6476367712020874e-01" nType="-99"/>
        </Node>
        <Node pos="r" depth="1" NCoef="0" IVar="8" Cut="-4.5049415588378906e+01" cType="1" res="-4.4118002057075500e-02" rms="2.1693733334541321e-01" purity="2.2945149242877960e-01" nType="0">
          <Node pos="l" depth="2" NCoef="0" IVar="-1" Cut="0.0000000000000000e+00" cType="1" res="3.4249976277351379e-02" rms="2.5242158770561218e-01" purity="6.5766364336013794e-01" nType="-99"/>
          <Node pos="r" depth="2" NCoef="0" IVar="-1" Cut="0.0000000000000000e+00" cType="1" res="-2.9294088482856750e-02" rms="2.0940639078617096e-01" purity="1.8951725959777832e-01" nType="-99"/>
        </Node>
      </Node>
    </BinaryTree>
    <BinaryTree type="DecisionTree" boostWeight="1.0000000000000000e+00" itree="33">
      <Node pos="s" depth="0" NCoef="0" IVar="9" Cut="1.3219333648681641e+01" cType="1" res="8.6407462367787957e-04" rms="2.1175844967365265e-01" purity="4.9681171774864197e-01" nType="0">
        <Node pos="l" depth="1" NCoef="0" IVar="8" Cut="-4.2515556335449219e+01" cType="1" res="-4.7651592642068863e-02" rms="2.0258088409900665e-01" purity="1.6517052054405212e-01" nType="0">
          <Node pos="l" depth="2" NCoef="0" IVar="-1" Cut="0.0000000000000000e+00" cType="1" res="2.4923969060182571e-02" rms="2.3111744225025177e-01" purity="5.2029925584793091e-01" nType="-99"/>
          <Node pos="r" depth="2" NCoef="0" IVar="-1" Cut="0.0000000000000000e+00" cType="1" res="-3.3195886760950089e-02" rms="1.9740597903728485e-01" purity="1.3441021740436554e-01" nType="-99"/>
        </Node>
        <Node pos="r" depth="1" NCoef="0" IVar="0" Cut="2.1614329814910889e+00" cType="1" res="3.2197266817092896e-02" rms="2.1164970099925995e-01" purity="7.1099776029586792e-01" nType="0">
          <Node pos="l" depth="2" NCoef="0" IVar="-1" Cut="0.0000000000000000e+00" cType="1" res="2.4705927819013596e-02" rms="1.9898107647895813e-01" purity="7.8404164314270020e-01" nType="-99"/>
          <Node pos="r" depth="2" NCoef="0" IVar="-1" Cut="0.0000000000000000e+00" cType="1" res="-3.0929399654269218e-02" rms="2.6642239093780518e-01" purity="1.6364383697509766e-01" nType="-99"/>
        </Node>
      </Node>
    </BinaryTree>
    <BinaryTree type="DecisionTree" boostWeight="1.0000000000000000e+00" itree="34">
      <Node pos="s" depth="0" NCoef="0" IVar="16" Cut="8.5998297119140625e+02" cType="1" res="6.0770525597035885e-03" rms="2.1027407050132751e-01" purity="5.0751751661300659e-01" nType="0">
        <Node pos="l" depth="1" NCoef="0" IVar="6" Cut="3.6263561248779297e+01" cType="1" res="-4.1185297071933746e-02" rms="1.8346390128135681e-01" purity="1.8995849788188934e-01" nType="0">
          <Node pos="l" depth="2" NCoef="0" IVar="-1" Cut="0.0000000000000000e+00" cType="1" res="-3.7152942270040512e-02" rms="1.6796417534351349e-01" purity="1.0883586853742599e-01" nType="-99"/>
          <Node pos="r" depth="2" NCoef="0" IVar="-1" Cut="0.0000000000000000e+00" cType="1" res="1.4088640920817852e-02" rms="2.2554251551628113e-01" purity="5.3605276346206665e-01" nType="-99"/>
        </Node>
        <Node pos="r" depth="1" NCoef="0" IVar="20" Cut="1.4478540420532227e+00" cType="1" res="3.7089444696903229e-02" rms="2.2071339190006256e-01" purity="7.1589189767837524e-01" nType="0">
          <Node pos="l" depth="2" NCoef="0" IVar="-1" Cut="0.0000000000000000e+00" cType="1" res="-1.6725225374102592e-02" rms="2.2929754853248596e-01" purity="3.9311328530311584e-01" nType="-99"/>
          <Node pos="r" depth="2" NCoef="0" IVar="-1" Cut="0.0000000000000000e+00" cType="1" res="3.1558409333229065e-02" rms="2.1259270608425140e-01" purity="8.2079541683197021e-01" nType="-99"/>
        </Node>
      </Node>
    </BinaryTree>
    <BinaryTree type="DecisionTree" boostWeight="1.0000000000000000e+00" itree="35">
      <Node pos="s" depth="0" NCoef="0" IVar="6" Cut="2.4926040649414062e+01" cType="1" res="3.8782376796007156e-03" rms="2.1354584395885468e-01" purity="5.0035595893859863e-01" nType="0">
        <Node pos="l" depth="1" NCoef="0" IVar="8" Cut="-3.0765628814697266e+01" cType="1" res="-3.8128554821014404e-02" rms="2.0796324312686920e-01" purity="2.7795386314392090e-01" nType="0">
          <Node pos="l" depth="2" NCoef="0" IVar="-1" Cut="0.0000000000000000e+00" cType="1" res="1.4993607997894287e-02" rms="2.1966673433780670e-01" purity="5.3854489326477051e-01" nType="-99"/>
          <Node pos="r" depth="2" NCoef="0" IVar="-1" Cut="0.0000000000000000e+00" cType="1" res="-3.0312869697809219e-02" rms="2.0270079374313354e-01" purity="2.2262609004974365e-01" nType="-99"/>
        </Node>
        <Node pos="r" depth="1" NCoef="0" IVar="2" Cut="1.8653326034545898e+00" cType="1" res="3.8287453353404999e-02" rms="2.1189603209495544e-01" purity="6.8253326416015625e-01" nType="0">
          <Node pos="l" depth="2" NCoef="0" IVar="-1" Cut="0.0000000000000000e+00" cType="1" res="-4.1968651115894318e-02" rms="1.5857699513435364e-01" purity="4.2977072298526764e-02" nType="-99"/>
          <Node pos="r" depth="2" NCoef="0" IVar="-1" Cut="0.0000000000000000e+00" cType="1" res="2.8642129153013229e-02" rms="2.1382552385330200e-01" purity="7.6896214485168457e-01" nType="-99"/>
        </Node>
      </Node>
    </BinaryTree>
    <BinaryTree type="DecisionTree" boostWeight="1.0000000000000000e+00" itree="36">
      <Node pos="s" depth="0" NCoef="0" IVar="2" Cut="3.4144766330718994e+00" cType="1" res="-2.2531533613801003e-03" rms="2.0353534817695618e-01" purity="4.9170836806297302e-01" nType="0">
        <Node pos="l" depth="1" NCoef="0" IVar="11" Cut="-2.7979255676269531e+01" cType="1" res="-4.5175589621067047e-02" rms="1.8352201581001282e-01" purity="1.3550885021686554e-01" nType="0">
          <Node pos="l" depth="2" NCoef="0" IVar="-1" Cut="0.0000000000000000e+00" cType="1" res="1.4399599283933640e-02" rms="2.5842127203941345e-01" purity="4.8622161149978638e-01" nType="-99"/>
          <Node pos="r" depth="2" NCoef="0" IVar="-1" Cut="0.0000000000000000e+00" cType="1" res="-3.3662702888250351e-02" rms="1.7190283536911011e-01" purity="9.9386975169181824e-02" nType="-99"/>
        </Node>
        <Node pos="r" depth="1" NCoef="0" IVar="0" Cut="2.2413086891174316e+00" cType="1" res="2.8358498588204384e-02" rms="2.1142420172691345e-01" purity="7.4574464559555054e-01" nType="0">
          <Node pos="l" depth="2" NCoef="0" IVar="-1" Cut="0.0000000000000000e+00" cType="1" res="2.7609489858150482e-02" rms="2.0118913054466248e-01" purity="8.6129152774810791e-01" nType="-99"/>
          <Node pos="r" depth="2" NCoef="0" IVar="-1" Cut="0.0000000000000000e+00" cType="1" res="-3.7330102175474167e-02" rms="2.3253487050533295e-01" purity="1.3204804062843323e-01" nType="-99"/>
        </Node>
      </Node>
    </BinaryTree>
    <BinaryTree type="DecisionTree" boostWeight="1.0000000000000000e+00" itree="37">
      <Node pos="s" depth="0" NCoef="0" IVar="9" Cut="8.2979373931884766e+00" cType="1" res="2.1403844002634287e-03" rms="2.0568580925464630e-01" purity="4.9657952785491943e-01" nType="0">
        <Node pos="l" depth="1" NCoef="0" IVar="19" Cut="2.8402578830718994e+00" cType="1" res="-5.9087321162223816e-02" rms="1.8245001137256622e-01" purity="1.1011483520269394e-01" nType="0">
          <Node pos="l" depth="2" NCoef="0" IVar="-1" Cut="0.0000000000000000e+00" cType="1" res="-5.1256380975246429e-02" rms="1.3689091801643372e-01" purity="5.2269201725721359e-02" nType="-99"/>
          <Node pos="r" depth="2" NCoef="0" IVar="-1" Cut="0.0000000000000000e+00" cType="1" res="-5.7539530098438263e-03" rms="2.8221440315246582e-01" purity="3.0570748448371887e-01" nType="-99"/>
        </Node>
        <Node pos="r" depth="1" NCoef="0" IVar="20" Cut="1.4476031064987183e+00" cType="1" res="2.3649934679269791e-02" rms="2.0903421938419342e-01" purity="6.3234615325927734e-01" nType="0">
          <Node pos="l" depth="2" NCoef="0" IVar="-1" Cut="0.0000000000000000e+00" cType="1" res="-1.8571531400084496e-02" rms="2.1164026856422424e-01" purity="3.1421977281570435e-01" nType="-99"/>
          <Node pos="r" depth="2" NCoef="0" IVar="-1" Cut="0.0000000000000000e+00" cType="1" res="2.6190869510173798e-02" rms="2.0351208746433258e-01" purity="7.6005321741104126e-01" nType="-99"/>
        </Node>
      </Node>
    </BinaryTree>
    <BinaryTree type="DecisionTree" boostWeight="1.0000000000000000e+00" itree="38">
      <Node pos="s" depth="0" NCoef="0" IVar="16" Cut="7.0578887939453125e+02" cType="1" res="7.6865167357027531e-03" rms="2.0280788838863373e-01" purity="5.1555711030960083e-01" nType="0">
        <Node pos="l" depth="1" NCoef="0" IVar="6" Cut="2.5842388153076172e+01" cType="1" res="-4.4036436825990677e-02" rms="1.6942737996578217e-01" purity="1.4657036960124969e-01" nType="0">
          <Node pos="l" depth="2" NCoef="0" IVar="-1" Cut="0.0000000000000000e+00" cType="1" res="-4.9624916166067123e-02" rms="1.2951229512691498e-01" purity="5.0754837691783905e-02" nType="-99"/>
          <Node pos="r" depth="2" NCoef="0" IVar="-1" Cut="0.0000000000000000e+00" cType="1" res="-4.6410192735493183e-03" rms="2.1885830163955688e-01" purity="3.1677186489105225e-01" nType="-99"/>
        </Node>
        <Node pos="r" depth="1" NCoef="0" IVar="0" Cut="1.8040235042572021e+00" cType="1" res="3.1599164009094238e-02" rms="2.1228970587253571e-01" purity="6.8614774942398071e-01" nType="0">
          <Node pos="l" depth="2" NCoef="0" IVar="-1" Cut="0.0000000000000000e+00" cType="1" res="2.8626495972275734e-02" rms="1.9854126870632172e-01" purity="7.9075795412063599e-01" nType="-99"/>
          <Node pos="r" depth="2" NCoef="0" IVar="-1" Cut="0.0000000000000000e+00" cType="1" res="-1.9906843081116676e-02" rms="2.4901837110519409e-01" purity="2.4538634717464447e-01" nType="-99"/>
        </Node>
      </Node>
    </BinaryTree>
    <BinaryTree type="DecisionTree" boostWeight="1.0000000000000000e+00" itree="39">
      <Node pos="s" depth="0" NCoef="0" IVar="13" Cut="5.7641743164062500e+03" cType="1" res="-7.5330398976802826e-04" rms="1.9959317147731781e-01" purity="5.0851488113403320e-01" nType="0">
        <Node pos="l" depth="1" NCoef="0" IVar="5" Cut="2.0429472625255585e-01" cType="1" res="-2.8903059661388397e-02" rms="1.9442437589168549e-01" purity="3.3350616693496704e-01" nType="0">
          <Node pos="l" depth="2" NCoef="0" IVar="-1" Cut="0.0000000000000000e+00" cType="1" res="1.9356498494744301e-02" rms="1.6237927973270416e-01" purity="7.8997421264648438e-01" nType="-99"/>
          <Node pos="r" depth="2" NCoef="0" IVar="-1" Cut="0.0000000000000000e+00" cType="1" res="-3.1485021114349365e-02" rms="2.0051881670951843e-01" purity="1.7063643038272858e-01" nType="-99"/>
        </Node>
        <Node pos="r" depth="1" NCoef="0" IVar="15" Cut="4.9313345336914062e+02" cType="1" res="4.0760617703199387e-02" rms="1.9987218081951141e-01" purity="7.6660943031311035e-01" nType="0">
          <Node pos="l" depth="2" NCoef="0" IVar="-1" Cut="0.0000000000000000e+00" cType="1" res="-5.4744747467339039e-03" rms="2.1294631063938141e-01" purity="5.1569426059722900e-01" nType="-99"/>
          <Node pos="r" depth="2" NCoef="0" IVar="-1" Cut="0.0000000000000000e+00" cType="1" res="3.3458389341831207e-02" rms="1.9240774214267731e-01" purity="8.4984314441680908e-01" nType="-99"/>
        </Node>
      </Node>
    </BinaryTree>
    <BinaryTree type="DecisionTree" boostWeight="1.0000000000000000e+00" itree="40">
      <Node pos="s" depth="0" NCoef="0" IVar="4" Cut="8.7989801168441772e-01" cType="1" res="-1.4146291650831699e-03" rms="1.9174234569072723e-01" purity="5.0330054759979248e-01" nType="0">
        <Node pos="l" depth="1" NCoef="0" IVar="2" Cut="2.1230733394622803e+00" cType="1" res="2.4784259498119354e-02" rms="1.8205419182777405e-01" purity="7.2777521610260010e-01" nType="0">
          <Node pos="l" depth="2" NCoef="0" IVar="-1" Cut="0.0000000000000000e+00" cType="1" res="-3.9437938481569290e-02" rms="1.4961645007133484e-01" purity="5.0424624234437943e-02" nType="-99"/>
          <Node pos="r" depth="2" NCoef="0" IVar="-1" Cut="0.0000000000000000e+00" cType="1" res="2.6496091857552528e-02" rms="1.8316666781902313e-01" purity="8.5644459724426270e-01" nType="-99"/>
        </Node>
        <Node pos="r" depth="1" NCoef="0" IVar="10" Cut="-3.1738082885742188e+01" cType="1" res="-3.9558209478855133e-02" rms="1.9895566999912262e-01" purity="1.7648261785507202e-01" nType="0">
          <Node pos="l" depth="2" NCoef="0" IVar="-1" Cut="0.0000000000000000e+00" cType="1" res="1.9925890490412712e-02" rms="2.5883212685585022e-01" purity="6.3133031129837036e-01" nType="-99"/>
          <Node pos="r" depth="2" NCoef="0" IVar="-1" Cut="0.0000000000000000e+00" cType="1" res="-3.1762775033712387e-02" rms="1.8912546336650848e-01" purity="1.2812890112400055e-01" nType="-99"/>
        </Node>
      </Node>
    </BinaryTree>
    <BinaryTree type="DecisionTree" boostWeight="1.0000000000000000e+00" itree="41">
      <Node pos="s" depth="0" NCoef="0" IVar="10" Cut="-3.0161245346069336e+01" cType="1" res="4.3689333833754063e-03" rms="2.0546145737171173e-01" purity="5.0591301918029785e-01" nType="0">
        <Node pos="l" depth="1" NCoef="0" IVar="1" Cut="6.7209973931312561e-03" cType="1" res="6.1524845659732819e-02" rms="1.8538863956928253e-01" purity="8.7034404277801514e-01" nType="0">
          <Node pos="l" depth="2" NCoef="0" IVar="-1" Cut="0.0000000000000000e+00" cType="1" res="3.7264555692672729e-02" rms="1.4735448360443115e-01" purity="9.4126576185226440e-01" nType="-99"/>
          <Node pos="r" depth="2" NCoef="0" IVar="-1" Cut="0.0000000000000000e+00" cType="1" res="4.2462453246116638e-02" rms="3.0873852968215942e-01" purity="5.1437687873840332e-01" nType="-99"/>
        </Node>
        <Node pos="r" depth="1" NCoef="0" IVar="20" Cut="1.6645239591598511e+00" cType="1" res="-1.1216455139219761e-02" rms="2.0789426565170288e-01" purity="4.0653926134109497e-01" nType="0">
          <Node pos="l" depth="2" NCoef="0" IVar="-1" Cut="0.0000000000000000e+00" cType="1" res="-3.1475573778152466e-02" rms="1.6643220186233521e-01" purity="1.5550075471401215e-01" nType="-99"/>
          <Node pos="r" depth="2" NCoef="0" IVar="-1" Cut="0.0000000000000000e+00" cType="1" res="8.7371515110135078e-03" rms="2.3093853890895844e-01" purity="5.9500545263290405e-01" nType="-99"/>
        </Node>
      </Node>
    </BinaryTree>
    <BinaryTree type="DecisionTree" boostWeight="1.0000000000000000e+00" itree="42">
      <Node pos="s" depth="0" NCoef="0" IVar="0" Cut="1.6327778100967407e+00" cType="1" res="-2.5003331247717142e-03" rms="1.9762644171714783e-01" purity="4.9532675743103027e-01" nType="0">
        <Node pos="l" depth="1" NCoef="0" IVar="2" Cut="1.9638750553131104e+00" cType="1" res="1.7384160310029984e-02" rms="1.9448763132095337e-01" purity="6.3780683279037476e-01" nType="0">
          <Node pos="l" depth="2" NCoef="0" IVar="-1" Cut="0.0000000000000000e+00" cType="1" res="-4.6757739037275314e-02" rms="1.2552413344383240e-01" purity="1.6795625910162926e-02" nType="-99"/>
          <Node pos="r" depth="2" NCoef="0" IVar="-1" Cut="0.0000000000000000e+00" cType="1" res="2.2905435413122177e-02" rms="2.0528090000152588e-01" purity="8.1061160564422607e-01" nType="-99"/>
        </Node>
        <Node pos="r" depth="1" NCoef="0" IVar="2" Cut="5.6832933425903320e+00" cType="1" res="-4.9878854304552078e-02" rms="1.9698205590248108e-01" purity="1.5584123134613037e-01" nType="0">
          <Node pos="l" depth="2" NCoef="0" IVar="-1" Cut="0.0000000000000000e+00" cType="1" res="-2.7345340698957443e-02" rms="1.7816476523876190e-01" purity="1.3856281340122223e-01" nType="-99"/>
          <Node pos="r" depth="2" NCoef="0" IVar="-1" Cut="0.0000000000000000e+00" cType="1" res="-5.0919450819492340e-02" rms="2.9889827966690063e-01" purity="3.0182763934135437e-01" nType="-99"/>
        </Node>
      </Node>
    </BinaryTree>
    <BinaryTree type="DecisionTree" boostWeight="1.0000000000000000e+00" itree="43">
      <Node pos="s" depth="0" NCoef="0" IVar="11" Cut="-2.8800384521484375e+01" cType="1" res="5.0324476324021816e-03" rms="1.9951415061950684e-01" purity="5.0007081031799316e-01" nType="0">
        <Node pos="l" depth="1" NCoef="0" IVar="4" Cut="1.4917565584182739e+00" cType="1" res="6.5884500741958618e-02" rms="2.0014227926731110e-01" purity="8.6556100845336914e-01" nType="0">
          <Node pos="l" depth="2" NCoef="0" IVar="-1" Cut="0.0000000000000000e+00" cType="1" res="4.0033180266618729e-02" rms="1.6543465852737427e-01" purity="9.1508942842483521e-01" nType="-99"/>
          <Node pos="r" depth="2" NCoef="0" IVar="-1" Cut="0.0000000000000000e+00" cType="1" res="5.1959160715341568e-02" rms="3.4990522265434265e-01" purity="5.1048880815505981e-01" nType="-99"/>
        </Node>
        <Node pos="r" depth="1" NCoef="0" IVar="6" Cut="2.5807115554809570e+01" cType="1" res="-1.1481893248856068e-02" rms="1.9611251354217529e-01" purity="4.0088218450546265e-01" nType="0">
          <Node pos="l" depth="2" NCoef="0" IVar="-1" Cut="0.0000000000000000e+00" cType="1" res="-2.7186620980501175e-02" rms="1.8675743043422699e-01" purity="2.1818771958351135e-01" nType="-99"/>
          <Node pos="r" depth="2" NCoef="0" IVar="-1" Cut="0.0000000000000000e+00" cType="1" res="1.0757697746157646e-02" rms="2.0192691683769226e-01" purity="5.9954357147216797e-01" nType="-99"/>
        </Node>
      </Node>
    </BinaryTree>
    <BinaryTree type="DecisionTree" boostWeight="1.0000000000000000e+00" itree="44">
      <Node pos="s" depth="0" NCoef="0" IVar="7" Cut="3.7532520294189453e+01" cType="1" res="2.0766521338373423e-03" rms="1.9892676174640656e-01" purity="4.9958726763725281e-01" nType="0">
        <Node pos="l" depth="1" NCoef="0" IVar="4" Cut="6.1447256803512573e-01" cType="1" res="-1.3640434481203556e-02" rms="2.0225228369235992e-01" purity="4.1602084040641785e-01" nType="0">
          <Node pos="l" depth="2" NCoef="0" IVar="-1" Cut="0.0000000000000000e+00" cType="1" res="1.2482986785471439e-02" rms="2.0631654560565948e-01" purity="7.0585018396377563e-01" nType="-99"/>
          <Node pos="r" depth="2" NCoef="0" IVar="-1" Cut="0.0000000000000000e+00" cType="1" res="-2.6531124487519264e-02" rms="1.9480423629283905e-01" purity="1.7782030999660492e-01" nType="-99"/>
        </Node>
        <Node pos="r" depth="1" NCoef="0" IVar="9" Cut="2.4621208190917969e+01" cType="1" res="5.5801101028919220e-02" rms="1.7686378955841064e-01" purity="7.8523570299148560e-01" nType="0">
          <Node pos="l" depth="2" NCoef="0" IVar="-1" Cut="0.0000000000000000e+00" cType="1" res="1.9470266997814178e-02" rms="1.9136701524257660e-01" purity="5.7611221075057983e-01" nType="-99"/>
          <Node pos="r" depth="2" NCoef="0" IVar="-1" Cut="0.0000000000000000e+00" cType="1" res="5.5875055491924286e-02" rms="1.6207577288150787e-01" purity="9.4688600301742554e-01" nType="-99"/>
        </Node>
      </Node>
    </BinaryTree>
    <BinaryTree type="DecisionTree" boostWeight="1.0000000000000000e+00" itree="45">
      <Node pos="s" depth="0" NCoef="0" IVar="19" Cut="1.8787928819656372e+00" cType="1" res="2.8525169473141432e-03" rms="1.9316627085208893e-01" purity="5.0713288784027100e-01" nType="0">
        <Node pos="l" depth="1" NCoef="0" IVar="4" Cut="-2.6792662218213081e-02" cType="1" res="-2.5902405381202698e-02" rms="1.8386867642402649e-01" purity="2.5630003213882446e-01" nType="0">
          <Node pos="l" depth="2" NCoef="0" IVar="-1" Cut="0.0000000000000000e+00" cType="1" res="1.8610766157507896e-02" rms="2.3509669303894043e-01" purity="6.5935963392257690e-01" nType="-99"/>
          <Node pos="r" depth="2" NCoef="0" IVar="-1" Cut="0.0000000000000000e+00" cType="1" res="-3.0409274622797966e-02" rms="1.6503798961639404e-01" purity="1.5345041453838348e-01" nType="-99"/>
        </Node>
        <Node pos="r" depth="1" NCoef="0" IVar="0" Cut="1.8119537830352783e+00" cType="1" res="2.6449637487530708e-02" rms="1.9736914336681366e-01" purity="7.1297353506088257e-01" nType="0">
          <Node pos="l" depth="2" NCoef="0" IVar="-1" Cut="0.0000000000000000e+00" cType="1" res="2.9060058295726776e-02" rms="1.7738720774650574e-01" purity="8.2970416545867920e-01" nType="-99"/>
          <Node pos="r" depth="2" NCoef="0" IVar="-1" Cut="0.0000000000000000e+00" cType="1" res="-1.5726601704955101e-02" rms="2.5682470202445984e-01" purity="2.3205734789371490e-01" nType="-99"/>
        </Node>
      </Node>
    </BinaryTree>
    <BinaryTree type="DecisionTree" boostWeight="1.0000000000000000e+00" itree="46">
      <Node pos="s" depth="0" NCoef="0" IVar="8" Cut="-2.4853864669799805e+01" cType="1" res="-7.1443314664065838e-03" rms="1.8373723328113556e-01" purity="4.9123346805572510e-01" nType="0">
        <Node pos="l" depth="1" NCoef="0" IVar="0" Cut="2.2352302074432373e+00" cType="1" res="3.0121179297566414e-02" rms="1.8220551311969757e-01" purity="6.9672805070877075e-01" nType="0">
          <Node pos="l" depth="2" NCoef="0" IVar="-1" Cut="0.0000000000000000e+00" cType="1" res="2.8867114335298538e-02" rms="1.8032492697238922e-01" purity="7.5982815027236938e-01" nType="-99"/>
          <Node pos="r" depth="2" NCoef="0" IVar="-1" Cut="0.0000000000000000e+00" cType="1" res="-4.2623113840818405e-02" rms="1.7399282753467560e-01" purity="5.8129917830228806e-02" nType="-99"/>
        </Node>
        <Node pos="r" depth="1" NCoef="0" IVar="4" Cut="5.7719039916992188e-01" cType="1" res="-3.0376318842172623e-02" rms="1.8084064126014709e-01" purity="3.6312448978424072e-01" nType="0">
          <Node pos="l" depth="2" NCoef="0" IVar="-1" Cut="0.0000000000000000e+00" cType="1" res="-1.0928013361990452e-03" rms="1.9272978603839874e-01" purity="6.6421627998352051e-01" nType="-99"/>
          <Node pos="r" depth="2" NCoef="0" IVar="-1" Cut="0.0000000000000000e+00" cType="1" res="-3.6988593637943268e-02" rms="1.6852633655071259e-01" purity="1.4272041618824005e-01" nType="-99"/>
        </Node>
      </Node>
    </BinaryTree>
    <BinaryTree type="DecisionTree" boostWeight="1.0000000000000000e+00" itree="47">
      <Node pos="s" depth="0" NCoef="0" IVar="12" Cut="5.7292803955078125e+02" cType="1" res="-7.3552841786295176e-04" rms="1.9417220354080200e-01" purity="4.9527055025100708e-01" nType="0">
        <Node pos="l" depth="1" NCoef="0" IVar="7" Cut="3.0724056243896484e+01" cType="1" res="-1.8482437357306480e-02" rms="1.8862108886241913e-01" purity="3.5299518704414368e-01" nType="0">
          <Node pos="l" depth="2" NCoef="0" IVar="-1" Cut="0.0000000000000000e+00" cType="1" res="-2.7178302407264709e-02" rms="1.7528060078620911e-01" purity="2.6020851731300354e-01" nType="-99"/>
          <Node pos="r" depth="2" NCoef="0" IVar="-1" Cut="0.0000000000000000e+00" cType="1" res="1.6829870641231537e-02" rms="2.1259592473506927e-01" purity="5.8821302652359009e-01" nType="-99"/>
        </Node>
        <Node pos="r" depth="1" NCoef="0" IVar="9" Cut="8.2979373931884766e+00" cType="1" res="4.5689754188060760e-02" rms="2.0070466399192810e-01" purity="8.6745774745941162e-01" nType="0">
          <Node pos="l" depth="2" NCoef="0" IVar="-1" Cut="0.0000000000000000e+00" cType="1" res="-1.7449056729674339e-02" rms="3.0743670463562012e-01" purity="4.4127026200294495e-01" nType="-99"/>
          <Node pos="r" depth="2" NCoef="0" IVar="-1" Cut="0.0000000000000000e+00" cType="1" res="3.9288025349378586e-02" rms="1.8174085021018982e-01" purity="9.1657620668411255e-01" nType="-99"/>
        </Node>
      </Node>
    </BinaryTree>
    <BinaryTree type="DecisionTree" boostWeight="1.0000000000000000e+00" itree="48">
      <Node pos="s" depth="0" NCoef="0" IVar="20" Cut="1.0601205825805664e+00" cType="1" res="-4.1422023787163198e-04" rms="1.8592366576194763e-01" purity="5.0757753849029541e-01" nType="0">
        <Node pos="l" depth="1" NCoef="0" IVar="5" Cut="2.3230807483196259e-01" cType="1" res="-4.3950475752353668e-02" rms="1.6408881545066833e-01" purity="1.6469785571098328e-01" nType="0">
          <Node pos="l" depth="2" NCoef="0" IVar="-1" Cut="0.0000000000000000e+00" cType="1" res="-4.9162898212671280e-03" rms="1.9370505213737488e-01" purity="5.0556254386901855e-01" nType="-99"/>
          <Node pos="r" depth="2" NCoef="0" IVar="-1" Cut="0.0000000000000000e+00" cType="1" res="-4.6815022826194763e-02" rms="1.5146566927433014e-01" purity="5.4151732474565506e-02" nType="-99"/>
        </Node>
        <Node pos="r" depth="1" NCoef="0" IVar="9" Cut="8.2979373931884766e+00" cType="1" res="1.3879140838980675e-02" rms="1.9039466977119446e-01" purity="6.2014818191528320e-01" nType="0">
          <Node pos="l" depth="2" NCoef="0" IVar="-1" Cut="0.0000000000000000e+00" cType="1" res="-2.7781285345554352e-02" rms="1.9101408123970032e-01" purity="1.4517928659915924e-01" nType="-99"/>
          <Node pos="r" depth="2" NCoef="0" IVar="-1" Cut="0.0000000000000000e+00" cType="1" res="1.8783574923872948e-02" rms="1.8804839253425598e-01" purity="7.4106562137603760e-01" nType="-99"/>
        </Node>
      </Node>
    </BinaryTree>
    <BinaryTree type="DecisionTree" boostWeight="1.0000000000000000e+00" itree="49">
      <Node pos="s" depth="0" NCoef="0" IVar="20" Cut="1.5161453485488892e+00" cType="1" res="2.0152817014604807e-03" rms="1.8780831992626190e-01" purity="4.9953022599220276e-01" nType="0">
        <Node pos="l" depth="1" NCoef="0" IVar="11" Cut="-2.7979255676269531e+01" cType="1" res="-3.0698319897055626e-02" rms="1.6907402873039246e-01" purity="2.0820841193199158e-01" nType="0">
          <Node pos="l" depth="2" NCoef="0" IVar="-1" Cut="0.0000000000000000e+00" cType="1" res="2.8160057961940765e-02" rms="2.3705174028873444e-01" purity="6.2361407279968262e-01" nType="-99"/>
          <Node pos="r" depth="2" NCoef="0" IVar="-1" Cut="0.0000000000000000e+00" cType="1" res="-3.3198345452547073e-02" rms="1.5541613101959229e-01" purity="1.5529599785804749e-01" nType="-99"/>
        </Node>
        <Node pos="r" depth="1" NCoef="0" IVar="0" Cut="2.2797992229461670e+00" cType="1" res="2.0217694342136383e-02" rms="1.9510342180728912e-01" purity="6.6162675619125366e-01" nType="0">
          <Node pos="l" depth="2" NCoef="0" IVar="-1" Cut="0.0000000000000000e+00" cType="1" res="2.1631350740790367e-02" rms="1.9490762054920197e-01" purity="7.4272513389587402e-01" nType="-99"/>
          <Node pos="r" depth="2" NCoef="0" IVar="-1" Cut="0.0000000000000000e+00" cType="1" res="-3.4768052399158478e-02" rms="1.8101967871189117e-01" purity="1.0406857728958130e-01" nType="-99"/>
        </Node>
      </Node>
    </BinaryTree>
    <BinaryTree type="DecisionTree" boostWeight="1.0000000000000000e+00" itree="50">
      <Node pos="s" depth="0" NCoef="0" IVar="6" Cut="1.4866376876831055e+01" cType="1" res="-1.0545735131017864e-04" rms="1.8931618332862854e-01" purity="4.9375760555267334e-01" nType="0">
        <Node pos="l" depth="1" NCoef="0" IVar="16" Cut="1.8189163818359375e+03" cType="1" res="-4.3715514242649078e-02" rms="1.7590609192848206e-01" purity="1.8681302666664124e-01" nType="0">
          <Node pos="l" depth="2" NCoef="0" IVar="-1" Cut="0.0000000000000000e+00" cType="1" res="-4.6360135078430176e-02" rms="1.5668055415153503e-01" purity="1.1588864773511887e-01" nType="-99"/>
          <Node pos="r" depth="2" NCoef="0" IVar="-1" Cut="0.0000000000000000e+00" cType="1" res="4.2218060116283596e-04" rms="2.5735607743263245e-01" purity="6.0396820306777954e-01" nType="-99"/>
        </Node>
        <Node pos="r" depth="1" NCoef="0" IVar="0" Cut="2.2791216373443604e+00" cType="1" res="1.3083398342132568e-02" rms="1.9123987853527069e-01" purity="5.8658593893051147e-01" nType="0">
          <Node pos="l" depth="2" NCoef="0" IVar="-1" Cut="0.0000000000000000e+00" cType="1" res="1.6039868816733360e-02" rms="1.9166994094848633e-01" purity="6.5741449594497681e-01" nType="-99"/>
          <Node pos="r" depth="2" NCoef="0" IVar="-1" Cut="0.0000000000000000e+00" cType="1" res="-3.8548883050680161e-02" rms="1.7431731522083282e-01" purity="8.0324828624725342e-02" nType="-99"/>
        </Node>
      </Node>
    </BinaryTree>
    <BinaryTree type="DecisionTree" boostWeight="1.0000000000000000e+00" itree="51">
      <Node pos="s" depth="0" NCoef="0" IVar="19" Cut="1.5027116537094116e+00" cType="1" res="5.7017416693270206e-03" rms="1.9539836049079895e-01" purity="5.0805085897445679e-01" nType="0">
        <Node pos="l" depth="1" NCoef="0" IVar="10" Cut="-3.0161245346069336e+01" cType="1" res="-2.7754304930567741e-02" rms="1.7757757008075714e-01" purity="2.2348448634147644e-01" nType="0">
          <Node pos="l" depth="2" NCoef="0" IVar="-1" Cut="0.0000000000000000e+00" cType="1" res="3.7436302751302719e-02" rms="2.4153253436088562e-01" purity="6.8850570917129517e-01" nType="-99"/>
          <Node pos="r" depth="2" NCoef="0" IVar="-1" Cut="0.0000000000000000e+00" cType="1" res="-3.0900819227099419e-02" rms="1.6498602926731110e-01" purity="1.6729165613651276e-01" nType="-99"/>
        </Node>
        <Node pos="r" depth="1" NCoef="0" IVar="0" Cut="1.8365556001663208e+00" cType="1" res="2.4052664637565613e-02" rms="2.0217715203762054e-01" purity="6.6413784027099609e-01" nType="0">
          <Node pos="l" depth="2" NCoef="0" IVar="-1" Cut="0.0000000000000000e+00" cType="1" res="2.6193499565124512e-02" rms="1.8804632127285004e-01" purity="7.7748465538024902e-01" nType="-99"/>
          <Node pos="r" depth="2" NCoef="0" IVar="-1" Cut="0.0000000000000000e+00" cType="1" res="-1.2666987255215645e-02" rms="2.4579538404941559e-01" purity="2.1348536014556885e-01" nType="-99"/>
        </Node>
      </Node>
    </BinaryTree>
    <BinaryTree type="DecisionTree" boostWeight="1.0000000000000000e+00" itree="52">
      <Node pos="s" depth="0" NCoef="0" IVar="6" Cut="3.6263263702392578e+01" cType="1" res="-2.8450987301766872e-03" rms="1.8519049882888794e-01" purity="4.9137651920318604e-01" nType="0">
        <Node pos="l" depth="1" NCoef="0" IVar="16" Cut="1.4699642333984375e+03" cType="1" res="-1.6480211168527603e-02" rms="1.8608495593070984e-01" purity="3.6662694811820984e-01" nType="0">
          <Node pos="l" depth="2" NCoef="0" IVar="-1" Cut="0.0000000000000000e+00" cType="1" res="-2.6049749925732613e-02" rms="1.6882705688476562e-01" purity="2.1851027011871338e-01" nType="-99"/>
          <Node pos="r" depth="2" NCoef="0" IVar="-1" Cut="0.0000000000000000e+00" cType="1" res="1.0046987794339657e-02" rms="2.1767199039459229e-01" purity="7.1152716875076294e-01" nType="-99"/>
        </Node>
        <Node pos="r" depth="1" NCoef="0" IVar="1" Cut="2.0281957462430000e-02" cType="1" res="2.9500719159841537e-02" rms="1.7894253134727478e-01" purity="7.8731292486190796e-01" nType="0">
          <Node pos="l" depth="2" NCoef="0" IVar="-1" Cut="0.0000000000000000e+00" cType="1" res="2.8104495257139206e-02" rms="1.7987836897373199e-01" purity="8.6841571331024170e-01" nType="-99"/>
          <Node pos="r" depth="2" NCoef="0" IVar="-1" Cut="0.0000000000000000e+00" cType="1" res="-3.8964837789535522e-02" rms="1.5037462115287781e-01" purity="2.0279219374060631e-02" nType="-99"/>
        </Node>
      </Node>
    </BinaryTree>
    <BinaryTree type="DecisionTree" boostWeight="1.0000000000000000e+00" itree="53">
      <Node pos="s" depth="0" NCoef="0" IVar="13" Cut="6.0733627929687500e+03" cType="1" res="6.8022013874724507e-04" rms="1.8897272646427155e-01" purity="4.9658244848251343e-01" nType="0">
        <Node pos="l" depth="1" NCoef="0" IVar="0" Cut="1.3356525897979736e+00" cType="1" res="-1.5799492597579956e-02" rms="1.8589790165424347e-01" purity="3.5041710734367371e-01" nType="0">
          <Node pos="l" depth="2" NCoef="0" IVar="-1" Cut="0.0000000000000000e+00" cType="1" res="2.3402303922921419e-03" rms="1.8849258124828339e-01" purity="5.2563846111297607e-01" nType="-99"/>
          <Node pos="r" depth="2" NCoef="0" IVar="-1" Cut="0.0000000000000000e+00" cType="1" res="-3.5574514418840408e-02" rms="1.7924074828624725e-01" purity="1.1518764495849609e-01" nType="-99"/>
        </Node>
        <Node pos="r" depth="1" NCoef="0" IVar="8" Cut="-2.0219824314117432e+00" cType="1" res="3.1413909047842026e-02" rms="1.9081220030784607e-01" purity="7.6917219161987305e-01" nType="0">
          <Node pos="l" depth="2" NCoef="0" IVar="-1" Cut="0.0000000000000000e+00" cType="1" res="2.8317211195826530e-02" rms="1.8416258692741394e-01" purity="7.9728287458419800e-01" nType="-99"/>
          <Node pos="r" depth="2" NCoef="0" IVar="-1" Cut="0.0000000000000000e+00" cType="1" res="-3.0809603631496429e-02" rms="2.3713305592536926e-01" purity="4.6656021475791931e-01" nType="-99"/>
        </Node>
      </Node>
    </BinaryTree>
    <BinaryTree type="DecisionTree" boostWeight="1.0000000000000000e+00" itree="54">
      <Node pos="s" depth="0" NCoef="0" IVar="12" Cut="3.6550964355468750e+02" cType="1" res="1.3340656878426671e-03" rms="1.8966972827911377e-01" purity="5.0007605552673340e-01" nType="0">
        <Node pos="l" depth="1" NCoef="0" IVar="8" Cut="-3.0833942413330078e+01" cType="1" res="-2.0728655159473419e-02" rms="1.7182578146457672e-01" purity="2.4364350736141205e-01" nType="0">
          <Node pos="l" depth="2" NCoef="0" IVar="-1" Cut="0.0000000000000000e+00" cType="1" res="1.6259113326668739e-02" rms="2.0453760027885437e-01" purity="5.0811213254928589e-01" nType="-99"/>
          <Node pos="r" depth="2" NCoef="0" IVar="-1" Cut="0.0000000000000000e+00" cType="1" res="-2.9128015041351318e-02" rms="1.5976117551326752e-01" purity="1.7169591784477234e-01" nType="-99"/>
        </Node>
        <Node pos="r" depth="1" NCoef="0" IVar="6" Cut="9.9948225021362305e+00" cType="1" res="2.2587880492210388e-02" rms="2.0314519107341766e-01" purity="7.4710685014724731e-01" nType="0">
          <Node pos="l" depth="2" NCoef="0" IVar="-1" Cut="0.0000000000000000e+00" cType="1" res="-4.1845578700304031e-02" rms="2.3959420621395111e-01" purity="2.6999333500862122e-01" nType="-99"/>
          <Node pos="r" depth="2" NCoef="0" IVar="-1" Cut="0.0000000000000000e+00" cType="1" res="2.1649401634931564e-02" rms="1.9889280200004578e-01" purity="7.7932751178741455e-01" nType="-99"/>
        </Node>
      </Node>
    </BinaryTree>
    <BinaryTree type="DecisionTree" boostWeight="1.0000000000000000e+00" itree="55">
      <Node pos="s" depth="0" NCoef="0" IVar="4" Cut="5.7742118835449219e-01" cType="1" res="-1.6016184817999601e-03" rms="1.9062195718288422e-01" purity="4.8999935388565063e-01" nType="0">
        <Node pos="l" depth="1" NCoef="0" IVar="2" Cut="1.4595714807510376e+00" cType="1" res="1.9906375557184219e-02" rms="1.8149946630001068e-01" purity="7.7000784873962402e-01" nType="0">
          <Node pos="l" depth="2" NCoef="0" IVar="-1" Cut="0.0000000000000000e+00" cType="1" res="-4.9789085984230042e-02" rms="1.0067334771156311e-01" purity="1.4773612841963768e-02" nType="-99"/>
          <Node pos="r" depth="2" NCoef="0" IVar="-1" Cut="0.0000000000000000e+00" cType="1" res="2.1826820448040962e-02" rms="1.8540002405643463e-01" purity="8.3535391092300415e-01" nType="-99"/>
        </Node>
        <Node pos="r" depth="1" NCoef="0" IVar="8" Cut="-4.5049415588378906e+01" cType="1" res="-2.2123679518699646e-02" rms="1.9675682485103607e-01" purity="2.2282662987709045e-01" nType="0">
          <Node pos="l" depth="2" NCoef="0" IVar="-1" Cut="0.0000000000000000e+00" cType="1" res="2.8008809313178062e-02" rms="2.6371172070503235e-01" purity="6.0463857650756836e-01" nType="-99"/>
          <Node pos="r" depth="2" NCoef="0" IVar="-1" Cut="0.0000000000000000e+00" cType="1" res="-2.2515494376420975e-02" rms="1.8828542530536652e-01" purity="1.8886229395866394e-01" nType="-99"/>
        </Node>
      </Node>
    </BinaryTree>
    <BinaryTree type="DecisionTree" boostWeight="1.0000000000000000e+00" itree="56">
      <Node pos="s" depth="0" NCoef="0" IVar="16" Cut="1.8189163818359375e+03" cType="1" res="-1.8342467956244946e-04" rms="1.8147996068000793e-01" purity="5.0672191381454468e-01" nType="0">
        <Node pos="l" depth="1" NCoef="0" IVar="5" Cut="1.6095972061157227e-01" cType="1" res="-1.1794752441346645e-02" rms="1.7917582392692566e-01" purity="3.8978448510169983e-01" nType="0">
          <Node pos="l" depth="2" NCoef="0" IVar="-1" Cut="0.0000000000000000e+00" cType="1" res="2.0321482792496681e-02" rms="1.6067662835121155e-01" purity="8.2027417421340942e-01" nType="-99"/>
          <Node pos="r" depth="2" NCoef="0" IVar="-1" Cut="0.0000000000000000e+00" cType="1" res="-2.0846368744969368e-02" rms="1.8398430943489075e-01" purity="2.2654700279235840e-01" nType="-99"/>
        </Node>
        <Node pos="r" depth="1" NCoef="0" IVar="10" Cut="-2.2445335388183594e+01" cType="1" res="3.3843759447336197e-02" rms="1.8389475345611572e-01" purity="8.4940886497497559e-01" nType="0">
          <Node pos="l" depth="2" NCoef="0" IVar="-1" Cut="0.0000000000000000e+00" cType="1" res="5.2114441990852356e-02" rms="1.6709934175014496e-01" purity="9.4603449106216431e-01" nType="-99"/>
          <Node pos="r" depth="2" NCoef="0" IVar="-1" Cut="0.0000000000000000e+00" cType="1" res="6.8396762944757938e-03" rms="1.9321158528327942e-01" purity="7.7050334215164185e-01" nType="-99"/>
        </Node>
      </Node>
    </BinaryTree>
    <BinaryTree type="DecisionTree" boostWeight="1.0000000000000000e+00" itree="57">
      <Node pos="s" depth="0" NCoef="0" IVar="11" Cut="-2.8800384521484375e+01" cType="1" res="2.0044057164341211e-03" rms="1.8527302145957947e-01" purity="4.9493691325187683e-01" nType="0">
        <Node pos="l" depth="1" NCoef="0" IVar="19" Cut="1.2178452014923096e+00" cType="1" res="3.9260730147361755e-02" rms="1.7191649973392487e-01" purity="8.6500459909439087e-01" nType="0">
          <Node pos="l" depth="2" NCoef="0" IVar="-1" Cut="0.0000000000000000e+00" cType="1" res="1.5424367738887668e-03" rms="2.1490128338336945e-01" purity="5.7925313711166382e-01" nType="-99"/>
          <Node pos="r" depth="2" NCoef="0" IVar="-1" Cut="0.0000000000000000e+00" cType="1" res="4.0456891059875488e-02" rms="1.6238102316856384e-01" purity="9.1499412059783936e-01" nType="-99"/>
        </Node>
        <Node pos="r" depth="1" NCoef="0" IVar="14" Cut="1.3560498046875000e+03" cType="1" res="-8.6952168494462967e-03" rms="1.8757160007953644e-01" purity="3.8865736126899719e-01" nType="0">
          <Node pos="l" depth="2" NCoef="0" IVar="-1" Cut="0.0000000000000000e+00" cType="1" res="-1.3456373475492001e-02" rms="1.7840835452079773e-01" purity="3.3988466858863831e-01" nType="-99"/>
          <Node pos="r" depth="2" NCoef="0" IVar="-1" Cut="0.0000000000000000e+00" cType="1" res="2.6507884263992310e-02" rms="2.3902477324008942e-01" purity="7.5701647996902466e-01" nType="-99"/>
        </Node>
      </Node>
    </BinaryTree>
    <BinaryTree type="DecisionTree" boostWeight="1.0000000000000000e+00" itree="58">
      <Node pos="s" depth="0" NCoef="0" IVar="6" Cut="2.0608823776245117e+01" cType="1" res="4.3803644366562366e-03" rms="1.8498724699020386e-01" purity="4.9773550033569336e-01" nType="0">
        <Node pos="l" depth="1" NCoef="0" IVar="7" Cut="1.2740962028503418e+01" cType="1" res="-2.6212461292743683e-02" rms="1.7920224368572235e-01" purity="2.3410333693027496e-01" nType="0">
          <Node pos="l" depth="2" NCoef="0" IVar="-1" Cut="0.0000000000000000e+00" cType="1" res="-4.4945288449525833e-02" rms="1.6122996807098389e-01" purity="1.2705101072788239e-01" nType="-99"/>
          <Node pos="r" depth="2" NCoef="0" IVar="-1" Cut="0.0000000000000000e+00" cType="1" res="-1.2986890971660614e-02" rms="1.8684212863445282e-01" purity="2.9001781344413757e-01" nType="-99"/>
        </Node>
        <Node pos="r" depth="1" NCoef="0" IVar="2" Cut="1.8201347589492798e+00" cType="1" res="2.0935187116265297e-02" rms="1.8595655262470245e-01" purity="6.4039587974548340e-01" nType="0">
          <Node pos="l" depth="2" NCoef="0" IVar="-1" Cut="0.0000000000000000e+00" cType="1" res="-3.5744033753871918e-02" rms="1.3196368515491486e-01" purity="3.0869284644722939e-02" nType="-99"/>
          <Node pos="r" depth="2" NCoef="0" IVar="-1" Cut="0.0000000000000000e+00" cType="1" res="2.1781386807560921e-02" rms="1.9104206562042236e-01" purity="7.2935438156127930e-01" nType="-99"/>
        </Node>
      </Node>
    </BinaryTree>
    <BinaryTree type="DecisionTree" boostWeight="1.0000000000000000e+00" itree="59">
      <Node pos="s" depth="0" NCoef="0" IVar="16" Cut="8.6009594726562500e+02" cType="1" res="2.3355844896286726e-03" rms="1.8418724834918976e-01" purity="5.0320428609848022e-01" nType="0">
        <Node pos="l" depth="1" NCoef="0" IVar="5" Cut="-4.1483826935291290e-02" cType="1" res="-2.3986779153347015e-02" rms="1.5242256224155426e-01" purity="1.7690998315811157e-01" nType="0">
          <Node pos="l" depth="2" NCoef="0" IVar="-1" Cut="0.0000000000000000e+00" cType="1" res="1.7274081707000732e-02" rms="1.9491142034530640e-01" purity="7.3489707708358765e-01" nType="-99"/>
          <Node pos="r" depth="2" NCoef="0" IVar="-1" Cut="0.0000000000000000e+00" cType="1" res="-3.2642006874084473e-02" rms="1.4370027184486389e-01" purity="9.3972437083721161e-02" nType="-99"/>
        </Node>
        <Node pos="r" depth="1" NCoef="0" IVar="20" Cut="8.3269882202148438e-01" cType="1" res="1.9456980749964714e-02" rms="2.0033955574035645e-01" purity="7.1544265747070312e-01" nType="0">
          <Node pos="l" depth="2" NCoef="0" IVar="-1" Cut="0.0000000000000000e+00" cType="1" res="-2.2658102214336395e-02" rms="2.0263868570327759e-01" purity="2.7299535274505615e-01" nType="-99"/>
          <Node pos="r" depth="2" NCoef="0" IVar="-1" Cut="0.0000000000000000e+00" cType="1" res="2.0424958318471909e-02" rms="1.9878596067428589e-01" purity="7.7958768606185913e-01" nType="-99"/>
        </Node>
      </Node>
    </BinaryTree>
    <BinaryTree type="DecisionTree" boostWeight="1.0000000000000000e+00" itree="60">
