<?xml version="1.0"?>
<MethodSetup Method="BDT::BDTG">
  <GeneralInfo>
    <Info name="TMVA Release" value="4.2.1 [262657]"/>
    <Info name="ROOT Release" value="6.26/08 [399880]"/>
    <Info name="Creator" value="pgaigne"/>
    <Info name="Date" value="Thu Jun 22 17:34:33 2023"/>
    <Info name="Host" value="Linux 28693209b56e 5.15.0-1022-azure #27~20.04.1-Ubuntu SMP Mon Oct 17 02:03:50 UTC 2022 x86_64 x86_64 x86_64 GNU/Linux"/>
    <Info name="Dir" value="/afs/cern.ch/user/p/pgaigne/excitedBaryons/TMVA"/>
    <Info name="Training events" value="12454"/>
    <Info name="TrainingTime" value="5.00036597e+00"/>
    <Info name="AnalysisType" value="Classification"/>
  </GeneralInfo>
  <Options>
    <Option name="V" modified="Yes">False</Option>
    <Option name="VerbosityLevel" modified="No">Default</Option>
    <Option name="VarTransform" modified="No">None</Option>
    <Option name="H" modified="Yes">False</Option>
    <Option name="CreateMVAPdfs" modified="No">False</Option>
    <Option name="IgnoreNegWeightsInTraining" modified="No">False</Option>
    <Option name="NTrees" modified="Yes">1000</Option>
    <Option name="MaxDepth" modified="Yes">2</Option>
    <Option name="MinNodeSize" modified="Yes">2.5%</Option>
    <Option name="nCuts" modified="Yes">20</Option>
    <Option name="BoostType" modified="Yes">Grad</Option>
    <Option name="AdaBoostR2Loss" modified="No">quadratic</Option>
    <Option name="UseBaggedBoost" modified="Yes">True</Option>
    <Option name="Shrinkage" modified="Yes">1.000000e-01</Option>
    <Option name="AdaBoostBeta" modified="No">5.000000e-01</Option>
    <Option name="UseRandomisedTrees" modified="No">False</Option>
    <Option name="UseNvars" modified="No">3</Option>
    <Option name="UsePoissonNvars" modified="No">True</Option>
    <Option name="BaggedSampleFraction" modified="Yes">5.000000e-01</Option>
    <Option name="UseYesNoLeaf" modified="No">True</Option>
    <Option name="NegWeightTreatment" modified="No">pray</Option>
    <Option name="Css" modified="No">1.000000e+00</Option>
    <Option name="Cts_sb" modified="No">1.000000e+00</Option>
    <Option name="Ctb_ss" modified="No">1.000000e+00</Option>
    <Option name="Cbb" modified="No">1.000000e+00</Option>
    <Option name="NodePurityLimit" modified="No">5.000000e-01</Option>
    <Option name="SeparationType" modified="No">giniindex</Option>
    <Option name="RegressionLossFunctionBDTG" modified="No">huber</Option>
    <Option name="HuberQuantile" modified="No">7.000000e-01</Option>
    <Option name="DoBoostMonitor" modified="No">False</Option>
    <Option name="UseFisherCuts" modified="No">False</Option>
    <Option name="MinLinCorrForFisher" modified="No">8.000000e-01</Option>
    <Option name="UseExclusiveVars" modified="No">False</Option>
    <Option name="DoPreselection" modified="No">False</Option>
    <Option name="SigToBkgFraction" modified="No">1.000000e+00</Option>
    <Option name="PruneMethod" modified="No">nopruning</Option>
    <Option name="PruneStrength" modified="No">0.000000e+00</Option>
    <Option name="PruningValFraction" modified="No">5.000000e-01</Option>
    <Option name="SkipNormalization" modified="No">False</Option>
    <Option name="nEventsMin" modified="No">0</Option>
    <Option name="UseBaggedGrad" modified="No">False</Option>
    <Option name="GradBaggingFraction" modified="No">5.000000e-01</Option>
    <Option name="UseNTrainEvents" modified="No">0</Option>
    <Option name="NNodesMax" modified="No">0</Option>
  </Options>
  <Variables NVar="8">
    <Variable VarIndex="0" Expression="TMath::ACos(C_DIRA_OWNPV)" Label="TMath::ACos(C_DIRA_OWNPV)" Title="acos_C_DIRA_OWNPV" Unit="" Internal="TMath_ACos_C_DIRA_OWNPV_" Type="F" Min="1.66789723e-05" Max="3.14156938e+00"/>
    <Variable VarIndex="1" Expression="log(TMath::Max(10e-10,C_FDCHI2_OWNPV))" Label="log(TMath::Max(10e-10,C_FDCHI2_OWNPV))" Title="log_C_FDCHI2_OWNPV" Unit="" Internal="log_TMath_Max_10e_M_10,C_FDCHI2_OWNPV__" Type="F" Min="-5.71178341e+00" Max="1.02351665e+01"/>
    <Variable VarIndex="2" Expression="log(TMath::Max(10e-10,C_ENDVERTEX_CHI2/C_ENDVERTEX_NDOF))" Label="log(TMath::Max(10e-10,C_ENDVERTEX_CHI2/C_ENDVERTEX_NDOF))" Title="log_C_ENDVERTEX_CHI2_NDOF" Unit="" Internal="log_TMath_Max_10e_M_10,C_ENDVERTEX_CHI2_D_C_ENDVERTEX_NDOF__" Type="F" Min="-2.00852203e+01" Max="3.21725702e+00"/>
    <Variable VarIndex="3" Expression="log(TMath::Max(10e-10,C_CHI2NDOF_DTF_PV))" Label="log(TMath::Max(10e-10,C_CHI2NDOF_DTF_PV))" Title="log_C_CHI2NDOF_DTF_PV" Unit="" Internal="log_TMath_Max_10e_M_10,C_CHI2NDOF_DTF_PV__" Type="F" Min="-2.07232666e+01" Max="7.43555307e+00"/>
    <Variable VarIndex="4" Expression="C_PT" Label="C_PT" Title="C_PT" Unit="" Internal="C_PT" Type="F" Min="2.89894482e+03" Max="3.49808398e+04"/>
    <Variable VarIndex="5" Expression="log(Pi_IPCHI2_OWNPV)" Label="log(Pi_IPCHI2_OWNPV)" Title="log(Pi_IPCHI2_OWNPV)" Unit="" Internal="log_Pi_IPCHI2_OWNPV_" Type="F" Min="-1.18929749e+01" Max="2.77253509e+00"/>
    <Variable VarIndex="6" Expression="Pi_ProbNNk" Label="Pi_ProbNNk" Title="Pi_ProbNNk" Unit="" Internal="Pi_ProbNNk" Type="F" Min="1.00006483e-01" Max="9.99738038e-01"/>
    <Variable VarIndex="7" Expression="C_KaonDTF_K_PT" Label="C_KaonDTF_K_PT" Title="C_KaonDTF_K_PT" Unit="" Internal="C_KaonDTF_K_PT" Type="F" Min="2.00120270e+02" Max="9.95372754e+03"/>
  </Variables>
  <Spectators NSpec="3">
    <Spectator SpecIndex="0" Expression="C_M" Label="C_M" Title="F" Unit="" Internal="C_M" Type="F" Min="3.67694067e+03" Max="4.61316162e+03"/>
    <Spectator SpecIndex="1" Expression="Xicc_M_DTF_Lc_PV" Label="Xicc_M_DTF_Lc_PV" Title="F" Unit="" Internal="Xicc_M_DTF_Lc_PV" Type="F" Min="3.54101270e+03" Max="3.70099683e+03"/>
    <Spectator SpecIndex="2" Expression="Lc_M" Label="Lc_M" Title="F" Unit="" Internal="Lc_M" Type="F" Min="2.27003320e+03" Max="2.30598901e+03"/>
  </Spectators>
  <Classes NClass="2">
    <Class Name="Signal" Index="0"/>
    <Class Name="Background" Index="1"/>
  </Classes>
  <Transformations NTransformations="0"/>
  <MVAPdfs/>
  <Weights NTrees="1000" AnalysisType="1">
    <BinaryTree type="DecisionTree" boostWeight="1.0000000000000000e+00" itree="0">
      <Node pos="s" depth="0" NCoef="0" IVar="6" Cut="7.8544646501541138e-01" cType="1" res="5.6936824694275856e-03" rms="4.9996757507324219e-01" purity="5.0569373369216919e-01" nType="0">
        <Node pos="l" depth="1" NCoef="0" IVar="6" Cut="3.9365679025650024e-01" cType="1" res="-3.4087538719177246e-01" rms="3.6579224467277527e-01" purity="1.5912461280822754e-01" nType="0">
          <Node pos="l" depth="2" NCoef="0" IVar="-1" Cut="0.0000000000000000e+00" cType="1" res="-8.6205236613750458e-02" rms="2.5340965390205383e-01" purity="6.8973839282989502e-02" nType="-99"/>
          <Node pos="r" depth="2" NCoef="0" IVar="-1" Cut="0.0000000000000000e+00" cType="1" res="-4.0313806384801865e-02" rms="4.5756959915161133e-01" purity="2.9843097925186157e-01" nType="-99"/>
        </Node>
        <Node pos="r" depth="1" NCoef="0" IVar="7" Cut="1.1119603271484375e+03" cType="1" res="2.3764556646347046e-01" rms="4.3991428613662720e-01" purity="7.3764556646347046e-01" nType="0">
          <Node pos="l" depth="2" NCoef="0" IVar="-1" Cut="0.0000000000000000e+00" cType="1" res="1.5204472467303276e-02" rms="4.9418681859970093e-01" purity="5.7602238655090332e-01" nType="-99"/>
          <Node pos="r" depth="2" NCoef="0" IVar="-1" Cut="0.0000000000000000e+00" cType="1" res="6.6102072596549988e-02" rms="3.7518382072448730e-01" purity="8.3051037788391113e-01" nType="-99"/>
        </Node>
      </Node>
    </BinaryTree>
    <BinaryTree type="DecisionTree" boostWeight="1.0000000000000000e+00" itree="1">
      <Node pos="s" depth="0" NCoef="0" IVar="6" Cut="7.8552013635635376e-01" cType="1" res="-5.0382777117192745e-03" rms="4.8125961422920227e-01" purity="4.9513095617294312e-01" nType="0">
        <Node pos="l" depth="1" NCoef="0" IVar="6" Cut="3.6112919449806213e-01" cType="1" res="-3.2023644447326660e-01" rms="3.4963506460189819e-01" purity="1.4553236961364746e-01" nType="0">
          <Node pos="l" depth="2" NCoef="0" IVar="-1" Cut="0.0000000000000000e+00" cType="1" res="-8.0447107553482056e-02" rms="2.3325625061988831e-01" purity="5.7742703706026077e-02" nType="-99"/>
          <Node pos="r" depth="2" NCoef="0" IVar="-1" Cut="0.0000000000000000e+00" cType="1" res="-4.2263157665729523e-02" rms="4.4218099117279053e-01" purity="2.6703092455863953e-01" nType="-99"/>
        </Node>
        <Node pos="r" depth="1" NCoef="0" IVar="6" Cut="9.1822743415832520e-01" cType="1" res="2.1401154994964600e-01" rms="4.3656483292579651e-01" purity="7.3808765411376953e-01" nType="0">
          <Node pos="l" depth="2" NCoef="0" IVar="-1" Cut="0.0000000000000000e+00" cType="1" res="5.0475406460464001e-03" rms="4.9506461620330811e-01" purity="5.4201090335845947e-01" nType="-99"/>
          <Node pos="r" depth="2" NCoef="0" IVar="-1" Cut="0.0000000000000000e+00" cType="1" res="5.4843053221702576e-02" rms="3.9844217896461487e-01" purity="7.9967278242111206e-01" nType="-99"/>
        </Node>
      </Node>
    </BinaryTree>
    <BinaryTree type="DecisionTree" boostWeight="1.0000000000000000e+00" itree="2">
      <Node pos="s" depth="0" NCoef="0" IVar="6" Cut="7.8544300794601440e-01" cType="1" res="-2.4850579211488366e-04" rms="4.6632519364356995e-01" purity="5.0024491548538208e-01" nType="0">
        <Node pos="l" depth="1" NCoef="0" IVar="6" Cut="6.2206661701202393e-01" cType="1" res="-2.9256278276443481e-01" rms="3.4329435229301453e-01" purity="1.4104728400707245e-01" nType="0">
          <Node pos="l" depth="2" NCoef="0" IVar="-1" Cut="0.0000000000000000e+00" cType="1" res="-6.8708777427673340e-02" rms="2.8726094961166382e-01" purity="9.2204332351684570e-02" nType="-99"/>
          <Node pos="r" depth="2" NCoef="0" IVar="-1" Cut="0.0000000000000000e+00" cType="1" res="-1.7810376361012459e-02" rms="4.8290050029754639e-01" purity="3.7035772204399109e-01" nType="-99"/>
        </Node>
        <Node pos="r" depth="1" NCoef="0" IVar="7" Cut="1.0245108642578125e+03" cType="1" res="1.9197185337543488e-01" rms="4.3568590283393860e-01" purity="7.3644649982452393e-01" nType="0">
          <Node pos="l" depth="2" NCoef="0" IVar="-1" Cut="0.0000000000000000e+00" cType="1" res="9.7152255475521088e-03" rms="4.9398154020309448e-01" purity="5.7086670398712158e-01" nType="-99"/>
          <Node pos="r" depth="2" NCoef="0" IVar="-1" Cut="0.0000000000000000e+00" cType="1" res="5.2138566970825195e-02" rms="3.8912224769592285e-01" purity="8.1198006868362427e-01" nType="-99"/>
        </Node>
      </Node>
    </BinaryTree>
    <BinaryTree type="DecisionTree" boostWeight="1.0000000000000000e+00" itree="3">
      <Node pos="s" depth="0" NCoef="0" IVar="6" Cut="8.2832342386245728e-01" cType="1" res="4.8435125499963760e-03" rms="4.5292657613754272e-01" purity="5.0612306594848633e-01" nType="0">
        <Node pos="l" depth="1" NCoef="0" IVar="7" Cut="7.8778460693359375e+02" cType="1" res="-2.4499253928661346e-01" rms="3.6313608288764954e-01" purity="1.6814316809177399e-01" nType="0">
          <Node pos="l" depth="2" NCoef="0" IVar="-1" Cut="0.0000000000000000e+00" cType="1" res="-6.2978573143482208e-02" rms="2.9924535751342773e-01" purity="1.0403123497962952e-01" nType="-99"/>
          <Node pos="r" depth="2" NCoef="0" IVar="-1" Cut="0.0000000000000000e+00" cType="1" res="-2.6638455688953400e-02" rms="4.4386717677116394e-01" purity="2.9729551076889038e-01" nType="-99"/>
        </Node>
        <Node pos="r" depth="1" NCoef="0" IVar="6" Cut="9.6707540750503540e-01" cType="1" res="1.8888889253139496e-01" rms="4.2339989542961121e-01" purity="7.5510084629058838e-01" nType="0">
          <Node pos="l" depth="2" NCoef="0" IVar="-1" Cut="0.0000000000000000e+00" cType="1" res="1.3736929744482040e-02" rms="4.8185667395591736e-01" purity="6.1520105600357056e-01" nType="-99"/>
          <Node pos="r" depth="2" NCoef="0" IVar="-1" Cut="0.0000000000000000e+00" cType="1" res="5.3563807159662247e-02" rms="3.6572250723838806e-01" purity="8.3855545520782471e-01" nType="-99"/>
        </Node>
      </Node>
    </BinaryTree>
    <BinaryTree type="DecisionTree" boostWeight="1.0000000000000000e+00" itree="4">
      <Node pos="s" depth="0" NCoef="0" IVar="6" Cut="8.2828277349472046e-01" cType="1" res="2.6241077575832605e-03" rms="4.4024854898452759e-01" purity="5.0469362735748291e-01" nType="0">
        <Node pos="l" depth="1" NCoef="0" IVar="6" Cut="3.7735536694526672e-01" cType="1" res="-2.3260541260242462e-01" rms="3.5125237703323364e-01" purity="1.5667104721069336e-01" nType="0">
          <Node pos="l" depth="2" NCoef="0" IVar="-1" Cut="0.0000000000000000e+00" cType="1" res="-6.5050669014453888e-02" rms="2.3721614480018616e-01" purity="6.0258045792579651e-02" nType="-99"/>
          <Node pos="r" depth="2" NCoef="0" IVar="-1" Cut="0.0000000000000000e+00" cType="1" res="-3.0450224876403809e-02" rms="4.4192484021186829e-01" purity="2.7844417095184326e-01" nType="-99"/>
        </Node>
        <Node pos="r" depth="1" NCoef="0" IVar="1" Cut="2.0894768238067627e+00" cType="1" res="1.7498131096363068e-01" rms="4.1854682564735413e-01" purity="7.5969648361206055e-01" nType="0">
          <Node pos="l" depth="2" NCoef="0" IVar="-1" Cut="0.0000000000000000e+00" cType="1" res="4.0742099285125732e-02" rms="4.0371063351631165e-01" purity="7.8189408779144287e-01" nType="-99"/>
          <Node pos="r" depth="2" NCoef="0" IVar="-1" Cut="0.0000000000000000e+00" cType="1" res="-4.6402510255575180e-02" rms="4.7742736339569092e-01" purity="3.5680365562438965e-01" nType="-99"/>
        </Node>
      </Node>
    </BinaryTree>
    <BinaryTree type="DecisionTree" boostWeight="1.0000000000000000e+00" itree="5">
      <Node pos="s" depth="0" NCoef="0" IVar="6" Cut="8.2836061716079712e-01" cType="1" res="-4.9506453797221184e-03" rms="4.3178236484527588e-01" purity="4.9619844555854797e-01" nType="0">
        <Node pos="l" depth="1" NCoef="0" IVar="7" Cut="6.4891400146484375e+02" cType="1" res="-2.0712211728096008e-01" rms="3.5060647130012512e-01" purity="1.5967994928359985e-01" nType="0">
          <Node pos="l" depth="2" NCoef="0" IVar="-1" Cut="0.0000000000000000e+00" cType="1" res="-6.0871992260217667e-02" rms="2.5644418597221375e-01" purity="7.4809961020946503e-02" nType="-99"/>
          <Node pos="r" depth="2" NCoef="0" IVar="-1" Cut="0.0000000000000000e+00" cType="1" res="-2.5202007964253426e-02" rms="4.2825499176979065e-01" purity="2.7019888162612915e-01" nType="-99"/>
        </Node>
        <Node pos="r" depth="1" NCoef="0" IVar="6" Cut="9.8344022035598755e-01" cType="1" res="1.4633952081203461e-01" rms="4.2483851313591003e-01" purity="7.4802398681640625e-01" nType="0">
          <Node pos="l" depth="2" NCoef="0" IVar="-1" Cut="0.0000000000000000e+00" cType="1" res="1.2516558170318604e-02" rms="4.7340917587280273e-01" purity="6.4144444465637207e-01" nType="-99"/>
          <Node pos="r" depth="2" NCoef="0" IVar="-1" Cut="0.0000000000000000e+00" cType="1" res="4.9155443906784058e-02" rms="3.5087582468986511e-01" purity="8.5310256481170654e-01" nType="-99"/>
        </Node>
      </Node>
    </BinaryTree>
    <BinaryTree type="DecisionTree" boostWeight="1.0000000000000000e+00" itree="6">
      <Node pos="s" depth="0" NCoef="0" IVar="6" Cut="8.7120497226715088e-01" cType="1" res="-1.3841059990227222e-02" rms="4.2354679107666016e-01" purity="4.8405832052230835e-01" nType="0">
        <Node pos="l" depth="1" NCoef="0" IVar="6" Cut="3.5706067085266113e-01" cType="1" res="-1.7636854946613312e-01" rms="3.6527273058891296e-01" purity="1.8749809265136719e-01" nType="0">
          <Node pos="l" depth="2" NCoef="0" IVar="-1" Cut="0.0000000000000000e+00" cType="1" res="-6.1048805713653564e-02" rms="2.1329580247402191e-01" purity="4.8418097198009491e-02" nType="-99"/>
          <Node pos="r" depth="2" NCoef="0" IVar="-1" Cut="0.0000000000000000e+00" cType="1" res="-2.0171986892819405e-02" rms="4.5227354764938354e-01" purity="3.2101696729660034e-01" nType="-99"/>
        </Node>
        <Node pos="r" depth="1" NCoef="0" IVar="1" Cut="1.6777564287185669e+00" cType="1" res="1.3592092692852020e-01" rms="4.1830611228942871e-01" purity="7.5732570886611938e-01" nType="0">
          <Node pos="l" depth="2" NCoef="0" IVar="-1" Cut="0.0000000000000000e+00" cType="1" res="3.5701930522918701e-02" rms="3.9865198731422424e-01" purity="7.9002362489700317e-01" nType="-99"/>
          <Node pos="r" depth="2" NCoef="0" IVar="-1" Cut="0.0000000000000000e+00" cType="1" res="-1.2559096328914165e-02" rms="4.8208263516426086e-01" purity="5.5042862892150879e-01" nType="-99"/>
        </Node>
      </Node>
    </BinaryTree>
    <BinaryTree type="DecisionTree" boostWeight="1.0000000000000000e+00" itree="7">
      <Node pos="s" depth="0" NCoef="0" IVar="6" Cut="7.8547865152359009e-01" cType="1" res="3.4847678616642952e-03" rms="4.1742107272148132e-01" purity="4.9867260456085205e-01" nType="0">
        <Node pos="l" depth="1" NCoef="0" IVar="7" Cut="6.4892486572265625e+02" cType="1" res="-1.6847598552703857e-01" rms="3.4445917606353760e-01" purity="1.4983488619327545e-01" nType="0">
          <Node pos="l" depth="2" NCoef="0" IVar="-1" Cut="0.0000000000000000e+00" cType="1" res="-5.3830232471227646e-02" rms="2.5766780972480774e-01" purity="7.5377240777015686e-02" nType="-99"/>
          <Node pos="r" depth="2" NCoef="0" IVar="-1" Cut="0.0000000000000000e+00" cType="1" res="-2.0716499537229538e-02" rms="4.2322343587875366e-01" purity="2.5026443600654602e-01" nType="-99"/>
        </Node>
        <Node pos="r" depth="1" NCoef="0" IVar="7" Cut="1.3852227783203125e+03" cType="1" res="1.2369939684867859e-01" rms="4.2187359929084778e-01" purity="7.4253869056701660e-01" nType="0">
          <Node pos="l" depth="2" NCoef="0" IVar="-1" Cut="0.0000000000000000e+00" cType="1" res="1.0012886486947536e-02" rms="4.6924313902854919e-01" purity="6.3563984632492065e-01" nType="-99"/>
          <Node pos="r" depth="2" NCoef="0" IVar="-1" Cut="0.0000000000000000e+00" cType="1" res="4.3915022164583206e-02" rms="3.5318967700004578e-01" purity="8.4859883785247803e-01" nType="-99"/>
        </Node>
      </Node>
    </BinaryTree>
    <BinaryTree type="DecisionTree" boostWeight="1.0000000000000000e+00" itree="8">
      <Node pos="s" depth="0" NCoef="0" IVar="6" Cut="9.1396707296371460e-01" cType="1" res="-5.8715036138892174e-03" rms="4.0917214751243591e-01" purity="4.8968154191970825e-01" nType="0">
        <Node pos="l" depth="1" NCoef="0" IVar="7" Cut="7.9947503662109375e+02" cType="1" res="-1.3260528445243835e-01" rms="3.7825950980186462e-01" purity="2.2715678811073303e-01" nType="0">
          <Node pos="l" depth="2" NCoef="0" IVar="-1" Cut="0.0000000000000000e+00" cType="1" res="-4.9806658178567886e-02" rms="2.9381740093231201e-01" purity="1.0997913777828217e-01" nType="-99"/>
          <Node pos="r" depth="2" NCoef="0" IVar="-1" Cut="0.0000000000000000e+00" cType="1" res="-4.1374480351805687e-03" rms="4.5614010095596313e-01" purity="4.0542787313461304e-01" nType="-99"/>
        </Node>
        <Node pos="r" depth="1" NCoef="0" IVar="1" Cut="1.6959419250488281e+00" cType="1" res="1.4203506708145142e-01" rms="3.9396569132804871e-01" purity="7.9606497287750244e-01" nType="0">
          <Node pos="l" depth="2" NCoef="0" IVar="-1" Cut="0.0000000000000000e+00" cType="1" res="3.8119308650493622e-02" rms="3.7062343955039978e-01" purity="8.2937848567962646e-01" nType="-99"/>
          <Node pos="r" depth="2" NCoef="0" IVar="-1" Cut="0.0000000000000000e+00" cType="1" res="-9.0361572802066803e-03" rms="4.8148807883262634e-01" purity="5.7992565631866455e-01" nType="-99"/>
        </Node>
      </Node>
    </BinaryTree>
    <BinaryTree type="DecisionTree" boostWeight="1.0000000000000000e+00" itree="9">
      <Node pos="s" depth="0" NCoef="0" IVar="6" Cut="7.8551626205444336e-01" cType="1" res="9.4475271180272102e-03" rms="4.0442240238189697e-01" purity="5.0849211215972900e-01" nType="0">
        <Node pos="l" depth="1" NCoef="0" IVar="7" Cut="6.6457775878906250e+02" cType="1" res="-1.4085312187671661e-01" rms="3.4010541439056396e-01" purity="1.4788460731506348e-01" nType="0">
          <Node pos="l" depth="2" NCoef="0" IVar="-1" Cut="0.0000000000000000e+00" cType="1" res="-5.1647525280714035e-02" rms="2.3813068866729736e-01" purity="6.1553496867418289e-02" nType="-99"/>
          <Node pos="r" depth="2" NCoef="0" IVar="-1" Cut="0.0000000000000000e+00" cType="1" res="-1.4736232347786427e-02" rms="4.3116447329521179e-01" purity="2.6545748114585876e-01" nType="-99"/>
        </Node>
        <Node pos="r" depth="1" NCoef="0" IVar="1" Cut="1.9217226505279541e+00" cType="1" res="1.1024171859025955e-01" rms="4.1274884343147278e-01" purity="7.5032168626785278e-01" nType="0">
          <Node pos="l" depth="2" NCoef="0" IVar="-1" Cut="0.0000000000000000e+00" cType="1" res="2.9275443404912949e-02" rms="3.9939668774604797e-01" purity="7.7700668573379517e-01" nType="-99"/>
          <Node pos="r" depth="2" NCoef="0" IVar="-1" Cut="0.0000000000000000e+00" cType="1" res="-2.1956531330943108e-02" rms="4.7999116778373718e-01" purity="4.7732490301132202e-01" nType="-99"/>
        </Node>
      </Node>
    </BinaryTree>
    <BinaryTree type="DecisionTree" boostWeight="1.0000000000000000e+00" itree="10">
      <Node pos="s" depth="0" NCoef="0" IVar="6" Cut="9.1403853893280029e-01" cType="1" res="-3.8129871245473623e-03" rms="3.9896622300148010e-01" purity="4.8891529440879822e-01" nType="0">
        <Node pos="l" depth="1" NCoef="0" IVar="6" Cut="3.7135121226310730e-01" cType="1" res="-1.1087043583393097e-01" rms="3.7862184643745422e-01" purity="2.2516711056232452e-01" nType="0">
          <Node pos="l" depth="2" NCoef="0" IVar="-1" Cut="0.0000000000000000e+00" cType="1" res="-4.9620553851127625e-02" rms="2.3366650938987732e-01" purity="5.9183213859796524e-02" nType="-99"/>
          <Node pos="r" depth="2" NCoef="0" IVar="-1" Cut="0.0000000000000000e+00" cType="1" res="-1.1621253564953804e-02" rms="4.5947855710983276e-01" purity="3.6557039618492126e-01" nType="-99"/>
        </Node>
        <Node pos="r" depth="1" NCoef="0" IVar="7" Cut="1.1586812744140625e+03" cType="1" res="1.2428804486989975e-01" rms="3.8468050956726074e-01" purity="8.0450671911239624e-01" nType="0">
          <Node pos="l" depth="2" NCoef="0" IVar="-1" Cut="0.0000000000000000e+00" cType="1" res="6.2182541005313396e-03" rms="4.6656939387321472e-01" purity="6.6480630636215210e-01" nType="-99"/>
          <Node pos="r" depth="2" NCoef="0" IVar="-1" Cut="0.0000000000000000e+00" cType="1" res="3.8495820015668869e-02" rms="3.4010350704193115e-01" purity="8.5924863815307617e-01" nType="-99"/>
        </Node>
      </Node>
    </BinaryTree>
    <BinaryTree type="DecisionTree" boostWeight="1.0000000000000000e+00" itree="11">
      <Node pos="s" depth="0" NCoef="0" IVar="6" Cut="8.7116265296936035e-01" cType="1" res="-3.6371268797665834e-03" rms="3.9989158511161804e-01" purity="4.9840500950813293e-01" nType="0">
        <Node pos="l" depth="1" NCoef="0" IVar="3" Cut="-5.5936604738235474e-01" cType="1" res="-1.0897692292928696e-01" rms="3.6396899819374084e-01" purity="1.9367252290248871e-01" nType="0">
          <Node pos="l" depth="2" NCoef="0" IVar="-1" Cut="0.0000000000000000e+00" cType="1" res="1.0195214301347733e-02" rms="4.3037092685699463e-01" purity="3.5225683450698853e-01" nType="-99"/>
          <Node pos="r" depth="2" NCoef="0" IVar="-1" Cut="0.0000000000000000e+00" cType="1" res="-3.3727534115314484e-02" rms="3.4560051560401917e-01" purity="1.6750924289226532e-01" nType="-99"/>
        </Node>
        <Node pos="r" depth="1" NCoef="0" IVar="1" Cut="2.0894768238067627e+00" cType="1" res="8.9474514126777649e-02" rms="4.0704998373985291e-01" purity="7.6776325702667236e-01" nType="0">
          <Node pos="l" depth="2" NCoef="0" IVar="-1" Cut="0.0000000000000000e+00" cType="1" res="2.4658836424350739e-02" rms="3.9616572856903076e-01" purity="7.8868377208709717e-01" nType="-99"/>
          <Node pos="r" depth="2" NCoef="0" IVar="-1" Cut="0.0000000000000000e+00" cType="1" res="-3.8726147264242172e-02" rms="4.8719096183776855e-01" purity="4.0468293428421021e-01" nType="-99"/>
        </Node>
      </Node>
    </BinaryTree>
    <BinaryTree type="DecisionTree" boostWeight="1.0000000000000000e+00" itree="12">
      <Node pos="s" depth="0" NCoef="0" IVar="7" Cut="1.2425178222656250e+03" cType="1" res="-5.4652886465191841e-03" rms="4.0168899297714233e-01" purity="4.8876291513442993e-01" nType="0">
        <Node pos="l" depth="1" NCoef="0" IVar="3" Cut="-7.9200333356857300e-01" cType="1" res="-7.2475828230381012e-02" rms="3.9662328362464905e-01" purity="3.2198250293731689e-01" nType="0">
          <Node pos="l" depth="2" NCoef="0" IVar="-1" Cut="0.0000000000000000e+00" cType="1" res="3.0449606478214264e-02" rms="4.1848003864288330e-01" purity="5.7298636436462402e-01" nType="-99"/>
          <Node pos="r" depth="2" NCoef="0" IVar="-1" Cut="0.0000000000000000e+00" cType="1" res="-2.2716417908668518e-02" rms="3.8932278752326965e-01" purity="2.9834359884262085e-01" nType="-99"/>
        </Node>
        <Node pos="r" depth="1" NCoef="0" IVar="1" Cut="1.9386799335479736e+00" cType="1" res="9.8490484058856964e-02" rms="3.8711071014404297e-01" purity="7.4749517440795898e-01" nType="0">
          <Node pos="l" depth="2" NCoef="0" IVar="-1" Cut="0.0000000000000000e+00" cType="1" res="2.9708540067076683e-02" rms="3.7269884347915649e-01" purity="7.8567665815353394e-01" nType="-99"/>
          <Node pos="r" depth="2" NCoef="0" IVar="-1" Cut="0.0000000000000000e+00" cType="1" res="-1.4776645228266716e-02" rms="4.4996395707130432e-01" purity="4.5582860708236694e-01" nType="-99"/>
        </Node>
      </Node>
    </BinaryTree>
    <BinaryTree type="DecisionTree" boostWeight="1.0000000000000000e+00" itree="13">
      <Node pos="s" depth="0" NCoef="0" IVar="6" Cut="6.1411899328231812e-01" cType="1" res="-4.1293785907328129e-03" rms="3.9625519514083862e-01" purity="4.8707649111747742e-01" nType="0">
        <Node pos="l" depth="1" NCoef="0" IVar="1" Cut="1.4177139997482300e+00" cType="1" res="-1.2203384935855865e-01" rms="2.9992541670799255e-01" purity="1.0829431563615799e-01" nType="0">
          <Node pos="l" depth="2" NCoef="0" IVar="-1" Cut="0.0000000000000000e+00" cType="1" res="-2.6390448212623596e-02" rms="3.3396324515342712e-01" purity="1.4000965654850006e-01" nType="-99"/>
          <Node pos="r" depth="2" NCoef="0" IVar="-1" Cut="0.0000000000000000e+00" cType="1" res="-5.2965294569730759e-02" rms="1.9973833858966827e-01" purity="4.2683992534875870e-02" nType="-99"/>
        </Node>
        <Node pos="r" depth="1" NCoef="0" IVar="1" Cut="1.5464669466018677e+00" cType="1" res="5.7774502784013748e-02" rms="4.2555573582649231e-01" purity="6.8595004081726074e-01" nType="0">
          <Node pos="l" depth="2" NCoef="0" IVar="-1" Cut="0.0000000000000000e+00" cType="1" res="2.0998083055019379e-02" rms="4.1192373633384705e-01" purity="7.3046082258224487e-01" nType="-99"/>
          <Node pos="r" depth="2" NCoef="0" IVar="-1" Cut="0.0000000000000000e+00" cType="1" res="-1.9737152382731438e-02" rms="4.5737132430076599e-01" purity="4.7324982285499573e-01" nType="-99"/>
        </Node>
      </Node>
    </BinaryTree>
    <BinaryTree type="DecisionTree" boostWeight="1.0000000000000000e+00" itree="14">
      <Node pos="s" depth="0" NCoef="0" IVar="6" Cut="8.7112253904342651e-01" cType="1" res="1.0038328357040882e-02" rms="3.9060050249099731e-01" purity="5.1114141941070557e-01" nType="0">
        <Node pos="l" depth="1" NCoef="0" IVar="6" Cut="4.3019658327102661e-01" cType="1" res="-7.5295031070709229e-02" rms="3.6752837896347046e-01" purity="2.0134180784225464e-01" nType="0">
          <Node pos="l" depth="2" NCoef="0" IVar="-1" Cut="0.0000000000000000e+00" cType="1" res="-3.9512697607278824e-02" rms="2.5953531265258789e-01" purity="7.6238021254539490e-02" nType="-99"/>
          <Node pos="r" depth="2" NCoef="0" IVar="-1" Cut="0.0000000000000000e+00" cType="1" res="-3.1032345723360777e-03" rms="4.5754879713058472e-01" purity="3.5144320130348206e-01" nType="-99"/>
        </Node>
        <Node pos="r" depth="1" NCoef="0" IVar="7" Cut="1.5040457763671875e+03" cType="1" res="8.4467522799968719e-02" rms="3.9488512277603149e-01" purity="7.8135383129119873e-01" nType="0">
          <Node pos="l" depth="2" NCoef="0" IVar="-1" Cut="0.0000000000000000e+00" cType="1" res="6.9502969272434711e-03" rms="4.4828161597251892e-01" purity="6.8892163038253784e-01" nType="-99"/>
          <Node pos="r" depth="2" NCoef="0" IVar="-1" Cut="0.0000000000000000e+00" cType="1" res="3.6302246153354645e-02" rms="3.2246288657188416e-01" purity="8.7573033571243286e-01" nType="-99"/>
        </Node>
      </Node>
    </BinaryTree>
    <BinaryTree type="DecisionTree" boostWeight="1.0000000000000000e+00" itree="15">
      <Node pos="s" depth="0" NCoef="0" IVar="6" Cut="8.7121665477752686e-01" cType="1" res="-2.2539091296494007e-03" rms="3.8871818780899048e-01" purity="4.8845425248146057e-01" nType="0">
        <Node pos="l" depth="1" NCoef="0" IVar="1" Cut="-7.1056023240089417e-02" cType="1" res="-8.0766215920448303e-02" rms="3.5860124230384827e-01" purity="1.8581381440162659e-01" nType="0">
          <Node pos="l" depth="2" NCoef="0" IVar="-1" Cut="0.0000000000000000e+00" cType="1" res="5.4128686897456646e-03" rms="4.2426887154579163e-01" purity="3.0485120415687561e-01" nType="-99"/>
          <Node pos="r" depth="2" NCoef="0" IVar="-1" Cut="0.0000000000000000e+00" cType="1" res="-2.7916574850678444e-02" rms="3.4029015898704529e-01" purity="1.6189424693584442e-01" nType="-99"/>
        </Node>
        <Node pos="r" depth="1" NCoef="0" IVar="6" Cut="9.8751115798950195e-01" cType="1" res="7.1386441588401794e-02" rms="4.0125751495361328e-01" purity="7.7231484651565552e-01" nType="0">
          <Node pos="l" depth="2" NCoef="0" IVar="-1" Cut="0.0000000000000000e+00" cType="1" res="4.1547073051333427e-03" rms="4.5276772975921631e-01" purity="6.8234407901763916e-01" nType="-99"/>
          <Node pos="r" depth="2" NCoef="0" IVar="-1" Cut="0.0000000000000000e+00" cType="1" res="3.3433075994253159e-02" rms="3.3016878366470337e-01" purity="8.6627215147018433e-01" nType="-99"/>
        </Node>
      </Node>
    </BinaryTree>
    <BinaryTree type="DecisionTree" boostWeight="1.0000000000000000e+00" itree="16">
      <Node pos="s" depth="0" NCoef="0" IVar="7" Cut="1.0977386474609375e+03" cType="1" res="-1.1663706973195076e-03" rms="3.8894519209861755e-01" purity="4.9581640958786011e-01" nType="0">
        <Node pos="l" depth="1" NCoef="0" IVar="1" Cut="1.0170682668685913e+00" cType="1" res="-6.6172301769256592e-02" rms="3.8279852271080017e-01" purity="2.8218132257461548e-01" nType="0">
          <Node pos="l" depth="2" NCoef="0" IVar="-1" Cut="0.0000000000000000e+00" cType="1" res="-3.8758711889386177e-03" rms="4.0689286589622498e-01" purity="3.5429784655570984e-01" nType="-99"/>
          <Node pos="r" depth="2" NCoef="0" IVar="-1" Cut="0.0000000000000000e+00" cType="1" res="-3.5643868148326874e-02" rms="3.3960756659507751e-01" purity="1.9204172492027283e-01" nType="-99"/>
        </Node>
        <Node pos="r" depth="1" NCoef="0" IVar="1" Cut="2.3372409343719482e+00" cType="1" res="7.2208076715469360e-02" rms="3.8272586464881897e-01" purity="7.3695373535156250e-01" nType="0">
          <Node pos="l" depth="2" NCoef="0" IVar="-1" Cut="0.0000000000000000e+00" cType="1" res="2.2543512284755707e-02" rms="3.7603616714477539e-01" purity="7.6265823841094971e-01" nType="-99"/>
          <Node pos="r" depth="2" NCoef="0" IVar="-1" Cut="0.0000000000000000e+00" cType="1" res="-3.7517666816711426e-02" rms="4.2296472191810608e-01" purity="2.8221037983894348e-01" nType="-99"/>
        </Node>
      </Node>
    </BinaryTree>
    <BinaryTree type="DecisionTree" boostWeight="1.0000000000000000e+00" itree="17">
      <Node pos="s" depth="0" NCoef="0" IVar="7" Cut="8.9515856933593750e+02" cType="1" res="2.9579428955912590e-03" rms="3.8339766860008240e-01" purity="4.9845570325851440e-01" nType="0">
        <Node pos="l" depth="1" NCoef="0" IVar="1" Cut="1.0170682668685913e+00" cType="1" res="-7.4356183409690857e-02" rms="3.6307689547538757e-01" purity="2.3724313080310822e-01" nType="0">
          <Node pos="l" depth="2" NCoef="0" IVar="-1" Cut="0.0000000000000000e+00" cType="1" res="-6.9768046960234642e-03" rms="3.9530372619628906e-01" purity="3.1434181332588196e-01" nType="-99"/>
          <Node pos="r" depth="2" NCoef="0" IVar="-1" Cut="0.0000000000000000e+00" cType="1" res="-3.9669651538133621e-02" rms="3.0680769681930542e-01" purity="1.3959795236587524e-01" nType="-99"/>
        </Node>
        <Node pos="r" depth="1" NCoef="0" IVar="1" Cut="2.0272781848907471e+00" cType="1" res="6.5106965601444244e-02" rms="3.8796886801719666e-01" purity="7.0843166112899780e-01" nType="0">
          <Node pos="l" depth="2" NCoef="0" IVar="-1" Cut="0.0000000000000000e+00" cType="1" res="2.1403312683105469e-02" rms="3.7860321998596191e-01" purity="7.4292862415313721e-01" nType="-99"/>
          <Node pos="r" depth="2" NCoef="0" IVar="-1" Cut="0.0000000000000000e+00" cType="1" res="-3.0349487438797951e-02" rms="4.3623393774032593e-01" purity="3.1261196732521057e-01" nType="-99"/>
        </Node>
      </Node>
    </BinaryTree>
    <BinaryTree type="DecisionTree" boostWeight="1.0000000000000000e+00" itree="18">
      <Node pos="s" depth="0" NCoef="0" IVar="7" Cut="6.6511352539062500e+02" cType="1" res="-1.0534101165831089e-03" rms="3.8083371520042419e-01" purity="4.9562904238700867e-01" nType="0">
        <Node pos="l" depth="1" NCoef="0" IVar="7" Cut="5.7664813232421875e+02" cType="1" res="-1.0360957682132721e-01" rms="3.0335485935211182e-01" purity="1.4012920856475830e-01" nType="0">
          <Node pos="l" depth="2" NCoef="0" IVar="-1" Cut="0.0000000000000000e+00" cType="1" res="-3.8181729614734650e-02" rms="2.7247920632362366e-01" purity="1.0776800662279129e-01" nType="-99"/>
          <Node pos="r" depth="2" NCoef="0" IVar="-1" Cut="0.0000000000000000e+00" cType="1" res="-8.4856841713190079e-03" rms="4.1053068637847900e-01" purity="2.9113259911537170e-01" nType="-99"/>
        </Node>
        <Node pos="r" depth="1" NCoef="0" IVar="3" Cut="-2.1318367216736078e-03" cType="1" res="4.1431117802858353e-02" rms="4.0103879570960999e-01" purity="6.4289706945419312e-01" nType="0">
          <Node pos="l" depth="2" NCoef="0" IVar="-1" Cut="0.0000000000000000e+00" cType="1" res="2.4716882035136223e-02" rms="3.8264626264572144e-01" purity="7.1395701169967651e-01" nType="-99"/>
          <Node pos="r" depth="2" NCoef="0" IVar="-1" Cut="0.0000000000000000e+00" cType="1" res="-6.5188477747142315e-03" rms="4.1272780299186707e-01" purity="5.5574649572372437e-01" nType="-99"/>
        </Node>
      </Node>
    </BinaryTree>
    <BinaryTree type="DecisionTree" boostWeight="1.0000000000000000e+00" itree="19">
      <Node pos="s" depth="0" NCoef="0" IVar="6" Cut="6.5701216459274292e-01" cType="1" res="4.2300471104681492e-03" rms="3.8452389836311340e-01" purity="5.0029063224792480e-01" nType="0">
        <Node pos="l" depth="1" NCoef="0" IVar="6" Cut="2.0614337921142578e-01" cType="1" res="-8.3496265113353729e-02" rms="2.9942896962165833e-01" purity="1.0943806916475296e-01" nType="0">
          <Node pos="l" depth="2" NCoef="0" IVar="-1" Cut="0.0000000000000000e+00" cType="1" res="-4.4730540364980698e-02" rms="2.0018868148326874e-01" purity="4.1934009641408920e-02" nType="-99"/>
          <Node pos="r" depth="2" NCoef="0" IVar="-1" Cut="0.0000000000000000e+00" cType="1" res="-1.7391759902238846e-02" rms="3.5186886787414551e-01" purity="1.5820549428462982e-01" nType="-99"/>
        </Node>
        <Node pos="r" depth="1" NCoef="0" IVar="3" Cut="-1.2797662056982517e-02" cType="1" res="5.0440113991498947e-02" rms="4.1512277722358704e-01" purity="7.0617318153381348e-01" nType="0">
          <Node pos="l" depth="2" NCoef="0" IVar="-1" Cut="0.0000000000000000e+00" cType="1" res="2.3296443745493889e-02" rms="3.9528089761734009e-01" purity="7.5998771190643311e-01" nType="-99"/>
          <Node pos="r" depth="2" NCoef="0" IVar="-1" Cut="0.0000000000000000e+00" cType="1" res="-8.8138080900534987e-04" rms="4.3332615494728088e-01" purity="6.3709002733230591e-01" nType="-99"/>
        </Node>
      </Node>
    </BinaryTree>
    <BinaryTree type="DecisionTree" boostWeight="1.0000000000000000e+00" itree="20">
      <Node pos="s" depth="0" NCoef="0" IVar="7" Cut="1.1781269531250000e+03" cType="1" res="-5.4557542316615582e-03" rms="3.8646325469017029e-01" purity="4.9182569980621338e-01" nType="0">
        <Node pos="l" depth="1" NCoef="0" IVar="7" Cut="5.7270574951171875e+02" cType="1" res="-5.4191198199987411e-02" rms="3.8424143195152283e-01" purity="3.0326649546623230e-01" nType="0">
          <Node pos="l" depth="2" NCoef="0" IVar="-1" Cut="0.0000000000000000e+00" cType="1" res="-3.6969810724258423e-02" rms="2.8025734424591064e-01" purity="1.0105722397565842e-01" nType="-99"/>
          <Node pos="r" depth="2" NCoef="0" IVar="-1" Cut="0.0000000000000000e+00" cType="1" res="-4.5050149783492088e-03" rms="4.3621841073036194e-01" purity="4.3749433755874634e-01" nType="-99"/>
        </Node>
        <Node pos="r" depth="1" NCoef="0" IVar="1" Cut="1.3631331920623779e+00" cType="1" res="6.1210766434669495e-02" rms="3.7947699427604675e-01" purity="7.4976086616516113e-01" nType="0">
          <Node pos="l" depth="2" NCoef="0" IVar="-1" Cut="0.0000000000000000e+00" cType="1" res="2.4248711764812469e-02" rms="3.5767045617103577e-01" purity="8.0483138561248779e-01" nType="-99"/>
          <Node pos="r" depth="2" NCoef="0" IVar="-1" Cut="0.0000000000000000e+00" cType="1" res="-2.8660586103796959e-03" rms="4.3029040098190308e-01" purity="5.8470022678375244e-01" nType="-99"/>
        </Node>
      </Node>
    </BinaryTree>
    <BinaryTree type="DecisionTree" boostWeight="1.0000000000000000e+00" itree="21">
      <Node pos="s" depth="0" NCoef="0" IVar="6" Cut="5.7124406099319458e-01" cType="1" res="-2.3829434940125793e-04" rms="3.7755304574966431e-01" purity="4.9484434723854065e-01" nType="0">
        <Node pos="l" depth="1" NCoef="0" IVar="6" Cut="1.8963666260242462e-01" cType="1" res="-8.2231700420379639e-02" rms="2.7565127611160278e-01" purity="9.0326830744743347e-02" nType="0">
          <Node pos="l" depth="2" NCoef="0" IVar="-1" Cut="0.0000000000000000e+00" cType="1" res="-5.0858046859502792e-02" rms="1.4459727704524994e-01" purity="1.9893929362297058e-02" nType="-99"/>
          <Node pos="r" depth="2" NCoef="0" IVar="-1" Cut="0.0000000000000000e+00" cType="1" res="-1.9096795469522476e-02" rms="3.2841724157333374e-01" purity="1.3319721817970276e-01" nType="-99"/>
        </Node>
        <Node pos="r" depth="1" NCoef="0" IVar="1" Cut="1.5170695781707764e+00" cType="1" res="3.7425313144922256e-02" rms="4.1062772274017334e-01" purity="6.8065911531448364e-01" nType="0">
          <Node pos="l" depth="2" NCoef="0" IVar="-1" Cut="0.0000000000000000e+00" cType="1" res="1.6223955899477005e-02" rms="3.9957451820373535e-01" purity="7.2941565513610840e-01" nType="-99"/>
          <Node pos="r" depth="2" NCoef="0" IVar="-1" Cut="0.0000000000000000e+00" cType="1" res="-1.4795989729464054e-02" rms="4.3850916624069214e-01" purity="4.8174732923507690e-01" nType="-99"/>
        </Node>
      </Node>
    </BinaryTree>
    <BinaryTree type="DecisionTree" boostWeight="1.0000000000000000e+00" itree="22">
      <Node pos="s" depth="0" NCoef="0" IVar="6" Cut="3.5707265138626099e-01" cType="1" res="7.7222241088747978e-03" rms="3.8386338949203491e-01" purity="5.0035244226455688e-01" nType="0">
        <Node pos="l" depth="1" NCoef="0" IVar="4" Cut="1.3479510742187500e+04" cType="1" res="-7.8111886978149414e-02" rms="2.4054408073425293e-01" purity="6.5237998962402344e-02" nType="0">
          <Node pos="l" depth="2" NCoef="0" IVar="-1" Cut="0.0000000000000000e+00" cType="1" res="-3.8940675556659698e-02" rms="2.0785441994667053e-01" purity="4.7070495784282684e-02" nType="-99"/>
          <Node pos="r" depth="2" NCoef="0" IVar="-1" Cut="0.0000000000000000e+00" cType="1" res="8.4146521985530853e-03" rms="3.9438658952713013e-01" purity="2.0100225508213043e-01" nType="-99"/>
        </Node>
        <Node pos="r" depth="1" NCoef="0" IVar="7" Cut="1.5906232910156250e+03" cType="1" res="3.3253345638513565e-02" rms="4.1367411613464355e-01" purity="6.2977612018585205e-01" nType="0">
          <Node pos="l" depth="2" NCoef="0" IVar="-1" Cut="0.0000000000000000e+00" cType="1" res="9.6152262995019555e-04" rms="4.4117045402526855e-01" purity="5.2985668182373047e-01" nType="-99"/>
          <Node pos="r" depth="2" NCoef="0" IVar="-1" Cut="0.0000000000000000e+00" cType="1" res="2.7036923915147781e-02" rms="3.4240394830703735e-01" purity="8.3575826883316040e-01" nType="-99"/>
        </Node>
      </Node>
    </BinaryTree>
    <BinaryTree type="DecisionTree" boostWeight="1.0000000000000000e+00" itree="23">
      <Node pos="s" depth="0" NCoef="0" IVar="7" Cut="6.6511352539062500e+02" cType="1" res="-6.6697234287858009e-03" rms="3.7777549028396606e-01" purity="4.9107298254966736e-01" nType="0">
        <Node pos="l" depth="1" NCoef="0" IVar="4" Cut="7.5291455078125000e+03" cType="1" res="-7.4059255421161652e-02" rms="3.1213083863258362e-01" purity="1.5101426839828491e-01" nType="0">
          <Node pos="l" depth="2" NCoef="0" IVar="-1" Cut="0.0000000000000000e+00" cType="1" res="-9.3046864494681358e-03" rms="3.5063967108726501e-01" purity="2.1235775947570801e-01" nType="-99"/>
          <Node pos="r" depth="2" NCoef="0" IVar="-1" Cut="0.0000000000000000e+00" cType="1" res="-3.7169128656387329e-02" rms="2.7964565157890320e-01" purity="1.1045467853546143e-01" nType="-99"/>
        </Node>
        <Node pos="r" depth="1" NCoef="0" IVar="1" Cut="2.3947083950042725e+00" cType="1" res="2.2541465237736702e-02" rms="3.9940416812896729e-01" purity="6.3847744464874268e-01" nType="0">
          <Node pos="l" depth="2" NCoef="0" IVar="-1" Cut="0.0000000000000000e+00" cType="1" res="8.7269227951765060e-03" rms="3.9964342117309570e-01" purity="6.6077458858489990e-01" nType="-99"/>
          <Node pos="r" depth="2" NCoef="0" IVar="-1" Cut="0.0000000000000000e+00" cType="1" res="-4.5936137437820435e-02" rms="3.3482745289802551e-01" purity="1.7931869626045227e-01" nType="-99"/>
        </Node>
      </Node>
    </BinaryTree>
    <BinaryTree type="DecisionTree" boostWeight="1.0000000000000000e+00" itree="24">
      <Node pos="s" depth="0" NCoef="0" IVar="6" Cut="3.5712528228759766e-01" cType="1" res="7.4422559700906277e-03" rms="3.7848743796348572e-01" purity="5.0056642293930054e-01" nType="0">
        <Node pos="l" depth="1" NCoef="0" IVar="2" Cut="-1.2835474014282227e+00" cType="1" res="-7.1706466376781464e-02" rms="2.2648121416568756e-01" purity="5.6917734444141388e-02" nType="0">
          <Node pos="l" depth="2" NCoef="0" IVar="-1" Cut="0.0000000000000000e+00" cType="1" res="-4.6520024538040161e-02" rms="1.5345114469528198e-01" purity="2.5628199800848961e-02" nType="-99"/>
          <Node pos="r" depth="2" NCoef="0" IVar="-1" Cut="0.0000000000000000e+00" cType="1" res="-2.3348640650510788e-02" rms="2.6206681132316589e-01" purity="7.7658057212829590e-02" nType="-99"/>
        </Node>
        <Node pos="r" depth="1" NCoef="0" IVar="3" Cut="2.9721534252166748e-01" cType="1" res="3.1572706997394562e-02" rms="4.1084858775138855e-01" purity="6.3582378625869751e-01" nType="0">
          <Node pos="l" depth="2" NCoef="0" IVar="-1" Cut="0.0000000000000000e+00" cType="1" res="1.4058104716241360e-02" rms="4.0513274073600769e-01" purity="6.6696089506149292e-01" nType="-99"/>
          <Node pos="r" depth="2" NCoef="0" IVar="-1" Cut="0.0000000000000000e+00" cType="1" res="-1.3686207123100758e-02" rms="4.2151969671249390e-01" purity="5.1639002561569214e-01" nType="-99"/>
        </Node>
      </Node>
    </BinaryTree>
    <BinaryTree type="DecisionTree" boostWeight="1.0000000000000000e+00" itree="25">
      <Node pos="s" depth="0" NCoef="0" IVar="6" Cut="6.5698313713073730e-01" cType="1" res="9.3041975051164627e-03" rms="3.7712988257408142e-01" purity="5.0922143459320068e-01" nType="0">
        <Node pos="l" depth="1" NCoef="0" IVar="3" Cut="-5.1845085620880127e-01" cType="1" res="-5.1894146949052811e-02" rms="2.9840761423110962e-01" purity="1.0913118720054626e-01" nType="0">
          <Node pos="l" depth="2" NCoef="0" IVar="-1" Cut="0.0000000000000000e+00" cType="1" res="1.0815554298460484e-02" rms="3.8097169995307922e-01" purity="2.1482963860034943e-01" nType="-99"/>
          <Node pos="r" depth="2" NCoef="0" IVar="-1" Cut="0.0000000000000000e+00" cType="1" res="-2.7357386425137520e-02" rms="2.7501893043518066e-01" purity="8.7107136845588684e-02" nType="-99"/>
        </Node>
        <Node pos="r" depth="1" NCoef="0" IVar="3" Cut="-2.5776386260986328e-01" cType="1" res="4.0049288421869278e-02" rms="4.0757438540458679e-01" purity="7.1022057533264160e-01" nType="0">
          <Node pos="l" depth="2" NCoef="0" IVar="-1" Cut="0.0000000000000000e+00" cType="1" res="2.3944297805428505e-02" rms="3.8404363393783569e-01" purity="7.8476995229721069e-01" nType="-99"/>
          <Node pos="r" depth="2" NCoef="0" IVar="-1" Cut="0.0000000000000000e+00" cType="1" res="2.8817837592214346e-03" rms="4.1792735457420349e-01" purity="6.6695046424865723e-01" nType="-99"/>
        </Node>
      </Node>
    </BinaryTree>
    <BinaryTree type="DecisionTree" boostWeight="1.0000000000000000e+00" itree="26">
      <Node pos="s" depth="0" NCoef="0" IVar="3" Cut="-2.4438214302062988e-01" cType="1" res="-2.8393543325364590e-03" rms="3.7204566597938538e-01" purity="4.9061340093612671e-01" nType="0">
        <Node pos="l" depth="1" NCoef="0" IVar="7" Cut="4.9963098144531250e+02" cType="1" res="4.6356111764907837e-02" rms="3.7157359719276428e-01" purity="5.8219224214553833e-01" nType="0">
          <Node pos="l" depth="2" NCoef="0" IVar="-1" Cut="0.0000000000000000e+00" cType="1" res="-2.0034313201904297e-02" rms="2.9246482253074646e-01" purity="1.4190219342708588e-01" nType="-99"/>
          <Node pos="r" depth="2" NCoef="0" IVar="-1" Cut="0.0000000000000000e+00" cType="1" res="1.9591119140386581e-02" rms="3.8388594985008240e-01" purity="6.8371146917343140e-01" nType="-99"/>
        </Node>
        <Node pos="r" depth="1" NCoef="0" IVar="7" Cut="1.8296745605468750e+03" cType="1" res="-3.2158464193344116e-02" rms="3.6922243237495422e-01" purity="4.3603500723838806e-01" nType="0">
          <Node pos="l" depth="2" NCoef="0" IVar="-1" Cut="0.0000000000000000e+00" cType="1" res="-1.6130525618791580e-02" rms="3.7270310521125793e-01" purity="3.4856554865837097e-01" nType="-99"/>
          <Node pos="r" depth="2" NCoef="0" IVar="-1" Cut="0.0000000000000000e+00" cType="1" res="1.5805093571543694e-02" rms="3.4264516830444336e-01" purity="7.7476936578750610e-01" nType="-99"/>
        </Node>
      </Node>
    </BinaryTree>
    <BinaryTree type="DecisionTree" boostWeight="1.0000000000000000e+00" itree="27">
      <Node pos="s" depth="0" NCoef="0" IVar="1" Cut="2.6413807868957520e+00" cType="1" res="1.5940385637804866e-03" rms="3.7363776564598083e-01" purity="5.0245201587677002e-01" nType="0">
        <Node pos="l" depth="1" NCoef="0" IVar="6" Cut="5.2845007181167603e-01" cType="1" res="9.2129595577716827e-03" rms="3.7516057491302490e-01" purity="5.1811301708221436e-01" nType="0">
          <Node pos="l" depth="2" NCoef="0" IVar="-1" Cut="0.0000000000000000e+00" cType="1" res="-2.4993924424052238e-02" rms="2.6385042071342468e-01" purity="8.1332221627235413e-02" nType="-99"/>
          <Node pos="r" depth="2" NCoef="0" IVar="-1" Cut="0.0000000000000000e+00" cType="1" res="9.5701981335878372e-03" rms="4.0846219658851624e-01" purity="6.9388663768768311e-01" nType="-99"/>
        </Node>
        <Node pos="r" depth="1" NCoef="0" IVar="-1" Cut="0.0000000000000000e+00" cType="1" res="-6.9144681096076965e-02" rms="2.3292875289916992e-01" purity="4.2207229882478714e-02" nType="-99"/>
      </Node>
    </BinaryTree>
    <BinaryTree type="DecisionTree" boostWeight="1.0000000000000000e+00" itree="28">
      <Node pos="s" depth="0" NCoef="0" IVar="4" Cut="1.2588455078125000e+04" cType="1" res="-1.6593384789302945e-03" rms="3.7347146868705750e-01" purity="4.9283626675605774e-01" nType="0">
        <Node pos="l" depth="1" NCoef="0" IVar="1" Cut="1.8058596849441528e+00" cType="1" res="-2.4599019438028336e-02" rms="3.7913292646408081e-01" purity="4.2172858119010925e-01" nType="0">
          <Node pos="l" depth="2" NCoef="0" IVar="-1" Cut="0.0000000000000000e+00" cType="1" res="-2.1370530594140291e-03" rms="3.8353079557418823e-01" purity="4.6464046835899353e-01" nType="-99"/>
          <Node pos="r" depth="2" NCoef="0" IVar="-1" Cut="0.0000000000000000e+00" cType="1" res="-4.0268242359161377e-02" rms="3.3287021517753601e-01" purity="1.6492429375648499e-01" nType="-99"/>
        </Node>
        <Node pos="r" depth="1" NCoef="0" IVar="7" Cut="1.2075262451171875e+03" cType="1" res="6.1432782560586929e-02" rms="3.4976312518119812e-01" purity="6.8840694427490234e-01" nType="0">
          <Node pos="l" depth="2" NCoef="0" IVar="-1" Cut="0.0000000000000000e+00" cType="1" res="-1.4580387622117996e-02" rms="3.8466408848762512e-01" purity="3.0840870738029480e-01" nType="-99"/>
          <Node pos="r" depth="2" NCoef="0" IVar="-1" Cut="0.0000000000000000e+00" cType="1" res="2.9563285410404205e-02" rms="3.3001786470413208e-01" purity="8.0844503641128540e-01" nType="-99"/>
        </Node>
      </Node>
    </BinaryTree>
    <BinaryTree type="DecisionTree" boostWeight="1.0000000000000000e+00" itree="29">
      <Node pos="s" depth="0" NCoef="0" IVar="3" Cut="-6.0982400178909302e-01" cType="1" res="1.2402188964188099e-02" rms="3.7976533174514771e-01" purity="5.0619292259216309e-01" nType="0">
        <Node pos="l" depth="1" NCoef="0" IVar="6" Cut="3.1454071402549744e-01" cType="1" res="9.5616139471530914e-02" rms="3.5698327422142029e-01" purity="6.6524243354797363e-01" nType="0">
          <Node pos="l" depth="2" NCoef="0" IVar="-1" Cut="0.0000000000000000e+00" cType="1" res="-2.4793501943349838e-02" rms="2.6231318712234497e-01" purity="7.8859485685825348e-02" nType="-99"/>
          <Node pos="r" depth="2" NCoef="0" IVar="-1" Cut="0.0000000000000000e+00" cType="1" res="3.5351533442735672e-02" rms="3.6534854769706726e-01" purity="7.8055459260940552e-01" nType="-99"/>
        </Node>
        <Node pos="r" depth="1" NCoef="0" IVar="4" Cut="1.5401818359375000e+04" cType="1" res="-2.6732545811682940e-03" rms="3.8181242346763611e-01" purity="4.7737872600555420e-01" nType="0">
          <Node pos="l" depth="2" NCoef="0" IVar="-1" Cut="0.0000000000000000e+00" cType="1" res="-4.9875061959028244e-03" rms="3.8474947214126587e-01" purity="4.3414044380187988e-01" nType="-99"/>
          <Node pos="r" depth="2" NCoef="0" IVar="-1" Cut="0.0000000000000000e+00" cType="1" res="2.3190977051854134e-02" rms="3.5255256295204163e-01" purity="7.3873126506805420e-01" nType="-99"/>
        </Node>
      </Node>
    </BinaryTree>
    <BinaryTree type="DecisionTree" boostWeight="1.0000000000000000e+00" itree="30">
      <Node pos="s" depth="0" NCoef="0" IVar="6" Cut="6.1412709951400757e-01" cType="1" res="-6.4897392876446247e-03" rms="3.7556156516075134e-01" purity="4.9208307266235352e-01" nType="0">
        <Node pos="l" depth="1" NCoef="0" IVar="0" Cut="2.8422925472259521e+00" cType="1" res="-5.0676919519901276e-02" rms="2.7575400471687317e-01" purity="9.0463921427726746e-02" nType="0">
          <Node pos="l" depth="2" NCoef="0" IVar="-1" Cut="0.0000000000000000e+00" cType="1" res="-3.3202838152647018e-02" rms="2.3638814687728882e-01" purity="6.2877751886844635e-02" nType="-99"/>
          <Node pos="r" depth="2" NCoef="0" IVar="-1" Cut="0.0000000000000000e+00" cType="1" res="-7.9395147040486336e-03" rms="3.1577226519584656e-01" purity="1.2536971271038055e-01" nType="-99"/>
        </Node>
        <Node pos="r" depth="1" NCoef="0" IVar="3" Cut="-1.5623389184474945e-01" cType="1" res="1.4733670279383659e-02" rms="4.1337779164314270e-01" purity="6.8498355150222778e-01" nType="0">
          <Node pos="l" depth="2" NCoef="0" IVar="-1" Cut="0.0000000000000000e+00" cType="1" res="1.6481162980198860e-02" rms="3.9554738998413086e-01" purity="7.6112622022628784e-01" nType="-99"/>
          <Node pos="r" depth="2" NCoef="0" IVar="-1" Cut="0.0000000000000000e+00" cType="1" res="-5.5058319121599197e-03" rms="4.2386421561241150e-01" purity="6.2336283922195435e-01" nType="-99"/>
        </Node>
      </Node>
    </BinaryTree>
    <BinaryTree type="DecisionTree" boostWeight="1.0000000000000000e+00" itree="31">
      <Node pos="s" depth="0" NCoef="0" IVar="1" Cut="2.6413807868957520e+00" cType="1" res="1.3450984843075275e-03" rms="3.7112578749656677e-01" purity="4.9622339010238647e-01" nType="0">
        <Node pos="l" depth="1" NCoef="0" IVar="6" Cut="9.5687413215637207e-01" cType="1" res="7.5214137323200703e-03" rms="3.7384399771690369e-01" purity="5.1118391752243042e-01" nType="0">
          <Node pos="l" depth="2" NCoef="0" IVar="-1" Cut="0.0000000000000000e+00" cType="1" res="-5.2545727230608463e-03" rms="3.8297706842422485e-01" purity="3.2442992925643921e-01" nType="-99"/>
          <Node pos="r" depth="2" NCoef="0" IVar="-1" Cut="0.0000000000000000e+00" cType="1" res="1.5833893790841103e-02" rms="3.5310471057891846e-01" purity="8.3936381340026855e-01" nType="-99"/>
        </Node>
        <Node pos="r" depth="1" NCoef="0" IVar="-1" Cut="0.0000000000000000e+00" cType="1" res="-7.5509101152420044e-02" rms="1.6533182561397552e-01" purity="0.0000000000000000e+00" nType="-99"/>
      </Node>
    </BinaryTree>
    <BinaryTree type="DecisionTree" boostWeight="1.0000000000000000e+00" itree="32">
      <Node pos="s" depth="0" NCoef="0" IVar="7" Cut="6.4855908203125000e+02" cType="1" res="3.4105391241610050e-03" rms="3.7334337830543518e-01" purity="4.9782711267471313e-01" nType="0">
        <Node pos="l" depth="1" NCoef="0" IVar="7" Cut="5.8449859619140625e+02" cType="1" res="-4.8231996595859528e-02" rms="3.0002614855766296e-01" purity="1.4138630032539368e-01" nType="0">
          <Node pos="l" depth="2" NCoef="0" IVar="-1" Cut="0.0000000000000000e+00" cType="1" res="-3.1201571226119995e-02" rms="2.6837664842605591e-01" purity="9.7147583961486816e-02" nType="-99"/>
          <Node pos="r" depth="2" NCoef="0" IVar="-1" Cut="0.0000000000000000e+00" cType="1" res="2.7826437726616859e-02" rms="4.1313233971595764e-01" purity="3.9410185813903809e-01" nType="-99"/>
        </Node>
        <Node pos="r" depth="1" NCoef="0" IVar="3" Cut="4.7710690647363663e-02" cType="1" res="2.3815911263227463e-02" rms="3.9676490426063538e-01" purity="6.3866662979125977e-01" nType="0">
          <Node pos="l" depth="2" NCoef="0" IVar="-1" Cut="0.0000000000000000e+00" cType="1" res="1.5267993323504925e-02" rms="3.8770273327827454e-01" purity="6.9637989997863770e-01" nType="-99"/>
          <Node pos="r" depth="2" NCoef="0" IVar="-1" Cut="0.0000000000000000e+00" cType="1" res="-4.6565961092710495e-03" rms="4.0611866116523743e-01" purity="5.5487257242202759e-01" nType="-99"/>
        </Node>
      </Node>
    </BinaryTree>
    <BinaryTree type="DecisionTree" boostWeight="1.0000000000000000e+00" itree="33">
      <Node pos="s" depth="0" NCoef="0" IVar="6" Cut="9.5689368247985840e-01" cType="1" res="-7.7439290471374989e-03" rms="3.7196287512779236e-01" purity="4.9635466933250427e-01" nType="0">
        <Node pos="l" depth="1" NCoef="0" IVar="5" Cut="8.4726083278656006e-01" cType="1" res="-3.4330613911151886e-02" rms="3.7565699219703674e-01" purity="2.9369571805000305e-01" nType="0">
          <Node pos="l" depth="2" NCoef="0" IVar="-1" Cut="0.0000000000000000e+00" cType="1" res="-4.1557550430297852e-03" rms="3.9094460010528564e-01" purity="3.3135771751403809e-01" nType="-99"/>
          <Node pos="r" depth="2" NCoef="0" IVar="-1" Cut="0.0000000000000000e+00" cType="1" res="-2.3214638233184814e-02" rms="3.4368374943733215e-01" purity="2.2670187056064606e-01" nType="-99"/>
        </Node>
        <Node pos="r" depth="1" NCoef="0" IVar="5" Cut="1.6145721673965454e+00" cType="1" res="3.4993834793567657e-02" rms="3.6187577247619629e-01" purity="8.2212644815444946e-01" nType="0">
          <Node pos="l" depth="2" NCoef="0" IVar="-1" Cut="0.0000000000000000e+00" cType="1" res="1.6667013987898827e-02" rms="3.4348228573799133e-01" purity="8.5156077146530151e-01" nType="-99"/>
          <Node pos="r" depth="2" NCoef="0" IVar="-1" Cut="0.0000000000000000e+00" cType="1" res="-2.3518897593021393e-02" rms="4.6354579925537109e-01" purity="5.8898216485977173e-01" nType="-99"/>
        </Node>
      </Node>
    </BinaryTree>
    <BinaryTree type="DecisionTree" boostWeight="1.0000000000000000e+00" itree="34">
      <Node pos="s" depth="0" NCoef="0" IVar="4" Cut="1.6986048828125000e+04" cType="1" res="5.8423908194527030e-04" rms="3.6821746826171875e-01" purity="4.9631819128990173e-01" nType="0">
        <Node pos="l" depth="1" NCoef="0" IVar="1" Cut="3.3394941687583923e-01" cType="1" res="-8.3533152937889099e-03" rms="3.7136018276214600e-01" purity="4.6904829144477844e-01" nType="0">
          <Node pos="l" depth="2" NCoef="0" IVar="-1" Cut="0.0000000000000000e+00" cType="1" res="1.0686979629099369e-02" rms="3.6699092388153076e-01" purity="5.8976864814758301e-01" nType="-99"/>
          <Node pos="r" depth="2" NCoef="0" IVar="-1" Cut="0.0000000000000000e+00" cType="1" res="-9.2247249558568001e-03" rms="3.7169966101646423e-01" purity="4.1167134046554565e-01" nType="-99"/>
        </Node>
        <Node pos="r" depth="1" NCoef="0" IVar="7" Cut="2.4485021972656250e+03" cType="1" res="9.9145948886871338e-02" rms="3.1520929932594299e-01" purity="7.9704546928405762e-01" nType="0">
          <Node pos="l" depth="2" NCoef="0" IVar="-1" Cut="0.0000000000000000e+00" cType="1" res="2.3053716868162155e-02" rms="3.2297083735466003e-01" purity="7.3046779632568359e-01" nType="-99"/>
          <Node pos="r" depth="2" NCoef="0" IVar="-1" Cut="0.0000000000000000e+00" cType="1" res="4.0343876928091049e-02" rms="3.0675026774406433e-01" purity="8.5403555631637573e-01" nType="-99"/>
        </Node>
      </Node>
    </BinaryTree>
    <BinaryTree type="DecisionTree" boostWeight="1.0000000000000000e+00" itree="35">
      <Node pos="s" depth="0" NCoef="0" IVar="7" Cut="1.5939652099609375e+03" cType="1" res="1.1213105608476326e-04" rms="3.6508384346961975e-01" purity="4.9741020798683167e-01" nType="0">
        <Node pos="l" depth="1" NCoef="0" IVar="3" Cut="2.4907128512859344e-01" cType="1" res="-1.8532587215304375e-02" rms="3.7378999590873718e-01" purity="3.8607981801033020e-01" nType="0">
          <Node pos="l" depth="2" NCoef="0" IVar="-1" Cut="0.0000000000000000e+00" cType="1" res="6.9481180980801582e-04" rms="3.7800586223602295e-01" purity="4.3288907408714294e-01" nType="-99"/>
          <Node pos="r" depth="2" NCoef="0" IVar="-1" Cut="0.0000000000000000e+00" cType="1" res="-2.5381242856383324e-02" rms="3.5441592335700989e-01" purity="2.5008848309516907e-01" nType="-99"/>
        </Node>
        <Node pos="r" depth="1" NCoef="0" IVar="4" Cut="1.0764476562500000e+04" cType="1" res="5.2079409360885620e-02" rms="3.3419623970985413e-01" purity="8.0771458148956299e-01" nType="0">
          <Node pos="l" depth="2" NCoef="0" IVar="-1" Cut="0.0000000000000000e+00" cType="1" res="-1.2559669092297554e-02" rms="3.7721130251884460e-01" purity="7.3337078094482422e-01" nType="-99"/>
          <Node pos="r" depth="2" NCoef="0" IVar="-1" Cut="0.0000000000000000e+00" cType="1" res="2.4758232757449150e-02" rms="3.1991258263587952e-01" purity="8.2485461235046387e-01" nType="-99"/>
        </Node>
      </Node>
    </BinaryTree>
    <BinaryTree type="DecisionTree" boostWeight="1.0000000000000000e+00" itree="36">
      <Node pos="s" depth="0" NCoef="0" IVar="1" Cut="1.8365160226821899e+00" cType="1" res="1.4506052248179913e-02" rms="3.7710762023925781e-01" purity="5.0894510746002197e-01" nType="0">
        <Node pos="l" depth="1" NCoef="0" IVar="6" Cut="1.8569520115852356e-01" cType="1" res="2.5098808109760284e-02" rms="3.8044103980064392e-01" purity="5.4802781343460083e-01" nType="0">
          <Node pos="l" depth="2" NCoef="0" IVar="-1" Cut="0.0000000000000000e+00" cType="1" res="-3.0835475772619247e-02" rms="2.0303276181221008e-01" purity="4.2299095541238785e-02" nType="-99"/>
          <Node pos="r" depth="2" NCoef="0" IVar="-1" Cut="0.0000000000000000e+00" cType="1" res="1.0406679473817348e-02" rms="3.9619675278663635e-01" purity="6.1187273263931274e-01" nType="-99"/>
        </Node>
        <Node pos="r" depth="1" NCoef="0" IVar="0" Cut="2.9919080734252930e+00" cType="1" res="-5.4088268429040909e-02" rms="3.4702450037002563e-01" purity="2.5586175918579102e-01" nType="0">
          <Node pos="l" depth="2" NCoef="0" IVar="-1" Cut="0.0000000000000000e+00" cType="1" res="-3.0047683045268059e-02" rms="3.2224392890930176e-01" purity="2.0316193997859955e-01" nType="-99"/>
          <Node pos="r" depth="2" NCoef="0" IVar="-1" Cut="0.0000000000000000e+00" cType="1" res="9.7964312881231308e-03" rms="3.8073942065238953e-01" purity="3.6788740754127502e-01" nType="-99"/>
        </Node>
      </Node>
    </BinaryTree>
    <BinaryTree type="DecisionTree" boostWeight="1.0000000000000000e+00" itree="37">
      <Node pos="s" depth="0" NCoef="0" IVar="1" Cut="1.3021899461746216e+00" cType="1" res="-6.5459320321679115e-03" rms="3.7634202837944031e-01" purity="4.8360103368759155e-01" nType="0">
        <Node pos="l" depth="1" NCoef="0" IVar="3" Cut="-1.8805824220180511e-01" cType="1" res="1.4078884385526180e-02" rms="3.8184195756912231e-01" purity="5.5272251367568970e-01" nType="0">
          <Node pos="l" depth="2" NCoef="0" IVar="-1" Cut="0.0000000000000000e+00" cType="1" res="1.3292360119521618e-02" rms="3.7158364057540894e-01" purity="6.0674393177032471e-01" nType="-99"/>
          <Node pos="r" depth="2" NCoef="0" IVar="-1" Cut="0.0000000000000000e+00" cType="1" res="-3.2040437217801809e-03" rms="3.8896206021308899e-01" purity="5.0561684370040894e-01" nType="-99"/>
        </Node>
        <Node pos="r" depth="1" NCoef="0" IVar="7" Cut="1.5936457519531250e+03" cType="1" res="-5.3496871143579483e-02" rms="3.5912102460861206e-01" purity="3.2625100016593933e-01" nType="0">
          <Node pos="l" depth="2" NCoef="0" IVar="-1" Cut="0.0000000000000000e+00" cType="1" res="-2.6932854205369949e-02" rms="3.4248200058937073e-01" purity="2.0294265449047089e-01" nType="-99"/>
          <Node pos="r" depth="2" NCoef="0" IVar="-1" Cut="0.0000000000000000e+00" cType="1" res="2.9855312313884497e-03" rms="3.9266091585159302e-01" purity="6.5151137113571167e-01" nType="-99"/>
        </Node>
      </Node>
    </BinaryTree>
    <BinaryTree type="DecisionTree" boostWeight="1.0000000000000000e+00" itree="38">
      <Node pos="s" depth="0" NCoef="0" IVar="6" Cut="4.8562708497047424e-01" cType="1" res="5.9706605970859528e-03" rms="3.7058034539222717e-01" purity="5.0088757276535034e-01" nType="0">
        <Node pos="l" depth="1" NCoef="0" IVar="4" Cut="7.8229697265625000e+03" cType="1" res="-4.0498163551092148e-02" rms="2.4637813866138458e-01" purity="7.0867016911506653e-02" nType="0">
          <Node pos="l" depth="2" NCoef="0" IVar="-1" Cut="0.0000000000000000e+00" cType="1" res="-4.9212723970413208e-03" rms="2.7075126767158508e-01" purity="8.6472384631633759e-02" nType="-99"/>
          <Node pos="r" depth="2" NCoef="0" IVar="-1" Cut="0.0000000000000000e+00" cType="1" res="-2.7910830453038216e-02" rms="2.3214775323867798e-01" purity="6.3353747129440308e-02" nType="-99"/>
        </Node>
        <Node pos="r" depth="1" NCoef="0" IVar="3" Cut="-3.2046017050743103e-01" cType="1" res="2.4043317884206772e-02" rms="4.0738844871520996e-01" purity="6.6813117265701294e-01" nType="0">
          <Node pos="l" depth="2" NCoef="0" IVar="-1" Cut="0.0000000000000000e+00" cType="1" res="1.8931699916720390e-02" rms="3.8972178101539612e-01" purity="7.5068640708923340e-01" nType="-99"/>
          <Node pos="r" depth="2" NCoef="0" IVar="-1" Cut="0.0000000000000000e+00" cType="1" res="1.2316161300987005e-03" rms="4.1391047835350037e-01" purity="6.2967741489410400e-01" nType="-99"/>
        </Node>
      </Node>
    </BinaryTree>
    <BinaryTree type="DecisionTree" boostWeight="1.0000000000000000e+00" itree="39">
      <Node pos="s" depth="0" NCoef="0" IVar="4" Cut="1.5320627929687500e+04" cType="1" res="2.1972930990159512e-03" rms="3.6632603406906128e-01" purity="5.0271993875503540e-01" nType="0">
        <Node pos="l" depth="1" NCoef="0" IVar="1" Cut="1.8820022344589233e+00" cType="1" res="-6.5546263940632343e-03" rms="3.6960580945014954e-01" purity="4.6335452795028687e-01" nType="0">
          <Node pos="l" depth="2" NCoef="0" IVar="-1" Cut="0.0000000000000000e+00" cType="1" res="1.0044014779850841e-03" rms="3.7463247776031494e-01" purity="5.0331258773803711e-01" nType="-99"/>
          <Node pos="r" depth="2" NCoef="0" IVar="-1" Cut="0.0000000000000000e+00" cType="1" res="-2.6275901123881340e-02" rms="3.2392501831054688e-01" purity="1.8135529756546021e-01" nType="-99"/>
        </Node>
        <Node pos="r" depth="1" NCoef="0" IVar="0" Cut="2.8421401977539062e+00" cType="1" res="6.0171999037265778e-02" rms="3.3813813328742981e-01" purity="7.6348543167114258e-01" nType="0">
          <Node pos="l" depth="2" NCoef="0" IVar="-1" Cut="0.0000000000000000e+00" cType="1" res="1.2005661614239216e-02" rms="3.4917256236076355e-01" purity="7.2440075874328613e-01" nType="-99"/>
          <Node pos="r" depth="2" NCoef="0" IVar="-1" Cut="0.0000000000000000e+00" cType="1" res="2.8265412896871567e-02" rms="3.2183375954627991e-01" purity="8.1126391887664795e-01" nType="-99"/>
        </Node>
      </Node>
    </BinaryTree>
    <BinaryTree type="DecisionTree" boostWeight="1.0000000000000000e+00" itree="40">
      <Node pos="s" depth="0" NCoef="0" IVar="1" Cut="2.1433637142181396e+00" cType="1" res="5.0254091620445251e-03" rms="3.7365558743476868e-01" purity="4.9871659278869629e-01" nType="0">
        <Node pos="l" depth="1" NCoef="0" IVar="6" Cut="2.2852873802185059e-01" cType="1" res="1.3325589708983898e-02" rms="3.7736466526985168e-01" purity="5.2940946817398071e-01" nType="0">
          <Node pos="l" depth="2" NCoef="0" IVar="-1" Cut="0.0000000000000000e+00" cType="1" res="-2.1124726161360741e-02" rms="2.3107139766216278e-01" purity="5.5781219154596329e-02" nType="-99"/>
          <Node pos="r" depth="2" NCoef="0" IVar="-1" Cut="0.0000000000000000e+00" cType="1" res="6.4714509062469006e-03" rms="3.9730972051620483e-01" purity="6.1410409212112427e-01" nType="-99"/>
        </Node>
        <Node pos="r" depth="1" NCoef="0" IVar="6" Cut="8.7102741003036499e-01" cType="1" res="-9.2451795935630798e-02" rms="3.1079509854316711e-01" purity="1.3825994729995728e-01" nType="0">
          <Node pos="l" depth="2" NCoef="0" IVar="-1" Cut="0.0000000000000000e+00" cType="1" res="-3.3885587006807327e-02" rms="2.0046906173229218e-01" purity="5.0915539264678955e-02" nType="-99"/>
          <Node pos="r" depth="2" NCoef="0" IVar="-1" Cut="0.0000000000000000e+00" cType="1" res="-3.3273290842771530e-02" rms="4.5818433165550232e-01" purity="3.2290557026863098e-01" nType="-99"/>
        </Node>
      </Node>
    </BinaryTree>
    <BinaryTree type="DecisionTree" boostWeight="1.0000000000000000e+00" itree="41">
      <Node pos="s" depth="0" NCoef="0" IVar="6" Cut="4.4275355339050293e-01" cType="1" res="-2.0786973182111979e-03" rms="3.6391606926918030e-01" purity="4.9607011675834656e-01" nType="0">
        <Node pos="l" depth="1" NCoef="0" IVar="7" Cut="1.1783251953125000e+03" cType="1" res="-3.9190463721752167e-02" rms="2.3131497204303741e-01" purity="6.1124794185161591e-02" nType="0">
          <Node pos="l" depth="2" NCoef="0" IVar="-1" Cut="0.0000000000000000e+00" cType="1" res="-1.9765507429838181e-02" rms="2.2495321929454803e-01" purity="5.7849608361721039e-02" nType="-99"/>
          <Node pos="r" depth="2" NCoef="0" IVar="-1" Cut="0.0000000000000000e+00" cType="1" res="-3.3474169671535492e-02" rms="2.6672208309173584e-01" purity="8.5260026156902313e-02" nType="-99"/>
        </Node>
        <Node pos="r" depth="1" NCoef="0" IVar="1" Cut="8.8845920562744141e-01" cType="1" res="1.1592923663556576e-02" rms="4.0101999044418335e-01" purity="6.5629988908767700e-01" nType="0">
          <Node pos="l" depth="2" NCoef="0" IVar="-1" Cut="0.0000000000000000e+00" cType="1" res="1.0765813291072845e-02" rms="3.8258665800094604e-01" purity="7.2729760408401489e-01" nType="-99"/>
          <Node pos="r" depth="2" NCoef="0" IVar="-1" Cut="0.0000000000000000e+00" cType="1" res="-5.6080063804984093e-03" rms="4.2138808965682983e-01" purity="5.6503325700759888e-01" nType="-99"/>
        </Node>
      </Node>
    </BinaryTree>
    <BinaryTree type="DecisionTree" boostWeight="1.0000000000000000e+00" itree="42">
      <Node pos="s" depth="0" NCoef="0" IVar="1" Cut="2.0260801315307617e+00" cType="1" res="-1.1372447013854980e-02" rms="3.7099283933639526e-01" purity="4.9232974648475647e-01" nType="0">
        <Node pos="l" depth="1" NCoef="0" IVar="7" Cut="2.0583964843750000e+03" cType="1" res="-2.8982898220419884e-03" rms="3.7570995092391968e-01" purity="5.2678632736206055e-01" nType="0">
          <Node pos="l" depth="2" NCoef="0" IVar="-1" Cut="0.0000000000000000e+00" cType="1" res="-4.1090110316872597e-03" rms="3.8308158516883850e-01" purity="4.7379672527313232e-01" nType="-99"/>
          <Node pos="r" depth="2" NCoef="0" IVar="-1" Cut="0.0000000000000000e+00" cType="1" res="2.1142197772860527e-02" rms="3.2307857275009155e-01" purity="8.3682310581207275e-01" nType="-99"/>
        </Node>
        <Node pos="r" depth="1" NCoef="0" IVar="7" Cut="7.3328460693359375e+02" cType="1" res="-9.7485758364200592e-02" rms="3.0610075592994690e-01" purity="1.4218667149543762e-01" nType="0">
          <Node pos="l" depth="2" NCoef="0" IVar="-1" Cut="0.0000000000000000e+00" cType="1" res="-1.9053220748901367e-02" rms="2.1098655462265015e-01" purity="7.2599239647388458e-02" nType="-99"/>
          <Node pos="r" depth="2" NCoef="0" IVar="-1" Cut="0.0000000000000000e+00" cType="1" res="-3.9308097213506699e-02" rms="3.5250651836395264e-01" purity="1.9329813122749329e-01" nType="-99"/>
        </Node>
      </Node>
    </BinaryTree>
    <BinaryTree type="DecisionTree" boostWeight="1.0000000000000000e+00" itree="43">
      <Node pos="s" depth="0" NCoef="0" IVar="4" Cut="1.2588455078125000e+04" cType="1" res="-6.6657812567427754e-04" rms="3.7689849734306335e-01" purity="5.0078177452087402e-01" nType="0">
        <Node pos="l" depth="1" NCoef="0" IVar="4" Cut="6.5869150390625000e+03" cType="1" res="-1.1687261983752251e-02" rms="3.8577395677566528e-01" purity="4.3529197573661804e-01" nType="0">
          <Node pos="l" depth="2" NCoef="0" IVar="-1" Cut="0.0000000000000000e+00" cType="1" res="1.4568362385034561e-02" rms="3.8525658845901489e-01" purity="3.6975145339965820e-01" nType="-99"/>
          <Node pos="r" depth="2" NCoef="0" IVar="-1" Cut="0.0000000000000000e+00" cType="1" res="-6.3309953548014164e-03" rms="3.8522586226463318e-01" purity="4.4418427348136902e-01" nType="-99"/>
        </Node>
        <Node pos="r" depth="1" NCoef="0" IVar="0" Cut="2.9919195175170898e+00" cType="1" res="3.1260304152965546e-02" rms="3.4795305132865906e-01" purity="6.9050568342208862e-01" nType="0">
          <Node pos="l" depth="2" NCoef="0" IVar="-1" Cut="0.0000000000000000e+00" cType="1" res="-2.1632951684296131e-03" rms="3.5171809792518616e-01" purity="6.2232375144958496e-01" nType="-99"/>
          <Node pos="r" depth="2" NCoef="0" IVar="-1" Cut="0.0000000000000000e+00" cType="1" res="2.6063973084092140e-02" rms="3.3703601360321045e-01" purity="7.7770859003067017e-01" nType="-99"/>
        </Node>
      </Node>
    </BinaryTree>
    <BinaryTree type="DecisionTree" boostWeight="1.0000000000000000e+00" itree="44">
      <Node pos="s" depth="0" NCoef="0" IVar="1" Cut="7.1892696619033813e-01" cType="1" res="3.9617597940377891e-04" rms="3.6835137009620667e-01" purity="5.0043648481369019e-01" nType="0">
        <Node pos="l" depth="1" NCoef="0" IVar="6" Cut="2.2860710322856903e-01" cType="1" res="2.8154918923974037e-02" rms="3.6659640073776245e-01" purity="5.9797132015228271e-01" nType="0">
          <Node pos="l" depth="2" NCoef="0" IVar="-1" Cut="0.0000000000000000e+00" cType="1" res="-3.3711653202772141e-02" rms="1.8391704559326172e-01" purity="3.5826738923788071e-02" nType="-99"/>
          <Node pos="r" depth="2" NCoef="0" IVar="-1" Cut="0.0000000000000000e+00" cType="1" res="1.2556673027575016e-02" rms="3.8485342264175415e-01" purity="6.8114304542541504e-01" nType="-99"/>
        </Node>
        <Node pos="r" depth="1" NCoef="0" IVar="5" Cut="-7.2056686878204346e-01" cType="1" res="-2.1731702610850334e-02" rms="3.6824858188629150e-01" purity="4.2268663644790649e-01" nType="0">
          <Node pos="l" depth="2" NCoef="0" IVar="-1" Cut="0.0000000000000000e+00" cType="1" res="-3.0137103050947189e-02" rms="3.6586034297943115e-01" purity="3.7492316961288452e-01" nType="-99"/>
          <Node pos="r" depth="2" NCoef="0" IVar="-1" Cut="0.0000000000000000e+00" cType="1" res="-3.9409273304045200e-03" rms="3.6756813526153564e-01" purity="4.2988067865371704e-01" nType="-99"/>
        </Node>
      </Node>
    </BinaryTree>
    <BinaryTree type="DecisionTree" boostWeight="1.0000000000000000e+00" itree="45">
      <Node pos="s" depth="0" NCoef="0" IVar="7" Cut="1.0966579589843750e+03" cType="1" res="3.8929111324250698e-03" rms="3.6386781930923462e-01" purity="5.0597167015075684e-01" nType="0">
        <Node pos="l" depth="1" NCoef="0" IVar="3" Cut="3.2761847972869873e-01" cType="1" res="-1.7744967713952065e-02" rms="3.6605456471443176e-01" purity="2.9837882518768311e-01" nType="0">
          <Node pos="l" depth="2" NCoef="0" IVar="-1" Cut="0.0000000000000000e+00" cType="1" res="-1.2723647523671389e-03" rms="3.7050822377204895e-01" purity="3.3488440513610840e-01" nType="-99"/>
          <Node pos="r" depth="2" NCoef="0" IVar="-1" Cut="0.0000000000000000e+00" cType="1" res="-2.7487145736813545e-02" rms="3.4233921766281128e-01" purity="1.5365755558013916e-01" nType="-99"/>
        </Node>
        <Node pos="r" depth="1" NCoef="0" IVar="4" Cut="1.0601644531250000e+04" cType="1" res="2.9279364272952080e-02" rms="3.5962945222854614e-01" purity="7.4952816963195801e-01" nType="0">
          <Node pos="l" depth="2" NCoef="0" IVar="-1" Cut="0.0000000000000000e+00" cType="1" res="-5.0478624179959297e-03" rms="4.0287914872169495e-01" purity="6.8895500898361206e-01" nType="-99"/>
          <Node pos="r" depth="2" NCoef="0" IVar="-1" Cut="0.0000000000000000e+00" cType="1" res="1.7369715496897697e-02" rms="3.3503809571266174e-01" purity="7.7823370695114136e-01" nType="-99"/>
        </Node>
      </Node>
    </BinaryTree>
    <BinaryTree type="DecisionTree" boostWeight="1.0000000000000000e+00" itree="46">
      <Node pos="s" depth="0" NCoef="0" IVar="3" Cut="2.6953744888305664e-01" cType="1" res="-4.3114889413118362e-03" rms="3.6974412202835083e-01" purity="4.9326509237289429e-01" nType="0">
        <Node pos="l" depth="1" NCoef="0" IVar="6" Cut="3.5704392194747925e-01" cType="1" res="1.0776882991194725e-02" rms="3.7082621455192566e-01" purity="5.3441399335861206e-01" nType="0">
          <Node pos="l" depth="2" NCoef="0" IVar="-1" Cut="0.0000000000000000e+00" cType="1" res="-2.1504417061805725e-02" rms="2.2158136963844299e-01" purity="5.3905852138996124e-02" nType="-99"/>
          <Node pos="r" depth="2" NCoef="0" IVar="-1" Cut="0.0000000000000000e+00" cType="1" res="6.8342383019626141e-03" rms="4.0177366137504578e-01" purity="6.6813278198242188e-01" nType="-99"/>
        </Node>
        <Node pos="r" depth="1" NCoef="0" IVar="5" Cut="1.1556750535964966e+00" cType="1" res="-4.9590561538934708e-02" rms="3.6272913217544556e-01" purity="3.6978042125701904e-01" nType="0">
          <Node pos="l" depth="2" NCoef="0" IVar="-1" Cut="0.0000000000000000e+00" cType="1" res="-5.4872944019734859e-03" rms="3.6202996969223022e-01" purity="4.4284459948539734e-01" nType="-99"/>
          <Node pos="r" depth="2" NCoef="0" IVar="-1" Cut="0.0000000000000000e+00" cType="1" res="-3.5342801362276077e-02" rms="3.5768958926200867e-01" purity="2.5466573238372803e-01" nType="-99"/>
        </Node>
      </Node>
    </BinaryTree>
    <BinaryTree type="DecisionTree" boostWeight="1.0000000000000000e+00" itree="47">
      <Node pos="s" depth="0" NCoef="0" IVar="7" Cut="1.5903978271484375e+03" cType="1" res="1.6433239215984941e-03" rms="3.6835825443267822e-01" purity="5.0532692670822144e-01" nType="0">
        <Node pos="l" depth="1" NCoef="0" IVar="1" Cut="1.6148216724395752e+00" cType="1" res="-1.5099333599209785e-02" rms="3.8290956616401672e-01" purity="3.8809886574745178e-01" nType="0">
          <Node pos="l" depth="2" NCoef="0" IVar="-1" Cut="0.0000000000000000e+00" cType="1" res="-9.7503587312530726e-05" rms="3.9576667547225952e-01" purity="4.4136753678321838e-01" nType="-99"/>
          <Node pos="r" depth="2" NCoef="0" IVar="-1" Cut="0.0000000000000000e+00" cType="1" res="-2.8097217902541161e-02" rms="3.1701251864433289e-01" purity="1.6748273372650146e-01" nType="-99"/>
        </Node>
        <Node pos="r" depth="1" NCoef="0" IVar="2" Cut="-1.1556947231292725e+00" cType="1" res="4.4923033565282822e-02" rms="3.2377621531486511e-01" purity="8.0836123228073120e-01" nType="0">
          <Node pos="l" depth="2" NCoef="0" IVar="-1" Cut="0.0000000000000000e+00" cType="1" res="2.5344854220747948e-02" rms="3.0554515123367310e-01" purity="8.4052211046218872e-01" nType="-99"/>
          <Node pos="r" depth="2" NCoef="0" IVar="-1" Cut="0.0000000000000000e+00" cType="1" res="1.0692124255001545e-02" rms="3.3416211605072021e-01" purity="7.8748923540115356e-01" nType="-99"/>
        </Node>
      </Node>
    </BinaryTree>
    <BinaryTree type="DecisionTree" boostWeight="1.0000000000000000e+00" itree="48">
      <Node pos="s" depth="0" NCoef="0" IVar="3" Cut="-5.7198566198348999e-01" cType="1" res="-4.7441065544262528e-04" rms="3.7016734480857849e-01" purity="4.9078273773193359e-01" nType="0">
        <Node pos="l" depth="1" NCoef="0" IVar="6" Cut="3.5712388157844543e-01" cType="1" res="5.4744873195886612e-02" rms="3.5487091541290283e-01" purity="6.5519344806671143e-01" nType="0">
          <Node pos="l" depth="2" NCoef="0" IVar="-1" Cut="0.0000000000000000e+00" cType="1" res="-1.5858050435781479e-02" rms="2.5893989205360413e-01" purity="7.4620269238948822e-02" nType="-99"/>
          <Node pos="r" depth="2" NCoef="0" IVar="-1" Cut="0.0000000000000000e+00" cType="1" res="2.2516535595059395e-02" rms="3.6925378441810608e-01" purity="7.7498877048492432e-01" nType="-99"/>
        </Node>
        <Node pos="r" depth="1" NCoef="0" IVar="1" Cut="2.7112689018249512e+00" cType="1" res="-1.1314103379845619e-02" rms="3.7213557958602905e-01" purity="4.5850846171379089e-01" nType="0">
          <Node pos="l" depth="2" NCoef="0" IVar="-1" Cut="0.0000000000000000e+00" cType="1" res="-2.5046037044376135e-03" rms="3.7611183524131775e-01" purity="4.7345089912414551e-01" nType="-99"/>
          <Node pos="r" depth="2" NCoef="0" IVar="-1" Cut="0.0000000000000000e+00" cType="1" res="-6.0671750456094742e-02" rms="1.9861991703510284e-01" purity="2.5061625987291336e-02" nType="-99"/>
        </Node>
      </Node>
    </BinaryTree>
    <BinaryTree type="DecisionTree" boostWeight="1.0000000000000000e+00" itree="49">
      <Node pos="s" depth="0" NCoef="0" IVar="3" Cut="-7.9200333356857300e-01" cType="1" res="4.3592010624706745e-03" rms="3.6729013919830322e-01" purity="5.0568550825119019e-01" nType="0">
        <Node pos="l" depth="1" NCoef="0" IVar="7" Cut="7.7730401611328125e+02" cType="1" res="8.3384841680526733e-02" rms="3.3942487835884094e-01" purity="7.1629935503005981e-01" nType="0">
          <Node pos="l" depth="2" NCoef="0" IVar="-1" Cut="0.0000000000000000e+00" cType="1" res="5.5980533361434937e-03" rms="4.0325549244880676e-01" purity="3.2868194580078125e-01" nType="-99"/>
          <Node pos="r" depth="2" NCoef="0" IVar="-1" Cut="0.0000000000000000e+00" cType="1" res="3.9586164057254791e-02" rms="3.0601188540458679e-01" purity="8.7169402837753296e-01" nType="-99"/>
        </Node>
        <Node pos="r" depth="1" NCoef="0" IVar="4" Cut="1.2399219726562500e+04" cType="1" res="-3.8401847705245018e-03" rms="3.6909362673759460e-01" purity="4.8383307456970215e-01" nType="0">
          <Node pos="l" depth="2" NCoef="0" IVar="-1" Cut="0.0000000000000000e+00" cType="1" res="-6.1521911993622780e-03" rms="3.7639877200126648e-01" purity="4.0159159898757935e-01" nType="-99"/>
          <Node pos="r" depth="2" NCoef="0" IVar="-1" Cut="0.0000000000000000e+00" cType="1" res="1.0723558254539967e-02" rms="3.4804254770278931e-01" purity="6.8552428483963013e-01" nType="-99"/>
        </Node>
      </Node>
    </BinaryTree>
    <BinaryTree type="DecisionTree" boostWeight="1.0000000000000000e+00" itree="50">
      <Node pos="s" depth="0" NCoef="0" IVar="1" Cut="2.4191198348999023e+00" cType="1" res="-9.8789564799517393e-04" rms="3.6983686685562134e-01" purity="4.9838998913764954e-01" nType="0">
        <Node pos="l" depth="1" NCoef="0" IVar="7" Cut="5.4803051757812500e+02" cType="1" res="3.8504176773130894e-03" rms="3.7415277957916260e-01" purity="5.2017968893051147e-01" nType="0">
          <Node pos="l" depth="2" NCoef="0" IVar="-1" Cut="0.0000000000000000e+00" cType="1" res="-1.4154977165162563e-02" rms="2.9696139693260193e-01" purity="1.1878724396228790e-01" nType="-99"/>
          <Node pos="r" depth="2" NCoef="0" IVar="-1" Cut="0.0000000000000000e+00" cType="1" res="3.9726938121020794e-03" rms="3.9234408736228943e-01" purity="6.3112568855285645e-01" nType="-99"/>
        </Node>
        <Node pos="r" depth="1" NCoef="0" IVar="6" Cut="4.8551139235496521e-01" cType="1" res="-9.0993173420429230e-02" rms="2.6174420118331909e-01" purity="9.3045212328433990e-02" nType="0">
          <Node pos="l" depth="2" NCoef="0" IVar="-1" Cut="0.0000000000000000e+00" cType="1" res="-5.3737819194793701e-02" rms="2.9730441048741341e-02" purity="0.0000000000000000e+00" nType="-99"/>
          <Node pos="r" depth="2" NCoef="0" IVar="-1" Cut="0.0000000000000000e+00" cType="1" res="-3.4863911569118500e-02" rms="3.6451891064643860e-01" purity="1.8557821214199066e-01" nType="-99"/>
        </Node>
      </Node>
    </BinaryTree>
    <BinaryTree type="DecisionTree" boostWeight="1.0000000000000000e+00" itree="51">
      <Node pos="s" depth="0" NCoef="0" IVar="7" Cut="6.4855908203125000e+02" cType="1" res="5.7587027549743652e-03" rms="3.6548706889152527e-01" purity="5.0399225950241089e-01" nType="0">
        <Node pos="l" depth="1" NCoef="0" IVar="4" Cut="1.0429606445312500e+04" cType="1" res="-1.9771086052060127e-02" rms="2.9204478859901428e-01" purity="1.4893721044063568e-01" nType="0">
          <Node pos="l" depth="2" NCoef="0" IVar="-1" Cut="0.0000000000000000e+00" cType="1" res="-3.5242706071585417e-03" rms="2.9896152019500732e-01" purity="1.6514366865158081e-01" nType="-99"/>
          <Node pos="r" depth="2" NCoef="0" IVar="-1" Cut="0.0000000000000000e+00" cType="1" res="-4.0166031569242477e-02" rms="2.4437834322452545e-01" purity="6.6078230738639832e-02" nType="-99"/>
        </Node>
        <Node pos="r" depth="1" NCoef="0" IVar="3" Cut="1.1670439690351486e-01" cType="1" res="1.5646588057279587e-02" rms="3.8978701829910278e-01" purity="6.4150780439376831e-01" nType="0">
          <Node pos="l" depth="2" NCoef="0" IVar="-1" Cut="0.0000000000000000e+00" cType="1" res="9.3021476641297340e-03" rms="3.7822389602661133e-01" purity="6.9315850734710693e-01" nType="-99"/>
          <Node pos="r" depth="2" NCoef="0" IVar="-1" Cut="0.0000000000000000e+00" cType="1" res="-2.6147060561925173e-03" rms="4.0869593620300293e-01" purity="5.4823052883148193e-01" nType="-99"/>
        </Node>
      </Node>
    </BinaryTree>
    <BinaryTree type="DecisionTree" boostWeight="1.0000000000000000e+00" itree="52">
      <Node pos="s" depth="0" NCoef="0" IVar="0" Cut="1.6455918550491333e+00" cType="1" res="-8.2495659589767456e-03" rms="3.7259560823440552e-01" purity="4.8664391040802002e-01" nType="0">
        <Node pos="l" depth="1" NCoef="0" IVar="5" Cut="1.5171023607254028e+00" cType="1" res="-2.3150756955146790e-02" rms="3.7123015522956848e-01" purity="4.5698693394660950e-01" nType="0">
          <Node pos="l" depth="2" NCoef="0" IVar="-1" Cut="0.0000000000000000e+00" cType="1" res="-4.6989805996417999e-03" rms="3.7484481930732727e-01" purity="5.0807863473892212e-01" nType="-99"/>
          <Node pos="r" depth="2" NCoef="0" IVar="-1" Cut="0.0000000000000000e+00" cType="1" res="-2.3683639243245125e-02" rms="3.5176530480384827e-01" purity="2.3309001326560974e-01" nType="-99"/>
        </Node>
        <Node pos="r" depth="1" NCoef="0" IVar="4" Cut="1.5728135742187500e+04" cType="1" res="8.7972814217209816e-03" rms="3.7342301011085510e-01" purity="5.2057117223739624e-01" nType="0">
          <Node pos="l" depth="2" NCoef="0" IVar="-1" Cut="0.0000000000000000e+00" cType="1" res="2.5814425316639245e-04" rms="3.7711313366889954e-01" purity="4.8789468407630920e-01" nType="-99"/>
          <Node pos="r" depth="2" NCoef="0" IVar="-1" Cut="0.0000000000000000e+00" cType="1" res="2.7833214029669762e-02" rms="3.3044835925102234e-01" purity="8.1060695648193359e-01" nType="-99"/>
        </Node>
      </Node>
    </BinaryTree>
    <BinaryTree type="DecisionTree" boostWeight="1.0000000000000000e+00" itree="53">
      <Node pos="s" depth="0" NCoef="0" IVar="7" Cut="1.5937668457031250e+03" cType="1" res="1.3496677391231060e-02" rms="3.6576929688453674e-01" purity="5.1169294118881226e-01" nType="0">
        <Node pos="l" depth="1" NCoef="0" IVar="3" Cut="-3.7861666083335876e-01" cType="1" res="2.1058332640677691e-03" rms="3.8057869672775269e-01" purity="4.0188667178153992e-01" nType="0">
          <Node pos="l" depth="2" NCoef="0" IVar="-1" Cut="0.0000000000000000e+00" cType="1" res="1.3830925337970257e-02" rms="3.7883996963500977e-01" purity="5.5607402324676514e-01" nType="-99"/>
          <Node pos="r" depth="2" NCoef="0" IVar="-1" Cut="0.0000000000000000e+00" cType="1" res="-4.9350592307746410e-03" rms="3.8003772497177124e-01" purity="3.3795377612113953e-01" nType="-99"/>
        </Node>
        <Node pos="r" depth="1" NCoef="0" IVar="4" Cut="1.1006426757812500e+04" cType="1" res="4.4158224016427994e-02" rms="3.2053974270820618e-01" purity="8.0726629495620728e-01" nType="0">
          <Node pos="l" depth="2" NCoef="0" IVar="-1" Cut="0.0000000000000000e+00" cType="1" res="-2.9764252249151468e-03" rms="3.5407751798629761e-01" purity="7.5298959016799927e-01" nType="-99"/>
          <Node pos="r" depth="2" NCoef="0" IVar="-1" Cut="0.0000000000000000e+00" cType="1" res="2.2226141765713692e-02" rms="3.0931141972541809e-01" purity="8.2196354866027832e-01" nType="-99"/>
        </Node>
      </Node>
    </BinaryTree>
    <BinaryTree type="DecisionTree" boostWeight="1.0000000000000000e+00" itree="54">
      <Node pos="s" depth="0" NCoef="0" IVar="3" Cut="4.0946432948112488e-01" cType="1" res="4.7245835885405540e-03" rms="3.6727991700172424e-01" purity="5.0004279613494873e-01" nType="0">
        <Node pos="l" depth="1" NCoef="0" IVar="6" Cut="4.4272473454475403e-01" cType="1" res="1.2345396913588047e-02" rms="3.6304235458374023e-01" purity="5.2436107397079468e-01" nType="0">
          <Node pos="l" depth="2" NCoef="0" IVar="-1" Cut="0.0000000000000000e+00" cType="1" res="-1.4351431280374527e-02" rms="2.4376957118511200e-01" purity="6.8296022713184357e-02" nType="-99"/>
          <Node pos="r" depth="2" NCoef="0" IVar="-1" Cut="0.0000000000000000e+00" cType="1" res="7.2543616406619549e-03" rms="3.9512765407562256e-01" purity="6.8122547864913940e-01" nType="-99"/>
        </Node>
        <Node pos="r" depth="1" NCoef="0" IVar="6" Cut="8.2822698354721069e-01" cType="1" res="-3.2064858824014664e-02" rms="3.8496866822242737e-01" purity="3.8264608383178711e-01" nType="0">
          <Node pos="l" depth="2" NCoef="0" IVar="-1" Cut="0.0000000000000000e+00" cType="1" res="2.5400368031114340e-03" rms="3.2309553027153015e-01" purity="1.4455929398536682e-01" nType="-99"/>
          <Node pos="r" depth="2" NCoef="0" IVar="-1" Cut="0.0000000000000000e+00" cType="1" res="-1.8345184624195099e-02" rms="4.3296271562576294e-01" purity="6.1018550395965576e-01" nType="-99"/>
        </Node>
      </Node>
    </BinaryTree>
    <BinaryTree type="DecisionTree" boostWeight="1.0000000000000000e+00" itree="55">
      <Node pos="s" depth="0" NCoef="0" IVar="4" Cut="1.4784724609375000e+04" cType="1" res="6.0140606947243214e-03" rms="3.6644324660301208e-01" purity="5.0924372673034668e-01" nType="0">
        <Node pos="l" depth="1" NCoef="0" IVar="3" Cut="1.2770855426788330e-01" cType="1" res="-2.1854825317859650e-03" rms="3.7236091494560242e-01" purity="4.6606120467185974e-01" nType="0">
          <Node pos="l" depth="2" NCoef="0" IVar="-1" Cut="0.0000000000000000e+00" cType="1" res="4.8262793570756912e-03" rms="3.8310816884040833e-01" purity="5.2306139469146729e-01" nType="-99"/>
          <Node pos="r" depth="2" NCoef="0" IVar="-1" Cut="0.0000000000000000e+00" cType="1" res="-1.3100340031087399e-02" rms="3.4604415297508240e-01" purity="3.4579664468765259e-01" nType="-99"/>
        </Node>
        <Node pos="r" depth="1" NCoef="0" IVar="0" Cut="7.4798619747161865e-01" cType="1" res="5.4931797087192535e-02" rms="3.2465925812721252e-01" purity="7.6686656475067139e-01" nType="0">
          <Node pos="l" depth="2" NCoef="0" IVar="-1" Cut="0.0000000000000000e+00" cType="1" res="1.1365114711225033e-02" rms="3.3142936229705811e-01" purity="7.1020376682281494e-01" nType="-99"/>
          <Node pos="r" depth="2" NCoef="0" IVar="-1" Cut="0.0000000000000000e+00" cType="1" res="3.1499814242124557e-02" rms="3.1277886033058167e-01" purity="8.4088045358657837e-01" nType="-99"/>
        </Node>
      </Node>
    </BinaryTree>
    <BinaryTree type="DecisionTree" boostWeight="1.0000000000000000e+00" itree="56">
      <Node pos="s" depth="0" NCoef="0" IVar="6" Cut="9.5673793554306030e-01" cType="1" res="-1.2267216108739376e-02" rms="3.5881286859512329e-01" purity="4.9205380678176880e-01" nType="0">
        <Node pos="l" depth="1" NCoef="0" IVar="5" Cut="2.3400845527648926e+00" cType="1" res="-2.7959462255239487e-02" rms="3.5718756914138794e-01" purity="2.9220432043075562e-01" nType="0">
          <Node pos="l" depth="2" NCoef="0" IVar="-1" Cut="0.0000000000000000e+00" cType="1" res="-1.0881985537707806e-02" rms="3.5681489109992981e-01" purity="2.9669108986854553e-01" nType="-99"/>
          <Node pos="r" depth="2" NCoef="0" IVar="-1" Cut="0.0000000000000000e+00" cType="1" res="3.1828187406063080e-02" rms="3.5357299447059631e-01" purity="1.9388331472873688e-01" nType="-99"/>
        </Node>
        <Node pos="r" depth="1" NCoef="0" IVar="6" Cut="9.7111731767654419e-01" cType="1" res="1.3524194248020649e-02" rms="3.5998526215553284e-01" purity="8.2052183151245117e-01" nType="0">
          <Node pos="l" depth="2" NCoef="0" IVar="-1" Cut="0.0000000000000000e+00" cType="1" res="-3.1437359750270844e-02" rms="4.4862604141235352e-01" purity="6.3402879238128662e-01" nType="-99"/>
          <Node pos="r" depth="2" NCoef="0" IVar="-1" Cut="0.0000000000000000e+00" cType="1" res="9.9443104118108749e-03" rms="3.4598219394683838e-01" purity="8.4145039319992065e-01" nType="-99"/>
        </Node>
      </Node>
    </BinaryTree>
    <BinaryTree type="DecisionTree" boostWeight="1.0000000000000000e+00" itree="57">
      <Node pos="s" depth="0" NCoef="0" IVar="3" Cut="-2.2373101115226746e-01" cType="1" res="-4.3886143248528242e-04" rms="3.6218562722206116e-01" purity="4.9880105257034302e-01" nType="0">
        <Node pos="l" depth="1" NCoef="0" IVar="5" Cut="1.3753837347030640e+00" cType="1" res="2.5372253730893135e-02" rms="3.5616272687911987e-01" purity="6.0419893264770508e-01" nType="0">
          <Node pos="l" depth="2" NCoef="0" IVar="-1" Cut="0.0000000000000000e+00" cType="1" res="1.2931725010275841e-02" rms="3.5582435131072998e-01" purity="6.3097864389419556e-01" nType="-99"/>
          <Node pos="r" depth="2" NCoef="0" IVar="-1" Cut="0.0000000000000000e+00" cType="1" res="-2.6554998010396957e-02" rms="3.4211885929107666e-01" purity="3.3935150504112244e-01" nType="-99"/>
        </Node>
        <Node pos="r" depth="1" NCoef="0" IVar="4" Cut="1.3817434570312500e+04" cType="1" res="-1.6592215746641159e-02" rms="3.6497700214385986e-01" purity="4.3283990025520325e-01" nType="0">
          <Node pos="l" depth="2" NCoef="0" IVar="-1" Cut="0.0000000000000000e+00" cType="1" res="-8.7461303919553757e-03" rms="3.7211632728576660e-01" purity="3.7282881140708923e-01" nType="-99"/>
          <Node pos="r" depth="2" NCoef="0" IVar="-1" Cut="0.0000000000000000e+00" cType="1" res="5.3307297639548779e-03" rms="3.3475887775421143e-01" purity="6.5919864177703857e-01" nType="-99"/>
        </Node>
      </Node>
    </BinaryTree>
    <BinaryTree type="DecisionTree" boostWeight="1.0000000000000000e+00" itree="58">
      <Node pos="s" depth="0" NCoef="0" IVar="7" Cut="5.4749475097656250e+02" cType="1" res="-7.5961034744977951e-03" rms="3.6869630217552185e-01" purity="4.9000525474548340e-01" nType="0">
        <Node pos="l" depth="1" NCoef="0" IVar="6" Cut="7.8321123123168945e-01" cType="1" res="-4.1691794991493225e-02" rms="2.6530003547668457e-01" purity="8.8332638144493103e-02" nType="0">
          <Node pos="l" depth="2" NCoef="0" IVar="-1" Cut="0.0000000000000000e+00" cType="1" res="-1.8038548529148102e-02" rms="2.2400979697704315e-01" purity="5.6427266448736191e-02" nType="-99"/>
          <Node pos="r" depth="2" NCoef="0" IVar="-1" Cut="0.0000000000000000e+00" cType="1" res="-3.2456792891025543e-02" rms="4.3511956930160522e-01" purity="2.9555216431617737e-01" nType="-99"/>
        </Node>
        <Node pos="r" depth="1" NCoef="0" IVar="1" Cut="1.3021899461746216e+00" cType="1" res="1.8578224116936326e-03" rms="3.9204782247543335e-01" purity="6.0137951374053955e-01" nType="0">
          <Node pos="l" depth="2" NCoef="0" IVar="-1" Cut="0.0000000000000000e+00" cType="1" res="4.5760064385831356e-03" rms="3.8942804932594299e-01" purity="6.7127108573913574e-01" nType="-99"/>
          <Node pos="r" depth="2" NCoef="0" IVar="-1" Cut="0.0000000000000000e+00" cType="1" res="-8.9092655107378960e-03" rms="3.9685258269309998e-01" purity="4.2625176906585693e-01" nType="-99"/>
        </Node>
      </Node>
    </BinaryTree>
    <BinaryTree type="DecisionTree" boostWeight="1.0000000000000000e+00" itree="59">
      <Node pos="s" depth="0" NCoef="0" IVar="4" Cut="1.5480379882812500e+04" cType="1" res="3.8129894528537989e-03" rms="3.6393058300018311e-01" purity="4.9999955296516418e-01" nType="0">
        <Node pos="l" depth="1" NCoef="0" IVar="7" Cut="4.1719030761718750e+02" cType="1" res="-2.8462368063628674e-03" rms="3.6628860235214233e-01" purity="4.6291318535804749e-01" nType="0">
          <Node pos="l" depth="2" NCoef="0" IVar="-1" Cut="0.0000000000000000e+00" cType="1" res="-2.3631142452359200e-02" rms="2.2353138029575348e-01" purity="6.5072037279605865e-02" nType="-99"/>
          <Node pos="r" depth="2" NCoef="0" IVar="-1" Cut="0.0000000000000000e+00" cType="1" res="1.1640638113021851e-03" rms="3.8750883936882019e-01" purity="5.3971511125564575e-01" nType="-99"/>
        </Node>
        <Node pos="r" depth="1" NCoef="0" IVar="6" Cut="8.2823616266250610e-01" cType="1" res="5.1576156169176102e-02" rms="3.4277692437171936e-01" purity="7.6600074768066406e-01" nType="0">
          <Node pos="l" depth="2" NCoef="0" IVar="-1" Cut="0.0000000000000000e+00" cType="1" res="3.3314306288957596e-02" rms="4.2277890443801880e-01" purity="4.5178699493408203e-01" nType="-99"/>
          <Node pos="r" depth="2" NCoef="0" IVar="-1" Cut="0.0000000000000000e+00" cType="1" res="1.1888206936419010e-02" rms="3.0691292881965637e-01" purity="8.7452161312103271e-01" nType="-99"/>
        </Node>
      </Node>
    </BinaryTree>
    <BinaryTree type="DecisionTree" boostWeight="1.0000000000000000e+00" itree="60">
      <Node pos="s" depth="0" NCoef="0" IVar="1" Cut="1.7647185325622559e+00" cType="1" res="-1.9654960487969220e-04" rms="3.6532771587371826e-01" purity="4.9874106049537659e-01" nType="0">
        <Node pos="l" depth="1" NCoef="0" IVar="3" Cut="-1.0611088275909424e+00" cType="1" res="9.4088455662131310e-03" rms="3.6977154016494751e-01" purity="5.4580771923065186e-01" nType="0">
          <Node pos="l" depth="2" NCoef="0" IVar="-1" Cut="0.0000000000000000e+00" cType="1" res="4.9197118729352951e-02" rms="3.4886914491653442e-01" purity="7.7091175317764282e-01" nType="-99"/>
          <Node pos="r" depth="2" NCoef="0" IVar="-1" Cut="0.0000000000000000e+00" cType="1" res="1.4311495469883084e-03" rms="3.6970043182373047e-01" purity="5.3613668680191040e-01" nType="-99"/>
        </Node>
        <Node pos="r" depth="1" NCoef="0" IVar="6" Cut="6.9994080066680908e-01" cType="1" res="-5.8059487491846085e-02" rms="3.3148461580276489e-01" purity="2.1521113812923431e-01" nType="0">
          <Node pos="l" depth="2" NCoef="0" IVar="-1" Cut="0.0000000000000000e+00" cType="1" res="-1.4587350189685822e-02" rms="2.1075060963630676e-01" purity="5.6834504008293152e-02" nType="-99"/>
          <Node pos="r" depth="2" NCoef="0" IVar="-1" Cut="0.0000000000000000e+00" cType="1" res="-2.4194169789552689e-02" rms="4.1652995347976685e-01" purity="3.7671217322349548e-01" nType="-99"/>
        </Node>
      </Node>
    </BinaryTree>
    <BinaryTree type="DecisionTree" boostWeight="1.0000000000000000e+00" itree="61">
      <Node pos="s" depth="0" NCoef="0" IVar="6" Cut="9.5690023899078369e-01" cType="1" res="1.6759611899033189e-03" rms="3.6651024222373962e-01" purity="5.0099205970764160e-01" nType="0">
        <Node pos="l" depth="1" NCoef="0" IVar="4" Cut="7.7216250000000000e+03" cType="1" res="-1.1544723995029926e-02" rms="3.7375661730766296e-01" purity="3.0248558521270752e-01" nType="0">
          <Node pos="l" depth="2" NCoef="0" IVar="-1" Cut="0.0000000000000000e+00" cType="1" res="8.8275037705898285e-03" rms="3.7557139992713928e-01" purity="2.6635202765464783e-01" nType="-99"/>
          <Node pos="r" depth="2" NCoef="0" IVar="-1" Cut="0.0000000000000000e+00" cType="1" res="-8.4730880334973335e-03" rms="3.7214013934135437e-01" purity="3.1677627563476562e-01" nType="-99"/>
        </Node>
        <Node pos="r" depth="1" NCoef="0" IVar="6" Cut="9.9770331382751465e-01" cType="1" res="2.3736197501420975e-02" rms="3.5298806428909302e-01" purity="8.3222305774688721e-01" nType="0">
          <Node pos="l" depth="2" NCoef="0" IVar="-1" Cut="0.0000000000000000e+00" cType="1" res="-8.5433892672881484e-04" rms="3.8445958495140076e-01" purity="7.8930699825286865e-01" nType="-99"/>
          <Node pos="r" depth="2" NCoef="0" IVar="-1" Cut="0.0000000000000000e+00" cType="1" res="3.0004734173417091e-02" rms="2.7641430497169495e-01" purity="9.1426646709442139e-01" nType="-99"/>
        </Node>
      </Node>
    </BinaryTree>
    <BinaryTree type="DecisionTree" boostWeight="1.0000000000000000e+00" itree="62">
      <Node pos="s" depth="0" NCoef="0" IVar="0" Cut="2.9921218752861023e-01" cType="1" res="1.0591495083644986e-03" rms="3.7042534351348877e-01" purity="4.9742925167083740e-01" nType="0">
        <Node pos="l" depth="1" NCoef="0" IVar="4" Cut="9.8997333984375000e+03" cType="1" res="-1.8342958763241768e-02" rms="3.6853829026222229e-01" purity="4.5967260003089905e-01" nType="0">
          <Node pos="l" depth="2" NCoef="0" IVar="-1" Cut="0.0000000000000000e+00" cType="1" res="-6.9361249916255474e-04" rms="3.7291496992111206e-01" purity="3.7647843360900879e-01" nType="-99"/>
          <Node pos="r" depth="2" NCoef="0" IVar="-1" Cut="0.0000000000000000e+00" cType="1" res="-1.2108692899346352e-02" rms="3.6387670040130615e-01" purity="5.3524756431579590e-01" nType="-99"/>
        </Node>
